<?xml version="1.0" encoding="utf-8"?>
<Root>
  <ActivationFunctions>
    <Fn id="0" name="LogisticFunctionSteep" prob="1" />
  </ActivationFunctions>
  <Networks>
    <Network id="6259" birthGen="142" fitness="6.1729774475097656">
      <Nodes>
        <Node type="bias" id="0" />
        <Node type="in" id="1" />
        <Node type="in" id="2" />
        <Node type="in" id="3" />
        <Node type="in" id="4" />
        <Node type="in" id="5" />
        <Node type="in" id="6" />
        <Node type="in" id="7" />
        <Node type="in" id="8" />
        <Node type="in" id="9" />
        <Node type="in" id="10" />
        <Node type="in" id="11" />
        <Node type="in" id="12" />
        <Node type="in" id="13" />
        <Node type="in" id="14" />
        <Node type="in" id="15" />
        <Node type="in" id="16" />
        <Node type="in" id="17" />
        <Node type="in" id="18" />
        <Node type="in" id="19" />
        <Node type="in" id="20" />
        <Node type="in" id="21" />
        <Node type="in" id="22" />
        <Node type="in" id="23" />
        <Node type="in" id="24" />
        <Node type="in" id="25" />
        <Node type="in" id="26" />
        <Node type="in" id="27" />
        <Node type="in" id="28" />
        <Node type="in" id="29" />
        <Node type="in" id="30" />
        <Node type="out" id="31" />
        <Node type="out" id="32" />
        <Node type="out" id="33" />
        <Node type="out" id="34" />
        <Node type="out" id="35" />
        <Node type="hid" id="653" />
        <Node type="hid" id="763" />
        <Node type="hid" id="788" />
        <Node type="hid" id="828" />
        <Node type="hid" id="964" />
        <Node type="hid" id="1203" />
        <Node type="hid" id="1281" />
        <Node type="hid" id="1302" />
        <Node type="hid" id="1430" />
        <Node type="hid" id="1630" />
      </Nodes>
      <Connections>
        <Con id="41" src="1" tgt="31" wght="-0.16833722591400146" />
        <Con id="42" src="1" tgt="32" wght="4.6369360852986574" />
        <Con id="46" src="2" tgt="31" wght="-4.3021619855426252" />
        <Con id="49" src="2" tgt="34" wght="-2.465991300996393" />
        <Con id="56" src="4" tgt="31" wght="0.66850748857894726" />
        <Con id="57" src="4" tgt="32" wght="1.3296685181558132" />
        <Con id="58" src="4" tgt="33" wght="3.4541041613315357" />
        <Con id="61" src="5" tgt="31" wght="2.8909021709114313" />
        <Con id="68" src="6" tgt="33" wght="4.4170115888118744" />
        <Con id="69" src="6" tgt="34" wght="-4.9008826200974216" />
        <Con id="76" src="8" tgt="31" wght="-1.3586871990950009" />
        <Con id="82" src="9" tgt="32" wght="2.6349231577478349" />
        <Con id="83" src="9" tgt="33" wght="0.44332064668943022" />
        <Con id="87" src="10" tgt="32" wght="-0.60191150654681" />
        <Con id="89" src="10" tgt="34" wght="-3.9205050887539983" />
        <Con id="92" src="11" tgt="32" wght="-2.1017274283804" />
        <Con id="94" src="11" tgt="34" wght="-4.0466514159925282" />
        <Con id="99" src="12" tgt="34" wght="1.9792742360803668" />
        <Con id="104" src="13" tgt="34" wght="3.293187185190618" />
        <Con id="108" src="14" tgt="33" wght="2.8480012594131012" />
        <Con id="112" src="15" tgt="32" wght="-3.373070271831152" />
        <Con id="117" src="16" tgt="32" wght="-2.25299590267241" />
        <Con id="118" src="16" tgt="33" wght="-4.3405276952759433" />
        <Con id="119" src="16" tgt="34" wght="2.9537633719906355" />
        <Con id="123" src="17" tgt="33" wght="-4.1068320785394778" />
        <Con id="124" src="17" tgt="34" wght="-2.6304621761664748" />
        <Con id="126" src="18" tgt="31" wght="0.10438194498419762" />
        <Con id="134" src="19" tgt="34" wght="4.25431847339496" />
        <Con id="155" src="23" tgt="35" wght="-0.873661731717787" />
        <Con id="159" src="24" tgt="34" wght="3.8518772879615426" />
        <Con id="161" src="25" tgt="31" wght="4.2898255917212609" />
        <Con id="163" src="25" tgt="33" wght="-3.3560617197789222" />
        <Con id="168" src="26" tgt="33" wght="-2.7333908644504845" />
        <Con id="170" src="26" tgt="35" wght="1.496016897726804" />
        <Con id="171" src="27" tgt="31" wght="-0.55082281710779124" />
        <Con id="172" src="27" tgt="32" wght="-2.6601952392880892" />
        <Con id="173" src="27" tgt="33" wght="2.6456174743361771" />
        <Con id="177" src="28" tgt="32" wght="-0.20832884358242154" />
        <Con id="178" src="28" tgt="33" wght="0.30781474797355207" />
        <Con id="186" src="30" tgt="31" wght="0.3975287452340126" />
        <Con id="189" src="30" tgt="34" wght="-3.5621800727461963" />
        <Con id="285" src="23" tgt="31" wght="-0.034457162791540256" />
        <Con id="489" src="8" tgt="32" wght="0.00054436629609057666" />
        <Con id="514" src="4" tgt="35" wght="-0.034989242744632068" />
        <Con id="539" src="31" tgt="35" wght="3.0783847137354314" />
        <Con id="559" src="26" tgt="32" wght="-3.7079162217208856" />
        <Con id="655" src="653" tgt="35" wght="4.9912274400340531" />
        <Con id="719" src="11" tgt="33" wght="4.2478988319635391" />
        <Con id="764" src="17" tgt="763" wght="1.6105314431455471" />
        <Con id="765" src="763" tgt="32" wght="5" />
        <Con id="789" src="17" tgt="788" wght="3.9233954576775432" />
        <Con id="829" src="14" tgt="828" wght="3.1840848550200462" />
        <Con id="830" src="828" tgt="34" wght="5" />
        <Con id="853" src="4" tgt="34" wght="0.0082534000277519233" />
        <Con id="867" src="21" tgt="32" wght="-4.5081493099539589" />
        <Con id="893" src="19" tgt="32" wght="0.049695028620772068" />
        <Con id="965" src="22" tgt="964" wght="0.0010419968203775297" />
        <Con id="966" src="964" tgt="32" wght="5" />
        <Con id="971" src="13" tgt="788" wght="-2.5709890457801521" />
        <Con id="1077" src="30" tgt="964" wght="4.0801849216222763" />
        <Con id="1120" src="17" tgt="964" wght="-3.7300068396143615" />
        <Con id="1149" src="5" tgt="763" wght="-2.192160329079039" />
        <Con id="1204" src="5" tgt="1203" wght="2.1886564255692065" />
        <Con id="1205" src="1203" tgt="34" wght="5" />
        <Con id="1282" src="17" tgt="1281" wght="3.9342802067993783" />
        <Con id="1283" src="1281" tgt="35" wght="5" />
        <Con id="1303" src="30" tgt="1302" wght="0.028404386737383904" />
        <Con id="1304" src="1302" tgt="763" wght="5" />
        <Con id="1312" src="23" tgt="32" wght="0.021244958096106714" />
        <Con id="1401" src="23" tgt="964" wght="0.028526324080303311" />
        <Con id="1431" src="31" tgt="1430" wght="0.29071172140332" />
        <Con id="1499" src="763" tgt="1430" wght="-0.033905613445676865" />
        <Con id="1561" src="32" tgt="1430" wght="-0.020982196950353683" />
        <Con id="1597" src="20" tgt="31" wght="-0.023477016598917544" />
        <Con id="1631" src="20" tgt="1630" wght="1.8495365700747146" />
      </Connections>
    </Network>
    <Network id="6262" birthGen="142" fitness="4.6824297904968262">
      <Nodes>
        <Node type="bias" id="0" />
        <Node type="in" id="1" />
        <Node type="in" id="2" />
        <Node type="in" id="3" />
        <Node type="in" id="4" />
        <Node type="in" id="5" />
        <Node type="in" id="6" />
        <Node type="in" id="7" />
        <Node type="in" id="8" />
        <Node type="in" id="9" />
        <Node type="in" id="10" />
        <Node type="in" id="11" />
        <Node type="in" id="12" />
        <Node type="in" id="13" />
        <Node type="in" id="14" />
        <Node type="in" id="15" />
        <Node type="in" id="16" />
        <Node type="in" id="17" />
        <Node type="in" id="18" />
        <Node type="in" id="19" />
        <Node type="in" id="20" />
        <Node type="in" id="21" />
        <Node type="in" id="22" />
        <Node type="in" id="23" />
        <Node type="in" id="24" />
        <Node type="in" id="25" />
        <Node type="in" id="26" />
        <Node type="in" id="27" />
        <Node type="in" id="28" />
        <Node type="in" id="29" />
        <Node type="in" id="30" />
        <Node type="out" id="31" />
        <Node type="out" id="32" />
        <Node type="out" id="33" />
        <Node type="out" id="34" />
        <Node type="out" id="35" />
        <Node type="hid" id="262" />
        <Node type="hid" id="316" />
        <Node type="hid" id="502" />
        <Node type="hid" id="572" />
        <Node type="hid" id="760" />
        <Node type="hid" id="803" />
        <Node type="hid" id="920" />
        <Node type="hid" id="1195" />
        <Node type="hid" id="1376" />
        <Node type="hid" id="1455" />
        <Node type="hid" id="1668" />
        <Node type="hid" id="1711" />
      </Nodes>
      <Connections>
        <Con id="37" src="0" tgt="32" wght="2.9612588390734893" />
        <Con id="47" src="2" tgt="32" wght="-4.181208866648376" />
        <Con id="56" src="4" tgt="31" wght="0.66850748857894726" />
        <Con id="59" src="4" tgt="34" wght="2.0501200505532324" />
        <Con id="66" src="6" tgt="31" wght="4.7931702804144685" />
        <Con id="71" src="7" tgt="31" wght="-1.1355016960863948" />
        <Con id="76" src="8" tgt="31" wght="-1.4460504404269159" />
        <Con id="77" src="8" tgt="32" wght="-4.7783322843964973" />
        <Con id="82" src="9" tgt="32" wght="4.0591676088640112" />
        <Con id="83" src="9" tgt="33" wght="-0.73412194149568677" />
        <Con id="84" src="9" tgt="34" wght="1.9335122010670602" />
        <Con id="89" src="10" tgt="34" wght="-3.9205050887539983" />
        <Con id="91" src="11" tgt="31" wght="1.5693173999898136" />
        <Con id="95" src="11" tgt="35" wght="2.7400464680977166" />
        <Con id="99" src="12" tgt="34" wght="-1.0919632436707616" />
        <Con id="100" src="12" tgt="35" wght="0.24278854252770543" />
        <Con id="101" src="13" tgt="31" wght="3.7975669419392943" />
        <Con id="102" src="13" tgt="32" wght="2.814529230032353" />
        <Con id="104" src="13" tgt="34" wght="-1.0590184899047017" />
        <Con id="105" src="13" tgt="35" wght="-3.1333166733384132" />
        <Con id="110" src="14" tgt="35" wght="-1.2918783384163479" />
        <Con id="112" src="15" tgt="32" wght="-3.3713274798355997" />
        <Con id="116" src="16" tgt="31" wght="-2.6940223295241594" />
        <Con id="117" src="16" tgt="32" wght="-2.25299590267241" />
        <Con id="120" src="16" tgt="35" wght="1.7083482537418604" />
        <Con id="124" src="17" tgt="34" wght="2.5197611863717961" />
        <Con id="139" src="20" tgt="34" wght="-4.1366473054835078" />
        <Con id="142" src="21" tgt="32" wght="-2.0510734847195353" />
        <Con id="146" src="22" tgt="31" wght="3.618552244734019" />
        <Con id="152" src="23" tgt="32" wght="3.9316673786379397" />
        <Con id="153" src="23" tgt="33" wght="0.62944928197115835" />
        <Con id="157" src="24" tgt="32" wght="3.380708284676075" />
        <Con id="158" src="24" tgt="33" wght="-1.9831276312470436" />
        <Con id="165" src="25" tgt="35" wght="3.6502207559533417" />
        <Con id="171" src="27" tgt="31" wght="-2.4671824317549746" />
        <Con id="177" src="28" tgt="32" wght="0.37864051139921479" />
        <Con id="183" src="29" tgt="33" wght="-3.7768279877491295" />
        <Con id="184" src="29" tgt="34" wght="-2.3258426855318248" />
        <Con id="189" src="30" tgt="34" wght="2.5813263701274991" />
        <Con id="263" src="3" tgt="262" wght="-1.2889670188662969" />
        <Con id="264" src="262" tgt="32" wght="5" />
        <Con id="298" src="20" tgt="35" wght="-0.030091210431419314" />
        <Con id="318" src="316" tgt="33" wght="4.9937122873809665" />
        <Con id="371" src="16" tgt="33" wght="0.068757483727991175" />
        <Con id="503" src="5" tgt="502" wght="0.843553205486387" />
        <Con id="542" src="28" tgt="31" wght="-4.7450278425977634" />
        <Con id="558" src="34" tgt="316" wght="-0.052637547308361808" />
        <Con id="573" src="1" tgt="572" wght="4.1049126349389553" />
        <Con id="574" src="572" tgt="33" wght="5" />
        <Con id="582" src="31" tgt="32" wght="0.010260954569093884" />
        <Con id="592" src="7" tgt="33" wght="0.045923885836624934" />
        <Con id="593" src="21" tgt="35" wght="3.5733390269713197" />
        <Con id="618" src="5" tgt="33" wght="0.022332617744890711" />
        <Con id="664" src="7" tgt="262" wght="-0.016180298058316112" />
        <Con id="668" src="35" tgt="32" wght="2.7206843919934252" />
        <Con id="761" src="10" tgt="760" wght="-1.195585757933447" />
        <Con id="762" src="760" tgt="32" wght="5" />
        <Con id="804" src="4" tgt="803" wght="-4.6479315310716629" />
        <Con id="805" src="803" tgt="32" wght="4.9974176340421037" />
        <Con id="827" src="17" tgt="572" wght="-0.023517985013313591" />
        <Con id="884" src="9" tgt="316" wght="-2.4128495482727885" />
        <Con id="921" src="23" tgt="920" wght="0.7552420417778194" />
        <Con id="935" src="17" tgt="262" wght="-0.020497295586392284" />
        <Con id="1049" src="26" tgt="572" wght="-3.2608658797107637" />
        <Con id="1068" src="27" tgt="32" wght="-2.5447717169299722" />
        <Con id="1072" src="6" tgt="920" wght="-0.043591766292229293" />
        <Con id="1129" src="11" tgt="32" wght="0.029957977123558521" />
        <Con id="1194" src="27" tgt="803" wght="0.019546682434156536" />
        <Con id="1196" src="572" tgt="1195" wght="0.021843286126160509" />
        <Con id="1197" src="1195" tgt="32" wght="4.9883751261256277" />
        <Con id="1226" src="25" tgt="316" wght="-0.0012944299029186369" />
        <Con id="1241" src="5" tgt="1195" wght="0.0026529443915933371" />
        <Con id="1335" src="31" tgt="920" wght="-1.5534400590695441" />
        <Con id="1352" src="920" tgt="920" wght="-0.004872283898293972" />
        <Con id="1377" src="15" tgt="1376" wght="-3.528944114924478" />
        <Con id="1378" src="1376" tgt="35" wght="5" />
        <Con id="1408" src="262" tgt="1195" wght="4.62147026322782" />
        <Con id="1429" src="27" tgt="316" wght="2.6642098753206795" />
        <Con id="1457" src="1455" tgt="262" wght="4.9780154638985072" />
        <Con id="1588" src="316" tgt="1376" wght="-4.4314960180781782" />
        <Con id="1645" src="760" tgt="33" wght="0.043792566331103448" />
        <Con id="1669" src="33" tgt="1668" wght="0.87188263889402151" />
        <Con id="1670" src="1668" tgt="1455" wght="5" />
        <Con id="1712" src="502" tgt="1711" wght="5" />
        <Con id="1713" src="1711" tgt="32" wght="5" />
        <Con id="1743" src="1376" tgt="262" wght="4.593638670630753" />
        <Con id="1767" src="1711" tgt="34" wght="0.0078774694819003337" />
        <Con id="1783" src="1195" tgt="35" wght="0.013486039265990258" />
        <Con id="1790" src="24" tgt="1455" wght="-4.8222581087611616" />
      </Connections>
    </Network>
    <Network id="6226" birthGen="141" fitness="5.0623617172241211">
      <Nodes>
        <Node type="bias" id="0" />
        <Node type="in" id="1" />
        <Node type="in" id="2" />
        <Node type="in" id="3" />
        <Node type="in" id="4" />
        <Node type="in" id="5" />
        <Node type="in" id="6" />
        <Node type="in" id="7" />
        <Node type="in" id="8" />
        <Node type="in" id="9" />
        <Node type="in" id="10" />
        <Node type="in" id="11" />
        <Node type="in" id="12" />
        <Node type="in" id="13" />
        <Node type="in" id="14" />
        <Node type="in" id="15" />
        <Node type="in" id="16" />
        <Node type="in" id="17" />
        <Node type="in" id="18" />
        <Node type="in" id="19" />
        <Node type="in" id="20" />
        <Node type="in" id="21" />
        <Node type="in" id="22" />
        <Node type="in" id="23" />
        <Node type="in" id="24" />
        <Node type="in" id="25" />
        <Node type="in" id="26" />
        <Node type="in" id="27" />
        <Node type="in" id="28" />
        <Node type="in" id="29" />
        <Node type="in" id="30" />
        <Node type="out" id="31" />
        <Node type="out" id="32" />
        <Node type="out" id="33" />
        <Node type="out" id="34" />
        <Node type="out" id="35" />
        <Node type="hid" id="262" />
        <Node type="hid" id="316" />
        <Node type="hid" id="502" />
        <Node type="hid" id="572" />
        <Node type="hid" id="760" />
        <Node type="hid" id="803" />
        <Node type="hid" id="920" />
        <Node type="hid" id="1195" />
        <Node type="hid" id="1376" />
        <Node type="hid" id="1455" />
        <Node type="hid" id="1668" />
        <Node type="hid" id="1711" />
      </Nodes>
      <Connections>
        <Con id="37" src="0" tgt="32" wght="2.9612588390734893" />
        <Con id="47" src="2" tgt="32" wght="-4.181208866648376" />
        <Con id="56" src="4" tgt="31" wght="0.66850748857894726" />
        <Con id="59" src="4" tgt="34" wght="2.0501200505532324" />
        <Con id="66" src="6" tgt="31" wght="4.7931702804144685" />
        <Con id="71" src="7" tgt="31" wght="-1.1355016960863948" />
        <Con id="76" src="8" tgt="31" wght="-1.4460504404269159" />
        <Con id="77" src="8" tgt="32" wght="-4.7783322843964973" />
        <Con id="82" src="9" tgt="32" wght="4.0591676088640112" />
        <Con id="83" src="9" tgt="33" wght="-0.73412194149568677" />
        <Con id="84" src="9" tgt="34" wght="1.9335122010670602" />
        <Con id="89" src="10" tgt="34" wght="-3.9205050887539983" />
        <Con id="91" src="11" tgt="31" wght="1.5693173999898136" />
        <Con id="95" src="11" tgt="35" wght="2.7400464680977166" />
        <Con id="99" src="12" tgt="34" wght="-1.0919632436707616" />
        <Con id="100" src="12" tgt="35" wght="0.24278854252770543" />
        <Con id="101" src="13" tgt="31" wght="3.7975669419392943" />
        <Con id="102" src="13" tgt="32" wght="2.814529230032353" />
        <Con id="104" src="13" tgt="34" wght="-1.0590184899047017" />
        <Con id="105" src="13" tgt="35" wght="-3.1333166733384132" />
        <Con id="110" src="14" tgt="35" wght="-1.2918783384163479" />
        <Con id="116" src="16" tgt="31" wght="-2.6940223295241594" />
        <Con id="117" src="16" tgt="32" wght="-2.25299590267241" />
        <Con id="120" src="16" tgt="35" wght="1.7083482537418604" />
        <Con id="124" src="17" tgt="34" wght="2.5197611863717961" />
        <Con id="139" src="20" tgt="34" wght="-4.1366473054835078" />
        <Con id="142" src="21" tgt="32" wght="-2.0510734847195353" />
        <Con id="146" src="22" tgt="31" wght="3.618552244734019" />
        <Con id="152" src="23" tgt="32" wght="3.9316673786379397" />
        <Con id="153" src="23" tgt="33" wght="0.62944928197115835" />
        <Con id="157" src="24" tgt="32" wght="3.380708284676075" />
        <Con id="158" src="24" tgt="33" wght="-1.9831276312470436" />
        <Con id="165" src="25" tgt="35" wght="3.6502207559533417" />
        <Con id="171" src="27" tgt="31" wght="-2.4671824317549746" />
        <Con id="177" src="28" tgt="32" wght="0.37864051139921479" />
        <Con id="183" src="29" tgt="33" wght="-3.7768279877491295" />
        <Con id="184" src="29" tgt="34" wght="-2.3258426855318248" />
        <Con id="189" src="30" tgt="34" wght="2.5813263701274991" />
        <Con id="263" src="3" tgt="262" wght="-1.2889670188662969" />
        <Con id="264" src="262" tgt="32" wght="5" />
        <Con id="298" src="20" tgt="35" wght="-0.030091210431419314" />
        <Con id="318" src="316" tgt="33" wght="4.9937122873809665" />
        <Con id="371" src="16" tgt="33" wght="0.068757483727991175" />
        <Con id="503" src="5" tgt="502" wght="0.843553205486387" />
        <Con id="542" src="28" tgt="31" wght="-4.7450278425977634" />
        <Con id="558" src="34" tgt="316" wght="-0.052637547308361808" />
        <Con id="573" src="1" tgt="572" wght="4.1049126349389553" />
        <Con id="574" src="572" tgt="33" wght="5" />
        <Con id="582" src="31" tgt="32" wght="0.010260954569093884" />
        <Con id="592" src="7" tgt="33" wght="0.045923885836624934" />
        <Con id="593" src="21" tgt="35" wght="3.5733390269713197" />
        <Con id="618" src="5" tgt="33" wght="0.022332617744890711" />
        <Con id="664" src="7" tgt="262" wght="-0.016180298058316112" />
        <Con id="668" src="35" tgt="32" wght="2.7206843919934252" />
        <Con id="761" src="10" tgt="760" wght="-1.195585757933447" />
        <Con id="762" src="760" tgt="32" wght="5" />
        <Con id="804" src="4" tgt="803" wght="-4.6479315310716629" />
        <Con id="805" src="803" tgt="32" wght="4.9974176340421037" />
        <Con id="827" src="17" tgt="572" wght="-0.023517985013313591" />
        <Con id="884" src="9" tgt="316" wght="-2.4128495482727885" />
        <Con id="921" src="23" tgt="920" wght="0.7552420417778194" />
        <Con id="935" src="17" tgt="262" wght="-0.020497295586392284" />
        <Con id="1049" src="26" tgt="572" wght="-3.2608658797107637" />
        <Con id="1068" src="27" tgt="32" wght="-2.5447717169299722" />
        <Con id="1072" src="6" tgt="920" wght="-0.043591766292229293" />
        <Con id="1129" src="11" tgt="32" wght="0.029957977123558521" />
        <Con id="1194" src="27" tgt="803" wght="0.019546682434156536" />
        <Con id="1196" src="572" tgt="1195" wght="0.021843286126160509" />
        <Con id="1197" src="1195" tgt="32" wght="4.9883751261256277" />
        <Con id="1226" src="25" tgt="316" wght="-0.0012944299029186369" />
        <Con id="1241" src="5" tgt="1195" wght="0.0026529443915933371" />
        <Con id="1335" src="31" tgt="920" wght="-1.5534400590695441" />
        <Con id="1352" src="920" tgt="920" wght="-0.004872283898293972" />
        <Con id="1377" src="15" tgt="1376" wght="-3.528944114924478" />
        <Con id="1378" src="1376" tgt="35" wght="5" />
        <Con id="1408" src="262" tgt="1195" wght="4.62147026322782" />
        <Con id="1429" src="27" tgt="316" wght="2.6642098753206795" />
        <Con id="1457" src="1455" tgt="262" wght="4.9780154638985072" />
        <Con id="1588" src="316" tgt="1376" wght="-4.4314960180781782" />
        <Con id="1645" src="760" tgt="33" wght="0.043792566331103448" />
        <Con id="1669" src="33" tgt="1668" wght="0.87188263889402151" />
        <Con id="1670" src="1668" tgt="1455" wght="5" />
        <Con id="1712" src="502" tgt="1711" wght="5" />
        <Con id="1713" src="1711" tgt="32" wght="5" />
        <Con id="1743" src="1376" tgt="262" wght="4.593638670630753" />
        <Con id="1767" src="1711" tgt="34" wght="0.0078774694819003337" />
      </Connections>
    </Network>
    <Network id="6281" birthGen="142" fitness="0.63350838422775269">
      <Nodes>
        <Node type="bias" id="0" />
        <Node type="in" id="1" />
        <Node type="in" id="2" />
        <Node type="in" id="3" />
        <Node type="in" id="4" />
        <Node type="in" id="5" />
        <Node type="in" id="6" />
        <Node type="in" id="7" />
        <Node type="in" id="8" />
        <Node type="in" id="9" />
        <Node type="in" id="10" />
        <Node type="in" id="11" />
        <Node type="in" id="12" />
        <Node type="in" id="13" />
        <Node type="in" id="14" />
        <Node type="in" id="15" />
        <Node type="in" id="16" />
        <Node type="in" id="17" />
        <Node type="in" id="18" />
        <Node type="in" id="19" />
        <Node type="in" id="20" />
        <Node type="in" id="21" />
        <Node type="in" id="22" />
        <Node type="in" id="23" />
        <Node type="in" id="24" />
        <Node type="in" id="25" />
        <Node type="in" id="26" />
        <Node type="in" id="27" />
        <Node type="in" id="28" />
        <Node type="in" id="29" />
        <Node type="in" id="30" />
        <Node type="out" id="31" />
        <Node type="out" id="32" />
        <Node type="out" id="33" />
        <Node type="out" id="34" />
        <Node type="out" id="35" />
        <Node type="hid" id="653" />
        <Node type="hid" id="760" />
        <Node type="hid" id="763" />
        <Node type="hid" id="788" />
        <Node type="hid" id="964" />
        <Node type="hid" id="1203" />
        <Node type="hid" id="1281" />
        <Node type="hid" id="1302" />
        <Node type="hid" id="1430" />
        <Node type="hid" id="1630" />
      </Nodes>
      <Connections>
        <Con id="41" src="1" tgt="31" wght="-0.16833722591400146" />
        <Con id="42" src="1" tgt="32" wght="3.0127110003574535" />
        <Con id="46" src="2" tgt="31" wght="-4.3021619855426252" />
        <Con id="49" src="2" tgt="34" wght="-2.465991300996393" />
        <Con id="56" src="4" tgt="31" wght="0.66850748857894726" />
        <Con id="57" src="4" tgt="32" wght="1.3296685181558132" />
        <Con id="58" src="4" tgt="33" wght="3.4541041613315357" />
        <Con id="61" src="5" tgt="31" wght="2.8909021709114313" />
        <Con id="68" src="6" tgt="33" wght="4.4170115888118744" />
        <Con id="69" src="6" tgt="34" wght="-4.9008826200974216" />
        <Con id="82" src="9" tgt="32" wght="2.6349231577478349" />
        <Con id="83" src="9" tgt="33" wght="0.44332064668943022" />
        <Con id="89" src="10" tgt="34" wght="-3.9205050887539983" />
        <Con id="92" src="11" tgt="32" wght="-2.1017274283804" />
        <Con id="94" src="11" tgt="34" wght="-4.0466514159925282" />
        <Con id="99" src="12" tgt="34" wght="1.9803777034394443" />
        <Con id="104" src="13" tgt="34" wght="3.293187185190618" />
        <Con id="105" src="13" tgt="35" wght="4.3030466791242361" />
        <Con id="108" src="14" tgt="33" wght="2.8480012594131012" />
        <Con id="109" src="14" tgt="34" wght="3.1840848550200462" />
        <Con id="112" src="15" tgt="32" wght="-3.373070271831152" />
        <Con id="117" src="16" tgt="32" wght="-2.25299590267241" />
        <Con id="118" src="16" tgt="33" wght="-4.3405276952759433" />
        <Con id="119" src="16" tgt="34" wght="2.9546180151185033" />
        <Con id="124" src="17" tgt="34" wght="-2.6304621761664748" />
        <Con id="126" src="18" tgt="31" wght="0.10438194498419762" />
        <Con id="134" src="19" tgt="34" wght="4.25431847339496" />
        <Con id="155" src="23" tgt="35" wght="-0.873661731717787" />
        <Con id="159" src="24" tgt="34" wght="3.8518772879615426" />
        <Con id="161" src="25" tgt="31" wght="4.2898255917212609" />
        <Con id="163" src="25" tgt="33" wght="-3.3649309072643518" />
        <Con id="168" src="26" tgt="33" wght="-2.7333908644504845" />
        <Con id="170" src="26" tgt="35" wght="1.496016897726804" />
        <Con id="171" src="27" tgt="31" wght="-0.55082281710779124" />
        <Con id="172" src="27" tgt="32" wght="-2.6601952392880892" />
        <Con id="177" src="28" tgt="32" wght="-0.20832884358242154" />
        <Con id="178" src="28" tgt="33" wght="0.30781474797355207" />
        <Con id="186" src="30" tgt="31" wght="0.3975287452340126" />
        <Con id="189" src="30" tgt="34" wght="-3.5621800727461963" />
        <Con id="285" src="23" tgt="31" wght="-0.034457162791540256" />
        <Con id="489" src="8" tgt="32" wght="0.00054436629609057666" />
        <Con id="514" src="4" tgt="35" wght="-0.034989242744632068" />
        <Con id="539" src="31" tgt="35" wght="3.0783847137354314" />
        <Con id="559" src="26" tgt="32" wght="-3.7079162217208856" />
        <Con id="582" src="31" tgt="32" wght="0.32484042691066861" />
        <Con id="655" src="653" tgt="35" wght="5" />
        <Con id="761" src="10" tgt="760" wght="-0.60191150654681" />
        <Con id="762" src="760" tgt="32" wght="5" />
        <Con id="764" src="17" tgt="763" wght="1.6036056717356819" />
        <Con id="765" src="763" tgt="32" wght="5" />
        <Con id="789" src="17" tgt="788" wght="3.9184439662079016" />
        <Con id="853" src="4" tgt="34" wght="0.0082534000277519233" />
        <Con id="867" src="21" tgt="32" wght="-4.5081493099539589" />
        <Con id="893" src="19" tgt="32" wght="0.049695028620772068" />
        <Con id="965" src="22" tgt="964" wght="0.0010419968203775297" />
        <Con id="966" src="964" tgt="32" wght="5" />
        <Con id="971" src="13" tgt="788" wght="-2.5709890457801521" />
        <Con id="1066" src="29" tgt="788" wght="3.3335938956588507" />
        <Con id="1097" src="964" tgt="33" wght="-0.0061147909378632907" />
        <Con id="1120" src="17" tgt="964" wght="-3.7300068396143615" />
        <Con id="1149" src="5" tgt="763" wght="-2.192160329079039" />
        <Con id="1204" src="5" tgt="1203" wght="2.1886564255692065" />
        <Con id="1205" src="1203" tgt="34" wght="5" />
        <Con id="1282" src="17" tgt="1281" wght="3.9342802067993783" />
        <Con id="1283" src="1281" tgt="35" wght="5" />
        <Con id="1303" src="30" tgt="1302" wght="0.031466000195185646" />
        <Con id="1304" src="1302" tgt="763" wght="5" />
        <Con id="1312" src="23" tgt="32" wght="0.021244958096106714" />
        <Con id="1334" src="4" tgt="964" wght="-3.2374526793137193" />
        <Con id="1431" src="31" tgt="1430" wght="0.29071172140332" />
        <Con id="1597" src="20" tgt="31" wght="-0.023477016598917544" />
        <Con id="1631" src="20" tgt="1630" wght="1.8495365700747146" />
        <Con id="1796" src="16" tgt="1630" wght="4.0450718812644482" />
      </Connections>
    </Network>
    <Network id="6270" birthGen="142" fitness="2.7594530582427979">
      <Nodes>
        <Node type="bias" id="0" />
        <Node type="in" id="1" />
        <Node type="in" id="2" />
        <Node type="in" id="3" />
        <Node type="in" id="4" />
        <Node type="in" id="5" />
        <Node type="in" id="6" />
        <Node type="in" id="7" />
        <Node type="in" id="8" />
        <Node type="in" id="9" />
        <Node type="in" id="10" />
        <Node type="in" id="11" />
        <Node type="in" id="12" />
        <Node type="in" id="13" />
        <Node type="in" id="14" />
        <Node type="in" id="15" />
        <Node type="in" id="16" />
        <Node type="in" id="17" />
        <Node type="in" id="18" />
        <Node type="in" id="19" />
        <Node type="in" id="20" />
        <Node type="in" id="21" />
        <Node type="in" id="22" />
        <Node type="in" id="23" />
        <Node type="in" id="24" />
        <Node type="in" id="25" />
        <Node type="in" id="26" />
        <Node type="in" id="27" />
        <Node type="in" id="28" />
        <Node type="in" id="29" />
        <Node type="in" id="30" />
        <Node type="out" id="31" />
        <Node type="out" id="32" />
        <Node type="out" id="33" />
        <Node type="out" id="34" />
        <Node type="out" id="35" />
        <Node type="hid" id="653" />
        <Node type="hid" id="760" />
        <Node type="hid" id="763" />
        <Node type="hid" id="788" />
        <Node type="hid" id="964" />
        <Node type="hid" id="1203" />
        <Node type="hid" id="1281" />
        <Node type="hid" id="1302" />
        <Node type="hid" id="1430" />
        <Node type="hid" id="1630" />
      </Nodes>
      <Connections>
        <Con id="41" src="1" tgt="31" wght="-0.16833722591400146" />
        <Con id="42" src="1" tgt="32" wght="3.0127110003574535" />
        <Con id="46" src="2" tgt="31" wght="-4.3021619855426252" />
        <Con id="49" src="2" tgt="34" wght="-2.465991300996393" />
        <Con id="56" src="4" tgt="31" wght="0.66850748857894726" />
        <Con id="57" src="4" tgt="32" wght="1.3296685181558132" />
        <Con id="58" src="4" tgt="33" wght="3.4541041613315357" />
        <Con id="61" src="5" tgt="31" wght="2.8909021709114313" />
        <Con id="68" src="6" tgt="33" wght="4.4170115888118744" />
        <Con id="69" src="6" tgt="34" wght="-4.9008826200974216" />
        <Con id="76" src="8" tgt="31" wght="-1.3586871990950009" />
        <Con id="82" src="9" tgt="32" wght="2.6349231577478349" />
        <Con id="83" src="9" tgt="33" wght="0.44332064668943022" />
        <Con id="89" src="10" tgt="34" wght="-3.9205050887539983" />
        <Con id="92" src="11" tgt="32" wght="-2.1017274283804" />
        <Con id="94" src="11" tgt="34" wght="-4.0466514159925282" />
        <Con id="99" src="12" tgt="34" wght="1.9803777034394443" />
        <Con id="104" src="13" tgt="34" wght="3.293187185190618" />
        <Con id="105" src="13" tgt="35" wght="4.3030466791242361" />
        <Con id="108" src="14" tgt="33" wght="2.8480012594131012" />
        <Con id="109" src="14" tgt="34" wght="3.1840848550200462" />
        <Con id="112" src="15" tgt="32" wght="-3.373070271831152" />
        <Con id="117" src="16" tgt="32" wght="-2.25299590267241" />
        <Con id="118" src="16" tgt="33" wght="-4.3405276952759433" />
        <Con id="123" src="17" tgt="33" wght="-4.1022089928722822" />
        <Con id="124" src="17" tgt="34" wght="-2.6304621761664748" />
        <Con id="126" src="18" tgt="31" wght="0.10438194498419762" />
        <Con id="134" src="19" tgt="34" wght="4.25431847339496" />
        <Con id="155" src="23" tgt="35" wght="-0.873661731717787" />
        <Con id="159" src="24" tgt="34" wght="3.8518772879615426" />
        <Con id="161" src="25" tgt="31" wght="4.2898255917212609" />
        <Con id="163" src="25" tgt="33" wght="-3.3649309072643518" />
        <Con id="168" src="26" tgt="33" wght="-2.7489474112587406" />
        <Con id="170" src="26" tgt="35" wght="1.496016897726804" />
        <Con id="171" src="27" tgt="31" wght="-0.55082281710779124" />
        <Con id="172" src="27" tgt="32" wght="-2.6601952392880892" />
        <Con id="173" src="27" tgt="33" wght="2.6456174743361771" />
        <Con id="177" src="28" tgt="32" wght="-0.20832884358242154" />
        <Con id="178" src="28" tgt="33" wght="0.30781474797355207" />
        <Con id="186" src="30" tgt="31" wght="0.3975287452340126" />
        <Con id="189" src="30" tgt="34" wght="-3.5621800727461963" />
        <Con id="285" src="23" tgt="31" wght="-0.034457162791540256" />
        <Con id="466" src="19" tgt="33" wght="-4.1649825219064951" />
        <Con id="489" src="8" tgt="32" wght="0.00054436629609057666" />
        <Con id="514" src="4" tgt="35" wght="-0.030856799860634554" />
        <Con id="539" src="31" tgt="35" wght="3.0783847137354314" />
        <Con id="559" src="26" tgt="32" wght="-3.7079162217208856" />
        <Con id="582" src="31" tgt="32" wght="0.32484042691066861" />
        <Con id="655" src="653" tgt="35" wght="4.9912131449896506" />
        <Con id="761" src="10" tgt="760" wght="-0.60191150654681" />
        <Con id="762" src="760" tgt="32" wght="5" />
        <Con id="764" src="17" tgt="763" wght="1.6064907726831734" />
        <Con id="765" src="763" tgt="32" wght="5" />
        <Con id="789" src="17" tgt="788" wght="3.9233954576775432" />
        <Con id="853" src="4" tgt="34" wght="0.0082534000277519233" />
        <Con id="867" src="21" tgt="32" wght="-4.5081493099539589" />
        <Con id="893" src="19" tgt="32" wght="0.049695028620772068" />
        <Con id="965" src="22" tgt="964" wght="0.0010419968203775297" />
        <Con id="966" src="964" tgt="32" wght="5" />
        <Con id="971" src="13" tgt="788" wght="-2.5709890457801521" />
        <Con id="1097" src="964" tgt="33" wght="-0.0061147909378632907" />
        <Con id="1120" src="17" tgt="964" wght="-3.7320216290902217" />
        <Con id="1149" src="5" tgt="763" wght="-2.192160329079039" />
        <Con id="1204" src="5" tgt="1203" wght="2.1886564255692065" />
        <Con id="1205" src="1203" tgt="34" wght="5" />
        <Con id="1282" src="17" tgt="1281" wght="3.9342802067993783" />
        <Con id="1283" src="1281" tgt="35" wght="5" />
        <Con id="1303" src="30" tgt="1302" wght="0.028404386737383904" />
        <Con id="1304" src="1302" tgt="763" wght="5" />
        <Con id="1312" src="23" tgt="32" wght="0.021244958096106714" />
        <Con id="1431" src="31" tgt="1430" wght="0.29071172140332" />
        <Con id="1499" src="763" tgt="1430" wght="-0.033905613445676865" />
        <Con id="1597" src="20" tgt="31" wght="-0.023477016598917544" />
        <Con id="1631" src="20" tgt="1630" wght="1.8495365700747146" />
        <Con id="1704" src="16" tgt="1430" wght="0.010931327752768994" />
      </Connections>
    </Network>
    <Network id="6277" birthGen="142" fitness="2.6280529499053955">
      <Nodes>
        <Node type="bias" id="0" />
        <Node type="in" id="1" />
        <Node type="in" id="2" />
        <Node type="in" id="3" />
        <Node type="in" id="4" />
        <Node type="in" id="5" />
        <Node type="in" id="6" />
        <Node type="in" id="7" />
        <Node type="in" id="8" />
        <Node type="in" id="9" />
        <Node type="in" id="10" />
        <Node type="in" id="11" />
        <Node type="in" id="12" />
        <Node type="in" id="13" />
        <Node type="in" id="14" />
        <Node type="in" id="15" />
        <Node type="in" id="16" />
        <Node type="in" id="17" />
        <Node type="in" id="18" />
        <Node type="in" id="19" />
        <Node type="in" id="20" />
        <Node type="in" id="21" />
        <Node type="in" id="22" />
        <Node type="in" id="23" />
        <Node type="in" id="24" />
        <Node type="in" id="25" />
        <Node type="in" id="26" />
        <Node type="in" id="27" />
        <Node type="in" id="28" />
        <Node type="in" id="29" />
        <Node type="in" id="30" />
        <Node type="out" id="31" />
        <Node type="out" id="32" />
        <Node type="out" id="33" />
        <Node type="out" id="34" />
        <Node type="out" id="35" />
        <Node type="hid" id="653" />
        <Node type="hid" id="760" />
        <Node type="hid" id="763" />
        <Node type="hid" id="788" />
        <Node type="hid" id="964" />
        <Node type="hid" id="1203" />
        <Node type="hid" id="1281" />
        <Node type="hid" id="1302" />
        <Node type="hid" id="1430" />
        <Node type="hid" id="1630" />
      </Nodes>
      <Connections>
        <Con id="41" src="1" tgt="31" wght="-0.16833722591400146" />
        <Con id="42" src="1" tgt="32" wght="3.0127110003574535" />
        <Con id="46" src="2" tgt="31" wght="-4.3021619855426252" />
        <Con id="49" src="2" tgt="34" wght="-2.465991300996393" />
        <Con id="56" src="4" tgt="31" wght="0.66850748857894726" />
        <Con id="57" src="4" tgt="32" wght="1.3296685181558132" />
        <Con id="58" src="4" tgt="33" wght="3.4541041613315357" />
        <Con id="61" src="5" tgt="31" wght="2.8909021709114313" />
        <Con id="68" src="6" tgt="33" wght="4.4170115888118744" />
        <Con id="69" src="6" tgt="34" wght="-4.9008826200974216" />
        <Con id="76" src="8" tgt="31" wght="-1.3586871990950009" />
        <Con id="82" src="9" tgt="32" wght="2.6349231577478349" />
        <Con id="83" src="9" tgt="33" wght="0.44332064668943022" />
        <Con id="89" src="10" tgt="34" wght="-3.9205050887539983" />
        <Con id="92" src="11" tgt="32" wght="-2.1017274283804" />
        <Con id="94" src="11" tgt="34" wght="-4.0466514159925282" />
        <Con id="99" src="12" tgt="34" wght="1.9803777034394443" />
        <Con id="104" src="13" tgt="34" wght="3.293187185190618" />
        <Con id="105" src="13" tgt="35" wght="4.3030466791242361" />
        <Con id="108" src="14" tgt="33" wght="2.8480012594131012" />
        <Con id="109" src="14" tgt="34" wght="3.1840848550200462" />
        <Con id="112" src="15" tgt="32" wght="-3.373070271831152" />
        <Con id="117" src="16" tgt="32" wght="-2.25299590267241" />
        <Con id="118" src="16" tgt="33" wght="-4.3405276952759433" />
        <Con id="123" src="17" tgt="33" wght="-4.1022089928722822" />
        <Con id="124" src="17" tgt="34" wght="-2.6304621761664748" />
        <Con id="126" src="18" tgt="31" wght="0.10438194498419762" />
        <Con id="134" src="19" tgt="34" wght="4.25431847339496" />
        <Con id="155" src="23" tgt="35" wght="-0.873661731717787" />
        <Con id="159" src="24" tgt="34" wght="3.8518772879615426" />
        <Con id="161" src="25" tgt="31" wght="4.2898255917212609" />
        <Con id="163" src="25" tgt="33" wght="-3.3649309072643518" />
        <Con id="168" src="26" tgt="33" wght="-2.7333908644504845" />
        <Con id="170" src="26" tgt="35" wght="1.496016897726804" />
        <Con id="171" src="27" tgt="31" wght="-0.55082281710779124" />
        <Con id="172" src="27" tgt="32" wght="-2.6601952392880892" />
        <Con id="173" src="27" tgt="33" wght="2.6456174743361771" />
        <Con id="177" src="28" tgt="32" wght="-0.20832884358242154" />
        <Con id="178" src="28" tgt="33" wght="0.30781474797355207" />
        <Con id="186" src="30" tgt="31" wght="0.3975287452340126" />
        <Con id="189" src="30" tgt="34" wght="-3.5621800727461963" />
        <Con id="285" src="23" tgt="31" wght="-0.034457162791540256" />
        <Con id="489" src="8" tgt="32" wght="0.00054436629609057666" />
        <Con id="514" src="4" tgt="35" wght="-0.034989242744632068" />
        <Con id="539" src="31" tgt="35" wght="3.0783847137354314" />
        <Con id="559" src="26" tgt="32" wght="-3.7079162217208856" />
        <Con id="582" src="31" tgt="32" wght="0.32484042691066861" />
        <Con id="655" src="653" tgt="35" wght="4.9912131449896506" />
        <Con id="761" src="10" tgt="760" wght="-0.60191150654681" />
        <Con id="762" src="760" tgt="32" wght="5" />
        <Con id="764" src="17" tgt="763" wght="1.6064907726831734" />
        <Con id="765" src="763" tgt="32" wght="5" />
        <Con id="789" src="17" tgt="788" wght="3.9233954576775432" />
        <Con id="853" src="4" tgt="34" wght="0.0082534000277519233" />
        <Con id="867" src="21" tgt="32" wght="-4.5081493099539589" />
        <Con id="893" src="19" tgt="32" wght="0.049695028620772068" />
        <Con id="965" src="22" tgt="964" wght="0.0010419968203775297" />
        <Con id="966" src="964" tgt="32" wght="5" />
        <Con id="971" src="13" tgt="788" wght="-2.5709890457801521" />
        <Con id="1064" src="964" tgt="788" wght="1.9948426494374871" />
        <Con id="1097" src="964" tgt="33" wght="-0.0061147909378632907" />
        <Con id="1120" src="17" tgt="964" wght="-3.7320216290902217" />
        <Con id="1149" src="5" tgt="763" wght="-2.192160329079039" />
        <Con id="1204" src="5" tgt="1203" wght="2.1886564255692065" />
        <Con id="1205" src="1203" tgt="34" wght="5" />
        <Con id="1282" src="17" tgt="1281" wght="3.9342802067993783" />
        <Con id="1283" src="1281" tgt="35" wght="5" />
        <Con id="1303" src="30" tgt="1302" wght="0.028404386737383904" />
        <Con id="1304" src="1302" tgt="763" wght="5" />
        <Con id="1312" src="23" tgt="32" wght="0.021244958096106714" />
        <Con id="1431" src="31" tgt="1430" wght="0.29071172140332" />
        <Con id="1499" src="763" tgt="1430" wght="-0.033905613445676865" />
        <Con id="1597" src="20" tgt="31" wght="-0.023477016598917544" />
        <Con id="1631" src="20" tgt="1630" wght="1.8495365700747146" />
        <Con id="1704" src="16" tgt="1430" wght="0.010931327752768994" />
        <Con id="1773" src="788" tgt="760" wght="0.0386961582582444" />
        <Con id="1794" src="1430" tgt="33" wght="-0.0010980522027239203" />
      </Connections>
    </Network>
    <Network id="6282" birthGen="142" fitness="3.6045534610748291">
      <Nodes>
        <Node type="bias" id="0" />
        <Node type="in" id="1" />
        <Node type="in" id="2" />
        <Node type="in" id="3" />
        <Node type="in" id="4" />
        <Node type="in" id="5" />
        <Node type="in" id="6" />
        <Node type="in" id="7" />
        <Node type="in" id="8" />
        <Node type="in" id="9" />
        <Node type="in" id="10" />
        <Node type="in" id="11" />
        <Node type="in" id="12" />
        <Node type="in" id="13" />
        <Node type="in" id="14" />
        <Node type="in" id="15" />
        <Node type="in" id="16" />
        <Node type="in" id="17" />
        <Node type="in" id="18" />
        <Node type="in" id="19" />
        <Node type="in" id="20" />
        <Node type="in" id="21" />
        <Node type="in" id="22" />
        <Node type="in" id="23" />
        <Node type="in" id="24" />
        <Node type="in" id="25" />
        <Node type="in" id="26" />
        <Node type="in" id="27" />
        <Node type="in" id="28" />
        <Node type="in" id="29" />
        <Node type="in" id="30" />
        <Node type="out" id="31" />
        <Node type="out" id="32" />
        <Node type="out" id="33" />
        <Node type="out" id="34" />
        <Node type="out" id="35" />
        <Node type="hid" id="566" />
        <Node type="hid" id="653" />
        <Node type="hid" id="763" />
        <Node type="hid" id="788" />
        <Node type="hid" id="964" />
        <Node type="hid" id="1281" />
        <Node type="hid" id="1302" />
        <Node type="hid" id="1430" />
      </Nodes>
      <Connections>
        <Con id="41" src="1" tgt="31" wght="-0.16833722591400146" />
        <Con id="42" src="1" tgt="32" wght="3.0127110003574535" />
        <Con id="46" src="2" tgt="31" wght="-4.3021619855426252" />
        <Con id="49" src="2" tgt="34" wght="-2.465991300996393" />
        <Con id="56" src="4" tgt="31" wght="-3.539985956158489" />
        <Con id="57" src="4" tgt="32" wght="1.3254865749424134" />
        <Con id="58" src="4" tgt="33" wght="3.4541041613315357" />
        <Con id="61" src="5" tgt="31" wght="2.8796181574383621" />
        <Con id="64" src="5" tgt="34" wght="2.1886564255692065" />
        <Con id="68" src="6" tgt="33" wght="4.4170115888118744" />
        <Con id="69" src="6" tgt="34" wght="-3.0092284921556711" />
        <Con id="76" src="8" tgt="31" wght="-1.3586871990950009" />
        <Con id="83" src="9" tgt="33" wght="0.44332064668943022" />
        <Con id="87" src="10" tgt="32" wght="-0.60191150654681" />
        <Con id="89" src="10" tgt="34" wght="-3.9211011697093912" />
        <Con id="92" src="11" tgt="32" wght="-2.1017274283804" />
        <Con id="94" src="11" tgt="34" wght="-4.0466514159925282" />
        <Con id="99" src="12" tgt="34" wght="1.9803777034394443" />
        <Con id="104" src="13" tgt="34" wght="3.293187185190618" />
        <Con id="105" src="13" tgt="35" wght="4.3030466791242361" />
        <Con id="108" src="14" tgt="33" wght="2.8480012594131012" />
        <Con id="109" src="14" tgt="34" wght="3.1840848550200462" />
        <Con id="112" src="15" tgt="32" wght="-3.3566487923721349" />
        <Con id="117" src="16" tgt="32" wght="-2.25299590267241" />
        <Con id="118" src="16" tgt="33" wght="-4.3503726107541549" />
        <Con id="119" src="16" tgt="34" wght="2.9537633719906355" />
        <Con id="123" src="17" tgt="33" wght="-4.1068320785394778" />
        <Con id="124" src="17" tgt="34" wght="-2.6304621761664748" />
        <Con id="126" src="18" tgt="31" wght="0.10438194498419762" />
        <Con id="134" src="19" tgt="34" wght="4.25431847339496" />
        <Con id="155" src="23" tgt="35" wght="-0.88552981300523514" />
        <Con id="159" src="24" tgt="34" wght="3.8518772879615426" />
        <Con id="161" src="25" tgt="31" wght="4.2898255917212609" />
        <Con id="163" src="25" tgt="33" wght="-3.3600145716710621" />
        <Con id="168" src="26" tgt="33" wght="-2.7333908644504845" />
        <Con id="170" src="26" tgt="35" wght="1.5060526582948779" />
        <Con id="171" src="27" tgt="31" wght="-0.55082281710779124" />
        <Con id="172" src="27" tgt="32" wght="-2.6601952392880892" />
        <Con id="177" src="28" tgt="32" wght="-0.20888552402097463" />
        <Con id="178" src="28" tgt="33" wght="0.30781474797355207" />
        <Con id="186" src="30" tgt="31" wght="0.3975287452340126" />
        <Con id="189" src="30" tgt="34" wght="-3.5621800727461963" />
        <Con id="285" src="23" tgt="31" wght="-0.034457162791540256" />
        <Con id="489" src="8" tgt="32" wght="-0.0164886356331408" />
        <Con id="514" src="4" tgt="35" wght="-0.034989242744632068" />
        <Con id="539" src="31" tgt="35" wght="3.089457391329276" />
        <Con id="559" src="26" tgt="32" wght="-3.7079162217208856" />
        <Con id="567" src="27" tgt="566" wght="2.6456174743361771" />
        <Con id="568" src="566" tgt="33" wght="5" />
        <Con id="582" src="31" tgt="32" wght="0.32484042691066861" />
        <Con id="654" src="21" tgt="653" wght="-1.9288769225370708" />
        <Con id="655" src="653" tgt="35" wght="5" />
        <Con id="764" src="17" tgt="763" wght="1.6064907726831734" />
        <Con id="765" src="763" tgt="32" wght="4.9934635537357561" />
        <Con id="789" src="17" tgt="788" wght="3.8948069074645457" />
        <Con id="853" src="4" tgt="34" wght="0.0014914372807612467" />
        <Con id="867" src="21" tgt="32" wght="-4.5081493099539589" />
        <Con id="893" src="19" tgt="32" wght="0.049695028620772068" />
        <Con id="965" src="22" tgt="964" wght="0.0010419968203775297" />
        <Con id="966" src="964" tgt="32" wght="5" />
        <Con id="971" src="13" tgt="788" wght="-2.5709890457801521" />
        <Con id="1097" src="964" tgt="33" wght="-0.012411799316869084" />
        <Con id="1120" src="17" tgt="964" wght="-3.7300068396143615" />
        <Con id="1149" src="5" tgt="763" wght="-3.4958384558558464" />
        <Con id="1160" src="32" tgt="32" wght="2.5138357048854232" />
        <Con id="1164" src="20" tgt="964" wght="1.8495365700747146" />
        <Con id="1282" src="17" tgt="1281" wght="3.9233954576775432" />
        <Con id="1283" src="1281" tgt="35" wght="5" />
        <Con id="1303" src="30" tgt="1302" wght="0.028404386737383904" />
        <Con id="1304" src="1302" tgt="763" wght="5" />
        <Con id="1312" src="23" tgt="32" wght="0.00989831382345592" />
        <Con id="1368" src="25" tgt="788" wght="-0.0088981063105165962" />
        <Con id="1431" src="31" tgt="1430" wght="0.29071172140332" />
        <Con id="1432" src="1430" tgt="788" wght="5" />
        <Con id="1499" src="763" tgt="1430" wght="-0.033905613445676865" />
        <Con id="1561" src="32" tgt="1430" wght="-0.022585880500264468" />
        <Con id="1653" src="1281" tgt="964" wght="-0.025249588582664729" />
        <Con id="1737" src="32" tgt="788" wght="-0.022935653477907183" />
        <Con id="1780" src="34" tgt="1281" wght="4.23866911791265" />
      </Connections>
    </Network>
    <Network id="6285" birthGen="142" fitness="2.9254443645477295">
      <Nodes>
        <Node type="bias" id="0" />
        <Node type="in" id="1" />
        <Node type="in" id="2" />
        <Node type="in" id="3" />
        <Node type="in" id="4" />
        <Node type="in" id="5" />
        <Node type="in" id="6" />
        <Node type="in" id="7" />
        <Node type="in" id="8" />
        <Node type="in" id="9" />
        <Node type="in" id="10" />
        <Node type="in" id="11" />
        <Node type="in" id="12" />
        <Node type="in" id="13" />
        <Node type="in" id="14" />
        <Node type="in" id="15" />
        <Node type="in" id="16" />
        <Node type="in" id="17" />
        <Node type="in" id="18" />
        <Node type="in" id="19" />
        <Node type="in" id="20" />
        <Node type="in" id="21" />
        <Node type="in" id="22" />
        <Node type="in" id="23" />
        <Node type="in" id="24" />
        <Node type="in" id="25" />
        <Node type="in" id="26" />
        <Node type="in" id="27" />
        <Node type="in" id="28" />
        <Node type="in" id="29" />
        <Node type="in" id="30" />
        <Node type="out" id="31" />
        <Node type="out" id="32" />
        <Node type="out" id="33" />
        <Node type="out" id="34" />
        <Node type="out" id="35" />
        <Node type="hid" id="653" />
        <Node type="hid" id="665" />
        <Node type="hid" id="760" />
        <Node type="hid" id="763" />
        <Node type="hid" id="788" />
        <Node type="hid" id="964" />
        <Node type="hid" id="1054" />
        <Node type="hid" id="1203" />
        <Node type="hid" id="1281" />
        <Node type="hid" id="1302" />
        <Node type="hid" id="1430" />
        <Node type="hid" id="1630" />
        <Node type="hid" id="1797" />
      </Nodes>
      <Connections>
        <Con id="41" src="1" tgt="31" wght="-0.16833722591400146" />
        <Con id="42" src="1" tgt="32" wght="3.0127110003574535" />
        <Con id="46" src="2" tgt="31" wght="-4.3021619855426252" />
        <Con id="49" src="2" tgt="34" wght="-2.465991300996393" />
        <Con id="56" src="4" tgt="31" wght="0.66850748857894726" />
        <Con id="57" src="4" tgt="32" wght="1.3296685181558132" />
        <Con id="58" src="4" tgt="33" wght="3.4541041613315357" />
        <Con id="61" src="5" tgt="31" wght="2.8909021709114313" />
        <Con id="68" src="6" tgt="33" wght="4.4170115888118744" />
        <Con id="69" src="6" tgt="34" wght="-4.9008826200974216" />
        <Con id="76" src="8" tgt="31" wght="-1.3586871990950009" />
        <Con id="82" src="9" tgt="32" wght="2.6349231577478349" />
        <Con id="83" src="9" tgt="33" wght="0.44332064668943022" />
        <Con id="89" src="10" tgt="34" wght="-3.9205050887539983" />
        <Con id="92" src="11" tgt="32" wght="-2.1017274283804" />
        <Con id="94" src="11" tgt="34" wght="-4.0466514159925282" />
        <Con id="99" src="12" tgt="34" wght="1.9803777034394443" />
        <Con id="104" src="13" tgt="34" wght="3.293187185190618" />
        <Con id="105" src="13" tgt="35" wght="4.3030466791242361" />
        <Con id="108" src="14" tgt="33" wght="2.8480012594131012" />
        <Con id="109" src="14" tgt="34" wght="3.2190204737707973" />
        <Con id="112" src="15" tgt="32" wght="-3.373070271831152" />
        <Con id="117" src="16" tgt="32" wght="-2.25299590267241" />
        <Con id="118" src="16" tgt="33" wght="-4.3405276952759433" />
        <Con id="119" src="16" tgt="34" wght="2.9537633719906355" />
        <Con id="123" src="17" tgt="33" wght="-4.1068320785394778" />
        <Con id="126" src="18" tgt="31" wght="0.10438194498419762" />
        <Con id="134" src="19" tgt="34" wght="4.25431847339496" />
        <Con id="155" src="23" tgt="35" wght="-0.873661731717787" />
        <Con id="159" src="24" tgt="34" wght="3.8518772879615426" />
        <Con id="163" src="25" tgt="33" wght="-3.3649309072643518" />
        <Con id="168" src="26" tgt="33" wght="-2.7333908644504845" />
        <Con id="170" src="26" tgt="35" wght="1.496016897726804" />
        <Con id="171" src="27" tgt="31" wght="-0.55082281710779124" />
        <Con id="172" src="27" tgt="32" wght="-2.6601952392880892" />
        <Con id="177" src="28" tgt="32" wght="-0.20832884358242154" />
        <Con id="178" src="28" tgt="33" wght="0.30781474797355207" />
        <Con id="186" src="30" tgt="31" wght="0.3975287452340126" />
        <Con id="189" src="30" tgt="34" wght="-3.5621800727461963" />
        <Con id="285" src="23" tgt="31" wght="-0.034457162791540256" />
        <Con id="489" src="8" tgt="32" wght="0.00054436629609057666" />
        <Con id="514" src="4" tgt="35" wght="-0.03773571230666431" />
        <Con id="539" src="31" tgt="35" wght="3.0783847137354314" />
        <Con id="559" src="26" tgt="32" wght="-2.10631534922868" />
        <Con id="582" src="31" tgt="32" wght="0.32484042691066861" />
        <Con id="655" src="653" tgt="35" wght="5" />
        <Con id="666" src="17" tgt="665" wght="-2.6304621761664748" />
        <Con id="761" src="10" tgt="760" wght="-0.60191150654681" />
        <Con id="762" src="760" tgt="32" wght="5" />
        <Con id="764" src="17" tgt="763" wght="1.6064907726831734" />
        <Con id="765" src="763" tgt="32" wght="5" />
        <Con id="789" src="17" tgt="788" wght="3.9233954576775432" />
        <Con id="867" src="21" tgt="32" wght="-4.5081493099539589" />
        <Con id="893" src="19" tgt="32" wght="0.049695028620772068" />
        <Con id="965" src="22" tgt="964" wght="0.0010419968203775297" />
        <Con id="966" src="964" tgt="32" wght="5" />
        <Con id="971" src="13" tgt="788" wght="-2.5709890457801521" />
        <Con id="1055" src="4" tgt="1054" wght="0.0082534000277519233" />
        <Con id="1056" src="1054" tgt="34" wght="5" />
        <Con id="1097" src="964" tgt="33" wght="-0.0061147909378632907" />
        <Con id="1120" src="17" tgt="964" wght="-3.7300068396143615" />
        <Con id="1149" src="5" tgt="763" wght="-2.192160329079039" />
        <Con id="1204" src="5" tgt="1203" wght="2.1886564255692065" />
        <Con id="1205" src="1203" tgt="34" wght="5" />
        <Con id="1282" src="17" tgt="1281" wght="3.9342802067993783" />
        <Con id="1283" src="1281" tgt="35" wght="5" />
        <Con id="1303" src="30" tgt="1302" wght="0.028404386737383904" />
        <Con id="1304" src="1302" tgt="763" wght="5" />
        <Con id="1312" src="23" tgt="32" wght="0.021244958096106714" />
        <Con id="1334" src="4" tgt="964" wght="-3.2374526793137193" />
        <Con id="1431" src="31" tgt="1430" wght="0.29071172140332" />
        <Con id="1597" src="20" tgt="31" wght="-0.023477016598917544" />
        <Con id="1631" src="20" tgt="1630" wght="1.8495365700747146" />
        <Con id="1754" src="15" tgt="665" wght="0.013816909701563419" />
        <Con id="1781" src="3" tgt="1430" wght="-0.021582176047377288" />
        <Con id="1798" src="665" tgt="1797" wght="5" />
        <Con id="1799" src="1797" tgt="34" wght="5" />
      </Connections>
    </Network>
    <Network id="6248" birthGen="141" fitness="4.2356305122375488">
      <Nodes>
        <Node type="bias" id="0" />
        <Node type="in" id="1" />
        <Node type="in" id="2" />
        <Node type="in" id="3" />
        <Node type="in" id="4" />
        <Node type="in" id="5" />
        <Node type="in" id="6" />
        <Node type="in" id="7" />
        <Node type="in" id="8" />
        <Node type="in" id="9" />
        <Node type="in" id="10" />
        <Node type="in" id="11" />
        <Node type="in" id="12" />
        <Node type="in" id="13" />
        <Node type="in" id="14" />
        <Node type="in" id="15" />
        <Node type="in" id="16" />
        <Node type="in" id="17" />
        <Node type="in" id="18" />
        <Node type="in" id="19" />
        <Node type="in" id="20" />
        <Node type="in" id="21" />
        <Node type="in" id="22" />
        <Node type="in" id="23" />
        <Node type="in" id="24" />
        <Node type="in" id="25" />
        <Node type="in" id="26" />
        <Node type="in" id="27" />
        <Node type="in" id="28" />
        <Node type="in" id="29" />
        <Node type="in" id="30" />
        <Node type="out" id="31" />
        <Node type="out" id="32" />
        <Node type="out" id="33" />
        <Node type="out" id="34" />
        <Node type="out" id="35" />
        <Node type="hid" id="653" />
        <Node type="hid" id="665" />
        <Node type="hid" id="760" />
        <Node type="hid" id="763" />
        <Node type="hid" id="788" />
        <Node type="hid" id="964" />
        <Node type="hid" id="1054" />
        <Node type="hid" id="1203" />
        <Node type="hid" id="1281" />
        <Node type="hid" id="1302" />
        <Node type="hid" id="1430" />
        <Node type="hid" id="1630" />
      </Nodes>
      <Connections>
        <Con id="41" src="1" tgt="31" wght="-0.16833722591400146" />
        <Con id="42" src="1" tgt="32" wght="3.0127110003574535" />
        <Con id="46" src="2" tgt="31" wght="-4.3021619855426252" />
        <Con id="49" src="2" tgt="34" wght="-2.465991300996393" />
        <Con id="56" src="4" tgt="31" wght="0.66850748857894726" />
        <Con id="57" src="4" tgt="32" wght="1.3296685181558132" />
        <Con id="58" src="4" tgt="33" wght="3.4541041613315357" />
        <Con id="61" src="5" tgt="31" wght="2.8909021709114313" />
        <Con id="68" src="6" tgt="33" wght="4.4170115888118744" />
        <Con id="69" src="6" tgt="34" wght="-4.9008826200974216" />
        <Con id="76" src="8" tgt="31" wght="-1.3586871990950009" />
        <Con id="82" src="9" tgt="32" wght="2.6349231577478349" />
        <Con id="83" src="9" tgt="33" wght="0.44332064668943022" />
        <Con id="89" src="10" tgt="34" wght="-3.9205050887539983" />
        <Con id="92" src="11" tgt="32" wght="-2.1017274283804" />
        <Con id="94" src="11" tgt="34" wght="-4.0466514159925282" />
        <Con id="99" src="12" tgt="34" wght="1.9803777034394443" />
        <Con id="104" src="13" tgt="34" wght="3.293187185190618" />
        <Con id="105" src="13" tgt="35" wght="4.3030466791242361" />
        <Con id="108" src="14" tgt="33" wght="2.8480012594131012" />
        <Con id="109" src="14" tgt="34" wght="3.2190204737707973" />
        <Con id="112" src="15" tgt="32" wght="-3.373070271831152" />
        <Con id="117" src="16" tgt="32" wght="-2.25299590267241" />
        <Con id="118" src="16" tgt="33" wght="-4.3405276952759433" />
        <Con id="119" src="16" tgt="34" wght="2.9537633719906355" />
        <Con id="123" src="17" tgt="33" wght="-4.1068320785394778" />
        <Con id="126" src="18" tgt="31" wght="0.10438194498419762" />
        <Con id="134" src="19" tgt="34" wght="4.25431847339496" />
        <Con id="155" src="23" tgt="35" wght="-0.873661731717787" />
        <Con id="159" src="24" tgt="34" wght="3.8518772879615426" />
        <Con id="163" src="25" tgt="33" wght="-3.3649309072643518" />
        <Con id="168" src="26" tgt="33" wght="-2.7333908644504845" />
        <Con id="170" src="26" tgt="35" wght="1.496016897726804" />
        <Con id="171" src="27" tgt="31" wght="-0.55082281710779124" />
        <Con id="172" src="27" tgt="32" wght="-2.6601952392880892" />
        <Con id="177" src="28" tgt="32" wght="-0.20832884358242154" />
        <Con id="178" src="28" tgt="33" wght="0.30781474797355207" />
        <Con id="186" src="30" tgt="31" wght="0.3975287452340126" />
        <Con id="189" src="30" tgt="34" wght="-3.5621800727461963" />
        <Con id="285" src="23" tgt="31" wght="-0.034457162791540256" />
        <Con id="489" src="8" tgt="32" wght="0.00054436629609057666" />
        <Con id="514" src="4" tgt="35" wght="-0.03773571230666431" />
        <Con id="539" src="31" tgt="35" wght="3.0783847137354314" />
        <Con id="559" src="26" tgt="32" wght="-2.10631534922868" />
        <Con id="582" src="31" tgt="32" wght="0.32484042691066861" />
        <Con id="655" src="653" tgt="35" wght="5" />
        <Con id="666" src="17" tgt="665" wght="-2.6304621761664748" />
        <Con id="667" src="665" tgt="34" wght="5" />
        <Con id="761" src="10" tgt="760" wght="-0.60191150654681" />
        <Con id="762" src="760" tgt="32" wght="5" />
        <Con id="764" src="17" tgt="763" wght="1.6064907726831734" />
        <Con id="765" src="763" tgt="32" wght="5" />
        <Con id="789" src="17" tgt="788" wght="3.9233954576775432" />
        <Con id="867" src="21" tgt="32" wght="-4.5081493099539589" />
        <Con id="893" src="19" tgt="32" wght="0.049695028620772068" />
        <Con id="965" src="22" tgt="964" wght="0.0010419968203775297" />
        <Con id="966" src="964" tgt="32" wght="5" />
        <Con id="971" src="13" tgt="788" wght="-2.5709890457801521" />
        <Con id="1055" src="4" tgt="1054" wght="0.0082534000277519233" />
        <Con id="1056" src="1054" tgt="34" wght="5" />
        <Con id="1097" src="964" tgt="33" wght="-0.0061147909378632907" />
        <Con id="1120" src="17" tgt="964" wght="-3.7300068396143615" />
        <Con id="1149" src="5" tgt="763" wght="-2.192160329079039" />
        <Con id="1204" src="5" tgt="1203" wght="2.1886564255692065" />
        <Con id="1205" src="1203" tgt="34" wght="5" />
        <Con id="1282" src="17" tgt="1281" wght="3.9342802067993783" />
        <Con id="1283" src="1281" tgt="35" wght="5" />
        <Con id="1303" src="30" tgt="1302" wght="0.028404386737383904" />
        <Con id="1304" src="1302" tgt="763" wght="5" />
        <Con id="1312" src="23" tgt="32" wght="0.021244958096106714" />
        <Con id="1334" src="4" tgt="964" wght="-3.2374526793137193" />
        <Con id="1431" src="31" tgt="1430" wght="0.29071172140332" />
        <Con id="1597" src="20" tgt="31" wght="-0.023477016598917544" />
        <Con id="1631" src="20" tgt="1630" wght="1.8495365700747146" />
        <Con id="1754" src="15" tgt="665" wght="0.013816909701563419" />
        <Con id="1781" src="3" tgt="1430" wght="-0.021582176047377288" />
      </Connections>
    </Network>
    <Network id="6290" birthGen="142" fitness="3.3822798728942871">
      <Nodes>
        <Node type="bias" id="0" />
        <Node type="in" id="1" />
        <Node type="in" id="2" />
        <Node type="in" id="3" />
        <Node type="in" id="4" />
        <Node type="in" id="5" />
        <Node type="in" id="6" />
        <Node type="in" id="7" />
        <Node type="in" id="8" />
        <Node type="in" id="9" />
        <Node type="in" id="10" />
        <Node type="in" id="11" />
        <Node type="in" id="12" />
        <Node type="in" id="13" />
        <Node type="in" id="14" />
        <Node type="in" id="15" />
        <Node type="in" id="16" />
        <Node type="in" id="17" />
        <Node type="in" id="18" />
        <Node type="in" id="19" />
        <Node type="in" id="20" />
        <Node type="in" id="21" />
        <Node type="in" id="22" />
        <Node type="in" id="23" />
        <Node type="in" id="24" />
        <Node type="in" id="25" />
        <Node type="in" id="26" />
        <Node type="in" id="27" />
        <Node type="in" id="28" />
        <Node type="in" id="29" />
        <Node type="in" id="30" />
        <Node type="out" id="31" />
        <Node type="out" id="32" />
        <Node type="out" id="33" />
        <Node type="out" id="34" />
        <Node type="out" id="35" />
        <Node type="hid" id="505" />
        <Node type="hid" id="585" />
        <Node type="hid" id="788" />
        <Node type="hid" id="793" />
        <Node type="hid" id="817" />
        <Node type="hid" id="1543" />
      </Nodes>
      <Connections>
        <Con id="41" src="1" tgt="31" wght="-0.17201251851265767" />
        <Con id="42" src="1" tgt="32" wght="3.0375276745068933" />
        <Con id="46" src="2" tgt="31" wght="-4.29087432623594" />
        <Con id="49" src="2" tgt="34" wght="-2.465991300996393" />
        <Con id="53" src="3" tgt="33" wght="-4.219989277500539" />
        <Con id="57" src="4" tgt="32" wght="1.3251719408928961" />
        <Con id="58" src="4" tgt="33" wght="3.4608735278708314" />
        <Con id="61" src="5" tgt="31" wght="2.8909021709114313" />
        <Con id="64" src="5" tgt="34" wght="2.1620034911128485" />
        <Con id="67" src="6" tgt="32" wght="0.46361396554857492" />
        <Con id="68" src="6" tgt="33" wght="4.4136092278763153" />
        <Con id="69" src="6" tgt="34" wght="-4.8952236957848072" />
        <Con id="83" src="9" tgt="33" wght="0.45022726524621248" />
        <Con id="87" src="10" tgt="32" wght="-0.62500995614671861" />
        <Con id="89" src="10" tgt="34" wght="0.33510620748060427" />
        <Con id="92" src="11" tgt="32" wght="-2.1017274283804" />
        <Con id="94" src="11" tgt="34" wght="-4.0466514159925282" />
        <Con id="106" src="14" tgt="31" wght="2.3179457476362586" />
        <Con id="108" src="14" tgt="33" wght="2.8736459030952606" />
        <Con id="109" src="14" tgt="34" wght="-4.2372251909535681" />
        <Con id="112" src="15" tgt="32" wght="4.4030032539740205" />
        <Con id="118" src="16" tgt="33" wght="-4.3632038815143117" />
        <Con id="119" src="16" tgt="34" wght="2.9537633719906355" />
        <Con id="123" src="17" tgt="33" wght="-4.1104254108783378" />
        <Con id="124" src="17" tgt="34" wght="-2.6304621761664748" />
        <Con id="125" src="17" tgt="35" wght="3.9233954576775432" />
        <Con id="131" src="19" tgt="31" wght="1.9288360001519322" />
        <Con id="134" src="19" tgt="34" wght="4.25431847339496" />
        <Con id="138" src="20" tgt="33" wght="-2.8118432516564269" />
        <Con id="145" src="21" tgt="35" wght="-1.9192688710841943" />
        <Con id="155" src="23" tgt="35" wght="-0.90947392522242509" />
        <Con id="156" src="24" tgt="31" wght="-3.2697553467005491" />
        <Con id="161" src="25" tgt="31" wght="4.2898255917212609" />
        <Con id="163" src="25" tgt="33" wght="-3.3592129822305643" />
        <Con id="171" src="27" tgt="31" wght="-0.559370431319219" />
        <Con id="173" src="27" tgt="33" wght="2.6456174743361771" />
        <Con id="177" src="28" tgt="32" wght="-0.20832884358242154" />
        <Con id="178" src="28" tgt="33" wght="0.30358556658029556" />
        <Con id="186" src="30" tgt="31" wght="0.3975287452340126" />
        <Con id="411" src="33" tgt="34" wght="0.041146385413106633" />
        <Con id="443" src="20" tgt="32" wght="0.98829100839793682" />
        <Con id="466" src="19" tgt="33" wght="-4.453648969065398" />
        <Con id="489" src="8" tgt="32" wght="-0.031750061805360018" />
        <Con id="506" src="13" tgt="505" wght="3.293187185190618" />
        <Con id="507" src="505" tgt="34" wght="5" />
        <Con id="514" src="4" tgt="35" wght="-0.029618288875832826" />
        <Con id="581" src="33" tgt="33" wght="1.5700645874635872" />
        <Con id="586" src="26" tgt="585" wght="1.4995890324423138" />
        <Con id="587" src="585" tgt="35" wght="5" />
        <Con id="616" src="22" tgt="34" wght="-0.036615797504782679" />
        <Con id="644" src="17" tgt="31" wght="0.0061881399247795347" />
        <Con id="645" src="15" tgt="35" wght="0.14007755555212498" />
        <Con id="668" src="35" tgt="32" wght="-0.013576808758080006" />
        <Con id="710" src="32" tgt="34" wght="0.005791262025013566" />
        <Con id="746" src="15" tgt="33" wght="1.54698301339522" />
        <Con id="789" src="17" tgt="788" wght="3.9233954576775432" />
        <Con id="790" src="788" tgt="35" wght="4.9907575043691921" />
        <Con id="794" src="8" tgt="793" wght="-0.034177492850250457" />
        <Con id="795" src="793" tgt="32" wght="5" />
        <Con id="802" src="22" tgt="32" wght="0.010101573448628188" />
        <Con id="818" src="31" tgt="817" wght="0.32001616170960434" />
        <Con id="819" src="817" tgt="32" wght="5" />
        <Con id="853" src="4" tgt="34" wght="0.0034147507770140419" />
        <Con id="854" src="13" tgt="33" wght="0.49720211607479542" />
        <Con id="867" src="21" tgt="32" wght="-4.5138021581806242" />
        <Con id="908" src="24" tgt="33" wght="0.040248477034694391" />
        <Con id="946" src="27" tgt="788" wght="0.012767332210205496" />
        <Con id="1163" src="505" tgt="33" wght="-3.4635397722013295" />
        <Con id="1344" src="31" tgt="505" wght="-1.1289145424962044" />
        <Con id="1544" src="25" tgt="1543" wght="-0.028718425519754689" />
        <Con id="1591" src="20" tgt="585" wght="-0.020146802347153426" />
        <Con id="1757" src="4" tgt="1543" wght="0.045667267520911992" />
        <Con id="1787" src="32" tgt="585" wght="-0.95852954545989633" />
      </Connections>
    </Network>
    <Network id="6289" birthGen="142" fitness="1.9077951908111572">
      <Nodes>
        <Node type="bias" id="0" />
        <Node type="in" id="1" />
        <Node type="in" id="2" />
        <Node type="in" id="3" />
        <Node type="in" id="4" />
        <Node type="in" id="5" />
        <Node type="in" id="6" />
        <Node type="in" id="7" />
        <Node type="in" id="8" />
        <Node type="in" id="9" />
        <Node type="in" id="10" />
        <Node type="in" id="11" />
        <Node type="in" id="12" />
        <Node type="in" id="13" />
        <Node type="in" id="14" />
        <Node type="in" id="15" />
        <Node type="in" id="16" />
        <Node type="in" id="17" />
        <Node type="in" id="18" />
        <Node type="in" id="19" />
        <Node type="in" id="20" />
        <Node type="in" id="21" />
        <Node type="in" id="22" />
        <Node type="in" id="23" />
        <Node type="in" id="24" />
        <Node type="in" id="25" />
        <Node type="in" id="26" />
        <Node type="in" id="27" />
        <Node type="in" id="28" />
        <Node type="in" id="29" />
        <Node type="in" id="30" />
        <Node type="out" id="31" />
        <Node type="out" id="32" />
        <Node type="out" id="33" />
        <Node type="out" id="34" />
        <Node type="out" id="35" />
        <Node type="hid" id="505" />
        <Node type="hid" id="585" />
        <Node type="hid" id="788" />
        <Node type="hid" id="793" />
        <Node type="hid" id="817" />
        <Node type="hid" id="1543" />
      </Nodes>
      <Connections>
        <Con id="41" src="1" tgt="31" wght="-0.17201251851265767" />
        <Con id="42" src="1" tgt="32" wght="3.0375276745068933" />
        <Con id="46" src="2" tgt="31" wght="-4.29087432623594" />
        <Con id="49" src="2" tgt="34" wght="-2.465991300996393" />
        <Con id="53" src="3" tgt="33" wght="-4.219989277500539" />
        <Con id="57" src="4" tgt="32" wght="1.3251719408928961" />
        <Con id="58" src="4" tgt="33" wght="3.4608735278708314" />
        <Con id="61" src="5" tgt="31" wght="2.8909021709114313" />
        <Con id="64" src="5" tgt="34" wght="2.1620034911128485" />
        <Con id="67" src="6" tgt="32" wght="0.46361396554857492" />
        <Con id="68" src="6" tgt="33" wght="4.4136092278763153" />
        <Con id="69" src="6" tgt="34" wght="-4.8952236957848072" />
        <Con id="83" src="9" tgt="33" wght="0.45022726524621248" />
        <Con id="87" src="10" tgt="32" wght="-0.62500995614671861" />
        <Con id="89" src="10" tgt="34" wght="0.33510620748060427" />
        <Con id="92" src="11" tgt="32" wght="-2.1017274283804" />
        <Con id="94" src="11" tgt="34" wght="-4.0466514159925282" />
        <Con id="106" src="14" tgt="31" wght="2.3179457476362586" />
        <Con id="108" src="14" tgt="33" wght="2.8736459030952606" />
        <Con id="109" src="14" tgt="34" wght="-4.2372251909535681" />
        <Con id="112" src="15" tgt="32" wght="4.4030032539740205" />
        <Con id="118" src="16" tgt="33" wght="-4.3632038815143117" />
        <Con id="119" src="16" tgt="34" wght="2.9537633719906355" />
        <Con id="123" src="17" tgt="33" wght="-4.1104254108783378" />
        <Con id="124" src="17" tgt="34" wght="-2.6304621761664748" />
        <Con id="125" src="17" tgt="35" wght="3.9233954576775432" />
        <Con id="131" src="19" tgt="31" wght="1.9288360001519322" />
        <Con id="134" src="19" tgt="34" wght="4.25431847339496" />
        <Con id="138" src="20" tgt="33" wght="-2.8118432516564269" />
        <Con id="145" src="21" tgt="35" wght="-1.9192688710841943" />
        <Con id="155" src="23" tgt="35" wght="-0.90947392522242509" />
        <Con id="156" src="24" tgt="31" wght="-3.2697553467005491" />
        <Con id="161" src="25" tgt="31" wght="4.2898255917212609" />
        <Con id="163" src="25" tgt="33" wght="-3.3686483264233895" />
        <Con id="171" src="27" tgt="31" wght="-0.559370431319219" />
        <Con id="173" src="27" tgt="33" wght="2.6456174743361771" />
        <Con id="177" src="28" tgt="32" wght="-0.20832884358242154" />
        <Con id="178" src="28" tgt="33" wght="0.30358556658029556" />
        <Con id="186" src="30" tgt="31" wght="0.3975287452340126" />
        <Con id="411" src="33" tgt="34" wght="0.041146385413106633" />
        <Con id="443" src="20" tgt="32" wght="0.98829100839793682" />
        <Con id="466" src="19" tgt="33" wght="-4.453648969065398" />
        <Con id="489" src="8" tgt="32" wght="-0.031750061805360018" />
        <Con id="506" src="13" tgt="505" wght="3.293187185190618" />
        <Con id="507" src="505" tgt="34" wght="5" />
        <Con id="514" src="4" tgt="35" wght="-0.029618288875832826" />
        <Con id="581" src="33" tgt="33" wght="1.5700645874635872" />
        <Con id="586" src="26" tgt="585" wght="1.4995890324423138" />
        <Con id="587" src="585" tgt="35" wght="5" />
        <Con id="644" src="17" tgt="31" wght="0.0061881399247795347" />
        <Con id="645" src="15" tgt="35" wght="0.14007755555212498" />
        <Con id="668" src="35" tgt="32" wght="-0.013576808758080006" />
        <Con id="710" src="32" tgt="34" wght="0.005791262025013566" />
        <Con id="746" src="15" tgt="33" wght="1.54698301339522" />
        <Con id="789" src="17" tgt="788" wght="3.9233954576775432" />
        <Con id="790" src="788" tgt="35" wght="4.9907575043691921" />
        <Con id="794" src="8" tgt="793" wght="-0.034177492850250457" />
        <Con id="795" src="793" tgt="32" wght="5" />
        <Con id="802" src="22" tgt="32" wght="0.010101573448628188" />
        <Con id="818" src="31" tgt="817" wght="0.32001616170960434" />
        <Con id="819" src="817" tgt="32" wght="5" />
        <Con id="853" src="4" tgt="34" wght="0.0034147507770140419" />
        <Con id="854" src="13" tgt="33" wght="0.49720211607479542" />
        <Con id="867" src="21" tgt="32" wght="-4.5138021581806242" />
        <Con id="908" src="24" tgt="33" wght="0.040248477034694391" />
        <Con id="946" src="27" tgt="788" wght="0.012767332210205496" />
        <Con id="1163" src="505" tgt="33" wght="-3.4635397722013295" />
        <Con id="1344" src="31" tgt="505" wght="-1.1289145424962044" />
        <Con id="1544" src="25" tgt="1543" wght="-0.028718425519754689" />
        <Con id="1591" src="20" tgt="585" wght="-0.020146802347153426" />
        <Con id="1757" src="4" tgt="1543" wght="0.045667267520911992" />
        <Con id="1787" src="32" tgt="585" wght="-0.95852954545989633" />
      </Connections>
    </Network>
    <Network id="6296" birthGen="143" fitness="3.86750864982605">
      <Nodes>
        <Node type="bias" id="0" />
        <Node type="in" id="1" />
        <Node type="in" id="2" />
        <Node type="in" id="3" />
        <Node type="in" id="4" />
        <Node type="in" id="5" />
        <Node type="in" id="6" />
        <Node type="in" id="7" />
        <Node type="in" id="8" />
        <Node type="in" id="9" />
        <Node type="in" id="10" />
        <Node type="in" id="11" />
        <Node type="in" id="12" />
        <Node type="in" id="13" />
        <Node type="in" id="14" />
        <Node type="in" id="15" />
        <Node type="in" id="16" />
        <Node type="in" id="17" />
        <Node type="in" id="18" />
        <Node type="in" id="19" />
        <Node type="in" id="20" />
        <Node type="in" id="21" />
        <Node type="in" id="22" />
        <Node type="in" id="23" />
        <Node type="in" id="24" />
        <Node type="in" id="25" />
        <Node type="in" id="26" />
        <Node type="in" id="27" />
        <Node type="in" id="28" />
        <Node type="in" id="29" />
        <Node type="in" id="30" />
        <Node type="out" id="31" />
        <Node type="out" id="32" />
        <Node type="out" id="33" />
        <Node type="out" id="34" />
        <Node type="out" id="35" />
        <Node type="hid" id="653" />
        <Node type="hid" id="763" />
        <Node type="hid" id="788" />
        <Node type="hid" id="828" />
        <Node type="hid" id="964" />
        <Node type="hid" id="1203" />
        <Node type="hid" id="1281" />
        <Node type="hid" id="1302" />
        <Node type="hid" id="1430" />
        <Node type="hid" id="1630" />
      </Nodes>
      <Connections>
        <Con id="41" src="1" tgt="31" wght="-0.16833722591400146" />
        <Con id="42" src="1" tgt="32" wght="3.0127110003574535" />
        <Con id="46" src="2" tgt="31" wght="-4.3021619855426252" />
        <Con id="49" src="2" tgt="34" wght="-2.465991300996393" />
        <Con id="56" src="4" tgt="31" wght="0.66850748857894726" />
        <Con id="57" src="4" tgt="32" wght="1.3296685181558132" />
        <Con id="58" src="4" tgt="33" wght="3.4541041613315357" />
        <Con id="61" src="5" tgt="31" wght="2.8909021709114313" />
        <Con id="68" src="6" tgt="33" wght="4.4170115888118744" />
        <Con id="69" src="6" tgt="34" wght="-4.9008826200974216" />
        <Con id="76" src="8" tgt="31" wght="-1.3586871990950009" />
        <Con id="82" src="9" tgt="32" wght="2.6349231577478349" />
        <Con id="83" src="9" tgt="33" wght="0.4573287797163" />
        <Con id="87" src="10" tgt="32" wght="-0.60191150654681" />
        <Con id="89" src="10" tgt="34" wght="-3.9205050887539983" />
        <Con id="92" src="11" tgt="32" wght="-2.1017274283804" />
        <Con id="94" src="11" tgt="34" wght="-4.0466514159925282" />
        <Con id="99" src="12" tgt="34" wght="1.9792742360803668" />
        <Con id="104" src="13" tgt="34" wght="3.293187185190618" />
        <Con id="108" src="14" tgt="33" wght="2.8480012594131012" />
        <Con id="112" src="15" tgt="32" wght="-3.373070271831152" />
        <Con id="117" src="16" tgt="32" wght="-2.25299590267241" />
        <Con id="118" src="16" tgt="33" wght="-4.3405276952759433" />
        <Con id="119" src="16" tgt="34" wght="2.9537633719906355" />
        <Con id="123" src="17" tgt="33" wght="-4.1068320785394778" />
        <Con id="124" src="17" tgt="34" wght="-2.6304621761664748" />
        <Con id="126" src="18" tgt="31" wght="0.10438194498419762" />
        <Con id="134" src="19" tgt="34" wght="4.25431847339496" />
        <Con id="155" src="23" tgt="35" wght="-0.873661731717787" />
        <Con id="159" src="24" tgt="34" wght="3.8518772879615426" />
        <Con id="161" src="25" tgt="31" wght="4.2898255917212609" />
        <Con id="163" src="25" tgt="33" wght="-3.3560617197789222" />
        <Con id="168" src="26" tgt="33" wght="-2.7333908644504845" />
        <Con id="170" src="26" tgt="35" wght="1.496016897726804" />
        <Con id="171" src="27" tgt="31" wght="-0.55082281710779124" />
        <Con id="172" src="27" tgt="32" wght="-2.6601952392880892" />
        <Con id="173" src="27" tgt="33" wght="2.6456174743361771" />
        <Con id="177" src="28" tgt="32" wght="-0.20832884358242154" />
        <Con id="178" src="28" tgt="33" wght="0.30781474797355207" />
        <Con id="186" src="30" tgt="31" wght="0.3975287452340126" />
        <Con id="189" src="30" tgt="34" wght="-3.5621800727461963" />
        <Con id="285" src="23" tgt="31" wght="-0.034457162791540256" />
        <Con id="489" src="8" tgt="32" wght="0.00054436629609057666" />
        <Con id="514" src="4" tgt="35" wght="-0.034989242744632068" />
        <Con id="539" src="31" tgt="35" wght="3.0783847137354314" />
        <Con id="559" src="26" tgt="32" wght="-3.7079162217208856" />
        <Con id="655" src="653" tgt="35" wght="4.9912274400340531" />
        <Con id="719" src="11" tgt="33" wght="4.2478988319635391" />
        <Con id="764" src="17" tgt="763" wght="1.6105314431455471" />
        <Con id="765" src="763" tgt="32" wght="5" />
        <Con id="789" src="17" tgt="788" wght="3.9233954576775432" />
        <Con id="829" src="14" tgt="828" wght="3.1840848550200462" />
        <Con id="830" src="828" tgt="34" wght="5" />
        <Con id="853" src="4" tgt="34" wght="0.0082534000277519233" />
        <Con id="867" src="21" tgt="32" wght="-4.5081493099539589" />
        <Con id="893" src="19" tgt="32" wght="0.049695028620772068" />
        <Con id="965" src="22" tgt="964" wght="0.0010419968203775297" />
        <Con id="966" src="964" tgt="32" wght="5" />
        <Con id="971" src="13" tgt="788" wght="-2.5709890457801521" />
        <Con id="1077" src="30" tgt="964" wght="4.0801849216222763" />
        <Con id="1120" src="17" tgt="964" wght="-3.7300068396143615" />
        <Con id="1149" src="5" tgt="763" wght="-2.192160329079039" />
        <Con id="1204" src="5" tgt="1203" wght="2.1886564255692065" />
        <Con id="1205" src="1203" tgt="34" wght="5" />
        <Con id="1282" src="17" tgt="1281" wght="3.9342802067993783" />
        <Con id="1283" src="1281" tgt="35" wght="5" />
        <Con id="1303" src="30" tgt="1302" wght="0.028404386737383904" />
        <Con id="1304" src="1302" tgt="763" wght="5" />
        <Con id="1312" src="23" tgt="32" wght="0.021244958096106714" />
        <Con id="1401" src="23" tgt="964" wght="0.028526324080303311" />
        <Con id="1431" src="31" tgt="1430" wght="0.29071172140332" />
        <Con id="1499" src="763" tgt="1430" wght="-0.033905613445676865" />
        <Con id="1561" src="32" tgt="1430" wght="-0.020982196950353683" />
        <Con id="1597" src="20" tgt="31" wght="-0.023477016598917544" />
        <Con id="1631" src="20" tgt="1630" wght="1.8495365700747146" />
        <Con id="1800" src="28" tgt="828" wght="2.4100937996990979" />
      </Connections>
    </Network>
    <Network id="6297" birthGen="143" fitness="3.4653024673461914">
      <Nodes>
        <Node type="bias" id="0" />
        <Node type="in" id="1" />
        <Node type="in" id="2" />
        <Node type="in" id="3" />
        <Node type="in" id="4" />
        <Node type="in" id="5" />
        <Node type="in" id="6" />
        <Node type="in" id="7" />
        <Node type="in" id="8" />
        <Node type="in" id="9" />
        <Node type="in" id="10" />
        <Node type="in" id="11" />
        <Node type="in" id="12" />
        <Node type="in" id="13" />
        <Node type="in" id="14" />
        <Node type="in" id="15" />
        <Node type="in" id="16" />
        <Node type="in" id="17" />
        <Node type="in" id="18" />
        <Node type="in" id="19" />
        <Node type="in" id="20" />
        <Node type="in" id="21" />
        <Node type="in" id="22" />
        <Node type="in" id="23" />
        <Node type="in" id="24" />
        <Node type="in" id="25" />
        <Node type="in" id="26" />
        <Node type="in" id="27" />
        <Node type="in" id="28" />
        <Node type="in" id="29" />
        <Node type="in" id="30" />
        <Node type="out" id="31" />
        <Node type="out" id="32" />
        <Node type="out" id="33" />
        <Node type="out" id="34" />
        <Node type="out" id="35" />
        <Node type="hid" id="653" />
        <Node type="hid" id="763" />
        <Node type="hid" id="788" />
        <Node type="hid" id="828" />
        <Node type="hid" id="964" />
        <Node type="hid" id="1203" />
        <Node type="hid" id="1281" />
        <Node type="hid" id="1302" />
        <Node type="hid" id="1430" />
        <Node type="hid" id="1630" />
      </Nodes>
      <Connections>
        <Con id="41" src="1" tgt="31" wght="-0.16833722591400146" />
        <Con id="42" src="1" tgt="32" wght="4.6369360852986574" />
        <Con id="46" src="2" tgt="31" wght="-4.3021619855426252" />
        <Con id="49" src="2" tgt="34" wght="-2.465991300996393" />
        <Con id="56" src="4" tgt="31" wght="0.66850748857894726" />
        <Con id="57" src="4" tgt="32" wght="1.3296685181558132" />
        <Con id="58" src="4" tgt="33" wght="3.4541041613315357" />
        <Con id="61" src="5" tgt="31" wght="2.8909021709114313" />
        <Con id="68" src="6" tgt="33" wght="4.4170115888118744" />
        <Con id="69" src="6" tgt="34" wght="-4.9008826200974216" />
        <Con id="76" src="8" tgt="31" wght="-1.3586871990950009" />
        <Con id="82" src="9" tgt="32" wght="2.6349231577478349" />
        <Con id="83" src="9" tgt="33" wght="0.44332064668943022" />
        <Con id="87" src="10" tgt="32" wght="-0.60191150654681" />
        <Con id="89" src="10" tgt="34" wght="-3.9205050887539983" />
        <Con id="92" src="11" tgt="32" wght="-2.1017274283804" />
        <Con id="94" src="11" tgt="34" wght="-4.0466514159925282" />
        <Con id="99" src="12" tgt="34" wght="1.9792742360803668" />
        <Con id="104" src="13" tgt="34" wght="3.293187185190618" />
        <Con id="108" src="14" tgt="33" wght="2.8480012594131012" />
        <Con id="112" src="15" tgt="32" wght="-3.373070271831152" />
        <Con id="117" src="16" tgt="32" wght="-2.25299590267241" />
        <Con id="118" src="16" tgt="33" wght="-4.3405276952759433" />
        <Con id="119" src="16" tgt="34" wght="2.9537633719906355" />
        <Con id="123" src="17" tgt="33" wght="-4.1068320785394778" />
        <Con id="124" src="17" tgt="34" wght="-2.6304621761664748" />
        <Con id="126" src="18" tgt="31" wght="0.10438194498419762" />
        <Con id="134" src="19" tgt="34" wght="4.25431847339496" />
        <Con id="155" src="23" tgt="35" wght="-0.873661731717787" />
        <Con id="159" src="24" tgt="34" wght="3.8518772879615426" />
        <Con id="161" src="25" tgt="31" wght="4.2898255917212609" />
        <Con id="163" src="25" tgt="33" wght="-3.3560617197789222" />
        <Con id="168" src="26" tgt="33" wght="-2.753508179638819" />
        <Con id="170" src="26" tgt="35" wght="1.496016897726804" />
        <Con id="171" src="27" tgt="31" wght="-0.55082281710779124" />
        <Con id="172" src="27" tgt="32" wght="-2.6601952392880892" />
        <Con id="173" src="27" tgt="33" wght="2.6456174743361771" />
        <Con id="177" src="28" tgt="32" wght="-0.20832884358242154" />
        <Con id="178" src="28" tgt="33" wght="0.30781474797355207" />
        <Con id="186" src="30" tgt="31" wght="0.3975287452340126" />
        <Con id="189" src="30" tgt="34" wght="-3.5621800727461963" />
        <Con id="285" src="23" tgt="31" wght="-0.034457162791540256" />
        <Con id="489" src="8" tgt="32" wght="0.00054436629609057666" />
        <Con id="514" src="4" tgt="35" wght="-0.034989242744632068" />
        <Con id="539" src="31" tgt="35" wght="3.0783847137354314" />
        <Con id="559" src="26" tgt="32" wght="-3.7079162217208856" />
        <Con id="655" src="653" tgt="35" wght="4.9912274400340531" />
        <Con id="719" src="11" tgt="33" wght="4.2478988319635391" />
        <Con id="764" src="17" tgt="763" wght="1.6105314431455471" />
        <Con id="765" src="763" tgt="32" wght="5" />
        <Con id="789" src="17" tgt="788" wght="3.9233954576775432" />
        <Con id="829" src="14" tgt="828" wght="3.1840848550200462" />
        <Con id="830" src="828" tgt="34" wght="5" />
        <Con id="853" src="4" tgt="34" wght="0.0082534000277519233" />
        <Con id="867" src="21" tgt="32" wght="-4.5081493099539589" />
        <Con id="893" src="19" tgt="32" wght="0.049695028620772068" />
        <Con id="965" src="22" tgt="964" wght="0.0010419968203775297" />
        <Con id="966" src="964" tgt="32" wght="5" />
        <Con id="971" src="13" tgt="788" wght="-2.5709890457801521" />
        <Con id="1077" src="30" tgt="964" wght="4.0801849216222763" />
        <Con id="1120" src="17" tgt="964" wght="-3.7300068396143615" />
        <Con id="1149" src="5" tgt="763" wght="-2.192160329079039" />
        <Con id="1204" src="5" tgt="1203" wght="2.1886564255692065" />
        <Con id="1205" src="1203" tgt="34" wght="5" />
        <Con id="1282" src="17" tgt="1281" wght="3.9342802067993783" />
        <Con id="1283" src="1281" tgt="35" wght="5" />
        <Con id="1303" src="30" tgt="1302" wght="0.028404386737383904" />
        <Con id="1304" src="1302" tgt="763" wght="5" />
        <Con id="1312" src="23" tgt="32" wght="0.021244958096106714" />
        <Con id="1401" src="23" tgt="964" wght="0.028526324080303311" />
        <Con id="1431" src="31" tgt="1430" wght="0.29071172140332" />
        <Con id="1499" src="763" tgt="1430" wght="-0.033905613445676865" />
        <Con id="1561" src="32" tgt="1430" wght="-0.020982196950353683" />
        <Con id="1597" src="20" tgt="31" wght="-0.023477016598917544" />
        <Con id="1631" src="20" tgt="1630" wght="1.8495365700747146" />
      </Connections>
    </Network>
    <Network id="6298" birthGen="143" fitness="1.3769574165344238">
      <Nodes>
        <Node type="bias" id="0" />
        <Node type="in" id="1" />
        <Node type="in" id="2" />
        <Node type="in" id="3" />
        <Node type="in" id="4" />
        <Node type="in" id="5" />
        <Node type="in" id="6" />
        <Node type="in" id="7" />
        <Node type="in" id="8" />
        <Node type="in" id="9" />
        <Node type="in" id="10" />
        <Node type="in" id="11" />
        <Node type="in" id="12" />
        <Node type="in" id="13" />
        <Node type="in" id="14" />
        <Node type="in" id="15" />
        <Node type="in" id="16" />
        <Node type="in" id="17" />
        <Node type="in" id="18" />
        <Node type="in" id="19" />
        <Node type="in" id="20" />
        <Node type="in" id="21" />
        <Node type="in" id="22" />
        <Node type="in" id="23" />
        <Node type="in" id="24" />
        <Node type="in" id="25" />
        <Node type="in" id="26" />
        <Node type="in" id="27" />
        <Node type="in" id="28" />
        <Node type="in" id="29" />
        <Node type="in" id="30" />
        <Node type="out" id="31" />
        <Node type="out" id="32" />
        <Node type="out" id="33" />
        <Node type="out" id="34" />
        <Node type="out" id="35" />
        <Node type="hid" id="653" />
        <Node type="hid" id="763" />
        <Node type="hid" id="788" />
        <Node type="hid" id="828" />
        <Node type="hid" id="964" />
        <Node type="hid" id="1203" />
        <Node type="hid" id="1281" />
        <Node type="hid" id="1302" />
        <Node type="hid" id="1430" />
        <Node type="hid" id="1630" />
      </Nodes>
      <Connections>
        <Con id="41" src="1" tgt="31" wght="-0.16833722591400146" />
        <Con id="42" src="1" tgt="32" wght="3.0127110003574535" />
        <Con id="46" src="2" tgt="31" wght="-4.3021619855426252" />
        <Con id="49" src="2" tgt="34" wght="-2.465991300996393" />
        <Con id="56" src="4" tgt="31" wght="0.66850748857894726" />
        <Con id="57" src="4" tgt="32" wght="1.3296685181558132" />
        <Con id="58" src="4" tgt="33" wght="3.4541041613315357" />
        <Con id="61" src="5" tgt="31" wght="2.8909021709114313" />
        <Con id="68" src="6" tgt="33" wght="4.4170115888118744" />
        <Con id="69" src="6" tgt="34" wght="-4.9008826200974216" />
        <Con id="76" src="8" tgt="31" wght="-1.3586871990950009" />
        <Con id="82" src="9" tgt="32" wght="2.6349231577478349" />
        <Con id="83" src="9" tgt="33" wght="0.4573287797163" />
        <Con id="87" src="10" tgt="32" wght="-0.60191150654681" />
        <Con id="89" src="10" tgt="34" wght="-3.9205050887539983" />
        <Con id="92" src="11" tgt="32" wght="-2.1017274283804" />
        <Con id="94" src="11" tgt="34" wght="-4.0466514159925282" />
        <Con id="99" src="12" tgt="34" wght="1.9792742360803668" />
        <Con id="104" src="13" tgt="34" wght="3.293187185190618" />
        <Con id="108" src="14" tgt="33" wght="2.8480012594131012" />
        <Con id="112" src="15" tgt="32" wght="-3.373070271831152" />
        <Con id="117" src="16" tgt="32" wght="-2.25299590267241" />
        <Con id="118" src="16" tgt="33" wght="-4.3405276952759433" />
        <Con id="119" src="16" tgt="34" wght="2.9537633719906355" />
        <Con id="123" src="17" tgt="33" wght="-4.1068320785394778" />
        <Con id="124" src="17" tgt="34" wght="-2.6304621761664748" />
        <Con id="126" src="18" tgt="31" wght="0.10438194498419762" />
        <Con id="134" src="19" tgt="34" wght="4.25431847339496" />
        <Con id="155" src="23" tgt="35" wght="-0.873661731717787" />
        <Con id="159" src="24" tgt="34" wght="3.8518772879615426" />
        <Con id="161" src="25" tgt="31" wght="4.2898255917212609" />
        <Con id="163" src="25" tgt="33" wght="-3.3560617197789222" />
        <Con id="168" src="26" tgt="33" wght="-2.7333908644504845" />
        <Con id="170" src="26" tgt="35" wght="1.496016897726804" />
        <Con id="171" src="27" tgt="31" wght="-0.55082281710779124" />
        <Con id="172" src="27" tgt="32" wght="-2.6601952392880892" />
        <Con id="173" src="27" tgt="33" wght="2.6456174743361771" />
        <Con id="177" src="28" tgt="32" wght="-0.20832884358242154" />
        <Con id="178" src="28" tgt="33" wght="0.30781474797355207" />
        <Con id="186" src="30" tgt="31" wght="0.3975287452340126" />
        <Con id="189" src="30" tgt="34" wght="-3.5621800727461963" />
        <Con id="285" src="23" tgt="31" wght="-0.034457162791540256" />
        <Con id="489" src="8" tgt="32" wght="0.00054436629609057666" />
        <Con id="514" src="4" tgt="35" wght="-0.034989242744632068" />
        <Con id="539" src="31" tgt="35" wght="3.0783847137354314" />
        <Con id="559" src="26" tgt="32" wght="-3.7079162217208856" />
        <Con id="655" src="653" tgt="35" wght="4.9912274400340531" />
        <Con id="719" src="11" tgt="33" wght="4.2478988319635391" />
        <Con id="764" src="17" tgt="763" wght="1.6105314431455471" />
        <Con id="765" src="763" tgt="32" wght="5" />
        <Con id="789" src="17" tgt="788" wght="3.9233954576775432" />
        <Con id="829" src="14" tgt="828" wght="3.1840848550200462" />
        <Con id="830" src="828" tgt="34" wght="5" />
        <Con id="853" src="4" tgt="34" wght="0.0082534000277519233" />
        <Con id="867" src="21" tgt="32" wght="-4.5081493099539589" />
        <Con id="893" src="19" tgt="32" wght="0.049695028620772068" />
        <Con id="965" src="22" tgt="964" wght="0.0010419968203775297" />
        <Con id="966" src="964" tgt="32" wght="5" />
        <Con id="971" src="13" tgt="788" wght="-2.5709890457801521" />
        <Con id="1077" src="30" tgt="964" wght="4.0801849216222763" />
        <Con id="1120" src="17" tgt="964" wght="-3.7300068396143615" />
        <Con id="1149" src="5" tgt="763" wght="-2.192160329079039" />
        <Con id="1204" src="5" tgt="1203" wght="2.1886564255692065" />
        <Con id="1205" src="1203" tgt="34" wght="5" />
        <Con id="1282" src="17" tgt="1281" wght="3.9342802067993783" />
        <Con id="1283" src="1281" tgt="35" wght="5" />
        <Con id="1303" src="30" tgt="1302" wght="0.028404386737383904" />
        <Con id="1304" src="1302" tgt="763" wght="5" />
        <Con id="1312" src="23" tgt="32" wght="0.021244958096106714" />
        <Con id="1401" src="23" tgt="964" wght="0.028526324080303311" />
        <Con id="1431" src="31" tgt="1430" wght="0.29071172140332" />
        <Con id="1499" src="763" tgt="1430" wght="-0.033905613445676865" />
        <Con id="1561" src="32" tgt="1430" wght="-0.020982196950353683" />
        <Con id="1597" src="20" tgt="31" wght="-0.023477016598917544" />
        <Con id="1631" src="20" tgt="1630" wght="1.8495365700747146" />
      </Connections>
    </Network>
    <Network id="6299" birthGen="143" fitness="2.2873179912567139">
      <Nodes>
        <Node type="bias" id="0" />
        <Node type="in" id="1" />
        <Node type="in" id="2" />
        <Node type="in" id="3" />
        <Node type="in" id="4" />
        <Node type="in" id="5" />
        <Node type="in" id="6" />
        <Node type="in" id="7" />
        <Node type="in" id="8" />
        <Node type="in" id="9" />
        <Node type="in" id="10" />
        <Node type="in" id="11" />
        <Node type="in" id="12" />
        <Node type="in" id="13" />
        <Node type="in" id="14" />
        <Node type="in" id="15" />
        <Node type="in" id="16" />
        <Node type="in" id="17" />
        <Node type="in" id="18" />
        <Node type="in" id="19" />
        <Node type="in" id="20" />
        <Node type="in" id="21" />
        <Node type="in" id="22" />
        <Node type="in" id="23" />
        <Node type="in" id="24" />
        <Node type="in" id="25" />
