<?xml version="1.0" encoding="utf-8"?>
<Root>
  <ActivationFunctions>
    <Fn id="0" name="LogisticFunctionSteep" prob="1" />
  </ActivationFunctions>
  <Networks>
    <Network id="19623" birthGen="209" fitness="0.77662805125721757">
      <Nodes>
        <Node type="bias" id="0" />
        <Node type="in" id="1" />
        <Node type="in" id="2" />
        <Node type="in" id="3" />
        <Node type="in" id="4" />
        <Node type="in" id="5" />
        <Node type="in" id="6" />
        <Node type="in" id="7" />
        <Node type="in" id="8" />
        <Node type="in" id="9" />
        <Node type="in" id="10" />
        <Node type="in" id="11" />
        <Node type="in" id="12" />
        <Node type="in" id="13" />
        <Node type="in" id="14" />
        <Node type="in" id="15" />
        <Node type="in" id="16" />
        <Node type="in" id="17" />
        <Node type="in" id="18" />
        <Node type="in" id="19" />
        <Node type="in" id="20" />
        <Node type="in" id="21" />
        <Node type="in" id="22" />
        <Node type="out" id="23" />
        <Node type="out" id="24" />
        <Node type="out" id="25" />
        <Node type="out" id="26" />
        <Node type="hid" id="196" />
        <Node type="hid" id="388" />
        <Node type="hid" id="848" />
        <Node type="hid" id="894" />
        <Node type="hid" id="1064" />
        <Node type="hid" id="1284" />
        <Node type="hid" id="1428" />
        <Node type="hid" id="1541" />
        <Node type="hid" id="1599" />
        <Node type="hid" id="1659" />
        <Node type="hid" id="2154" />
        <Node type="hid" id="2397" />
        <Node type="hid" id="2818" />
        <Node type="hid" id="2942" />
        <Node type="hid" id="3377" />
        <Node type="hid" id="3613" />
      </Nodes>
      <Connections>
        <Con id="35" src="2" tgt="23" wght="2.3042635496811608" />
        <Con id="126" src="25" tgt="23" wght="-0.032949804904454628" />
        <Con id="142" src="22" tgt="23" wght="0.79903909693562392" />
        <Con id="154" src="11" tgt="26" wght="-0.0439188968222297" />
        <Con id="198" src="196" tgt="24" wght="4.9974251530556435" />
        <Con id="223" src="3" tgt="25" wght="0.04379002613598517" />
        <Con id="278" src="0" tgt="23" wght="0.020951040948194947" />
        <Con id="343" src="11" tgt="23" wght="0.10277710347013998" />
        <Con id="624" src="22" tgt="196" wght="-1.98417626437329" />
        <Con id="660" src="17" tgt="196" wght="-0.037649056197690468" />
        <Con id="703" src="8" tgt="23" wght="4.9437973734531342" />
        <Con id="789" src="3" tgt="388" wght="-1.2680291948822873" />
        <Con id="796" src="26" tgt="388" wght="3.7756761617840291" />
        <Con id="818" src="20" tgt="24" wght="-3.252917018283251" />
        <Con id="819" src="14" tgt="25" wght="0.037902588001452388" />
        <Con id="840" src="21" tgt="25" wght="0.007218610009432495" />
        <Con id="850" src="848" tgt="25" wght="5" />
        <Con id="884" src="7" tgt="26" wght="2.425168314948678" />
        <Con id="886" src="1" tgt="388" wght="-0.0446126208640635" />
        <Con id="919" src="5" tgt="388" wght="4.7590444954599231" />
        <Con id="1056" src="8" tgt="25" wght="-0.32115940935909748" />
        <Con id="1066" src="1064" tgt="388" wght="4.9913878076558174" />
        <Con id="1067" src="388" tgt="894" wght="1.7802363808233084" />
        <Con id="1192" src="848" tgt="24" wght="-1.4274710676990408" />
        <Con id="1286" src="1284" tgt="848" wght="4.9727883791934708" />
        <Con id="1375" src="894" tgt="196" wght="-0.029242536867968738" />
        <Con id="1419" src="5" tgt="848" wght="-1.7242810021271375" />
        <Con id="1430" src="1428" tgt="848" wght="4.9973579070558483" />
        <Con id="1445" src="6" tgt="388" wght="0.039161525270767814" />
        <Con id="1542" src="13" tgt="1541" wght="0.019517115020408971" />
        <Con id="1601" src="1599" tgt="848" wght="5" />
        <Con id="1616" src="14" tgt="1284" wght="3.5940877813845873" />
        <Con id="1660" src="388" tgt="1659" wght="4.9777932654653405" />
        <Con id="1843" src="18" tgt="1064" wght="-0.7175418408587575" />
        <Con id="2009" src="1659" tgt="1428" wght="-0.044533228324026827" />
        <Con id="2027" src="6" tgt="894" wght="0.013669953321081469" />
        <Con id="2095" src="1064" tgt="1659" wght="0.01940381221516483" />
        <Con id="2155" src="10" tgt="2154" wght="0.0078909588216137666" />
        <Con id="2156" src="2154" tgt="1428" wght="4.9837575761361474" />
        <Con id="2184" src="20" tgt="1428" wght="0.036392673499887312" />
        <Con id="2200" src="0" tgt="848" wght="0.031734516257915069" />
        <Con id="2544" src="1599" tgt="1428" wght="-0.033691732934676109" />
        <Con id="2610" src="6" tgt="2397" wght="0.0432020425593355" />
        <Con id="2820" src="2818" tgt="1659" wght="5" />
        <Con id="2874" src="16" tgt="2397" wght="0.0299177942564711" />
        <Con id="2887" src="1541" tgt="1064" wght="2.6975584631294844" />
        <Con id="2943" src="3" tgt="2942" wght="3.8732434017583728" />
        <Con id="2944" src="2942" tgt="26" wght="4.9931691978877941" />
        <Con id="2958" src="6" tgt="2942" wght="0.79635603381230924" />
        <Con id="3080" src="13" tgt="1659" wght="-0.02518170934636146" />
        <Con id="3353" src="12" tgt="2818" wght="-0.0052231774665415292" />
        <Con id="3379" src="3377" tgt="2818" wght="5" />
        <Con id="3614" src="2397" tgt="3613" wght="-0.044291621777295585" />
        <Con id="3615" src="3613" tgt="3377" wght="5" />
        <Con id="3681" src="2397" tgt="1284" wght="-0.025291210436262191" />
      </Connections>
    </Network>
    <Network id="19686" birthGen="210" fitness="0.59536909667826343">
      <Nodes>
        <Node type="bias" id="0" />
        <Node type="in" id="1" />
        <Node type="in" id="2" />
        <Node type="in" id="3" />
        <Node type="in" id="4" />
        <Node type="in" id="5" />
        <Node type="in" id="6" />
        <Node type="in" id="7" />
        <Node type="in" id="8" />
        <Node type="in" id="9" />
        <Node type="in" id="10" />
        <Node type="in" id="11" />
        <Node type="in" id="12" />
        <Node type="in" id="13" />
        <Node type="in" id="14" />
        <Node type="in" id="15" />
        <Node type="in" id="16" />
        <Node type="in" id="17" />
        <Node type="in" id="18" />
        <Node type="in" id="19" />
        <Node type="in" id="20" />
        <Node type="in" id="21" />
        <Node type="in" id="22" />
        <Node type="out" id="23" />
        <Node type="out" id="24" />
        <Node type="out" id="25" />
        <Node type="out" id="26" />
        <Node type="hid" id="196" />
        <Node type="hid" id="280" />
        <Node type="hid" id="498" />
        <Node type="hid" id="689" />
        <Node type="hid" id="718" />
        <Node type="hid" id="752" />
        <Node type="hid" id="756" />
        <Node type="hid" id="931" />
        <Node type="hid" id="1082" />
        <Node type="hid" id="1343" />
        <Node type="hid" id="1533" />
        <Node type="hid" id="3313" />
      </Nodes>
      <Connections>
        <Con id="35" src="2" tgt="23" wght="2.3500051764034811" />
        <Con id="142" src="22" tgt="23" wght="3.4774723568557553" />
        <Con id="223" src="3" tgt="25" wght="0.050154943303012421" />
        <Con id="281" src="196" tgt="280" wght="4.986118573031427" />
        <Con id="282" src="280" tgt="24" wght="5" />
        <Con id="454" src="16" tgt="25" wght="-0.049221371300518513" />
        <Con id="500" src="498" tgt="280" wght="4.9880512765976643" />
        <Con id="510" src="24" tgt="280" wght="-4.9929574202863662" />
        <Con id="550" src="8" tgt="280" wght="-0.039269286906346679" />
        <Con id="668" src="26" tgt="26" wght="0.056050209428406945" />
        <Con id="690" src="11" tgt="689" wght="-0.051931339523726527" />
        <Con id="691" src="689" tgt="196" wght="5" />
        <Con id="719" src="15" tgt="718" wght="-0.62728223740602806" />
        <Con id="720" src="718" tgt="26" wght="4.9829071030551733" />
        <Con id="734" src="18" tgt="26" wght="4.9680617125658335" />
        <Con id="749" src="21" tgt="196" wght="0.014559559081681073" />
        <Con id="753" src="6" tgt="752" wght="-0.037050067413736093" />
        <Con id="755" src="0" tgt="24" wght="-0.023696237534017887" />
        <Con id="757" src="15" tgt="756" wght="-0.027758369292151752" />
        <Con id="758" src="756" tgt="280" wght="5" />
        <Con id="782" src="12" tgt="280" wght="0.011776630679362573" />
        <Con id="814" src="22" tgt="498" wght="-4.0640118907966611" />
        <Con id="952" src="7" tgt="24" wght="-0.050774928019481518" />
        <Con id="955" src="14" tgt="23" wght="3.779074963776083" />
        <Con id="982" src="24" tgt="25" wght="-0.0455804849792336" />
        <Con id="986" src="10" tgt="26" wght="3.3647386448918408" />
        <Con id="1033" src="18" tgt="498" wght="-3.6831067269667983" />
        <Con id="1068" src="5" tgt="25" wght="0.47664333336810472" />
        <Con id="1071" src="4" tgt="280" wght="0.0079708374105393887" />
        <Con id="1083" src="13" tgt="1082" wght="0.027367474587428442" />
        <Con id="1109" src="17" tgt="498" wght="-1.0306743096174393" />
        <Con id="1148" src="498" tgt="196" wght="0.052673114458214557" />
        <Con id="1180" src="15" tgt="23" wght="-0.002715053779825255" />
        <Con id="1344" src="20" tgt="1343" wght="-0.030054747821996255" />
        <Con id="1345" src="1343" tgt="752" wght="5" />
        <Con id="1477" src="16" tgt="498" wght="-1.1396457138471305" />
        <Con id="1534" src="9" tgt="1533" wght="-3.6901035198016081" />
        <Con id="1776" src="21" tgt="1343" wght="0.022678534451618586" />
        <Con id="2037" src="8" tgt="1082" wght="-0.041175636649131778" />
        <Con id="2086" src="8" tgt="931" wght="-1.3316270582604166" />
        <Con id="2208" src="18" tgt="931" wght="-0.0067401599604636434" />
        <Con id="2209" src="15" tgt="752" wght="0.019623351027257742" />
        <Con id="2230" src="16" tgt="752" wght="1.4731701975688338" />
        <Con id="2360" src="7" tgt="1082" wght="0.036018509799989974" />
        <Con id="2497" src="3" tgt="1082" wght="-0.046163488034375449" />
        <Con id="2626" src="1343" tgt="280" wght="0.02765652153852096" />
        <Con id="3027" src="5" tgt="1082" wght="0.028039414482191206" />
        <Con id="3314" src="3" tgt="3313" wght="-0.039902089190991349" />
        <Con id="3315" src="3313" tgt="931" wght="5" />
        <Con id="3326" src="1082" tgt="1343" wght="-0.032183838356286285" />
        <Con id="3345" src="16" tgt="1533" wght="-0.0093029436422511942" />
        <Con id="3508" src="10" tgt="689" wght="0.44316672487184405" />
        <Con id="3524" src="12" tgt="718" wght="-1.8966971267101527" />
        <Con id="3824" src="1343" tgt="756" wght="-1.8062643799930811" />
        <Con id="3840" src="931" tgt="718" wght="0.047308712755329906" />
      </Connections>
    </Network>
    <Network id="19700" birthGen="210" fitness="0.83842220277060031">
      <Nodes>
        <Node type="bias" id="0" />
        <Node type="in" id="1" />
        <Node type="in" id="2" />
        <Node type="in" id="3" />
        <Node type="in" id="4" />
        <Node type="in" id="5" />
        <Node type="in" id="6" />
        <Node type="in" id="7" />
        <Node type="in" id="8" />
        <Node type="in" id="9" />
        <Node type="in" id="10" />
        <Node type="in" id="11" />
        <Node type="in" id="12" />
        <Node type="in" id="13" />
        <Node type="in" id="14" />
        <Node type="in" id="15" />
        <Node type="in" id="16" />
        <Node type="in" id="17" />
        <Node type="in" id="18" />
        <Node type="in" id="19" />
        <Node type="in" id="20" />
        <Node type="in" id="21" />
        <Node type="in" id="22" />
        <Node type="out" id="23" />
        <Node type="out" id="24" />
        <Node type="out" id="25" />
        <Node type="out" id="26" />
        <Node type="hid" id="196" />
        <Node type="hid" id="280" />
        <Node type="hid" id="388" />
        <Node type="hid" id="498" />
        <Node type="hid" id="752" />
        <Node type="hid" id="848" />
        <Node type="hid" id="894" />
        <Node type="hid" id="931" />
        <Node type="hid" id="1064" />
        <Node type="hid" id="1082" />
        <Node type="hid" id="1284" />
        <Node type="hid" id="1343" />
        <Node type="hid" id="1456" />
        <Node type="hid" id="1541" />
        <Node type="hid" id="1659" />
        <Node type="hid" id="1906" />
        <Node type="hid" id="2180" />
        <Node type="hid" id="2731" />
        <Node type="hid" id="2748" />
        <Node type="hid" id="3188" />
      </Nodes>
      <Connections>
        <Con id="142" src="22" tgt="23" wght="0.839317871640025" />
        <Con id="197" src="11" tgt="196" wght="-0.041144643314683475" />
        <Con id="198" src="196" tgt="24" wght="4.9908477193844121" />
        <Con id="203" src="6" tgt="23" wght="0.006237201282467535" />
        <Con id="223" src="3" tgt="25" wght="0.030013878329507471" />
        <Con id="254" src="15" tgt="26" wght="-0.62728223740602806" />
        <Con id="278" src="0" tgt="23" wght="0.020951040948194947" />
        <Con id="281" src="196" tgt="280" wght="4.986118573031427" />
        <Con id="282" src="280" tgt="24" wght="5" />
        <Con id="297" src="24" tgt="24" wght="-0.001663298485800624" />
        <Con id="352" src="9" tgt="25" wght="-0.023335523303952756" />
        <Con id="407" src="280" tgt="26" wght="0.020520603414462886" />
        <Con id="454" src="16" tgt="25" wght="-0.049221371300518513" />
        <Con id="468" src="15" tgt="280" wght="-0.027758369292151752" />
        <Con id="500" src="498" tgt="280" wght="4.9926533437184064" />
        <Con id="508" src="8" tgt="196" wght="-0.62481507891789079" />
        <Con id="510" src="24" tgt="280" wght="-4.9929574202863662" />
        <Con id="550" src="8" tgt="280" wght="-0.039269286906346679" />
        <Con id="624" src="22" tgt="196" wght="-1.9633272670071698" />
        <Con id="668" src="26" tgt="26" wght="0.041709333984181286" />
        <Con id="703" src="8" tgt="23" wght="4.9437973734531342" />
        <Con id="734" src="18" tgt="26" wght="4.9653456779196858" />
        <Con id="749" src="21" tgt="196" wght="0.014559559081681073" />
        <Con id="751" src="22" tgt="25" wght="-4.3627670430578291" />
        <Con id="753" src="6" tgt="752" wght="-0.037050067413736093" />
        <Con id="755" src="0" tgt="24" wght="-0.004833000525832176" />
        <Con id="782" src="12" tgt="280" wght="-0.0012088717548798152" />
        <Con id="789" src="3" tgt="388" wght="4.2140399548225105" />
        <Con id="814" src="22" tgt="498" wght="-4.051039417283091" />
        <Con id="819" src="14" tgt="25" wght="0.0032820351938144636" />
        <Con id="850" src="848" tgt="25" wght="5" />
        <Con id="870" src="6" tgt="24" wght="0.16355734661549196" />
        <Con id="895" src="18" tgt="894" wght="0.008484395757550188" />
        <Con id="919" src="5" tgt="388" wght="4.7415711840963715" />
        <Con id="930" src="2" tgt="280" wght="-2.9229886302268349" />
        <Con id="936" src="12" tgt="196" wght="0.0408118685087163" />
        <Con id="952" src="7" tgt="24" wght="-0.050774928019481518" />
        <Con id="955" src="14" tgt="23" wght="3.779074963776083" />
        <Con id="964" src="21" tgt="848" wght="1.8728460123077921" />
        <Con id="982" src="24" tgt="25" wght="-0.040685703254639355" />
        <Con id="986" src="10" tgt="26" wght="3.3704352425411344" />
        <Con id="1014" src="4" tgt="25" wght="0.050709584804028089" />
        <Con id="1033" src="18" tgt="498" wght="-3.6831067269667983" />
        <Con id="1066" src="1064" tgt="388" wght="5" />
        <Con id="1068" src="5" tgt="25" wght="0.47569032910632347" />
        <Con id="1083" src="13" tgt="1082" wght="0.029995100293308496" />
        <Con id="1096" src="22" tgt="848" wght="0.016851575524340877" />
        <Con id="1148" src="498" tgt="196" wght="0.035474444097226984" />
        <Con id="1180" src="15" tgt="23" wght="-0.002715053779825255" />
        <Con id="1192" src="848" tgt="24" wght="-1.4151568484872821" />
        <Con id="1201" src="1" tgt="498" wght="0.019330471800640226" />
        <Con id="1286" src="1284" tgt="848" wght="5" />
        <Con id="1313" src="10" tgt="848" wght="0.013829368585720659" />
        <Con id="1344" src="20" tgt="1343" wght="-0.017711770689203241" />
        <Con id="1345" src="1343" tgt="752" wght="4.9989285698936881" />
        <Con id="1376" src="5" tgt="894" wght="-3.9997392939403653" />
        <Con id="1406" src="9" tgt="1343" wght="-3.6930336516734594" />
        <Con id="1445" src="6" tgt="388" wght="0.057427025994706483" />
        <Con id="1458" src="1456" tgt="894" wght="5" />
        <Con id="1477" src="16" tgt="498" wght="-1.1396457138471305" />
        <Con id="1494" src="8" tgt="848" wght="0.016941427105008504" />
        <Con id="1548" src="4" tgt="848" wght="-4.6115060593001544" />
        <Con id="1708" src="15" tgt="894" wght="-0.0053503340298310057" />
        <Con id="1709" src="18" tgt="848" wght="-1.1163299647159874" />
        <Con id="1776" src="21" tgt="1343" wght="0.022678534451618586" />
        <Con id="1827" src="1659" tgt="23" wght="0.032942869603255015" />
        <Con id="1907" src="388" tgt="1906" wght="4.9814907107885507" />
        <Con id="1908" src="1906" tgt="1659" wght="5" />
        <Con id="1962" src="1541" tgt="24" wght="0.038283512252382933" />
        <Con id="2086" src="8" tgt="931" wght="-1.3316270582604166" />
        <Con id="2115" src="19" tgt="931" wght="2.8866824391297996" />
        <Con id="2149" src="19" tgt="1064" wght="0.814387549482299" />
        <Con id="2181" src="13" tgt="2180" wght="0.019517115020408971" />
        <Con id="2182" src="2180" tgt="1541" wght="5" />
        <Con id="2230" src="16" tgt="752" wght="1.4731701975688338" />
        <Con id="2360" src="7" tgt="1082" wght="0.0479843790353661" />
        <Con id="2421" src="3" tgt="931" wght="-0.037788837659172715" />
        <Con id="2439" src="1906" tgt="1541" wght="-0.01242286772467196" />
        <Con id="2487" src="8" tgt="1659" wght="0.030068765481476578" />
        <Con id="2497" src="3" tgt="1082" wght="-0.048324371874332431" />
        <Con id="2626" src="1343" tgt="280" wght="0.02765652153852096" />
        <Con id="2732" src="7" tgt="2731" wght="-0.032506152379633411" />
        <Con id="2733" src="2731" tgt="894" wght="5" />
        <Con id="2749" src="388" tgt="2748" wght="1.7961625039625737" />
        <Con id="2750" src="2748" tgt="1456" wght="5" />
        <Con id="2773" src="22" tgt="2731" wght="-0.040114965359680357" />
        <Con id="2776" src="15" tgt="1064" wght="-0.021477914415299892" />
        <Con id="2867" src="1659" tgt="388" wght="0.011099500884301962" />
        <Con id="2929" src="23" tgt="2748" wght="-2.89378194604069" />
        <Con id="2932" src="7" tgt="1541" wght="-4.0895983204245567" />
        <Con id="3013" src="2731" tgt="1456" wght="3.9679569657891989" />
        <Con id="3022" src="1659" tgt="1659" wght="0.31870380043983459" />
        <Con id="3105" src="1064" tgt="24" wght="-0.046273582591675223" />
        <Con id="3125" src="16" tgt="1659" wght="-0.039722153032198552" />
        <Con id="3189" src="18" tgt="3188" wght="-0.0067401599604636434" />
        <Con id="3190" src="3188" tgt="931" wght="5" />
        <Con id="3208" src="1082" tgt="1082" wght="-0.034752688789740208" />
        <Con id="3312" src="1541" tgt="2731" wght="0.095207644626498222" />
        <Con id="3517" src="280" tgt="1906" wght="-0.025118529284372925" />
        <Con id="3537" src="12" tgt="1456" wght="-3.4268515161238611" />
        <Con id="3577" src="3188" tgt="25" wght="-0.040647506690584125" />
        <Con id="3611" src="23" tgt="752" wght="-0.036607849271968008" />
        <Con id="3646" src="17" tgt="1064" wght="2.2292301501147449" />
        <Con id="3914" src="280" tgt="894" wght="-0.022730728378519416" />
      </Connections>
    </Network>
    <Network id="19693" birthGen="210" fitness="0.84344000315934142">
      <Nodes>
        <Node type="bias" id="0" />
        <Node type="in" id="1" />
        <Node type="in" id="2" />
        <Node type="in" id="3" />
        <Node type="in" id="4" />
        <Node type="in" id="5" />
        <Node type="in" id="6" />
        <Node type="in" id="7" />
        <Node type="in" id="8" />
        <Node type="in" id="9" />
        <Node type="in" id="10" />
        <Node type="in" id="11" />
        <Node type="in" id="12" />
        <Node type="in" id="13" />
        <Node type="in" id="14" />
        <Node type="in" id="15" />
        <Node type="in" id="16" />
        <Node type="in" id="17" />
        <Node type="in" id="18" />
        <Node type="in" id="19" />
        <Node type="in" id="20" />
        <Node type="in" id="21" />
        <Node type="in" id="22" />
        <Node type="out" id="23" />
        <Node type="out" id="24" />
        <Node type="out" id="25" />
        <Node type="out" id="26" />
        <Node type="hid" id="196" />
        <Node type="hid" id="280" />
        <Node type="hid" id="388" />
        <Node type="hid" id="498" />
        <Node type="hid" id="752" />
        <Node type="hid" id="848" />
        <Node type="hid" id="894" />
        <Node type="hid" id="931" />
        <Node type="hid" id="1064" />
        <Node type="hid" id="1082" />
        <Node type="hid" id="1284" />
        <Node type="hid" id="1343" />
        <Node type="hid" id="1456" />
        <Node type="hid" id="1541" />
        <Node type="hid" id="1659" />
        <Node type="hid" id="1906" />
        <Node type="hid" id="2180" />
        <Node type="hid" id="2731" />
        <Node type="hid" id="2748" />
        <Node type="hid" id="3188" />
      </Nodes>
      <Connections>
        <Con id="142" src="22" tgt="23" wght="0.839317871640025" />
        <Con id="197" src="11" tgt="196" wght="-0.041144643314683475" />
        <Con id="198" src="196" tgt="24" wght="4.9908477193844121" />
        <Con id="203" src="6" tgt="23" wght="0.006237201282467535" />
        <Con id="223" src="3" tgt="25" wght="0.030013878329507471" />
        <Con id="254" src="15" tgt="26" wght="-0.62728223740602806" />
        <Con id="278" src="0" tgt="23" wght="0.020951040948194947" />
        <Con id="281" src="196" tgt="280" wght="4.986118573031427" />
        <Con id="282" src="280" tgt="24" wght="5" />
        <Con id="297" src="24" tgt="24" wght="-0.001663298485800624" />
        <Con id="352" src="9" tgt="25" wght="-0.023335523303952756" />
        <Con id="407" src="280" tgt="26" wght="0.020520603414462886" />
        <Con id="454" src="16" tgt="25" wght="-0.049221371300518513" />
        <Con id="468" src="15" tgt="280" wght="-0.027758369292151752" />
        <Con id="500" src="498" tgt="280" wght="4.9926533437184064" />
        <Con id="508" src="8" tgt="196" wght="-0.62481507891789079" />
        <Con id="510" src="24" tgt="280" wght="-4.9929574202863662" />
        <Con id="550" src="8" tgt="280" wght="-0.039269286906346679" />
        <Con id="624" src="22" tgt="196" wght="-1.9633272670071698" />
        <Con id="668" src="26" tgt="26" wght="0.041709333984181286" />
        <Con id="703" src="8" tgt="23" wght="4.9437973734531342" />
        <Con id="734" src="18" tgt="26" wght="4.9653456779196858" />
        <Con id="749" src="21" tgt="196" wght="0.014559559081681073" />
        <Con id="751" src="22" tgt="25" wght="-4.3627670430578291" />
        <Con id="753" src="6" tgt="752" wght="-0.037050067413736093" />
        <Con id="755" src="0" tgt="24" wght="-0.004833000525832176" />
        <Con id="782" src="12" tgt="280" wght="-0.0012088717548798152" />
        <Con id="789" src="3" tgt="388" wght="4.2234765549370827" />
        <Con id="814" src="22" tgt="498" wght="-4.051039417283091" />
        <Con id="819" src="14" tgt="25" wght="0.0032820351938144636" />
        <Con id="850" src="848" tgt="25" wght="5" />
        <Con id="870" src="6" tgt="24" wght="0.16355734661549196" />
        <Con id="895" src="18" tgt="894" wght="0.008484395757550188" />
        <Con id="919" src="5" tgt="388" wght="4.7415711840963715" />
        <Con id="930" src="2" tgt="280" wght="-2.9229886302268349" />
        <Con id="936" src="12" tgt="196" wght="0.0408118685087163" />
        <Con id="952" src="7" tgt="24" wght="-0.050774928019481518" />
        <Con id="955" src="14" tgt="23" wght="3.779074963776083" />
        <Con id="964" src="21" tgt="848" wght="1.874328285921365" />
        <Con id="982" src="24" tgt="25" wght="-0.040685703254639355" />
        <Con id="986" src="10" tgt="26" wght="3.3704352425411344" />
        <Con id="1014" src="4" tgt="25" wght="0.050709584804028089" />
        <Con id="1033" src="18" tgt="498" wght="-3.6831067269667983" />
        <Con id="1066" src="1064" tgt="388" wght="5" />
        <Con id="1068" src="5" tgt="25" wght="0.47569032910632347" />
        <Con id="1083" src="13" tgt="1082" wght="0.029995100293308496" />
        <Con id="1096" src="22" tgt="848" wght="0.016851575524340877" />
        <Con id="1148" src="498" tgt="196" wght="0.035474444097226984" />
        <Con id="1180" src="15" tgt="23" wght="-0.002715053779825255" />
        <Con id="1192" src="848" tgt="24" wght="-1.4151568484872821" />
        <Con id="1201" src="1" tgt="498" wght="0.019330471800640226" />
        <Con id="1286" src="1284" tgt="848" wght="5" />
        <Con id="1313" src="10" tgt="848" wght="0.013829368585720659" />
        <Con id="1344" src="20" tgt="1343" wght="-0.017711770689203241" />
        <Con id="1345" src="1343" tgt="752" wght="4.9989285698936881" />
        <Con id="1376" src="5" tgt="894" wght="-3.9997392939403653" />
        <Con id="1406" src="9" tgt="1343" wght="-3.6930336516734594" />
        <Con id="1445" src="6" tgt="388" wght="0.057427025994706483" />
        <Con id="1458" src="1456" tgt="894" wght="5" />
        <Con id="1477" src="16" tgt="498" wght="-1.1396457138471305" />
        <Con id="1494" src="8" tgt="848" wght="0.016941427105008504" />
        <Con id="1548" src="4" tgt="848" wght="-4.6115060593001544" />
        <Con id="1708" src="15" tgt="894" wght="-0.0053503340298310057" />
        <Con id="1709" src="18" tgt="848" wght="-1.1163299647159874" />
        <Con id="1776" src="21" tgt="1343" wght="0.022678534451618586" />
        <Con id="1827" src="1659" tgt="23" wght="0.032942869603255015" />
        <Con id="1907" src="388" tgt="1906" wght="4.9814907107885507" />
        <Con id="1908" src="1906" tgt="1659" wght="5" />
        <Con id="1962" src="1541" tgt="24" wght="0.038283512252382933" />
        <Con id="2086" src="8" tgt="931" wght="-1.3316270582604166" />
        <Con id="2115" src="19" tgt="931" wght="2.8866824391297996" />
        <Con id="2149" src="19" tgt="1064" wght="0.814387549482299" />
        <Con id="2181" src="13" tgt="2180" wght="0.019517115020408971" />
        <Con id="2182" src="2180" tgt="1541" wght="5" />
        <Con id="2230" src="16" tgt="752" wght="1.4731701975688338" />
        <Con id="2360" src="7" tgt="1082" wght="0.0479843790353661" />
        <Con id="2421" src="3" tgt="931" wght="-0.037788837659172715" />
        <Con id="2439" src="1906" tgt="1541" wght="-0.01242286772467196" />
        <Con id="2487" src="8" tgt="1659" wght="0.030068765481476578" />
        <Con id="2497" src="3" tgt="1082" wght="-0.048324371874332431" />
        <Con id="2626" src="1343" tgt="280" wght="0.02765652153852096" />
        <Con id="2732" src="7" tgt="2731" wght="-0.032506152379633411" />
        <Con id="2733" src="2731" tgt="894" wght="5" />
        <Con id="2749" src="388" tgt="2748" wght="1.7961625039625737" />
        <Con id="2750" src="2748" tgt="1456" wght="5" />
        <Con id="2773" src="22" tgt="2731" wght="-0.040114965359680357" />
        <Con id="2776" src="15" tgt="1064" wght="-0.033787230942485091" />
        <Con id="2867" src="1659" tgt="388" wght="0.011099500884301962" />
        <Con id="2929" src="23" tgt="2748" wght="-2.89378194604069" />
        <Con id="2932" src="7" tgt="1541" wght="-4.0895983204245567" />
        <Con id="3013" src="2731" tgt="1456" wght="3.9679569657891989" />
        <Con id="3022" src="1659" tgt="1659" wght="0.31870380043983459" />
        <Con id="3105" src="1064" tgt="24" wght="-0.046273582591675223" />
        <Con id="3125" src="16" tgt="1659" wght="-0.039722153032198552" />
        <Con id="3189" src="18" tgt="3188" wght="-0.0067401599604636434" />
        <Con id="3190" src="3188" tgt="931" wght="5" />
        <Con id="3208" src="1082" tgt="1082" wght="-0.034752688789740208" />
        <Con id="3312" src="1541" tgt="2731" wght="0.095207644626498222" />
        <Con id="3517" src="280" tgt="1906" wght="-0.025118529284372925" />
        <Con id="3537" src="12" tgt="1456" wght="-3.4268515161238611" />
        <Con id="3577" src="3188" tgt="25" wght="-0.040647506690584125" />
        <Con id="3611" src="23" tgt="752" wght="-0.036607849271968008" />
        <Con id="3646" src="17" tgt="1064" wght="2.2292301501147449" />
      </Connections>
    </Network>
    <Network id="19695" birthGen="210" fitness="0.83827624379265231">
      <Nodes>
        <Node type="bias" id="0" />
        <Node type="in" id="1" />
        <Node type="in" id="2" />
        <Node type="in" id="3" />
        <Node type="in" id="4" />
        <Node type="in" id="5" />
        <Node type="in" id="6" />
        <Node type="in" id="7" />
        <Node type="in" id="8" />
        <Node type="in" id="9" />
        <Node type="in" id="10" />
        <Node type="in" id="11" />
        <Node type="in" id="12" />
        <Node type="in" id="13" />
        <Node type="in" id="14" />
        <Node type="in" id="15" />
        <Node type="in" id="16" />
        <Node type="in" id="17" />
        <Node type="in" id="18" />
        <Node type="in" id="19" />
        <Node type="in" id="20" />
        <Node type="in" id="21" />
        <Node type="in" id="22" />
        <Node type="out" id="23" />
        <Node type="out" id="24" />
        <Node type="out" id="25" />
        <Node type="out" id="26" />
        <Node type="hid" id="196" />
        <Node type="hid" id="280" />
        <Node type="hid" id="388" />
        <Node type="hid" id="498" />
        <Node type="hid" id="752" />
        <Node type="hid" id="848" />
        <Node type="hid" id="894" />
        <Node type="hid" id="931" />
        <Node type="hid" id="1064" />
        <Node type="hid" id="1082" />
        <Node type="hid" id="1284" />
        <Node type="hid" id="1343" />
        <Node type="hid" id="1456" />
        <Node type="hid" id="1541" />
        <Node type="hid" id="1659" />
        <Node type="hid" id="1906" />
        <Node type="hid" id="2180" />
        <Node type="hid" id="2731" />
        <Node type="hid" id="2748" />
        <Node type="hid" id="3188" />
      </Nodes>
      <Connections>
        <Con id="142" src="22" tgt="23" wght="0.839317871640025" />
        <Con id="197" src="11" tgt="196" wght="-0.041144643314683475" />
        <Con id="198" src="196" tgt="24" wght="4.9908477193844121" />
        <Con id="203" src="6" tgt="23" wght="0.006237201282467535" />
        <Con id="223" src="3" tgt="25" wght="0.030013878329507471" />
        <Con id="254" src="15" tgt="26" wght="-0.62728223740602806" />
        <Con id="278" src="0" tgt="23" wght="0.020951040948194947" />
        <Con id="281" src="196" tgt="280" wght="4.986118573031427" />
        <Con id="282" src="280" tgt="24" wght="5" />
        <Con id="297" src="24" tgt="24" wght="0.015749102619824387" />
        <Con id="352" src="9" tgt="25" wght="-0.023335523303952756" />
        <Con id="407" src="280" tgt="26" wght="0.020520603414462886" />
        <Con id="454" src="16" tgt="25" wght="-0.049221371300518513" />
        <Con id="468" src="15" tgt="280" wght="-0.027758369292151752" />
        <Con id="500" src="498" tgt="280" wght="4.9926533437184064" />
        <Con id="508" src="8" tgt="196" wght="-0.62481507891789079" />
        <Con id="510" src="24" tgt="280" wght="-4.9929574202863662" />
        <Con id="550" src="8" tgt="280" wght="-0.039269286906346679" />
        <Con id="624" src="22" tgt="196" wght="-1.9633272670071698" />
        <Con id="668" src="26" tgt="26" wght="0.041709333984181286" />
        <Con id="703" src="8" tgt="23" wght="4.9437973734531342" />
        <Con id="734" src="18" tgt="26" wght="4.9653456779196858" />
        <Con id="749" src="21" tgt="196" wght="0.014559559081681073" />
        <Con id="751" src="22" tgt="25" wght="-4.3627670430578291" />
        <Con id="753" src="6" tgt="752" wght="-0.037050067413736093" />
        <Con id="755" src="0" tgt="24" wght="-0.004833000525832176" />
        <Con id="782" src="12" tgt="280" wght="-0.0012088717548798152" />
        <Con id="789" src="3" tgt="388" wght="4.2234765549370827" />
        <Con id="814" src="22" tgt="498" wght="-4.051039417283091" />
        <Con id="819" src="14" tgt="25" wght="0.0032820351938144636" />
        <Con id="850" src="848" tgt="25" wght="5" />
        <Con id="870" src="6" tgt="24" wght="0.16355734661549196" />
        <Con id="895" src="18" tgt="894" wght="0.008484395757550188" />
        <Con id="919" src="5" tgt="388" wght="4.7415711840963715" />
        <Con id="930" src="2" tgt="280" wght="-2.9229886302268349" />
        <Con id="936" src="12" tgt="196" wght="0.0408118685087163" />
        <Con id="952" src="7" tgt="24" wght="-0.050774928019481518" />
        <Con id="955" src="14" tgt="23" wght="3.779074963776083" />
        <Con id="964" src="21" tgt="848" wght="1.874328285921365" />
        <Con id="982" src="24" tgt="25" wght="-0.040685703254639355" />
        <Con id="986" src="10" tgt="26" wght="3.3704352425411344" />
        <Con id="1014" src="4" tgt="25" wght="0.050709584804028089" />
        <Con id="1033" src="18" tgt="498" wght="-3.6831067269667983" />
        <Con id="1066" src="1064" tgt="388" wght="5" />
        <Con id="1068" src="5" tgt="25" wght="0.47569032910632347" />
        <Con id="1083" src="13" tgt="1082" wght="0.029995100293308496" />
        <Con id="1096" src="22" tgt="848" wght="0.016851575524340877" />
        <Con id="1148" src="498" tgt="196" wght="0.035474444097226984" />
        <Con id="1180" src="15" tgt="23" wght="-0.002715053779825255" />
        <Con id="1192" src="848" tgt="24" wght="-1.4151568484872821" />
        <Con id="1201" src="1" tgt="498" wght="0.019330471800640226" />
        <Con id="1286" src="1284" tgt="848" wght="5" />
        <Con id="1313" src="10" tgt="848" wght="0.013829368585720659" />
        <Con id="1344" src="20" tgt="1343" wght="-0.017711770689203241" />
        <Con id="1345" src="1343" tgt="752" wght="4.9989285698936881" />
        <Con id="1376" src="5" tgt="894" wght="-3.9997392939403653" />
        <Con id="1406" src="9" tgt="1343" wght="-3.6930336516734594" />
        <Con id="1445" src="6" tgt="388" wght="0.057427025994706483" />
        <Con id="1458" src="1456" tgt="894" wght="5" />
        <Con id="1477" src="16" tgt="498" wght="-1.1396457138471305" />
        <Con id="1494" src="8" tgt="848" wght="0.016941427105008504" />
        <Con id="1548" src="4" tgt="848" wght="-4.6115060593001544" />
        <Con id="1708" src="15" tgt="894" wght="-0.0053503340298310057" />
        <Con id="1709" src="18" tgt="848" wght="-1.1163299647159874" />
        <Con id="1776" src="21" tgt="1343" wght="0.022678534451618586" />
        <Con id="1827" src="1659" tgt="23" wght="0.032942869603255015" />
        <Con id="1907" src="388" tgt="1906" wght="4.9814907107885507" />
        <Con id="1908" src="1906" tgt="1659" wght="5" />
        <Con id="1962" src="1541" tgt="24" wght="0.038283512252382933" />
        <Con id="2086" src="8" tgt="931" wght="-1.3316270582604166" />
        <Con id="2115" src="19" tgt="931" wght="2.8866824391297996" />
        <Con id="2149" src="19" tgt="1064" wght="0.814387549482299" />
        <Con id="2181" src="13" tgt="2180" wght="0.019517115020408971" />
        <Con id="2182" src="2180" tgt="1541" wght="5" />
        <Con id="2230" src="16" tgt="752" wght="1.4731701975688338" />
        <Con id="2360" src="7" tgt="1082" wght="0.0479843790353661" />
        <Con id="2421" src="3" tgt="931" wght="-0.037788837659172715" />
        <Con id="2439" src="1906" tgt="1541" wght="-0.01242286772467196" />
        <Con id="2487" src="8" tgt="1659" wght="0.030068765481476578" />
        <Con id="2497" src="3" tgt="1082" wght="-0.048324371874332431" />
        <Con id="2626" src="1343" tgt="280" wght="0.02765652153852096" />
        <Con id="2732" src="7" tgt="2731" wght="-0.032506152379633411" />
        <Con id="2733" src="2731" tgt="894" wght="5" />
        <Con id="2749" src="388" tgt="2748" wght="1.7961625039625737" />
        <Con id="2750" src="2748" tgt="1456" wght="5" />
        <Con id="2773" src="22" tgt="2731" wght="-0.040114965359680357" />
        <Con id="2776" src="15" tgt="1064" wght="-0.021477914415299892" />
        <Con id="2867" src="1659" tgt="388" wght="0.011099500884301962" />
        <Con id="2929" src="23" tgt="2748" wght="-2.89378194604069" />
        <Con id="2932" src="7" tgt="1541" wght="-4.0895983204245567" />
        <Con id="3013" src="2731" tgt="1456" wght="3.9679569657891989" />
        <Con id="3022" src="1659" tgt="1659" wght="0.31870380043983459" />
        <Con id="3105" src="1064" tgt="24" wght="-0.046273582591675223" />
        <Con id="3125" src="16" tgt="1659" wght="-0.039722153032198552" />
        <Con id="3189" src="18" tgt="3188" wght="-0.0067401599604636434" />
        <Con id="3190" src="3188" tgt="931" wght="5" />
        <Con id="3208" src="1082" tgt="1082" wght="-0.034752688789740208" />
        <Con id="3312" src="1541" tgt="2731" wght="0.095207644626498222" />
        <Con id="3517" src="280" tgt="1906" wght="-0.025118529284372925" />
        <Con id="3537" src="12" tgt="1456" wght="-3.4268515161238611" />
        <Con id="3577" src="3188" tgt="25" wght="-0.040647506690584125" />
        <Con id="3611" src="23" tgt="752" wght="-0.036607849271968008" />
        <Con id="3646" src="17" tgt="1064" wght="2.2292301501147449" />
      </Connections>
    </Network>
    <Network id="19708" birthGen="210" fitness="0.83754072613799624">
      <Nodes>
        <Node type="bias" id="0" />
        <Node type="in" id="1" />
        <Node type="in" id="2" />
        <Node type="in" id="3" />
        <Node type="in" id="4" />
        <Node type="in" id="5" />
        <Node type="in" id="6" />
        <Node type="in" id="7" />
        <Node type="in" id="8" />
        <Node type="in" id="9" />
        <Node type="in" id="10" />
        <Node type="in" id="11" />
        <Node type="in" id="12" />
        <Node type="in" id="13" />
        <Node type="in" id="14" />
        <Node type="in" id="15" />
        <Node type="in" id="16" />
        <Node type="in" id="17" />
        <Node type="in" id="18" />
        <Node type="in" id="19" />
        <Node type="in" id="20" />
        <Node type="in" id="21" />
        <Node type="in" id="22" />
        <Node type="out" id="23" />
        <Node type="out" id="24" />
        <Node type="out" id="25" />
        <Node type="out" id="26" />
        <Node type="hid" id="196" />
        <Node type="hid" id="280" />
        <Node type="hid" id="388" />
        <Node type="hid" id="498" />
        <Node type="hid" id="752" />
        <Node type="hid" id="848" />
        <Node type="hid" id="894" />
        <Node type="hid" id="931" />
        <Node type="hid" id="1064" />
        <Node type="hid" id="1082" />
        <Node type="hid" id="1284" />
        <Node type="hid" id="1343" />
        <Node type="hid" id="1456" />
        <Node type="hid" id="1541" />
        <Node type="hid" id="1659" />
        <Node type="hid" id="1906" />
        <Node type="hid" id="2180" />
        <Node type="hid" id="2731" />
        <Node type="hid" id="2748" />
        <Node type="hid" id="3188" />
      </Nodes>
      <Connections>
        <Con id="35" src="2" tgt="23" wght="2.3298687942809835" />
        <Con id="142" src="22" tgt="23" wght="0.839317871640025" />
        <Con id="197" src="11" tgt="196" wght="-0.041144643314683475" />
        <Con id="198" src="196" tgt="24" wght="4.9908477193844121" />
        <Con id="203" src="6" tgt="23" wght="0.006237201282467535" />
        <Con id="223" src="3" tgt="25" wght="0.030013878329507471" />
        <Con id="254" src="15" tgt="26" wght="-0.62728223740602806" />
        <Con id="278" src="0" tgt="23" wght="0.020951040948194947" />
        <Con id="281" src="196" tgt="280" wght="4.986118573031427" />
        <Con id="282" src="280" tgt="24" wght="4.998247107050477" />
        <Con id="297" src="24" tgt="24" wght="-0.001663298485800624" />
        <Con id="352" src="9" tgt="25" wght="-0.023335523303952756" />
        <Con id="407" src="280" tgt="26" wght="0.020520603414462886" />
        <Con id="454" src="16" tgt="25" wght="-0.049221371300518513" />
        <Con id="468" src="15" tgt="280" wght="-0.027758369292151752" />
        <Con id="500" src="498" tgt="280" wght="4.9926533437184064" />
        <Con id="508" src="8" tgt="196" wght="-0.62481507891789079" />
        <Con id="510" src="24" tgt="280" wght="-4.9929574202863662" />
        <Con id="550" src="8" tgt="280" wght="-0.039269286906346679" />
        <Con id="624" src="22" tgt="196" wght="-1.9705098234299143" />
        <Con id="703" src="8" tgt="23" wght="4.9437973734531342" />
        <Con id="734" src="18" tgt="26" wght="4.9653456779196858" />
        <Con id="749" src="21" tgt="196" wght="0.014559559081681073" />
        <Con id="751" src="22" tgt="25" wght="-4.3627670430578291" />
        <Con id="753" src="6" tgt="752" wght="-0.037050067413736093" />
        <Con id="755" src="0" tgt="24" wght="-0.004833000525832176" />
        <Con id="782" src="12" tgt="280" wght="-0.0012088717548798152" />
        <Con id="789" src="3" tgt="388" wght="4.2140399548225105" />
        <Con id="814" src="22" tgt="498" wght="-4.051039417283091" />
        <Con id="819" src="14" tgt="25" wght="0.0032820351938144636" />
        <Con id="850" src="848" tgt="25" wght="5" />
        <Con id="870" src="6" tgt="24" wght="0.16355734661549196" />
        <Con id="895" src="18" tgt="894" wght="0.008484395757550188" />
        <Con id="919" src="5" tgt="388" wght="4.7415711840963715" />
        <Con id="930" src="2" tgt="280" wght="-2.9229886302268349" />
        <Con id="936" src="12" tgt="196" wght="0.0408118685087163" />
        <Con id="952" src="7" tgt="24" wght="-0.050774928019481518" />
        <Con id="955" src="14" tgt="23" wght="3.779074963776083" />
        <Con id="964" src="21" tgt="848" wght="1.874328285921365" />
        <Con id="982" src="24" tgt="25" wght="-0.022051653382368388" />
        <Con id="986" src="10" tgt="26" wght="3.3704352425411344" />
        <Con id="1014" src="4" tgt="25" wght="0.050709584804028089" />
        <Con id="1033" src="18" tgt="498" wght="-3.6831067269667983" />
        <Con id="1066" src="1064" tgt="388" wght="5" />
        <Con id="1068" src="5" tgt="25" wght="0.47569032910632347" />
        <Con id="1083" src="13" tgt="1082" wght="0.029995100293308496" />
        <Con id="1096" src="22" tgt="848" wght="0.016851575524340877" />
        <Con id="1148" src="498" tgt="196" wght="0.035474444097226984" />
        <Con id="1180" src="15" tgt="23" wght="-0.002715053779825255" />
        <Con id="1192" src="848" tgt="24" wght="-1.4234938155016974" />
        <Con id="1201" src="1" tgt="498" wght="0.019330471800640226" />
        <Con id="1286" src="1284" tgt="848" wght="5" />
        <Con id="1313" src="10" tgt="848" wght="0.013829368585720659" />
        <Con id="1344" src="20" tgt="1343" wght="-0.017711770689203241" />
        <Con id="1345" src="1343" tgt="752" wght="4.9989285698936881" />
        <Con id="1376" src="5" tgt="894" wght="-3.9997392939403653" />
        <Con id="1406" src="9" tgt="1343" wght="-3.6930336516734594" />
        <Con id="1445" src="6" tgt="388" wght="0.057427025994706483" />
        <Con id="1458" src="1456" tgt="894" wght="5" />
        <Con id="1477" src="16" tgt="498" wght="-1.1396457138471305" />
        <Con id="1494" src="8" tgt="848" wght="0.016941427105008504" />
        <Con id="1548" src="4" tgt="848" wght="-4.596531045235178" />
        <Con id="1708" src="15" tgt="894" wght="-0.0053503340298310057" />
        <Con id="1709" src="18" tgt="848" wght="-1.1163299647159874" />
        <Con id="1776" src="21" tgt="1343" wght="0.022678534451618586" />
        <Con id="1827" src="1659" tgt="23" wght="0.032942869603255015" />
        <Con id="1907" src="388" tgt="1906" wght="4.9814907107885507" />
        <Con id="1908" src="1906" tgt="1659" wght="5" />
        <Con id="1962" src="1541" tgt="24" wght="0.038283512252382933" />
        <Con id="2086" src="8" tgt="931" wght="-1.3316270582604166" />
        <Con id="2115" src="19" tgt="931" wght="2.8866824391297996" />
        <Con id="2149" src="19" tgt="1064" wght="0.814387549482299" />
        <Con id="2181" src="13" tgt="2180" wght="0.019517115020408971" />
        <Con id="2182" src="2180" tgt="1541" wght="5" />
        <Con id="2230" src="16" tgt="752" wght="1.4731701975688338" />
        <Con id="2360" src="7" tgt="1082" wght="0.0479843790353661" />
        <Con id="2421" src="3" tgt="931" wght="-0.037788837659172715" />
        <Con id="2439" src="1906" tgt="1541" wght="-0.01242286772467196" />
        <Con id="2487" src="8" tgt="1659" wght="0.030068765481476578" />
        <Con id="2497" src="3" tgt="1082" wght="-0.048324371874332431" />
        <Con id="2529" src="11" tgt="1456" wght="3.8040165486745536" />
        <Con id="2626" src="1343" tgt="280" wght="0.02765652153852096" />
        <Con id="2732" src="7" tgt="2731" wght="-0.032506152379633411" />
        <Con id="2733" src="2731" tgt="894" wght="5" />
        <Con id="2749" src="388" tgt="2748" wght="1.7962464150569444" />
        <Con id="2750" src="2748" tgt="1456" wght="5" />
        <Con id="2773" src="22" tgt="2731" wght="-0.040114965359680357" />
        <Con id="2776" src="15" tgt="1064" wght="-0.021477914415299892" />
        <Con id="2867" src="1659" tgt="388" wght="0.011099500884301962" />
        <Con id="2929" src="23" tgt="2748" wght="0.041559120725402292" />
        <Con id="2932" src="7" tgt="1541" wght="-4.0895983204245567" />
        <Con id="3013" src="2731" tgt="1456" wght="3.9679569657891989" />
        <Con id="3022" src="1659" tgt="1659" wght="0.318396657834567" />
        <Con id="3105" src="1064" tgt="24" wght="-0.046273582591675223" />
        <Con id="3125" src="16" tgt="1659" wght="-0.039722153032198552" />
        <Con id="3144" src="280" tgt="1343" wght="-0.005074935732409358" />
        <Con id="3189" src="18" tgt="3188" wght="-0.0067401599604636434" />
        <Con id="3190" src="3188" tgt="931" wght="5" />
        <Con id="3208" src="1082" tgt="1082" wght="-0.034752688789740208" />
        <Con id="3312" src="1541" tgt="2731" wght="0.095207644626498222" />
        <Con id="3517" src="280" tgt="1906" wght="-0.025118529284372925" />
        <Con id="3537" src="12" tgt="1456" wght="-3.4268515161238611" />
        <Con id="3577" src="3188" tgt="25" wght="-0.040647506690584125" />
        <Con id="3611" src="23" tgt="752" wght="-0.036607849271968008" />
      </Connections>
    </Network>
    <Network id="19694" birthGen="210" fitness="0.87515695033095">
      <Nodes>
        <Node type="bias" id="0" />
        <Node type="in" id="1" />
        <Node type="in" id="2" />
        <Node type="in" id="3" />
        <Node type="in" id="4" />
        <Node type="in" id="5" />
        <Node type="in" id="6" />
        <Node type="in" id="7" />
        <Node type="in" id="8" />
        <Node type="in" id="9" />
        <Node type="in" id="10" />
        <Node type="in" id="11" />
        <Node type="in" id="12" />
        <Node type="in" id="13" />
        <Node type="in" id="14" />
        <Node type="in" id="15" />
        <Node type="in" id="16" />
        <Node type="in" id="17" />
        <Node type="in" id="18" />
        <Node type="in" id="19" />
        <Node type="in" id="20" />
        <Node type="in" id="21" />
        <Node type="in" id="22" />
        <Node type="out" id="23" />
        <Node type="out" id="24" />
        <Node type="out" id="25" />
        <Node type="out" id="26" />
        <Node type="hid" id="196" />
        <Node type="hid" id="280" />
        <Node type="hid" id="388" />
        <Node type="hid" id="498" />
        <Node type="hid" id="752" />
        <Node type="hid" id="848" />
        <Node type="hid" id="894" />
        <Node type="hid" id="931" />
        <Node type="hid" id="1064" />
        <Node type="hid" id="1082" />
        <Node type="hid" id="1284" />
        <Node type="hid" id="1343" />
        <Node type="hid" id="1456" />
        <Node type="hid" id="1541" />
        <Node type="hid" id="1659" />
        <Node type="hid" id="1906" />
        <Node type="hid" id="2180" />
        <Node type="hid" id="2731" />
        <Node type="hid" id="2748" />
        <Node type="hid" id="3188" />
      </Nodes>
      <Connections>
        <Con id="142" src="22" tgt="23" wght="0.839317871640025" />
        <Con id="197" src="11" tgt="196" wght="-0.041144643314683475" />
        <Con id="198" src="196" tgt="24" wght="4.9908477193844121" />
        <Con id="223" src="3" tgt="25" wght="0.030013878329507471" />
        <Con id="254" src="15" tgt="26" wght="-0.62728223740602806" />
        <Con id="278" src="0" tgt="23" wght="0.020951040948194947" />
        <Con id="281" src="196" tgt="280" wght="4.986118573031427" />
        <Con id="282" src="280" tgt="24" wght="5" />
        <Con id="297" src="24" tgt="24" wght="-0.001663298485800624" />
        <Con id="352" src="9" tgt="25" wght="-0.023335523303952756" />
        <Con id="407" src="280" tgt="26" wght="0.020520603414462886" />
        <Con id="454" src="16" tgt="25" wght="-0.049221371300518513" />
        <Con id="468" src="15" tgt="280" wght="-0.027758369292151752" />
        <Con id="500" src="498" tgt="280" wght="4.9926533437184064" />
        <Con id="508" src="8" tgt="196" wght="-0.62481507891789079" />
        <Con id="510" src="24" tgt="280" wght="-4.9929574202863662" />
        <Con id="550" src="8" tgt="280" wght="-0.039269286906346679" />
        <Con id="624" src="22" tgt="196" wght="-1.9633272670071698" />
        <Con id="668" src="26" tgt="26" wght="0.041709333984181286" />
        <Con id="703" src="8" tgt="23" wght="4.9437973734531342" />
        <Con id="734" src="18" tgt="26" wght="4.9653456779196858" />
        <Con id="749" src="21" tgt="196" wght="0.014559559081681073" />
        <Con id="751" src="22" tgt="25" wght="-4.3627670430578291" />
        <Con id="753" src="6" tgt="752" wght="-0.037050067413736093" />
        <Con id="755" src="0" tgt="24" wght="-0.004833000525832176" />
        <Con id="782" src="12" tgt="280" wght="-0.0012088717548798152" />
        <Con id="789" src="3" tgt="388" wght="4.2234765549370827" />
        <Con id="814" src="22" tgt="498" wght="-4.051039417283091" />
        <Con id="819" src="14" tgt="25" wght="0.0032820351938144636" />
        <Con id="850" src="848" tgt="25" wght="5" />
        <Con id="870" src="6" tgt="24" wght="0.16355734661549196" />
        <Con id="895" src="18" tgt="894" wght="0.008484395757550188" />
        <Con id="919" src="5" tgt="388" wght="4.7415711840963715" />
        <Con id="930" src="2" tgt="280" wght="-2.9229886302268349" />
        <Con id="936" src="12" tgt="196" wght="0.0408118685087163" />
        <Con id="952" src="7" tgt="24" wght="-0.050774928019481518" />
        <Con id="955" src="14" tgt="23" wght="3.779074963776083" />
        <Con id="964" src="21" tgt="848" wght="1.874328285921365" />
        <Con id="982" src="24" tgt="25" wght="-0.040685703254639355" />
        <Con id="986" src="10" tgt="26" wght="3.3704352425411344" />
        <Con id="1014" src="4" tgt="25" wght="0.050709584804028089" />
        <Con id="1033" src="18" tgt="498" wght="-3.6831067269667983" />
        <Con id="1066" src="1064" tgt="388" wght="5" />
        <Con id="1068" src="5" tgt="25" wght="0.47569032910632347" />
        <Con id="1083" src="13" tgt="1082" wght="0.029995100293308496" />
        <Con id="1096" src="22" tgt="848" wght="0.016851575524340877" />
        <Con id="1148" src="498" tgt="196" wght="0.035474444097226984" />
        <Con id="1180" src="15" tgt="23" wght="-0.002715053779825255" />
        <Con id="1192" src="848" tgt="24" wght="-1.4151568484872821" />
        <Con id="1201" src="1" tgt="498" wght="0.019330471800640226" />
        <Con id="1286" src="1284" tgt="848" wght="5" />
        <Con id="1313" src="10" tgt="848" wght="0.013829368585720659" />
        <Con id="1344" src="20" tgt="1343" wght="-0.017711770689203241" />
        <Con id="1345" src="1343" tgt="752" wght="4.9989285698936881" />
        <Con id="1376" src="5" tgt="894" wght="-3.9997392939403653" />
        <Con id="1406" src="9" tgt="1343" wght="-3.6930336516734594" />
        <Con id="1445" src="6" tgt="388" wght="0.057427025994706483" />
        <Con id="1458" src="1456" tgt="894" wght="5" />
        <Con id="1477" src="16" tgt="498" wght="-1.1396457138471305" />
        <Con id="1494" src="8" tgt="848" wght="0.016941427105008504" />
        <Con id="1548" src="4" tgt="848" wght="-4.6115060593001544" />
        <Con id="1708" src="15" tgt="894" wght="-0.0053503340298310057" />
        <Con id="1709" src="18" tgt="848" wght="-1.1163299647159874" />
        <Con id="1776" src="21" tgt="1343" wght="0.022678534451618586" />
        <Con id="1827" src="1659" tgt="23" wght="0.032942869603255015" />
        <Con id="1907" src="388" tgt="1906" wght="4.9814907107885507" />
        <Con id="1908" src="1906" tgt="1659" wght="5" />
        <Con id="1962" src="1541" tgt="24" wght="0.038283512252382933" />
        <Con id="2086" src="8" tgt="931" wght="-1.3316270582604166" />
        <Con id="2115" src="19" tgt="931" wght="2.8866824391297996" />
        <Con id="2149" src="19" tgt="1064" wght="0.814387549482299" />
        <Con id="2181" src="13" tgt="2180" wght="0.019517115020408971" />
        <Con id="2182" src="2180" tgt="1541" wght="5" />
        <Con id="2230" src="16" tgt="752" wght="1.4731701975688338" />
        <Con id="2360" src="7" tgt="1082" wght="0.0479843790353661" />
        <Con id="2421" src="3" tgt="931" wght="-0.037788837659172715" />
        <Con id="2439" src="1906" tgt="1541" wght="-0.01242286772467196" />
        <Con id="2487" src="8" tgt="1659" wght="0.030068765481476578" />
        <Con id="2497" src="3" tgt="1082" wght="-0.048324371874332431" />
        <Con id="2626" src="1343" tgt="280" wght="0.02765652153852096" />
        <Con id="2732" src="7" tgt="2731" wght="-0.032506152379633411" />
        <Con id="2733" src="2731" tgt="894" wght="5" />
        <Con id="2749" src="388" tgt="2748" wght="1.7961625039625737" />
        <Con id="2750" src="2748" tgt="1456" wght="5" />
        <Con id="2773" src="22" tgt="2731" wght="-0.040114965359680357" />
        <Con id="2776" src="15" tgt="1064" wght="-0.021477914415299892" />
        <Con id="2867" src="1659" tgt="388" wght="0.011099500884301962" />
        <Con id="2929" src="23" tgt="2748" wght="-2.89378194604069" />
        <Con id="2932" src="7" tgt="1541" wght="-4.0895983204245567" />
        <Con id="3013" src="2731" tgt="1456" wght="3.9679569657891989" />
        <Con id="3022" src="1659" tgt="1659" wght="0.31870380043983459" />
        <Con id="3105" src="1064" tgt="24" wght="-0.046273582591675223" />
        <Con id="3125" src="16" tgt="1659" wght="-0.039722153032198552" />
        <Con id="3189" src="18" tgt="3188" wght="-0.0067401599604636434" />
        <Con id="3190" src="3188" tgt="931" wght="5" />
        <Con id="3208" src="1082" tgt="1082" wght="-0.034752688789740208" />
        <Con id="3312" src="1541" tgt="2731" wght="0.095207644626498222" />
        <Con id="3517" src="280" tgt="1906" wght="-0.025118529284372925" />
        <Con id="3537" src="12" tgt="1456" wght="-3.4268515161238611" />
        <Con id="3577" src="3188" tgt="25" wght="-0.040647506690584125" />
        <Con id="3611" src="23" tgt="752" wght="-0.036607849271968008" />
        <Con id="3646" src="17" tgt="1064" wght="2.2292301501147449" />
      </Connections>
    </Network>
    <Network id="19725" birthGen="210" fitness="0.8359340119190739">
      <Nodes>
        <Node type="bias" id="0" />
        <Node type="in" id="1" />
        <Node type="in" id="2" />
        <Node type="in" id="3" />
        <Node type="in" id="4" />
        <Node type="in" id="5" />
        <Node type="in" id="6" />
        <Node type="in" id="7" />
        <Node type="in" id="8" />
        <Node type="in" id="9" />
        <Node type="in" id="10" />
        <Node type="in" id="11" />
        <Node type="in" id="12" />
        <Node type="in" id="13" />
        <Node type="in" id="14" />
        <Node type="in" id="15" />
        <Node type="in" id="16" />
        <Node type="in" id="17" />
        <Node type="in" id="18" />
        <Node type="in" id="19" />
        <Node type="in" id="20" />
        <Node type="in" id="21" />
        <Node type="in" id="22" />
        <Node type="out" id="23" />
        <Node type="out" id="24" />
        <Node type="out" id="25" />
        <Node type="out" id="26" />
        <Node type="hid" id="196" />
        <Node type="hid" id="664" />
        <Node type="hid" id="698" />
        <Node type="hid" id="841" />
        <Node type="hid" id="1023" />
        <Node type="hid" id="1414" />
        <Node type="hid" id="1692" />
        <Node type="hid" id="1869" />
        <Node type="hid" id="2333" />
        <Node type="hid" id="2757" />
      </Nodes>
      <Connections>
        <Con id="126" src="25" tgt="23" wght="-0.008472322613474418" />
        <Con id="142" src="22" tgt="23" wght="0.790364007179624" />
        <Con id="204" src="18" tgt="25" wght="0.043380613097911067" />
        <Con id="223" src="3" tgt="25" wght="4.8252207064069808" />
        <Con id="278" src="0" tgt="23" wght="0.011698728939132928" />
        <Con id="508" src="8" tgt="196" wght="-0.63125295340150389" />
        <Con id="665" src="196" tgt="664" wght="4.9973053048457663" />
        <Con id="666" src="664" tgt="24" wght="5" />
        <Con id="699" src="11" tgt="698" wght="-0.021272926863684503" />
        <Con id="763" src="17" tgt="25" wght="-0.0074158960720524195" />
        <Con id="771" src="24" tgt="26" wght="0.034853619919158522" />
        <Con id="818" src="20" tgt="24" wght="0.48123340122401714" />
        <Con id="842" src="9" tgt="841" wght="-0.029221716441321946" />
        <Con id="843" src="841" tgt="25" wght="5" />
        <Con id="879" src="25" tgt="26" wght="-0.019229615705096997" />
        <Con id="901" src="11" tgt="26" wght="4.8714855217819073" />
        <Con id="926" src="26" tgt="24" wght="-3.3577229152031922" />
        <Con id="955" src="14" tgt="23" wght="-0.085148909752412641" />
        <Con id="991" src="10" tgt="196" wght="-0.042487613440940326" />
        <Con id="996" src="26" tgt="23" wght="-0.049509408324956893" />
        <Con id="1025" src="1023" tgt="841" wght="4.9825185867631774" />
        <Con id="1095" src="14" tgt="841" wght="3.3323151755678895" />
        <Con id="1115" src="2" tgt="26" wght="-3.3038251334801316" />
        <Con id="1146" src="16" tgt="196" wght="3.0722719663754106" />
        <Con id="1216" src="4" tgt="1023" wght="4.21449696898232" />
        <Con id="1238" src="841" tgt="26" wght="0.039400028903037308" />
        <Con id="1269" src="8" tgt="698" wght="-0.010344065469689667" />
        <Con id="1300" src="1" tgt="698" wght="1.3653490949082729" />
        <Con id="1305" src="24" tgt="841" wght="2.247976188082248" />
        <Con id="1328" src="19" tgt="698" wght="-0.028452882776036859" />
        <Con id="1329" src="0" tgt="1023" wght="0.041205671499483287" />
        <Con id="1415" src="14" tgt="1414" wght="-0.029916483392838582" />
        <Con id="1416" src="1414" tgt="25" wght="5" />
        <Con id="1527" src="841" tgt="841" wght="-1.3500590552575886" />
        <Con id="1552" src="1023" tgt="196" wght="0.02293948291335255" />
        <Con id="1678" src="26" tgt="1023" wght="-4.9381846631877124" />
        <Con id="1693" src="19" tgt="1692" wght="-0.0014233014611486862" />
        <Con id="1694" src="1692" tgt="1023" wght="5" />
        <Con id="1702" src="20" tgt="841" wght="3.6374520844697131" />
        <Con id="1820" src="841" tgt="698" wght="-3.6133349710144103" />
        <Con id="1867" src="841" tgt="664" wght="3.6153356195427477" />
        <Con id="1983" src="6" tgt="698" wght="-0.038960617990233" />
        <Con id="2011" src="23" tgt="1869" wght="0.59945150977000594" />
        <Con id="2111" src="6" tgt="1414" wght="0.05597680293273212" />
        <Con id="2297" src="20" tgt="664" wght="-2.3803722602315247" />
        <Con id="2331" src="7" tgt="698" wght="-4.9065468874716585" />
        <Con id="2334" src="12" tgt="2333" wght="-3.9158894010995997" />
        <Con id="2335" src="2333" tgt="196" wght="5" />
        <Con id="2372" src="25" tgt="664" wght="-1.1815600947252762" />
        <Con id="2391" src="25" tgt="1869" wght="2.5026847987461882" />
        <Con id="2461" src="1023" tgt="698" wght="-0.033351849718019369" />
        <Con id="2462" src="3" tgt="841" wght="-1.6537816845811903" />
        <Con id="2563" src="2" tgt="664" wght="0.0051655673887580633" />
        <Con id="2628" src="24" tgt="698" wght="-4.3385740742087364" />
        <Con id="2758" src="19" tgt="2757" wght="0.16906263073906302" />
        <Con id="2759" src="2757" tgt="196" wght="4.9795073678168258" />
        <Con id="2923" src="2757" tgt="698" wght="2.3810562860907534" />
        <Con id="2984" src="8" tgt="1692" wght="-0.00271424929517098" />
        <Con id="3221" src="1869" tgt="2757" wght="0.0094371902756392959" />
        <Con id="3670" src="1692" tgt="25" wght="0.0105830161832273" />
        <Con id="3722" src="26" tgt="1869" wght="-0.032221988046833662" />
      </Connections>
    </Network>
    <Network id="19730" birthGen="210" fitness="0.58431935121254941">
      <Nodes>
        <Node type="bias" id="0" />
        <Node type="in" id="1" />
        <Node type="in" id="2" />
        <Node type="in" id="3" />
        <Node type="in" id="4" />
        <Node type="in" id="5" />
        <Node type="in" id="6" />
        <Node type="in" id="7" />
        <Node type="in" id="8" />
        <Node type="in" id="9" />
        <Node type="in" id="10" />
        <Node type="in" id="11" />
        <Node type="in" id="12" />
        <Node type="in" id="13" />
        <Node type="in" id="14" />
        <Node type="in" id="15" />
        <Node type="in" id="16" />
        <Node type="in" id="17" />
        <Node type="in" id="18" />
        <Node type="in" id="19" />
        <Node type="in" id="20" />
        <Node type="in" id="21" />
        <Node type="in" id="22" />
        <Node type="out" id="23" />
        <Node type="out" id="24" />
        <Node type="out" id="25" />
        <Node type="out" id="26" />
        <Node type="hid" id="196" />
        <Node type="hid" id="664" />
        <Node type="hid" id="698" />
        <Node type="hid" id="841" />
        <Node type="hid" id="1023" />
        <Node type="hid" id="1052" />
        <Node type="hid" id="1414" />
        <Node type="hid" id="1695" />
        <Node type="hid" id="1794" />
        <Node type="hid" id="1869" />
        <Node type="hid" id="2232" />
        <Node type="hid" id="2369" />
        <Node type="hid" id="2494" />
        <Node type="hid" id="2714" />
      </Nodes>
      <Connections>
        <Con id="142" src="22" tgt="23" wght="2.346315432805568" />
        <Con id="203" src="6" tgt="23" wght="0.015711780758433075" />
        <Con id="204" src="18" tgt="25" wght="0.035791567492619053" />
        <Con id="223" src="3" tgt="25" wght="4.8252207064069808" />
        <Con id="226" src="1" tgt="24" wght="-0.012253331392975403" />
        <Con id="278" src="0" tgt="23" wght="0.018368313712243418" />
        <Con id="666" src="664" tgt="24" wght="5" />
        <Con id="699" src="11" tgt="698" wght="-0.00034810799965687145" />
        <Con id="700" src="698" tgt="26" wght="5" />
        <Con id="763" src="17" tgt="25" wght="-0.0074158960720524195" />
        <Con id="818" src="20" tgt="24" wght="0.49019367513372714" />
        <Con id="842" src="9" tgt="841" wght="-0.030078779440303238" />
        <Con id="843" src="841" tgt="25" wght="5" />
        <Con id="879" src="25" tgt="26" wght="0.0078337360347031856" />
        <Con id="926" src="26" tgt="24" wght="-3.3664486114867032" />
        <Con id="1024" src="19" tgt="1023" wght="3.3383292425423861" />
        <Con id="1053" src="196" tgt="1052" wght="4.9973053048457663" />
        <Con id="1216" src="4" tgt="1023" wght="4.2200862064295661" />
        <Con id="1238" src="841" tgt="26" wght="0.032272209613997349" />
        <Con id="1242" src="9" tgt="664" wght="-0.0074795924825593833" />
        <Con id="1300" src="1" tgt="698" wght="1.3859867144768754" />
        <Con id="1390" src="24" tgt="24" wght="4.2574777998374218" />
        <Con id="1415" src="14" tgt="1414" wght="-0.025694568338673972" />
        <Con id="1416" src="1414" tgt="25" wght="5" />
        <Con id="1527" src="841" tgt="841" wght="-1.3572029324569714" />
        <Con id="1795" src="2" tgt="1794" wght="-3.2986378297952323" />
        <Con id="1796" src="1794" tgt="26" wght="5" />
        <Con id="1820" src="841" tgt="698" wght="-3.6133349710144103" />
        <Con id="2028" src="22" tgt="1869" wght="-2.1313716885867358" />
        <Con id="2111" src="6" tgt="1414" wght="0.038361696223728363" />
        <Con id="2233" src="1869" tgt="2232" wght="5" />
        <Con id="2234" src="2232" tgt="841" wght="5" />
        <Con id="2332" src="1869" tgt="1023" wght="4.7128100111149251" />
        <Con id="2370" src="1023" tgt="2369" wght="0.024522217861406962" />
        <Con id="2412" src="7" tgt="1695" wght="-0.039136224030517044" />
        <Con id="2495" src="10" tgt="2494" wght="3.0347165763266788" />
        <Con id="2496" src="2494" tgt="841" wght="5" />
        <Con id="2547" src="2369" tgt="1023" wght="-0.031936853557746163" />
        <Con id="2715" src="841" tgt="2714" wght="-2.2358924918808043" />
        <Con id="2716" src="2714" tgt="664" wght="5" />
        <Con id="2811" src="10" tgt="664" wght="2.2096024337224662" />
        <Con id="2824" src="1" tgt="1052" wght="2.2373360758815566" />
        <Con id="3039" src="1414" tgt="698" wght="-0.039020647637207181" />
        <Con id="3196" src="17" tgt="2494" wght="0.038299679453484718" />
        <Con id="3288" src="1794" tgt="2369" wght="-0.035129431321088832" />
        <Con id="3291" src="1023" tgt="1414" wght="-1.6000843024812639" />
        <Con id="3362" src="3" tgt="698" wght="0.049215588392689823" />
        <Con id="3415" src="19" tgt="1695" wght="0.049016586528159677" />
        <Con id="3651" src="2714" tgt="698" wght="4.7879525180906057" />
        <Con id="3688" src="1" tgt="1023" wght="2.1653540385887027" />
        <Con id="3858" src="15" tgt="1695" wght="-0.011556697427295148" />
        <Con id="3901" src="3" tgt="2232" wght="0.047583212773315613" />
        <Con id="3918" src="1052" tgt="26" wght="-0.024164600484073161" />
      </Connections>
    </Network>
    <Network id="19737" birthGen="210" fitness="0.81592904943416988">
      <Nodes>
        <Node type="bias" id="0" />
        <Node type="in" id="1" />
        <Node type="in" id="2" />
        <Node type="in" id="3" />
        <Node type="in" id="4" />
        <Node type="in" id="5" />
        <Node type="in" id="6" />
        <Node type="in" id="7" />
        <Node type="in" id="8" />
        <Node type="in" id="9" />
        <Node type="in" id="10" />
        <Node type="in" id="11" />
        <Node type="in" id="12" />
        <Node type="in" id="13" />
        <Node type="in" id="14" />
        <Node type="in" id="15" />
        <Node type="in" id="16" />
        <Node type="in" id="17" />
        <Node type="in" id="18" />
        <Node type="in" id="19" />
        <Node type="in" id="20" />
        <Node type="in" id="21" />
        <Node type="in" id="22" />
        <Node type="out" id="23" />
        <Node type="out" id="24" />
        <Node type="out" id="25" />
        <Node type="out" id="26" />
        <Node type="hid" id="196" />
        <Node type="hid" id="388" />
        <Node type="hid" id="698" />
        <Node type="hid" id="848" />
        <Node type="hid" id="894" />
        <Node type="hid" id="956" />
        <Node type="hid" id="1221" />
        <Node type="hid" id="1349" />
        <Node type="hid" id="1414" />
        <Node type="hid" id="1634" />
        <Node type="hid" id="1851" />
        <Node type="hid" id="2356" />
        <Node type="hid" id="2476" />
        <Node type="hid" id="2909" />
        <Node type="hid" id="2926" />
        <Node type="hid" id="3051" />
      </Nodes>
      <Connections>
        <Con id="35" src="2" tgt="23" wght="2.2985135307606233" />
        <Con id="142" src="22" tgt="23" wght="0.83429030725977993" />
        <Con id="198" src="196" tgt="24" wght="4.9841011933403685" />
        <Con id="203" src="6" tgt="23" wght="0.0212386504350557" />
        <Con id="343" src="11" tgt="23" wght="0.10802530141792838" />
        <Con id="352" src="9" tgt="25" wght="-0.0072434037104684209" />
        <Con id="508" src="8" tgt="196" wght="0.65338223706930876" />
        <Con id="624" src="22" tgt="196" wght="-1.9873370767026952" />
        <Con id="668" src="26" tgt="26" wght="-0.025374959479086103" />
        <Con id="699" src="11" tgt="698" wght="-0.024496684707519905" />
        <Con id="700" src="698" tgt="26" wght="5" />
        <Con id="701" src="9" tgt="24" wght="-0.023824988491833211" />
        <Con id="706" src="21" tgt="23" wght="0.037430304814966335" />
        <Con id="770" src="13" tgt="388" wght="0.035843092117851735" />
        <Con id="789" src="3" tgt="388" wght="0.038442219323920973" />
        <Con id="819" src="14" tgt="25" wght="0.03394863962647298" />
        <Con id="849" src="388" tgt="848" wght="5" />
        <Con id="893" src="15" tgt="25" wght="-0.01178406912482668" />
        <Con id="896" src="894" tgt="388" wght="4.9784491593181137" />
        <Con id="918" src="25" tgt="25" wght="-2.5743973767056874" />
        <Con id="957" src="3" tgt="956" wght="0.040396356736402773" />
        <Con id="958" src="956" tgt="25" wght="4.9938915725255963" />
        <Con id="1067" src="388" tgt="894" wght="1.7885277710670957" />
        <Con id="1180" src="15" tgt="23" wght="-0.011808306467719376" />
        <Con id="1192" src="848" tgt="24" wght="-1.4297989162756846" />
        <Con id="1223" src="1221" tgt="25" wght="5" />
        <Con id="1256" src="20" tgt="894" wght="-0.058031245457420624" />
        <Con id="1350" src="5" tgt="1349" wght="4.7451966954395175" />
        <Con id="1415" src="14" tgt="1414" wght="0.043923506348761861" />
        <Con id="1416" src="1414" tgt="25" wght="5" />
        <Con id="1486" src="20" tgt="956" wght="4.8852895185208229" />
        <Con id="1635" src="4" tgt="1634" wght="4.5904943989688931" />
        <Con id="1636" src="1634" tgt="1221" wght="4.9818727127913043" />
        <Con id="1852" src="848" tgt="1851" wght="5" />
        <Con id="2060" src="1851" tgt="25" wght="-4.8768118164787415" />
        <Con id="2284" src="15" tgt="1634" wght="-3.7913207424793667" />
        <Con id="2358" src="2356" tgt="1851" wght="5" />
        <Con id="2446" src="7" tgt="1221" wght="0.031272278538093279" />
        <Con id="2478" src="2476" tgt="1221" wght="4.990933450003654" />
        <Con id="2535" src="1349" tgt="24" wght="-0.034431251487694679" />
        <Con id="2910" src="25" tgt="2909" wght="0.014960120717009298" />
        <Con id="2911" src="2909" tgt="1634" wght="5" />
        <Con id="2927" src="23" tgt="2926" wght="2.7304384717210777" />
        <Con id="2928" src="2926" tgt="1221" wght="4.9795485351885551" />
        <Con id="3052" src="0" tgt="3051" wght="0.044786242605187" />
        <Con id="3053" src="3051" tgt="2476" wght="5" />
        <Con id="3082" src="698" tgt="2926" wght="-0.80119987018406391" />
        <Con id="3184" src="2" tgt="2476" wght="-0.036453083186577306" />
        <Con id="3337" src="3" tgt="3051" wght="0.040399825363419954" />
        <Con id="3416" src="9" tgt="1414" wght="-0.0023153113646457021" />
        <Con id="3669" src="2926" tgt="2909" wght="0.035315256030298774" />
        <Con id="3732" src="2356" tgt="2476" wght="0.0358822536887601" />
      </Connections>
    </Network>
    <Network id="19749" birthGen="210" fitness="0.80807378803766783">
      <Nodes>
        <Node type="bias" id="0" />
        <Node type="in" id="1" />
        <Node type="in" id="2" />
        <Node type="in" id="3" />
        <Node type="in" id="4" />
        <Node type="in" id="5" />
        <Node type="in" id="6" />
        <Node type="in" id="7" />
        <Node type="in" id="8" />
        <Node type="in" id="9" />
        <Node type="in" id="10" />
        <Node type="in" id="11" />
        <Node type="in" id="12" />
        <Node type="in" id="13" />
        <Node type="in" id="14" />
        <Node type="in" id="15" />
        <Node type="in" id="16" />
        <Node type="in" id="17" />
        <Node type="in" id="18" />
        <Node type="in" id="19" />
        <Node type="in" id="20" />
        <Node type="in" id="21" />
        <Node type="in" id="22" />
        <Node type="out" id="23" />
        <Node type="out" id="24" />
        <Node type="out" id="25" />
        <Node type="out" id="26" />
        <Node type="hid" id="196" />
        <Node type="hid" id="388" />
        <Node type="hid" id="698" />
        <Node type="hid" id="848" />
        <Node type="hid" id="894" />
        <Node type="hid" id="956" />
        <Node type="hid" id="1221" />
        <Node type="hid" id="1349" />
        <Node type="hid" id="1414" />
        <Node type="hid" id="1634" />
        <Node type="hid" id="1851" />
        <Node type="hid" id="2356" />
        <Node type="hid" id="2476" />
        <Node type="hid" id="2909" />
        <Node type="hid" id="2926" />
        <Node type="hid" id="3051" />
        <Node type="hid" id="3365" />
      </Nodes>
      <Connections>
        <Con id="35" src="2" tgt="23" wght="2.2985135307606233" />
        <Con id="142" src="22" tgt="23" wght="0.83429030725977993" />
        <Con id="198" src="196" tgt="24" wght="4.9841011933403685" />
        <Con id="203" src="6" tgt="23" wght="0.0212386504350557" />
        <Con id="343" src="11" tgt="23" wght="0.10802530141792838" />
        <Con id="352" src="9" tgt="25" wght="-0.0072434037104684209" />
        <Con id="508" src="8" tgt="196" wght="0.65338223706930876" />
        <Con id="624" src="22" tgt="196" wght="-1.9873370767026952" />
        <Con id="668" src="26" tgt="26" wght="-0.025374959479086103" />
        <Con id="699" src="11" tgt="698" wght="-0.024496684707519905" />
        <Con id="700" src="698" tgt="26" wght="5" />
        <Con id="701" src="9" tgt="24" wght="-0.023824988491833211" />
        <Con id="706" src="21" tgt="23" wght="0.037430304814966335" />
        <Con id="770" src="13" tgt="388" wght="0.035843092117851735" />
        <Con id="789" src="3" tgt="388" wght="0.038442219323920973" />
        <Con id="819" src="14" tgt="25" wght="0.03394863962647298" />
        <Con id="849" src="388" tgt="848" wght="5" />
        <Con id="893" src="15" tgt="25" wght="-0.01178406912482668" />
        <Con id="896" src="894" tgt="388" wght="4.9784491593181137" />
        <Con id="918" src="25" tgt="25" wght="-2.5743973767056874" />
        <Con id="957" src="3" tgt="956" wght="0.040396356736402773" />
        <Con id="958" src="956" tgt="25" wght="4.9938915725255963" />
        <Con id="1067" src="388" tgt="894" wght="1.7885277710670957" />
        <Con id="1180" src="15" tgt="23" wght="-0.011808306467719376" />
        <Con id="1192" src="848" tgt="24" wght="-1.4297989162756846" />
        <Con id="1223" src="1221" tgt="25" wght="5" />
        <Con id="1256" src="20" tgt="894" wght="-0.058031245457420624" />
        <Con id="1415" src="14" tgt="1414" wght="0.043923506348761861" />
        <Con id="1416" src="1414" tgt="25" wght="5" />
        <Con id="1486" src="20" tgt="956" wght="4.8852895185208229" />
        <Con id="1635" src="4" tgt="1634" wght="4.5904943989688931" />
        <Con id="1636" src="1634" tgt="1221" wght="4.9818727127913043" />
        <Con id="1852" src="848" tgt="1851" wght="5" />
        <Con id="2060" src="1851" tgt="25" wght="-4.8768118164787415" />
        <Con id="2284" src="15" tgt="1634" wght="-3.7913207424793667" />
        <Con id="2358" src="2356" tgt="1851" wght="5" />
        <Con id="2446" src="7" tgt="1221" wght="0.031272278538093279" />
        <Con id="2478" src="2476" tgt="1221" wght="4.990933450003654" />
        <Con id="2535" src="1349" tgt="24" wght="-0.034431251487694679" />
        <Con id="2910" src="25" tgt="2909" wght="0.014960120717009298" />
        <Con id="2911" src="2909" tgt="1634" wght="5" />
        <Con id="2928" src="2926" tgt="1221" wght="4.9875715089047556" />
        <Con id="3052" src="0" tgt="3051" wght="0.032777200077213089" />
        <Con id="3053" src="3051" tgt="2476" wght="5" />
        <Con id="3082" src="698" tgt="2926" wght="-0.80119987018406391" />
        <Con id="3184" src="2" tgt="2476" wght="-0.036453083186577306" />
        <Con id="3337" src="3" tgt="3051" wght="0.040399825363419954" />
        <Con id="3366" src="23" tgt="3365" wght="2.7304384717210777" />
        <Con id="3367" src="3365" tgt="2926" wght="5" />
        <Con id="3416" src="9" tgt="1414" wght="-0.0023153113646457021" />
        <Con id="3669" src="2926" tgt="2909" wght="0.035315256030298774" />
        <Con id="3732" src="2356" tgt="2476" wght="0.0358822536887601" />
      </Connections>
    </Network>
    <Network id="19741" birthGen="210" fitness="0.80885598894088284">
      <Nodes>
        <Node type="bias" id="0" />
        <Node type="in" id="1" />
        <Node type="in" id="2" />
        <Node type="in" id="3" />
        <Node type="in" id="4" />
        <Node type="in" id="5" />
        <Node type="in" id="6" />
        <Node type="in" id="7" />
        <Node type="in" id="8" />
        <Node type="in" id="9" />
        <Node type="in" id="10" />
        <Node type="in" id="11" />
        <Node type="in" id="12" />
        <Node type="in" id="13" />
        <Node type="in" id="14" />
        <Node type="in" id="15" />
        <Node type="in" id="16" />
        <Node type="in" id="17" />
        <Node type="in" id="18" />
        <Node type="in" id="19" />
        <Node type="in" id="20" />
        <Node type="in" id="21" />
        <Node type="in" id="22" />
        <Node type="out" id="23" />
        <Node type="out" id="24" />
        <Node type="out" id="25" />
        <Node type="out" id="26" />
        <Node type="hid" id="196" />
        <Node type="hid" id="388" />
        <Node type="hid" id="698" />
        <Node type="hid" id="848" />
        <Node type="hid" id="894" />
        <Node type="hid" id="956" />
        <Node type="hid" id="1221" />
        <Node type="hid" id="1349" />
        <Node type="hid" id="1414" />
        <Node type="hid" id="1634" />
        <Node type="hid" id="1851" />
        <Node type="hid" id="2356" />
        <Node type="hid" id="2476" />
        <Node type="hid" id="2909" />
        <Node type="hid" id="2926" />
        <Node type="hid" id="3051" />
      </Nodes>
      <Connections>
        <Con id="35" src="2" tgt="23" wght="2.2985135307606233" />
        <Con id="142" src="22" tgt="23" wght="0.83429030725977993" />
        <Con id="198" src="196" tgt="24" wght="4.9841011933403685" />
        <Con id="203" src="6" tgt="23" wght="0.0212386504350557" />
        <Con id="343" src="11" tgt="23" wght="0.10802530141792838" />
        <Con id="352" src="9" tgt="25" wght="-0.0072434037104684209" />
        <Con id="508" src="8" tgt="196" wght="0.65338223706930876" />
        <Con id="624" src="22" tgt="196" wght="-1.9873370767026952" />
        <Con id="668" src="26" tgt="26" wght="-0.025374959479086103" />
        <Con id="699" src="11" tgt="698" wght="-0.024496684707519905" />
        <Con id="700" src="698" tgt="26" wght="5" />
        <Con id="701" src="9" tgt="24" wght="-0.023824988491833211" />
        <Con id="706" src="21" tgt="23" wght="0.037430304814966335" />
        <Con id="770" src="13" tgt="388" wght="0.035843092117851735" />
        <Con id="789" src="3" tgt="388" wght="0.038442219323920973" />
        <Con id="819" src="14" tgt="25" wght="0.03394863962647298" />
        <Con id="849" src="388" tgt="848" wght="5" />
        <Con id="893" src="15" tgt="25" wght="-0.01178406912482668" />
        <Con id="896" src="894" tgt="388" wght="4.9784491593181137" />
        <Con id="918" src="25" tgt="25" wght="-2.5743973767056874" />
        <Con id="957" src="3" tgt="956" wght="0.040396356736402773" />
        <Con id="958" src="956" tgt="25" wght="5" />
        <Con id="1067" src="388" tgt="894" wght="1.7885277710670957" />
        <Con id="1180" src="15" tgt="23" wght="-0.011808306467719376" />
        <Con id="1192" src="848" tgt="24" wght="-1.4297989162756846" />
        <Con id="1223" src="1221" tgt="25" wght="5" />
        <Con id="1256" src="20" tgt="894" wght="-0.058031245457420624" />
        <Con id="1350" src="5" tgt="1349" wght="4.7451966954395175" />
        <Con id="1415" src="14" tgt="1414" wght="0.043923506348761861" />
        <Con id="1416" src="1414" tgt="25" wght="5" />
        <Con id="1486" src="20" tgt="956" wght="4.8852895185208229" />
        <Con id="1635" src="4" tgt="1634" wght="4.5904943989688931" />
        <Con id="1636" src="1634" tgt="1221" wght="4.9818727127913043" />
        <Con id="1852" src="848" tgt="1851" wght="5" />
        <Con id="2060" src="1851" tgt="25" wght="-4.8768118164787415" />
        <Con id="2284" src="15" tgt="1634" wght="-3.7913207424793667" />
        <Con id="2358" src="2356" tgt="1851" wght="5" />
        <Con id="2446" src="7" tgt="1221" wght="0.031272278538093279" />
        <Con id="2478" src="2476" tgt="1221" wght="4.990933450003654" />
        <Con id="2535" src="1349" tgt="24" wght="-0.034431251487694679" />
        <Con id="2910" src="25" tgt="2909" wght="0.014960120717009298" />
        <Con id="2911" src="2909" tgt="1634" wght="5" />
        <Con id="2927" src="23" tgt="2926" wght="2.7304384717210777" />
        <Con id="2928" src="2926" tgt="1221" wght="4.9795485351885551" />
        <Con id="3052" src="0" tgt="3051" wght="0.044786242605187" />
        <Con id="3053" src="3051" tgt="2476" wght="5" />
        <Con id="3082" src="698" tgt="2926" wght="-0.80119987018406391" />
        <Con id="3184" src="2" tgt="2476" wght="-0.024292254107570674" />
        <Con id="3337" src="3" tgt="3051" wght="0.040399825363419954" />
        <Con id="3416" src="9" tgt="1414" wght="-0.0023153113646457021" />
        <Con id="3669" src="2926" tgt="2909" wght="0.035315256030298774" />
        <Con id="3732" src="2356" tgt="2476" wght="0.0358822536887601" />
        <Con id="3852" src="5" tgt="1851" wght="-0.049851199635304509" />
      </Connections>
    </Network>
    <Network id="19721" birthGen="210" fitness="0.83169972720800056">
      <Nodes>
        <Node type="bias" id="0" />
        <Node type="in" id="1" />
        <Node type="in" id="2" />
        <Node type="in" id="3" />
        <Node type="in" id="4" />
        <Node type="in" id="5" />
        <Node type="in" id="6" />
        <Node type="in" id="7" />
        <Node type="in" id="8" />
        <Node type="in" id="9" />
        <Node type="in" id="10" />
        <Node type="in" id="11" />
        <Node type="in" id="12" />
        <Node type="in" id="13" />
        <Node type="in" id="14" />
        <Node type="in" id="15" />
        <Node type="in" id="16" />
        <Node type="in" id="17" />
        <Node type="in" id="18" />
        <Node type="in" id="19" />
        <Node type="in" id="20" />
        <Node type="in" id="21" />
        <Node type="in" id="22" />
        <Node type="out" id="23" />
        <Node type="out" id="24" />
        <Node type="out" id="25" />
        <Node type="out" id="26" />
        <Node type="hid" id="196" />
        <Node type="hid" id="388" />
        <Node type="hid" id="698" />
        <Node type="hid" id="848" />
        <Node type="hid" id="894" />
        <Node type="hid" id="956" />
        <Node type="hid" id="1221" />
        <Node type="hid" id="1349" />
        <Node type="hid" id="1634" />
        <Node type="hid" id="1851" />
        <Node type="hid" id="2476" />
        <Node type="hid" id="2926" />
        <Node type="hid" id="3051" />
        <Node type="hid" id="3636" />
        <Node type="hid" id="3833" />
      </Nodes>
      <Connections>
        <Con id="142" src="22" tgt="23" wght="0.8264258663383" />
        <Con id="198" src="196" tgt="24" wght="4.9841011933403685" />
        <Con id="203" src="6" tgt="23" wght="0.0212386504350557" />
        <Con id="343" src="11" tgt="23" wght="0.10802530141792838" />
        <Con id="352" src="9" tgt="25" wght="-0.0072434037104684209" />
        <Con id="508" src="8" tgt="196" wght="0.65708773070932169" />
        <Con id="624" src="22" tgt="196" wght="-1.9897823112593052" />
        <Con id="668" src="26" tgt="26" wght="3.1188850780017674" />
        <Con id="699" src="11" tgt="698" wght="1.1537661962211132" />
        <Con id="700" src="698" tgt="26" wght="5" />
        <Con id="701" src="9" tgt="24" wght="-0.023824988491833211" />
        <Con id="706" src="21" tgt="23" wght="0.034069021782459546" />
        <Con id="770" src="13" tgt="388" wght="0.035843092117851735" />
        <Con id="789" src="3" tgt="388" wght="0.019382818829475984" />
        <Con id="819" src="14" tgt="25" wght="0.040638081249019319" />
        <Con id="849" src="388" tgt="848" wght="5" />
        <Con id="893" src="15" tgt="25" wght="-0.01178406912482668" />
        <Con id="896" src="894" tgt="388" wght="4.9784491593181137" />
        <Con id="918" src="25" tgt="25" wght="-2.5771598836657779" />
        <Con id="957" src="3" tgt="956" wght="0.037264905237857728" />
        <Con id="958" src="956" tgt="25" wght="4.9938915725255963" />
        <Con id="1067" src="388" tgt="894" wght="1.7885277710670957" />
        <Con id="1192" src="848" tgt="24" wght="-1.4297989162756846" />
        <Con id="1223" src="1221" tgt="25" wght="5" />
        <Con id="1256" src="20" tgt="894" wght="-0.054482472502265608" />
        <Con id="1350" src="5" tgt="1349" wght="4.7422508103773" />
        <Con id="1486" src="20" tgt="956" wght="4.8852895185208229" />
        <Con id="1635" src="4" tgt="1634" wght="4.5904943989688931" />
        <Con id="1636" src="1634" tgt="1221" wght="4.9818727127913043" />
        <Con id="1663" src="388" tgt="388" wght="1.1612191697661505" />
        <Con id="1852" src="848" tgt="1851" wght="5" />
        <Con id="2060" src="1851" tgt="25" wght="-4.8768118164787415" />
        <Con id="2446" src="7" tgt="1221" wght="0.039144071075133978" />
        <Con id="2478" src="2476" tgt="1221" wght="5" />
        <Con id="2591" src="25" tgt="1634" wght="0.028773185082124411" />
        <Con id="2927" src="23" tgt="2926" wght="2.7410111567481472" />
        <Con id="2928" src="2926" tgt="1221" wght="4.9952746276593931" />
        <Con id="3052" src="0" tgt="3051" wght="0.044786242605187" />
        <Con id="3053" src="3051" tgt="2476" wght="5" />
        <Con id="3082" src="698" tgt="2926" wght="-0.80119987018406391" />
        <Con id="3184" src="2" tgt="2476" wght="-0.034044088260270659" />
        <Con id="3382" src="12" tgt="1851" wght="-0.02831547307851124" />
        <Con id="3441" src="25" tgt="2926" wght="-0.95332118915393949" />
        <Con id="3637" src="1851" tgt="3636" wght="-0.043983365152962507" />
        <Con id="3638" src="3636" tgt="3051" wght="5" />
        <Con id="3834" src="9" tgt="3833" wght="3.0274725332856178" />
        <Con id="3835" src="3833" tgt="1851" wght="5" />
      </Connections>
    </Network>
    <Network id="19723" birthGen="210" fitness="0.83709544124787816">
      <Nodes>
        <Node type="bias" id="0" />
        <Node type="in" id="1" />
        <Node type="in" id="2" />
        <Node type="in" id="3" />
        <Node type="in" id="4" />
        <Node type="in" id="5" />
        <Node type="in" id="6" />
        <Node type="in" id="7" />
        <Node type="in" id="8" />
        <Node type="in" id="9" />
        <Node type="in" id="10" />
        <Node type="in" id="11" />
        <Node type="in" id="12" />
        <Node type="in" id="13" />
        <Node type="in" id="14" />
        <Node type="in" id="15" />
        <Node type="in" id="16" />
        <Node type="in" id="17" />
        <Node type="in" id="18" />
        <Node type="in" id="19" />
        <Node type="in" id="20" />
        <Node type="in" id="21" />
        <Node type="in" id="22" />
        <Node type="out" id="23" />
        <Node type="out" id="24" />
        <Node type="out" id="25" />
        <Node type="out" id="26" />
        <Node type="hid" id="196" />
        <Node type="hid" id="388" />
        <Node type="hid" id="698" />
        <Node type="hid" id="848" />
        <Node type="hid" id="894" />
        <Node type="hid" id="956" />
        <Node type="hid" id="1221" />
        <Node type="hid" id="1349" />
        <Node type="hid" id="1634" />
        <Node type="hid" id="1851" />
        <Node type="hid" id="2476" />
        <Node type="hid" id="2926" />
        <Node type="hid" id="3051" />
        <Node type="hid" id="3833" />
      </Nodes>
      <Connections>
        <Con id="142" src="22" tgt="23" wght="0.8264258663383" />
        <Con id="198" src="196" tgt="24" wght="4.9841011933403685" />
        <Con id="203" src="6" tgt="23" wght="0.0212386504350557" />
        <Con id="343" src="11" tgt="23" wght="0.10802530141792838" />
        <Con id="352" src="9" tgt="25" wght="-0.0072434037104684209" />
        <Con id="508" src="8" tgt="196" wght="0.65708773070932169" />
        <Con id="624" src="22" tgt="196" wght="-1.9897823112593052" />
        <Con id="668" src="26" tgt="26" wght="3.1188850780017674" />
        <Con id="699" src="11" tgt="698" wght="1.1537661962211132" />
        <Con id="700" src="698" tgt="26" wght="5" />
        <Con id="701" src="9" tgt="24" wght="-0.023824988491833211" />
        <Con id="706" src="21" tgt="23" wght="0.039931741216108547" />
        <Con id="770" src="13" tgt="388" wght="0.035843092117851735" />
        <Con id="789" src="3" tgt="388" wght="0.019382818829475984" />
        <Con id="819" src="14" tgt="25" wght="0.040638081249019319" />
        <Con id="849" src="388" tgt="848" wght="5" />
        <Con id="893" src="15" tgt="25" wght="-0.020300143070135238" />
        <Con id="896" src="894" tgt="388" wght="4.9784491593181137" />
        <Con id="918" src="25" tgt="25" wght="-2.5771598836657779" />
        <Con id="957" src="3" tgt="956" wght="0.037264905237857728" />
        <Con id="958" src="956" tgt="25" wght="4.9938915725255963" />
        <Con id="1067" src="388" tgt="894" wght="1.7885277710670957" />
        <Con id="1192" src="848" tgt="24" wght="-1.4297989162756846" />
        <Con id="1223" src="1221" tgt="25" wght="5" />
        <Con id="1256" src="20" tgt="894" wght="-0.054482472502265608" />
        <Con id="1350" src="5" tgt="1349" wght="4.7422508103773" />
        <Con id="1486" src="20" tgt="956" wght="4.8852895185208229" />
        <Con id="1635" src="4" tgt="1634" wght="4.5904943989688931" />
        <Con id="1636" src="1634" tgt="1221" wght="4.9818727127913043" />
        <Con id="1663" src="388" tgt="388" wght="1.1612191697661505" />
        <Con id="1852" src="848" tgt="1851" wght="5" />
        <Con id="2060" src="1851" tgt="25" wght="-4.8768118164787415" />
        <Con id="2446" src="7" tgt="1221" wght="0.039144071075133978" />
        <Con id="2478" src="2476" tgt="1221" wght="5" />
        <Con id="2591" src="25" tgt="1634" wght="0.028773185082124411" />
        <Con id="2927" src="23" tgt="2926" wght="2.7410111567481472" />
        <Con id="2928" src="2926" tgt="1221" wght="4.9952746276593931" />
        <Con id="3052" src="0" tgt="3051" wght="0.044786242605187" />
        <Con id="3053" src="3051" tgt="2476" wght="5" />
        <Con id="3082" src="698" tgt="2926" wght="-0.80119987018406391" />
        <Con id="3184" src="2" tgt="2476" wght="-0.034044088260270659" />
        <Con id="3290" src="1851" tgt="3051" wght="-0.043983365152962507" />
        <Con id="3382" src="12" tgt="1851" wght="-0.02831547307851124" />
        <Con id="3441" src="25" tgt="2926" wght="-0.95332118915393949" />
        <Con id="3834" src="9" tgt="3833" wght="3.0274725332856178" />
        <Con id="3835" src="3833" tgt="1851" wght="5" />
      </Connections>
    </Network>
    <Network id="19670" birthGen="210" fitness="0.82464274070638344">
      <Nodes>
        <Node type="bias" id="0" />
        <Node type="in" id="1" />
        <Node type="in" id="2" />
        <Node type="in" id="3" />
        <Node type="in" id="4" />
        <Node type="in" id="5" />
        <Node type="in" id="6" />
        <Node type="in" id="7" />
        <Node type="in" id="8" />
        <Node type="in" id="9" />
        <Node type="in" id="10" />
        <Node type="in" id="11" />
        <Node type="in" id="12" />
        <Node type="in" id="13" />
        <Node type="in" id="14" />
        <Node type="in" id="15" />
        <Node type="in" id="16" />
        <Node type="in" id="17" />
        <Node type="in" id="18" />
        <Node type="in" id="19" />
        <Node type="in" id="20" />
        <Node type="in" id="21" />
        <Node type="in" id="22" />
        <Node type="out" id="23" />
        <Node type="out" id="24" />
        <Node type="out" id="25" />
        <Node type="out" id="26" />
        <Node type="hid" id="196" />
        <Node type="hid" id="388" />
        <Node type="hid" id="848" />
        <Node type="hid" id="894" />
        <Node type="hid" id="1064" />
        <Node type="hid" id="1284" />
        <Node type="hid" id="1428" />
        <Node type="hid" id="1541" />
        <Node type="hid" id="1599" />
        <Node type="hid" id="1659" />
        <Node type="hid" id="2154" />
        <Node type="hid" id="2397" />
        <Node type="hid" id="2818" />
        <Node type="hid" id="2942" />
        <Node type="hid" id="3377" />
        <Node type="hid" id="3613" />
      </Nodes>
      <Connections>
        <Con id="35" src="2" tgt="23" wght="2.3042635496811608" />
        <Con id="126" src="25" tgt="23" wght="-0.032949804904454628" />
        <Con id="142" src="22" tgt="23" wght="0.79903909693562392" />
        <Con id="154" src="11" tgt="26" wght="-0.0439188968222297" />
        <Con id="198" src="196" tgt="24" wght="4.9974251530556435" />
        <Con id="223" src="3" tgt="25" wght="0.04379002613598517" />
        <Con id="278" src="0" tgt="23" wght="0.020951040948194947" />
        <Con id="343" src="11" tgt="23" wght="0.10277710347013998" />
        <Con id="624" src="22" tgt="196" wght="-1.98417626437329" />
        <Con id="660" src="17" tgt="196" wght="-0.037649056197690468" />
        <Con id="703" src="8" tgt="23" wght="4.9437973734531342" />
        <Con id="789" src="3" tgt="388" wght="-1.2680291948822873" />
        <Con id="796" src="26" tgt="388" wght="3.7756761617840291" />
        <Con id="818" src="20" tgt="24" wght="-3.252917018283251" />
        <Con id="819" src="14" tgt="25" wght="0.037902588001452388" />
        <Con id="840" src="21" tgt="25" wght="0.007218610009432495" />
        <Con id="850" src="848" tgt="25" wght="5" />
        <Con id="884" src="7" tgt="26" wght="2.425168314948678" />
        <Con id="886" src="1" tgt="388" wght="-0.0446126208640635" />
        <Con id="919" src="5" tgt="388" wght="4.7590444954599231" />
        <Con id="1056" src="8" tgt="25" wght="-0.32115940935909748" />
        <Con id="1066" src="1064" tgt="388" wght="4.9913878076558174" />
        <Con id="1067" src="388" tgt="894" wght="1.7802363808233084" />
        <Con id="1192" src="848" tgt="24" wght="-1.4274710676990408" />
        <Con id="1286" src="1284" tgt="848" wght="4.9727883791934708" />
        <Con id="1375" src="894" tgt="196" wght="-0.029242536867968738" />
        <Con id="1419" src="5" tgt="848" wght="-1.7242810021271375" />
        <Con id="1430" src="1428" tgt="848" wght="4.9973579070558483" />
        <Con id="1445" src="6" tgt="388" wght="0.039161525270767814" />
        <Con id="1542" src="13" tgt="1541" wght="0.019517115020408971" />
        <Con id="1601" src="1599" tgt="848" wght="5" />
        <Con id="1616" src="14" tgt="1284" wght="3.5940877813845873" />
        <Con id="1660" src="388" tgt="1659" wght="4.9777932654653405" />
        <Con id="1843" src="18" tgt="1064" wght="-0.7175418408587575" />
        <Con id="2009" src="1659" tgt="1428" wght="-0.044533228324026827" />
        <Con id="2027" src="6" tgt="894" wght="0.013669953321081469" />
        <Con id="2095" src="1064" tgt="1659" wght="0.01940381221516483" />
        <Con id="2155" src="10" tgt="2154" wght="0.0078909588216137666" />
        <Con id="2156" src="2154" tgt="1428" wght="4.9837575761361474" />
        <Con id="2184" src="20" tgt="1428" wght="0.036392673499887312" />
        <Con id="2200" src="0" tgt="848" wght="0.031734516257915069" />
        <Con id="2544" src="1599" tgt="1428" wght="-0.033691732934676109" />
        <Con id="2610" src="6" tgt="2397" wght="0.0432020425593355" />
        <Con id="2820" src="2818" tgt="1659" wght="5" />
        <Con id="2874" src="16" tgt="2397" wght="0.0299177942564711" />
        <Con id="2887" src="1541" tgt="1064" wght="2.6975584631294844" />
        <Con id="2943" src="3" tgt="2942" wght="3.8732434017583728" />
        <Con id="2944" src="2942" tgt="26" wght="4.9931691978877941" />
        <Con id="2958" src="6" tgt="2942" wght="0.79635603381230924" />
        <Con id="3080" src="13" tgt="1659" wght="-0.02518170934636146" />
        <Con id="3353" src="12" tgt="2818" wght="-0.0052231774665415292" />
        <Con id="3379" src="3377" tgt="2818" wght="5" />
        <Con id="3614" src="2397" tgt="3613" wght="-0.044291621777295585" />
        <Con id="3615" src="3613" tgt="3377" wght="5" />
        <Con id="3681" src="2397" tgt="1284" wght="-0.033268450457351717" />
      </Connections>
    </Network>
    <Network id="19754" birthGen="211" fitness="0.84789384877117">
      <Nodes>
        <Node type="bias" id="0" />
        <Node type="in" id="1" />
        <Node type="in" id="2" />
        <Node type="in" id="3" />
        <Node type="in" id="4" />
        <Node type="in" id="5" />
        <Node type="in" id="6" />
        <Node type="in" id="7" />
        <Node type="in" id="8" />
        <Node type="in" id="9" />
        <Node type="in" id="10" />
        <Node type="in" id="11" />
        <Node type="in" id="12" />
        <Node type="in" id="13" />
        <Node type="in" id="14" />
        <Node type="in" id="15" />
        <Node type="in" id="16" />
        <Node type="in" id="17" />
        <Node type="in" id="18" />
        <Node type="in" id="19" />
