<?xml version="1.0" encoding="utf-8"?>
<Root>
  <ActivationFunctions>
    <Fn id="0" name="LogisticFunctionSteep" prob="1" />
  </ActivationFunctions>
  <Networks>
    <Network id="24503" birthGen="33" fitness="0.65659401817692808">
      <Nodes>
        <Node type="bias" id="0" />
        <Node type="in" id="1" />
        <Node type="in" id="2" />
        <Node type="in" id="3" />
        <Node type="in" id="4" />
        <Node type="in" id="5" />
        <Node type="in" id="6" />
        <Node type="in" id="7" />
        <Node type="in" id="8" />
        <Node type="in" id="9" />
        <Node type="in" id="10" />
        <Node type="in" id="11" />
        <Node type="in" id="12" />
        <Node type="in" id="13" />
        <Node type="in" id="14" />
        <Node type="in" id="15" />
        <Node type="in" id="16" />
        <Node type="in" id="17" />
        <Node type="in" id="18" />
        <Node type="in" id="19" />
        <Node type="in" id="20" />
        <Node type="in" id="21" />
        <Node type="in" id="22" />
        <Node type="out" id="23" />
        <Node type="out" id="24" />
        <Node type="out" id="25" />
        <Node type="out" id="26" />
        <Node type="hid" id="196" />
        <Node type="hid" id="280" />
        <Node type="hid" id="388" />
        <Node type="hid" id="498" />
        <Node type="hid" id="752" />
        <Node type="hid" id="848" />
        <Node type="hid" id="894" />
        <Node type="hid" id="931" />
        <Node type="hid" id="1064" />
        <Node type="hid" id="1082" />
        <Node type="hid" id="1284" />
        <Node type="hid" id="1343" />
        <Node type="hid" id="1456" />
        <Node type="hid" id="1541" />
        <Node type="hid" id="1659" />
        <Node type="hid" id="1906" />
        <Node type="hid" id="2180" />
        <Node type="hid" id="2731" />
        <Node type="hid" id="2748" />
        <Node type="hid" id="3188" />
        <Node type="hid" id="5015" />
        <Node type="hid" id="5438" />
      </Nodes>
      <Connections>
        <Con id="142" src="22" tgt="23" wght="0.839317871640025" />
        <Con id="197" src="11" tgt="196" wght="-0.041144643314683475" />
        <Con id="198" src="196" tgt="24" wght="4.9974251530556435" />
        <Con id="223" src="3" tgt="25" wght="0.025239882461655313" />
        <Con id="254" src="15" tgt="26" wght="-0.62728223740602806" />
        <Con id="278" src="0" tgt="23" wght="0.020951040948194947" />
        <Con id="282" src="280" tgt="24" wght="5" />
        <Con id="297" src="24" tgt="24" wght="-0.001663298485800624" />
        <Con id="352" src="9" tgt="25" wght="-0.023335523303952756" />
        <Con id="407" src="280" tgt="26" wght="0.025113498068207445" />
        <Con id="468" src="15" tgt="280" wght="-0.027758369292151752" />
        <Con id="500" src="498" tgt="280" wght="4.9921214462504686" />
        <Con id="510" src="24" tgt="280" wght="-4.9929574202863662" />
        <Con id="550" src="8" tgt="280" wght="-0.039269286906346679" />
        <Con id="624" src="22" tgt="196" wght="-1.9633272670071698" />
        <Con id="668" src="26" tgt="26" wght="0.041709333984181286" />
        <Con id="703" src="8" tgt="23" wght="4.9437973734531342" />
        <Con id="734" src="18" tgt="26" wght="4.9624049875197311" />
        <Con id="749" src="21" tgt="196" wght="0.014559559081681073" />
        <Con id="751" src="22" tgt="25" wght="-4.3627670430578291" />
        <Con id="753" src="6" tgt="752" wght="-0.037050067413736093" />
        <Con id="755" src="0" tgt="24" wght="-0.004833000525832176" />
        <Con id="782" src="12" tgt="280" wght="-0.0012088717548798152" />
        <Con id="789" src="3" tgt="388" wght="3.9020117535255849" />
        <Con id="814" src="22" tgt="498" wght="-4.051039417283091" />
        <Con id="819" src="14" tgt="25" wght="0.0032820351938144636" />
        <Con id="850" src="848" tgt="25" wght="4.9946546049576392" />
        <Con id="870" src="6" tgt="24" wght="0.16355734661549196" />
        <Con id="895" src="18" tgt="894" wght="0.012072429957619426" />
        <Con id="930" src="2" tgt="280" wght="-2.9244545088536062" />
        <Con id="936" src="12" tgt="196" wght="0.0408118685087163" />
        <Con id="952" src="7" tgt="24" wght="-0.050774928019481518" />
        <Con id="955" src="14" tgt="23" wght="3.779074963776083" />
        <Con id="964" src="21" tgt="848" wght="1.874328285921365" />
        <Con id="982" src="24" tgt="25" wght="-0.040685703254639355" />
        <Con id="986" src="10" tgt="26" wght="3.3704352425411344" />
        <Con id="1066" src="1064" tgt="388" wght="4.99223327794841" />
        <Con id="1083" src="13" tgt="1082" wght="0.029995100293308496" />
        <Con id="1096" src="22" tgt="848" wght="-0.021126132283107536" />
        <Con id="1148" src="498" tgt="196" wght="0.035474444097226984" />
        <Con id="1180" src="15" tgt="23" wght="-0.002715053779825255" />
        <Con id="1192" src="848" tgt="24" wght="-1.4151568484872821" />
        <Con id="1201" src="1" tgt="498" wght="0.019330471800640226" />
        <Con id="1286" src="1284" tgt="848" wght="5" />
        <Con id="1313" src="10" tgt="848" wght="0.013829368585720659" />
        <Con id="1344" src="20" tgt="1343" wght="-0.017711770689203241" />
        <Con id="1345" src="1343" tgt="752" wght="4.9979642895627654" />
        <Con id="1376" src="5" tgt="894" wght="-3.9997392939403653" />
        <Con id="1406" src="9" tgt="1343" wght="-3.6930336516734594" />
        <Con id="1445" src="6" tgt="388" wght="0.05976256142127593" />
        <Con id="1458" src="1456" tgt="894" wght="4.9849450697277735" />
        <Con id="1477" src="16" tgt="498" wght="-1.1396457138471305" />
        <Con id="1494" src="8" tgt="848" wght="0.016941427105008504" />
        <Con id="1708" src="15" tgt="894" wght="0.0062680858458120693" />
        <Con id="1709" src="18" tgt="848" wght="-1.1163299647159874" />
        <Con id="1776" src="21" tgt="1343" wght="0.022678534451618586" />
        <Con id="1827" src="1659" tgt="23" wght="0.022193172584904733" />
        <Con id="1908" src="1906" tgt="1659" wght="5" />
        <Con id="1962" src="1541" tgt="24" wght="0.040275149442349278" />
        <Con id="2086" src="8" tgt="931" wght="-1.3316270582604166" />
        <Con id="2115" src="19" tgt="931" wght="2.8866824391297996" />
        <Con id="2149" src="19" tgt="1064" wght="0.814387549482299" />
        <Con id="2181" src="13" tgt="2180" wght="0.029969093348008274" />
        <Con id="2230" src="16" tgt="752" wght="1.4741559789652516" />
        <Con id="2360" src="7" tgt="1082" wght="0.0479843790353661" />
        <Con id="2421" src="3" tgt="931" wght="-0.037788837659172715" />
        <Con id="2439" src="1906" tgt="1541" wght="-0.01242286772467196" />
        <Con id="2487" src="8" tgt="1659" wght="0.030068765481476578" />
        <Con id="2497" src="3" tgt="1082" wght="-0.048324371874332431" />
        <Con id="2626" src="1343" tgt="280" wght="0.02765652153852096" />
        <Con id="2732" src="7" tgt="2731" wght="-0.032506152379633411" />
        <Con id="2733" src="2731" tgt="894" wght="5" />
        <Con id="2749" src="388" tgt="2748" wght="1.7961625039625737" />
        <Con id="2750" src="2748" tgt="1456" wght="5" />
        <Con id="2773" src="22" tgt="2731" wght="-0.046153893456434066" />
        <Con id="2776" src="15" tgt="1064" wght="-0.021477914415299892" />
        <Con id="2867" src="1659" tgt="388" wght="0.013348561402299427" />
        <Con id="2929" src="23" tgt="2748" wght="-2.89378194604069" />
        <Con id="2932" src="7" tgt="1541" wght="-4.0794005658039643" />
        <Con id="3013" src="2731" tgt="1456" wght="3.9679569657891989" />
        <Con id="3022" src="1659" tgt="1659" wght="0.31870380043983459" />
        <Con id="3125" src="16" tgt="1659" wght="-0.045862166386434325" />
        <Con id="3189" src="18" tgt="3188" wght="-0.0067401599604636434" />
        <Con id="3190" src="3188" tgt="931" wght="5" />
        <Con id="3208" src="1082" tgt="1082" wght="-0.034752688789740208" />
        <Con id="3312" src="1541" tgt="2731" wght="0.095207644626498222" />
        <Con id="3517" src="280" tgt="1906" wght="-0.025118529284372925" />
        <Con id="3537" src="12" tgt="1456" wght="-3.4176024283336077" />
        <Con id="3577" src="3188" tgt="25" wght="-0.045887440791394722" />
        <Con id="3611" src="23" tgt="752" wght="-0.036607849271968008" />
        <Con id="3646" src="17" tgt="1064" wght="2.2292301501147449" />
        <Con id="4112" src="1082" tgt="931" wght="-0.010233495524153114" />
        <Con id="4450" src="388" tgt="26" wght="-1.3105729781091213" />
        <Con id="4814" src="280" tgt="1064" wght="-0.024460319010540844" />
        <Con id="5017" src="5015" tgt="498" wght="5" />
        <Con id="5151" src="5" tgt="848" wght="-0.021429597097449005" />
        <Con id="5288" src="2180" tgt="1082" wght="1.2514135078527033" />
        <Con id="5311" src="498" tgt="2748" wght="-3.3928677975200117" />
        <Con id="5439" src="196" tgt="5438" wght="4.986118573031427" />
        <Con id="5440" src="5438" tgt="280" wght="5" />
        <Con id="5490" src="752" tgt="1906" wght="0.0034139786148443818" />
        <Con id="5590" src="20" tgt="498" wght="-3.8052879250608385" />
        <Con id="5817" src="23" tgt="1906" wght="2.8373824572190642" />
      </Connections>
    </Network>
    <Network id="24507" birthGen="33" fitness="0.81589569688918762">
      <Nodes>
        <Node type="bias" id="0" />
        <Node type="in" id="1" />
        <Node type="in" id="2" />
        <Node type="in" id="3" />
        <Node type="in" id="4" />
        <Node type="in" id="5" />
        <Node type="in" id="6" />
        <Node type="in" id="7" />
        <Node type="in" id="8" />
        <Node type="in" id="9" />
        <Node type="in" id="10" />
        <Node type="in" id="11" />
        <Node type="in" id="12" />
        <Node type="in" id="13" />
        <Node type="in" id="14" />
        <Node type="in" id="15" />
        <Node type="in" id="16" />
        <Node type="in" id="17" />
        <Node type="in" id="18" />
        <Node type="in" id="19" />
        <Node type="in" id="20" />
        <Node type="in" id="21" />
        <Node type="in" id="22" />
        <Node type="out" id="23" />
        <Node type="out" id="24" />
        <Node type="out" id="25" />
        <Node type="out" id="26" />
        <Node type="hid" id="196" />
        <Node type="hid" id="280" />
        <Node type="hid" id="388" />
        <Node type="hid" id="498" />
        <Node type="hid" id="752" />
        <Node type="hid" id="848" />
        <Node type="hid" id="894" />
        <Node type="hid" id="931" />
        <Node type="hid" id="1064" />
        <Node type="hid" id="1082" />
        <Node type="hid" id="1284" />
        <Node type="hid" id="1343" />
        <Node type="hid" id="1456" />
        <Node type="hid" id="1541" />
        <Node type="hid" id="1659" />
        <Node type="hid" id="1906" />
        <Node type="hid" id="2180" />
        <Node type="hid" id="2731" />
        <Node type="hid" id="2748" />
        <Node type="hid" id="3188" />
      </Nodes>
      <Connections>
        <Con id="142" src="22" tgt="23" wght="0.839317871640025" />
        <Con id="197" src="11" tgt="196" wght="-0.041144643314683475" />
        <Con id="198" src="196" tgt="24" wght="4.9908477193844121" />
        <Con id="223" src="3" tgt="25" wght="0.030013878329507471" />
        <Con id="254" src="15" tgt="26" wght="-0.62728223740602806" />
        <Con id="278" src="0" tgt="23" wght="0.020951040948194947" />
        <Con id="281" src="196" tgt="280" wght="4.986118573031427" />
        <Con id="282" src="280" tgt="24" wght="5" />
        <Con id="297" src="24" tgt="24" wght="-0.001663298485800624" />
        <Con id="352" src="9" tgt="25" wght="-0.023335523303952756" />
        <Con id="407" src="280" tgt="26" wght="0.025113498068207445" />
        <Con id="468" src="15" tgt="280" wght="0.72311274940148" />
        <Con id="500" src="498" tgt="280" wght="4.9926533437184064" />
        <Con id="510" src="24" tgt="280" wght="-4.9929574202863662" />
        <Con id="550" src="8" tgt="280" wght="-0.039269286906346679" />
        <Con id="624" src="22" tgt="196" wght="-1.9633272670071698" />
        <Con id="703" src="8" tgt="23" wght="4.9437973734531342" />
        <Con id="734" src="18" tgt="26" wght="4.9653456779196858" />
        <Con id="749" src="21" tgt="196" wght="0.014559559081681073" />
        <Con id="751" src="22" tgt="25" wght="-4.3627670430578291" />
        <Con id="753" src="6" tgt="752" wght="-0.037050067413736093" />
        <Con id="755" src="0" tgt="24" wght="-0.004833000525832176" />
        <Con id="782" src="12" tgt="280" wght="-0.0012088717548798152" />
        <Con id="814" src="22" tgt="498" wght="-4.051039417283091" />
        <Con id="819" src="14" tgt="25" wght="0.0032820351938144636" />
        <Con id="850" src="848" tgt="25" wght="5" />
        <Con id="870" src="6" tgt="24" wght="0.16355734661549196" />
        <Con id="895" src="18" tgt="894" wght="0.012072429957619426" />
        <Con id="930" src="2" tgt="280" wght="-2.9244545088536062" />
        <Con id="936" src="12" tgt="196" wght="0.0408118685087163" />
        <Con id="952" src="7" tgt="24" wght="-0.050169611635786336" />
        <Con id="955" src="14" tgt="23" wght="3.779074963776083" />
        <Con id="964" src="21" tgt="848" wght="1.874328285921365" />
        <Con id="982" src="24" tgt="25" wght="-0.040685703254639355" />
        <Con id="986" src="10" tgt="26" wght="3.3758820710831077" />
        <Con id="1066" src="1064" tgt="388" wght="4.99223327794841" />
        <Con id="1068" src="5" tgt="25" wght="0.47569032910632347" />
        <Con id="1083" src="13" tgt="1082" wght="0.029995100293308496" />
        <Con id="1096" src="22" tgt="848" wght="0.016851575524340877" />
        <Con id="1148" src="498" tgt="196" wght="0.035474444097226984" />
        <Con id="1180" src="15" tgt="23" wght="-0.002715053779825255" />
        <Con id="1192" src="848" tgt="24" wght="-1.5593978972174227" />
        <Con id="1201" src="1" tgt="498" wght="0.019330471800640226" />
        <Con id="1286" src="1284" tgt="848" wght="5" />
        <Con id="1313" src="10" tgt="848" wght="0.013829368585720659" />
        <Con id="1344" src="20" tgt="1343" wght="-0.017711770689203241" />
        <Con id="1345" src="1343" tgt="752" wght="4.9989285698936881" />
        <Con id="1376" src="5" tgt="894" wght="-3.9997392939403653" />
        <Con id="1406" src="9" tgt="1343" wght="-3.6930336516734594" />
        <Con id="1445" src="6" tgt="388" wght="0.057427025994706483" />
        <Con id="1458" src="1456" tgt="894" wght="5" />
        <Con id="1477" src="16" tgt="498" wght="-1.1396457138471305" />
        <Con id="1494" src="8" tgt="848" wght="-4.8450796213001013" />
        <Con id="1548" src="4" tgt="848" wght="-4.6087159292061708" />
        <Con id="1708" src="15" tgt="894" wght="-0.0053503340298310057" />
        <Con id="1709" src="18" tgt="848" wght="-1.1163299647159874" />
        <Con id="1776" src="21" tgt="1343" wght="0.022678534451618586" />
        <Con id="1827" src="1659" tgt="23" wght="0.034886348598846088" />
        <Con id="1907" src="388" tgt="1906" wght="4.99970798173231" />
        <Con id="1908" src="1906" tgt="1659" wght="5" />
        <Con id="1962" src="1541" tgt="24" wght="0.038283512252382933" />
        <Con id="2086" src="8" tgt="931" wght="-1.3316270582604166" />
        <Con id="2115" src="19" tgt="931" wght="2.8866824391297996" />
        <Con id="2149" src="19" tgt="1064" wght="0.814387549482299" />
        <Con id="2181" src="13" tgt="2180" wght="0.019517115020408971" />
        <Con id="2230" src="16" tgt="752" wght="1.4741559789652516" />
        <Con id="2360" src="7" tgt="1082" wght="0.0479843790353661" />
        <Con id="2421" src="3" tgt="931" wght="-0.037788837659172715" />
        <Con id="2439" src="1906" tgt="1541" wght="-0.01242286772467196" />
        <Con id="2487" src="8" tgt="1659" wght="0.030068765481476578" />
        <Con id="2497" src="3" tgt="1082" wght="-0.048324371874332431" />
        <Con id="2732" src="7" tgt="2731" wght="-0.0357843406392557" />
        <Con id="2733" src="2731" tgt="894" wght="5" />
        <Con id="2749" src="388" tgt="2748" wght="1.7961625039625737" />
        <Con id="2750" src="2748" tgt="1456" wght="5" />
        <Con id="2773" src="22" tgt="2731" wght="-0.040114965359680357" />
        <Con id="2776" src="15" tgt="1064" wght="-0.021477914415299892" />
        <Con id="2867" src="1659" tgt="388" wght="0.013348561402299427" />
        <Con id="2929" src="23" tgt="2748" wght="-2.89378194604069" />
        <Con id="2932" src="7" tgt="1541" wght="-4.0989165699581234" />
        <Con id="3013" src="2731" tgt="1456" wght="3.9679569657891989" />
        <Con id="3022" src="1659" tgt="1659" wght="0.31870380043983459" />
        <Con id="3105" src="1064" tgt="24" wght="-0.046273582591675223" />
        <Con id="3125" src="16" tgt="1659" wght="-0.045862166386434325" />
        <Con id="3189" src="18" tgt="3188" wght="-0.0067401599604636434" />
        <Con id="3190" src="3188" tgt="931" wght="5" />
        <Con id="3208" src="1082" tgt="1082" wght="-0.034752688789740208" />
        <Con id="3312" src="1541" tgt="2731" wght="0.095207644626498222" />
        <Con id="3517" src="280" tgt="1906" wght="-0.025118529284372925" />
        <Con id="3537" src="12" tgt="1456" wght="-3.4268515161238611" />
        <Con id="3611" src="23" tgt="752" wght="-0.036607849271968008" />
        <Con id="3646" src="17" tgt="1064" wght="2.2292301501147449" />
        <Con id="4112" src="1082" tgt="931" wght="-0.010233495524153114" />
        <Con id="4450" src="388" tgt="26" wght="-1.3105729781091213" />
        <Con id="4767" src="9" tgt="498" wght="0.0077613751551959577" />
        <Con id="4814" src="280" tgt="1064" wght="-0.024460319010540844" />
        <Con id="5014" src="11" tgt="388" wght="-0.081803037319332361" />
        <Con id="5256" src="280" tgt="2748" wght="0.019785463809967041" />
        <Con id="5625" src="1541" tgt="388" wght="3.8367003691382706" />
        <Con id="5736" src="9" tgt="1064" wght="-1.8357988609932363" />
        <Con id="5819" src="848" tgt="752" wght="-0.011850702692754567" />
        <Con id="5847" src="5" tgt="3188" wght="2.3665876290760934" />
        <Con id="5878" src="3" tgt="752" wght="-0.0024900660617277028" />
        <Con id="5899" src="19" tgt="1541" wght="0.75637847650796175" />
      </Connections>
    </Network>
    <Network id="24516" birthGen="33" fitness="0.859646023076885">
      <Nodes>
        <Node type="bias" id="0" />
        <Node type="in" id="1" />
        <Node type="in" id="2" />
        <Node type="in" id="3" />
        <Node type="in" id="4" />
        <Node type="in" id="5" />
        <Node type="in" id="6" />
        <Node type="in" id="7" />
        <Node type="in" id="8" />
        <Node type="in" id="9" />
        <Node type="in" id="10" />
        <Node type="in" id="11" />
        <Node type="in" id="12" />
        <Node type="in" id="13" />
        <Node type="in" id="14" />
        <Node type="in" id="15" />
        <Node type="in" id="16" />
        <Node type="in" id="17" />
        <Node type="in" id="18" />
        <Node type="in" id="19" />
        <Node type="in" id="20" />
        <Node type="in" id="21" />
        <Node type="in" id="22" />
        <Node type="out" id="23" />
        <Node type="out" id="24" />
        <Node type="out" id="25" />
        <Node type="out" id="26" />
        <Node type="hid" id="196" />
        <Node type="hid" id="280" />
        <Node type="hid" id="388" />
        <Node type="hid" id="498" />
        <Node type="hid" id="752" />
        <Node type="hid" id="848" />
        <Node type="hid" id="894" />
        <Node type="hid" id="931" />
        <Node type="hid" id="1064" />
        <Node type="hid" id="1082" />
        <Node type="hid" id="1284" />
        <Node type="hid" id="1343" />
        <Node type="hid" id="1456" />
        <Node type="hid" id="1541" />
        <Node type="hid" id="1659" />
        <Node type="hid" id="1906" />
        <Node type="hid" id="2180" />
        <Node type="hid" id="2731" />
        <Node type="hid" id="2748" />
        <Node type="hid" id="3188" />
        <Node type="hid" id="5023" />
        <Node type="hid" id="5777" />
        <Node type="hid" id="5905" />
      </Nodes>
      <Connections>
        <Con id="142" src="22" tgt="23" wght="0.839317871640025" />
        <Con id="197" src="11" tgt="196" wght="-0.041144643314683475" />
        <Con id="198" src="196" tgt="24" wght="4.9908477193844121" />
        <Con id="223" src="3" tgt="25" wght="0.030013878329507471" />
        <Con id="254" src="15" tgt="26" wght="-0.62057834505627463" />
        <Con id="278" src="0" tgt="23" wght="0.020951040948194947" />
        <Con id="281" src="196" tgt="280" wght="4.986118573031427" />
        <Con id="282" src="280" tgt="24" wght="5" />
        <Con id="297" src="24" tgt="24" wght="-0.001663298485800624" />
        <Con id="352" src="9" tgt="25" wght="-0.023335523303952756" />
        <Con id="407" src="280" tgt="26" wght="0.025113498068207445" />
        <Con id="468" src="15" tgt="280" wght="0.72311274940148" />
        <Con id="500" src="498" tgt="280" wght="4.9926533437184064" />
        <Con id="510" src="24" tgt="280" wght="-4.9929574202863662" />
        <Con id="550" src="8" tgt="280" wght="-0.039269286906346679" />
        <Con id="624" src="22" tgt="196" wght="-1.9705225429407243" />
        <Con id="703" src="8" tgt="23" wght="4.9437973734531342" />
        <Con id="734" src="18" tgt="26" wght="4.9653456779196858" />
        <Con id="749" src="21" tgt="196" wght="0.014559559081681073" />
        <Con id="751" src="22" tgt="25" wght="-4.3627670430578291" />
        <Con id="753" src="6" tgt="752" wght="-0.037050067413736093" />
        <Con id="755" src="0" tgt="24" wght="-0.004833000525832176" />
        <Con id="782" src="12" tgt="280" wght="0.013967441060172385" />
        <Con id="814" src="22" tgt="498" wght="-4.051039417283091" />
        <Con id="819" src="14" tgt="25" wght="0.018226116661649104" />
        <Con id="850" src="848" tgt="25" wght="5" />
        <Con id="870" src="6" tgt="24" wght="0.16355734661549196" />
        <Con id="895" src="18" tgt="894" wght="0.012072429957619426" />
        <Con id="936" src="12" tgt="196" wght="0.0408118685087163" />
        <Con id="952" src="7" tgt="24" wght="-0.050774928019481518" />
        <Con id="955" src="14" tgt="23" wght="3.779074963776083" />
        <Con id="982" src="24" tgt="25" wght="-0.040685703254639355" />
        <Con id="986" src="10" tgt="26" wght="3.3746789091993366" />
        <Con id="1066" src="1064" tgt="388" wght="4.99223327794841" />
        <Con id="1068" src="5" tgt="25" wght="0.47569032910632347" />
        <Con id="1083" src="13" tgt="1082" wght="0.029995100293308496" />
        <Con id="1096" src="22" tgt="848" wght="0.020490820887165098" />
        <Con id="1148" src="498" tgt="196" wght="0.035474444097226984" />
        <Con id="1180" src="15" tgt="23" wght="-0.002715053779825255" />
        <Con id="1192" src="848" tgt="24" wght="-1.4151568484872821" />
        <Con id="1201" src="1" tgt="498" wght="0.019330471800640226" />
        <Con id="1286" src="1284" tgt="848" wght="5" />
        <Con id="1313" src="10" tgt="848" wght="0.013829368585720659" />
        <Con id="1344" src="20" tgt="1343" wght="-0.017711770689203241" />
        <Con id="1345" src="1343" tgt="752" wght="4.9989285698936881" />
        <Con id="1376" src="5" tgt="894" wght="-3.9997392939403653" />
        <Con id="1406" src="9" tgt="1343" wght="-3.6930336516734594" />
        <Con id="1445" src="6" tgt="388" wght="0.057427025994706483" />
        <Con id="1458" src="1456" tgt="894" wght="5" />
        <Con id="1477" src="16" tgt="498" wght="-1.1396457138471305" />
        <Con id="1494" src="8" tgt="848" wght="-4.8450796213001013" />
        <Con id="1548" src="4" tgt="848" wght="-4.6087159292061708" />
        <Con id="1708" src="15" tgt="894" wght="-0.0053503340298310057" />
        <Con id="1709" src="18" tgt="848" wght="-1.1163299647159874" />
        <Con id="1776" src="21" tgt="1343" wght="0.022678534451618586" />
        <Con id="1827" src="1659" tgt="23" wght="0.034886348598846088" />
        <Con id="1907" src="388" tgt="1906" wght="5" />
        <Con id="1908" src="1906" tgt="1659" wght="5" />
        <Con id="1962" src="1541" tgt="24" wght="0.038283512252382933" />
        <Con id="2086" src="8" tgt="931" wght="-1.3316270582604166" />
        <Con id="2115" src="19" tgt="931" wght="2.8866824391297996" />
        <Con id="2149" src="19" tgt="1064" wght="0.814387549482299" />
        <Con id="2181" src="13" tgt="2180" wght="0.019517115020408971" />
        <Con id="2230" src="16" tgt="752" wght="1.4741559789652516" />
        <Con id="2360" src="7" tgt="1082" wght="0.0479843790353661" />
        <Con id="2421" src="3" tgt="931" wght="-0.037788837659172715" />
        <Con id="2439" src="1906" tgt="1541" wght="-0.01242286772467196" />
        <Con id="2487" src="8" tgt="1659" wght="0.030068765481476578" />
        <Con id="2497" src="3" tgt="1082" wght="-0.048324371874332431" />
        <Con id="2626" src="1343" tgt="280" wght="0.02765652153852096" />
        <Con id="2732" src="7" tgt="2731" wght="-0.0357843406392557" />
        <Con id="2733" src="2731" tgt="894" wght="5" />
        <Con id="2749" src="388" tgt="2748" wght="1.7961625039625737" />
        <Con id="2773" src="22" tgt="2731" wght="-0.040114965359680357" />
        <Con id="2776" src="15" tgt="1064" wght="-0.021477914415299892" />
        <Con id="2867" src="1659" tgt="388" wght="0.013348561402299427" />
        <Con id="2929" src="23" tgt="2748" wght="-2.89378194604069" />
        <Con id="2932" src="7" tgt="1541" wght="-4.0895983204245567" />
        <Con id="3013" src="2731" tgt="1456" wght="3.9679569657891989" />
        <Con id="3022" src="1659" tgt="1659" wght="0.31870380043983459" />
        <Con id="3105" src="1064" tgt="24" wght="-0.046273582591675223" />
        <Con id="3125" src="16" tgt="1659" wght="-0.045862166386434325" />
        <Con id="3189" src="18" tgt="3188" wght="-0.0067401599604636434" />
        <Con id="3190" src="3188" tgt="931" wght="5" />
        <Con id="3208" src="1082" tgt="1082" wght="-0.034752688789740208" />
        <Con id="3312" src="1541" tgt="2731" wght="0.095207644626498222" />
        <Con id="3517" src="280" tgt="1906" wght="-0.025118529284372925" />
        <Con id="3537" src="12" tgt="1456" wght="-3.4268515161238611" />
        <Con id="3611" src="23" tgt="752" wght="-0.036607849271968008" />
        <Con id="3646" src="17" tgt="1064" wght="2.2292301501147449" />
        <Con id="4112" src="1082" tgt="931" wght="-0.010233495524153114" />
        <Con id="4450" src="388" tgt="26" wght="-1.3105729781091213" />
        <Con id="4767" src="9" tgt="498" wght="0.0077613751551959577" />
        <Con id="4814" src="280" tgt="1064" wght="-0.024460319010540844" />
        <Con id="5014" src="11" tgt="388" wght="-0.081803037319332361" />
        <Con id="5024" src="2748" tgt="5023" wght="5" />
        <Con id="5025" src="5023" tgt="1456" wght="5" />
        <Con id="5256" src="280" tgt="2748" wght="0.019785463809967041" />
        <Con id="5487" src="1456" tgt="280" wght="-2.244213130325079" />
        <Con id="5625" src="1541" tgt="388" wght="3.8367003691382706" />
        <Con id="5778" src="21" tgt="5777" wght="1.874328285921365" />
        <Con id="5779" src="5777" tgt="848" wght="5" />
        <Con id="5906" src="2" tgt="5905" wght="-2.9244545088536062" />
        <Con id="5907" src="5905" tgt="280" wght="5" />
      </Connections>
    </Network>
    <Network id="24517" birthGen="33" fitness="0.88141437683983115">
      <Nodes>
        <Node type="bias" id="0" />
        <Node type="in" id="1" />
        <Node type="in" id="2" />
        <Node type="in" id="3" />
        <Node type="in" id="4" />
        <Node type="in" id="5" />
        <Node type="in" id="6" />
        <Node type="in" id="7" />
        <Node type="in" id="8" />
        <Node type="in" id="9" />
        <Node type="in" id="10" />
        <Node type="in" id="11" />
        <Node type="in" id="12" />
        <Node type="in" id="13" />
        <Node type="in" id="14" />
        <Node type="in" id="15" />
        <Node type="in" id="16" />
        <Node type="in" id="17" />
        <Node type="in" id="18" />
        <Node type="in" id="19" />
        <Node type="in" id="20" />
        <Node type="in" id="21" />
        <Node type="in" id="22" />
        <Node type="out" id="23" />
        <Node type="out" id="24" />
        <Node type="out" id="25" />
        <Node type="out" id="26" />
        <Node type="hid" id="196" />
        <Node type="hid" id="280" />
        <Node type="hid" id="388" />
        <Node type="hid" id="498" />
        <Node type="hid" id="752" />
        <Node type="hid" id="848" />
        <Node type="hid" id="894" />
        <Node type="hid" id="931" />
        <Node type="hid" id="1064" />
        <Node type="hid" id="1082" />
        <Node type="hid" id="1284" />
        <Node type="hid" id="1343" />
        <Node type="hid" id="1456" />
        <Node type="hid" id="1541" />
        <Node type="hid" id="1659" />
        <Node type="hid" id="1906" />
        <Node type="hid" id="2180" />
        <Node type="hid" id="2731" />
        <Node type="hid" id="2748" />
        <Node type="hid" id="3188" />
        <Node type="hid" id="5023" />
        <Node type="hid" id="5777" />
      </Nodes>
      <Connections>
        <Con id="142" src="22" tgt="23" wght="0.839317871640025" />
        <Con id="197" src="11" tgt="196" wght="-0.041144643314683475" />
        <Con id="198" src="196" tgt="24" wght="4.9908477193844121" />
        <Con id="223" src="3" tgt="25" wght="0.030013878329507471" />
        <Con id="254" src="15" tgt="26" wght="-0.62057834505627463" />
        <Con id="278" src="0" tgt="23" wght="0.020951040948194947" />
        <Con id="281" src="196" tgt="280" wght="4.986118573031427" />
        <Con id="282" src="280" tgt="24" wght="5" />
        <Con id="297" src="24" tgt="24" wght="-0.001663298485800624" />
        <Con id="352" src="9" tgt="25" wght="-0.023335523303952756" />
        <Con id="407" src="280" tgt="26" wght="0.025113498068207445" />
        <Con id="468" src="15" tgt="280" wght="0.72311274940148" />
        <Con id="500" src="498" tgt="280" wght="4.9926533437184064" />
        <Con id="510" src="24" tgt="280" wght="-4.9929574202863662" />
        <Con id="550" src="8" tgt="280" wght="-0.039269286906346679" />
        <Con id="624" src="22" tgt="196" wght="-1.9705225429407243" />
        <Con id="703" src="8" tgt="23" wght="4.9437973734531342" />
        <Con id="734" src="18" tgt="26" wght="4.9653456779196858" />
        <Con id="749" src="21" tgt="196" wght="0.014559559081681073" />
        <Con id="751" src="22" tgt="25" wght="-4.3627670430578291" />
        <Con id="753" src="6" tgt="752" wght="-0.037050067413736093" />
        <Con id="755" src="0" tgt="24" wght="-0.004833000525832176" />
        <Con id="782" src="12" tgt="280" wght="0.013967441060172385" />
        <Con id="814" src="22" tgt="498" wght="-4.051039417283091" />
        <Con id="819" src="14" tgt="25" wght="0.018226116661649104" />
        <Con id="850" src="848" tgt="25" wght="5" />
        <Con id="870" src="6" tgt="24" wght="0.16355734661549196" />
        <Con id="895" src="18" tgt="894" wght="0.012072429957619426" />
        <Con id="930" src="2" tgt="280" wght="-2.9054752109302049" />
        <Con id="936" src="12" tgt="196" wght="0.0408118685087163" />
        <Con id="952" src="7" tgt="24" wght="-0.050774928019481518" />
        <Con id="955" src="14" tgt="23" wght="3.779074963776083" />
        <Con id="982" src="24" tgt="25" wght="-0.040685703254639355" />
        <Con id="986" src="10" tgt="26" wght="3.3746789091993366" />
        <Con id="1066" src="1064" tgt="388" wght="4.99223327794841" />
        <Con id="1068" src="5" tgt="25" wght="0.47569032910632347" />
        <Con id="1083" src="13" tgt="1082" wght="0.029995100293308496" />
        <Con id="1096" src="22" tgt="848" wght="0.020490820887165098" />
        <Con id="1148" src="498" tgt="196" wght="0.035474444097226984" />
        <Con id="1180" src="15" tgt="23" wght="-0.002715053779825255" />
        <Con id="1192" src="848" tgt="24" wght="-1.4151568484872821" />
        <Con id="1201" src="1" tgt="498" wght="0.019330471800640226" />
        <Con id="1286" src="1284" tgt="848" wght="5" />
        <Con id="1313" src="10" tgt="848" wght="0.013829368585720659" />
        <Con id="1344" src="20" tgt="1343" wght="-0.017711770689203241" />
        <Con id="1345" src="1343" tgt="752" wght="4.9989285698936881" />
        <Con id="1376" src="5" tgt="894" wght="-3.9997392939403653" />
        <Con id="1406" src="9" tgt="1343" wght="-3.6930336516734594" />
        <Con id="1445" src="6" tgt="388" wght="0.057427025994706483" />
        <Con id="1458" src="1456" tgt="894" wght="5" />
        <Con id="1477" src="16" tgt="498" wght="-1.1396457138471305" />
        <Con id="1494" src="8" tgt="848" wght="-4.8450796213001013" />
        <Con id="1548" src="4" tgt="848" wght="-4.6087159292061708" />
        <Con id="1708" src="15" tgt="894" wght="-0.0053503340298310057" />
        <Con id="1709" src="18" tgt="848" wght="-1.1229424081493906" />
        <Con id="1776" src="21" tgt="1343" wght="0.022678534451618586" />
        <Con id="1827" src="1659" tgt="23" wght="0.034886348598846088" />
        <Con id="1907" src="388" tgt="1906" wght="5" />
        <Con id="1908" src="1906" tgt="1659" wght="5" />
        <Con id="1962" src="1541" tgt="24" wght="0.038283512252382933" />
        <Con id="2086" src="8" tgt="931" wght="-1.3316270582604166" />
        <Con id="2115" src="19" tgt="931" wght="2.8866824391297996" />
        <Con id="2149" src="19" tgt="1064" wght="0.814387549482299" />
        <Con id="2181" src="13" tgt="2180" wght="0.019517115020408971" />
        <Con id="2230" src="16" tgt="752" wght="1.4741559789652516" />
        <Con id="2360" src="7" tgt="1082" wght="0.0479843790353661" />
        <Con id="2421" src="3" tgt="931" wght="-0.037788837659172715" />
        <Con id="2439" src="1906" tgt="1541" wght="-0.01242286772467196" />
        <Con id="2487" src="8" tgt="1659" wght="0.030068765481476578" />
        <Con id="2497" src="3" tgt="1082" wght="-0.048324371874332431" />
        <Con id="2626" src="1343" tgt="280" wght="0.02765652153852096" />
        <Con id="2732" src="7" tgt="2731" wght="-0.0357843406392557" />
        <Con id="2733" src="2731" tgt="894" wght="5" />
        <Con id="2749" src="388" tgt="2748" wght="1.7961625039625737" />
        <Con id="2773" src="22" tgt="2731" wght="-0.040114965359680357" />
        <Con id="2776" src="15" tgt="1064" wght="-0.021477914415299892" />
        <Con id="2867" src="1659" tgt="388" wght="0.013348561402299427" />
        <Con id="2929" src="23" tgt="2748" wght="-2.89378194604069" />
        <Con id="2932" src="7" tgt="1541" wght="-4.0895983204245567" />
        <Con id="3013" src="2731" tgt="1456" wght="3.9679569657891989" />
        <Con id="3022" src="1659" tgt="1659" wght="0.31870380043983459" />
        <Con id="3105" src="1064" tgt="24" wght="-0.046273582591675223" />
        <Con id="3125" src="16" tgt="1659" wght="-0.045862166386434325" />
        <Con id="3189" src="18" tgt="3188" wght="-0.0067401599604636434" />
        <Con id="3190" src="3188" tgt="931" wght="5" />
        <Con id="3208" src="1082" tgt="1082" wght="-0.034752688789740208" />
        <Con id="3312" src="1541" tgt="2731" wght="0.095207644626498222" />
        <Con id="3517" src="280" tgt="1906" wght="-0.025118529284372925" />
        <Con id="3537" src="12" tgt="1456" wght="-3.4268515161238611" />
        <Con id="3611" src="23" tgt="752" wght="-0.036607849271968008" />
        <Con id="3646" src="17" tgt="1064" wght="2.2292301501147449" />
        <Con id="4112" src="1082" tgt="931" wght="-0.010233495524153114" />
        <Con id="4450" src="388" tgt="26" wght="-1.3105729781091213" />
        <Con id="4767" src="9" tgt="498" wght="0.0077613751551959577" />
        <Con id="4814" src="280" tgt="1064" wght="-0.024460319010540844" />
        <Con id="5014" src="11" tgt="388" wght="-0.081803037319332361" />
        <Con id="5024" src="2748" tgt="5023" wght="5" />
        <Con id="5025" src="5023" tgt="1456" wght="5" />
        <Con id="5256" src="280" tgt="2748" wght="0.019785463809967041" />
        <Con id="5487" src="1456" tgt="280" wght="-2.244213130325079" />
        <Con id="5625" src="1541" tgt="388" wght="3.8367003691382706" />
        <Con id="5778" src="21" tgt="5777" wght="1.874328285921365" />
        <Con id="5779" src="5777" tgt="848" wght="5" />
      </Connections>
    </Network>
    <Network id="24528" birthGen="33" fitness="0.85665720253552768">
      <Nodes>
        <Node type="bias" id="0" />
        <Node type="in" id="1" />
        <Node type="in" id="2" />
        <Node type="in" id="3" />
        <Node type="in" id="4" />
        <Node type="in" id="5" />
        <Node type="in" id="6" />
        <Node type="in" id="7" />
        <Node type="in" id="8" />
        <Node type="in" id="9" />
        <Node type="in" id="10" />
        <Node type="in" id="11" />
        <Node type="in" id="12" />
        <Node type="in" id="13" />
        <Node type="in" id="14" />
        <Node type="in" id="15" />
        <Node type="in" id="16" />
        <Node type="in" id="17" />
        <Node type="in" id="18" />
        <Node type="in" id="19" />
        <Node type="in" id="20" />
        <Node type="in" id="21" />
        <Node type="in" id="22" />
        <Node type="out" id="23" />
        <Node type="out" id="24" />
        <Node type="out" id="25" />
        <Node type="out" id="26" />
        <Node type="hid" id="196" />
        <Node type="hid" id="280" />
        <Node type="hid" id="388" />
        <Node type="hid" id="498" />
        <Node type="hid" id="752" />
        <Node type="hid" id="848" />
        <Node type="hid" id="894" />
        <Node type="hid" id="931" />
        <Node type="hid" id="1064" />
        <Node type="hid" id="1082" />
        <Node type="hid" id="1284" />
        <Node type="hid" id="1343" />
        <Node type="hid" id="1456" />
        <Node type="hid" id="1541" />
        <Node type="hid" id="1659" />
        <Node type="hid" id="1906" />
        <Node type="hid" id="2180" />
        <Node type="hid" id="2731" />
        <Node type="hid" id="2748" />
        <Node type="hid" id="3188" />
        <Node type="hid" id="5015" />
        <Node type="hid" id="5023" />
        <Node type="hid" id="5169" />
        <Node type="hid" id="5202" />
        <Node type="hid" id="5558" />
      </Nodes>
      <Connections>
        <Con id="142" src="22" tgt="23" wght="0.839317871640025" />
        <Con id="197" src="11" tgt="196" wght="-0.041144643314683475" />
        <Con id="198" src="196" tgt="24" wght="4.9908477193844121" />
        <Con id="223" src="3" tgt="25" wght="0.025239882461655313" />
        <Con id="254" src="15" tgt="26" wght="-0.62728223740602806" />
        <Con id="278" src="0" tgt="23" wght="0.020951040948194947" />
        <Con id="281" src="196" tgt="280" wght="4.986118573031427" />
        <Con id="282" src="280" tgt="24" wght="5" />
        <Con id="297" src="24" tgt="24" wght="-0.001663298485800624" />
        <Con id="352" src="9" tgt="25" wght="-0.023335523303952756" />
        <Con id="407" src="280" tgt="26" wght="0.010515896719980026" />
        <Con id="468" src="15" tgt="280" wght="-0.027758369292151752" />
        <Con id="500" src="498" tgt="280" wght="4.9926533437184064" />
        <Con id="510" src="24" tgt="280" wght="-4.9929574202863662" />
        <Con id="550" src="8" tgt="280" wght="-0.039269286906346679" />
        <Con id="624" src="22" tgt="196" wght="-1.9633272670071698" />
        <Con id="668" src="26" tgt="26" wght="0.037993833594948442" />
        <Con id="703" src="8" tgt="23" wght="4.9445970261878891" />
        <Con id="734" src="18" tgt="26" wght="4.9624049875197311" />
        <Con id="749" src="21" tgt="196" wght="0.016377363923808608" />
        <Con id="751" src="22" tgt="25" wght="-4.3627670430578291" />
        <Con id="753" src="6" tgt="752" wght="-0.037050067413736093" />
        <Con id="755" src="0" tgt="24" wght="-0.004833000525832176" />
        <Con id="782" src="12" tgt="280" wght="-0.0029134573485581038" />
        <Con id="789" src="3" tgt="388" wght="4.2234765549370827" />
        <Con id="814" src="22" tgt="498" wght="-4.051039417283091" />
        <Con id="819" src="14" tgt="25" wght="0.0032820351938144636" />
        <Con id="870" src="6" tgt="24" wght="0.16355734661549196" />
        <Con id="895" src="18" tgt="894" wght="0.012072429957619426" />
        <Con id="930" src="2" tgt="280" wght="-2.931306586227445" />
        <Con id="952" src="7" tgt="24" wght="-0.050774928019481518" />
        <Con id="955" src="14" tgt="23" wght="3.779074963776083" />
        <Con id="964" src="21" tgt="848" wght="1.874328285921365" />
        <Con id="982" src="24" tgt="25" wght="-0.040685703254639355" />
        <Con id="986" src="10" tgt="26" wght="3.3704352425411344" />
        <Con id="1066" src="1064" tgt="388" wght="4.99223327794841" />
        <Con id="1068" src="5" tgt="25" wght="0.47569032910632347" />
        <Con id="1083" src="13" tgt="1082" wght="0.029995100293308496" />
        <Con id="1096" src="22" tgt="848" wght="0.016851575524340877" />
        <Con id="1148" src="498" tgt="196" wght="0.035474444097226984" />
        <Con id="1180" src="15" tgt="23" wght="-0.002715053779825255" />
        <Con id="1192" src="848" tgt="24" wght="-1.4151568484872821" />
        <Con id="1201" src="1" tgt="498" wght="0.019330471800640226" />
        <Con id="1286" src="1284" tgt="848" wght="5" />
        <Con id="1313" src="10" tgt="848" wght="0.013829368585720659" />
        <Con id="1344" src="20" tgt="1343" wght="-0.017711770689203241" />
        <Con id="1345" src="1343" tgt="752" wght="4.9989285698936881" />
        <Con id="1376" src="5" tgt="894" wght="-3.9997392939403653" />
        <Con id="1445" src="6" tgt="388" wght="0.057427025994706483" />
        <Con id="1458" src="1456" tgt="894" wght="5" />
        <Con id="1477" src="16" tgt="498" wght="-2.2688467241823673" />
        <Con id="1494" src="8" tgt="848" wght="0.016941427105008504" />
        <Con id="1548" src="4" tgt="848" wght="-4.6087159292061708" />
        <Con id="1708" src="15" tgt="894" wght="-0.0053503340298310057" />
        <Con id="1709" src="18" tgt="848" wght="-1.1163299647159874" />
        <Con id="1776" src="21" tgt="1343" wght="0.022678534451618586" />
        <Con id="1827" src="1659" tgt="23" wght="0.0479870382175157" />
        <Con id="1908" src="1906" tgt="1659" wght="5" />
        <Con id="1962" src="1541" tgt="24" wght="0.038283512252382933" />
        <Con id="2086" src="8" tgt="931" wght="-1.340434591996907" />
        <Con id="2115" src="19" tgt="931" wght="2.8866824391297996" />
        <Con id="2149" src="19" tgt="1064" wght="0.814387549482299" />
        <Con id="2181" src="13" tgt="2180" wght="0.019517115020408971" />
        <Con id="2230" src="16" tgt="752" wght="1.4741559789652516" />
        <Con id="2360" src="7" tgt="1082" wght="0.0479843790353661" />
        <Con id="2421" src="3" tgt="931" wght="-0.037788837659172715" />
        <Con id="2439" src="1906" tgt="1541" wght="-0.01242286772467196" />
        <Con id="2487" src="8" tgt="1659" wght="0.030068765481476578" />
        <Con id="2497" src="3" tgt="1082" wght="-0.048705298304502681" />
        <Con id="2626" src="1343" tgt="280" wght="0.02765652153852096" />
        <Con id="2732" src="7" tgt="2731" wght="-0.032506152379633411" />
        <Con id="2733" src="2731" tgt="894" wght="5" />
        <Con id="2749" src="388" tgt="2748" wght="1.7961625039625737" />
        <Con id="2773" src="22" tgt="2731" wght="-0.028692948736645067" />
        <Con id="2776" src="15" tgt="1064" wght="-0.031781716377952976" />
        <Con id="2867" src="1659" tgt="388" wght="0.013348561402299427" />
        <Con id="2929" src="23" tgt="2748" wght="-2.9065175463482849" />
        <Con id="2932" src="7" tgt="1541" wght="-4.0895983204245567" />
        <Con id="3013" src="2731" tgt="1456" wght="3.9679569657891989" />
        <Con id="3022" src="1659" tgt="1659" wght="0.31870380043983459" />
        <Con id="3105" src="1064" tgt="24" wght="-0.046273582591675223" />
        <Con id="3125" src="16" tgt="1659" wght="-0.045862166386434325" />
        <Con id="3189" src="18" tgt="3188" wght="-0.0067401599604636434" />
        <Con id="3190" src="3188" tgt="931" wght="5" />
        <Con id="3208" src="1082" tgt="1082" wght="-0.050020795593477593" />
        <Con id="3312" src="1541" tgt="2731" wght="0.095207644626498222" />
        <Con id="3517" src="280" tgt="1906" wght="-0.025118529284372925" />
        <Con id="3537" src="12" tgt="1456" wght="-3.417435452921695" />
        <Con id="3577" src="3188" tgt="25" wght="-0.040647506690584125" />
        <Con id="3611" src="23" tgt="752" wght="-0.036607849271968008" />
        <Con id="3646" src="17" tgt="1064" wght="2.2292301501147449" />
        <Con id="4112" src="1082" tgt="931" wght="-0.010233495524153114" />
        <Con id="4450" src="388" tgt="26" wght="-1.3105729781091213" />
        <Con id="4814" src="280" tgt="1064" wght="-0.024460319010540844" />
        <Con id="4910" src="10" tgt="2748" wght="3.6722376965917647" />
        <Con id="5016" src="9" tgt="5015" wght="0.0054931106977164747" />
        <Con id="5017" src="5015" tgt="498" wght="5" />
        <Con id="5024" src="2748" tgt="5023" wght="5" />
        <Con id="5025" src="5023" tgt="1456" wght="5" />
        <Con id="5151" src="5" tgt="848" wght="-0.021429597097449005" />
        <Con id="5170" src="9" tgt="5169" wght="-3.6930336516734594" />
        <Con id="5171" src="5169" tgt="1343" wght="5" />
        <Con id="5203" src="388" tgt="5202" wght="4.99970798173231" />
        <Con id="5204" src="5202" tgt="1906" wght="5" />
        <Con id="5288" src="2180" tgt="1082" wght="1.2514135078527033" />
        <Con id="5559" src="848" tgt="5558" wght="5" />
        <Con id="5560" src="5558" tgt="25" wght="5" />
        <Con id="5561" src="2748" tgt="1343" wght="3.5173213086090982" />
        <Con id="5627" src="3" tgt="1659" wght="-0.23319297702983022" />
        <Con id="5674" src="0" tgt="5558" wght="0.015395617182366551" />
      </Connections>
    </Network>
    <Network id="24525" birthGen="33" fitness="0.77877020975431344">
      <Nodes>
        <Node type="bias" id="0" />
        <Node type="in" id="1" />
        <Node type="in" id="2" />
        <Node type="in" id="3" />
        <Node type="in" id="4" />
        <Node type="in" id="5" />
        <Node type="in" id="6" />
        <Node type="in" id="7" />
        <Node type="in" id="8" />
        <Node type="in" id="9" />
        <Node type="in" id="10" />
        <Node type="in" id="11" />
        <Node type="in" id="12" />
        <Node type="in" id="13" />
        <Node type="in" id="14" />
        <Node type="in" id="15" />
        <Node type="in" id="16" />
        <Node type="in" id="17" />
        <Node type="in" id="18" />
        <Node type="in" id="19" />
        <Node type="in" id="20" />
        <Node type="in" id="21" />
        <Node type="in" id="22" />
        <Node type="out" id="23" />
        <Node type="out" id="24" />
        <Node type="out" id="25" />
        <Node type="out" id="26" />
        <Node type="hid" id="196" />
        <Node type="hid" id="280" />
        <Node type="hid" id="388" />
        <Node type="hid" id="498" />
        <Node type="hid" id="752" />
        <Node type="hid" id="848" />
        <Node type="hid" id="894" />
        <Node type="hid" id="931" />
        <Node type="hid" id="1064" />
        <Node type="hid" id="1082" />
        <Node type="hid" id="1284" />
        <Node type="hid" id="1343" />
        <Node type="hid" id="1456" />
        <Node type="hid" id="1541" />
        <Node type="hid" id="1659" />
        <Node type="hid" id="1906" />
        <Node type="hid" id="2180" />
        <Node type="hid" id="2731" />
        <Node type="hid" id="2748" />
        <Node type="hid" id="3188" />
        <Node type="hid" id="5015" />
        <Node type="hid" id="5169" />
        <Node type="hid" id="5202" />
        <Node type="hid" id="5558" />
      </Nodes>
      <Connections>
        <Con id="142" src="22" tgt="23" wght="0.839317871640025" />
        <Con id="197" src="11" tgt="196" wght="-0.041144643314683475" />
        <Con id="198" src="196" tgt="24" wght="4.9908477193844121" />
        <Con id="223" src="3" tgt="25" wght="0.025239882461655313" />
        <Con id="254" src="15" tgt="26" wght="-0.62728223740602806" />
        <Con id="278" src="0" tgt="23" wght="0.020951040948194947" />
        <Con id="281" src="196" tgt="280" wght="4.986118573031427" />
        <Con id="282" src="280" tgt="24" wght="5" />
        <Con id="297" src="24" tgt="24" wght="-0.001663298485800624" />
        <Con id="352" src="9" tgt="25" wght="-0.023335523303952756" />
        <Con id="407" src="280" tgt="26" wght="0.010515896719980026" />
        <Con id="468" src="15" tgt="280" wght="-0.027758369292151752" />
        <Con id="500" src="498" tgt="280" wght="4.9926533437184064" />
        <Con id="510" src="24" tgt="280" wght="-4.9929574202863662" />
        <Con id="550" src="8" tgt="280" wght="-0.039269286906346679" />
        <Con id="624" src="22" tgt="196" wght="-1.9633272670071698" />
        <Con id="668" src="26" tgt="26" wght="0.037993833594948442" />
        <Con id="703" src="8" tgt="23" wght="4.9445970261878891" />
        <Con id="734" src="18" tgt="26" wght="4.9624049875197311" />
        <Con id="749" src="21" tgt="196" wght="0.016377363923808608" />
        <Con id="751" src="22" tgt="25" wght="-4.3627670430578291" />
        <Con id="753" src="6" tgt="752" wght="-0.037050067413736093" />
        <Con id="755" src="0" tgt="24" wght="-0.004833000525832176" />
        <Con id="782" src="12" tgt="280" wght="-0.0029134573485581038" />
        <Con id="789" src="3" tgt="388" wght="4.2234765549370827" />
        <Con id="814" src="22" tgt="498" wght="-4.051039417283091" />
        <Con id="819" src="14" tgt="25" wght="0.0032820351938144636" />
        <Con id="870" src="6" tgt="24" wght="0.16355734661549196" />
        <Con id="895" src="18" tgt="894" wght="0.012072429957619426" />
        <Con id="930" src="2" tgt="280" wght="-2.931306586227445" />
        <Con id="952" src="7" tgt="24" wght="-0.050774928019481518" />
        <Con id="955" src="14" tgt="23" wght="3.779074963776083" />
        <Con id="964" src="21" tgt="848" wght="1.874328285921365" />
        <Con id="982" src="24" tgt="25" wght="-0.040685703254639355" />
        <Con id="986" src="10" tgt="26" wght="3.3704352425411344" />
        <Con id="1066" src="1064" tgt="388" wght="4.99223327794841" />
        <Con id="1068" src="5" tgt="25" wght="0.47569032910632347" />
        <Con id="1083" src="13" tgt="1082" wght="0.029995100293308496" />
        <Con id="1096" src="22" tgt="848" wght="0.016851575524340877" />
        <Con id="1148" src="498" tgt="196" wght="0.035474444097226984" />
        <Con id="1180" src="15" tgt="23" wght="-0.002715053779825255" />
        <Con id="1192" src="848" tgt="24" wght="-1.4151568484872821" />
        <Con id="1201" src="1" tgt="498" wght="0.019330471800640226" />
        <Con id="1286" src="1284" tgt="848" wght="5" />
        <Con id="1313" src="10" tgt="848" wght="0.013829368585720659" />
        <Con id="1344" src="20" tgt="1343" wght="-0.017711770689203241" />
        <Con id="1345" src="1343" tgt="752" wght="4.9989285698936881" />
        <Con id="1376" src="5" tgt="894" wght="-3.9997392939403653" />
        <Con id="1445" src="6" tgt="388" wght="0.057427025994706483" />
        <Con id="1458" src="1456" tgt="894" wght="5" />
        <Con id="1477" src="16" tgt="498" wght="-2.2688467241823673" />
        <Con id="1494" src="8" tgt="848" wght="0.016941427105008504" />
        <Con id="1548" src="4" tgt="848" wght="-4.6087159292061708" />
        <Con id="1708" src="15" tgt="894" wght="-0.0053503340298310057" />
        <Con id="1709" src="18" tgt="848" wght="-1.1163299647159874" />
        <Con id="1776" src="21" tgt="1343" wght="0.022678534451618586" />
        <Con id="1827" src="1659" tgt="23" wght="0.0479870382175157" />
        <Con id="1908" src="1906" tgt="1659" wght="5" />
        <Con id="1962" src="1541" tgt="24" wght="0.038283512252382933" />
        <Con id="2086" src="8" tgt="931" wght="-1.340434591996907" />
        <Con id="2115" src="19" tgt="931" wght="2.8866824391297996" />
        <Con id="2149" src="19" tgt="1064" wght="0.814387549482299" />
        <Con id="2181" src="13" tgt="2180" wght="0.019517115020408971" />
        <Con id="2230" src="16" tgt="752" wght="1.4741559789652516" />
        <Con id="2360" src="7" tgt="1082" wght="0.0479843790353661" />
        <Con id="2421" src="3" tgt="931" wght="-0.037788837659172715" />
        <Con id="2439" src="1906" tgt="1541" wght="-0.01242286772467196" />
        <Con id="2487" src="8" tgt="1659" wght="0.030068765481476578" />
        <Con id="2497" src="3" tgt="1082" wght="-0.048705298304502681" />
        <Con id="2626" src="1343" tgt="280" wght="0.02765652153852096" />
        <Con id="2732" src="7" tgt="2731" wght="-0.032506152379633411" />
        <Con id="2733" src="2731" tgt="894" wght="5" />
        <Con id="2749" src="388" tgt="2748" wght="1.7961625039625737" />
        <Con id="2750" src="2748" tgt="1456" wght="5" />
        <Con id="2773" src="22" tgt="2731" wght="-0.028692948736645067" />
        <Con id="2776" src="15" tgt="1064" wght="-0.031781716377952976" />
        <Con id="2867" src="1659" tgt="388" wght="0.013348561402299427" />
        <Con id="2929" src="23" tgt="2748" wght="-2.9065175463482849" />
        <Con id="2932" src="7" tgt="1541" wght="-4.0895983204245567" />
        <Con id="3013" src="2731" tgt="1456" wght="3.9679569657891989" />
        <Con id="3022" src="1659" tgt="1659" wght="0.31870380043983459" />
        <Con id="3105" src="1064" tgt="24" wght="-0.046273582591675223" />
        <Con id="3125" src="16" tgt="1659" wght="-0.045862166386434325" />
        <Con id="3189" src="18" tgt="3188" wght="-0.0067401599604636434" />
        <Con id="3190" src="3188" tgt="931" wght="5" />
        <Con id="3208" src="1082" tgt="1082" wght="-0.050020795593477593" />
        <Con id="3312" src="1541" tgt="2731" wght="0.095207644626498222" />
        <Con id="3517" src="280" tgt="1906" wght="-0.025118529284372925" />
        <Con id="3537" src="12" tgt="1456" wght="-3.417435452921695" />
        <Con id="3577" src="3188" tgt="25" wght="-0.040647506690584125" />
        <Con id="3611" src="23" tgt="752" wght="-0.036607849271968008" />
        <Con id="3646" src="17" tgt="1064" wght="2.2292301501147449" />
        <Con id="4112" src="1082" tgt="931" wght="-0.010233495524153114" />
        <Con id="4450" src="388" tgt="26" wght="-1.3105729781091213" />
        <Con id="4814" src="280" tgt="1064" wght="-0.024460319010540844" />
        <Con id="4910" src="10" tgt="2748" wght="3.6722376965917647" />
        <Con id="4974" src="18" tgt="388" wght="-0.03935041232034564" />
        <Con id="5016" src="9" tgt="5015" wght="0.0054931106977164747" />
        <Con id="5017" src="5015" tgt="498" wght="5" />
        <Con id="5151" src="5" tgt="848" wght="-0.021429597097449005" />
        <Con id="5170" src="9" tgt="5169" wght="-3.6930336516734594" />
        <Con id="5171" src="5169" tgt="1343" wght="5" />
        <Con id="5203" src="388" tgt="5202" wght="4.99970798173231" />
        <Con id="5204" src="5202" tgt="1906" wght="5" />
        <Con id="5288" src="2180" tgt="1082" wght="1.2514135078527033" />
        <Con id="5559" src="848" tgt="5558" wght="5" />
        <Con id="5560" src="5558" tgt="25" wght="5" />
        <Con id="5561" src="2748" tgt="1343" wght="3.5173213086090982" />
        <Con id="5627" src="3" tgt="1659" wght="-0.23319297702983022" />
        <Con id="5674" src="0" tgt="5558" wght="0.015395617182366551" />
      </Connections>
    </Network>
    <Network id="24536" birthGen="33" fitness="0.78117651306204317">
      <Nodes>
        <Node type="bias" id="0" />
        <Node type="in" id="1" />
        <Node type="in" id="2" />
        <Node type="in" id="3" />
        <Node type="in" id="4" />
        <Node type="in" id="5" />
        <Node type="in" id="6" />
        <Node type="in" id="7" />
        <Node type="in" id="8" />
        <Node type="in" id="9" />
        <Node type="in" id="10" />
        <Node type="in" id="11" />
        <Node type="in" id="12" />
        <Node type="in" id="13" />
        <Node type="in" id="14" />
        <Node type="in" id="15" />
        <Node type="in" id="16" />
        <Node type="in" id="17" />
        <Node type="in" id="18" />
        <Node type="in" id="19" />
        <Node type="in" id="20" />
        <Node type="in" id="21" />
        <Node type="in" id="22" />
        <Node type="out" id="23" />
        <Node type="out" id="24" />
        <Node type="out" id="25" />
        <Node type="out" id="26" />
        <Node type="hid" id="196" />
        <Node type="hid" id="388" />
        <Node type="hid" id="848" />
        <Node type="hid" id="894" />
        <Node type="hid" id="1064" />
        <Node type="hid" id="1284" />
        <Node type="hid" id="1456" />
        <Node type="hid" id="1541" />
        <Node type="hid" id="1599" />
        <Node type="hid" id="1659" />
        <Node type="hid" id="1906" />
        <Node type="hid" id="2180" />
        <Node type="hid" id="2731" />
        <Node type="hid" id="2748" />
        <Node type="hid" id="3074" />
        <Node type="hid" id="3165" />
        <Node type="hid" id="3628" />
        <Node type="hid" id="4115" />
        <Node type="hid" id="4241" />
        <Node type="hid" id="4319" />
        <Node type="hid" id="4430" />
        <Node type="hid" id="4916" />
        <Node type="hid" id="5047" />
        <Node type="hid" id="5579" />
      </Nodes>
      <Connections>
        <Con id="35" src="2" tgt="23" wght="2.3265377598055137" />
        <Con id="142" src="22" tgt="23" wght="0.839317871640025" />
        <Con id="198" src="196" tgt="24" wght="4.9847614187031075" />
        <Con id="278" src="0" tgt="23" wght="0.0037869183677095748" />
        <Con id="343" src="11" tgt="23" wght="0.10277710347013998" />
        <Con id="508" src="8" tgt="196" wght="-0.62481507891789079" />
        <Con id="624" src="22" tgt="196" wght="-1.9633272670071698" />
        <Con id="673" src="10" tgt="24" wght="-0.004313413515992362" />
        <Con id="703" src="8" tgt="23" wght="4.9437973734531342" />
        <Con id="751" src="22" tgt="25" wght="-4.3627670430578291" />
        <Con id="819" src="14" tgt="25" wght="0.026333268910642658" />
        <Con id="895" src="18" tgt="894" wght="0.008484395757550188" />
        <Con id="919" src="5" tgt="388" wght="4.7415711840963715" />
        <Con id="1014" src="4" tgt="25" wght="0.029809351235800478" />
        <Con id="1066" src="1064" tgt="388" wght="5" />
        <Con id="1096" src="22" tgt="848" wght="-0.0124237560538432" />
        <Con id="1152" src="848" tgt="23" wght="0.0012487144096806756" />
        <Con id="1164" src="894" tgt="25" wght="-3.0492897136631458" />
        <Con id="1192" src="848" tgt="24" wght="-1.4151568484872821" />
        <Con id="1193" src="19" tgt="848" wght="0.060625341376382369" />
        <Con id="1286" src="1284" tgt="848" wght="5" />
        <Con id="1313" src="10" tgt="848" wght="0.0043081266672043" />
        <Con id="1458" src="1456" tgt="894" wght="5" />
        <Con id="1600" src="21" tgt="1599" wght="1.874328285921365" />
        <Con id="1601" src="1599" tgt="848" wght="4.9940419397780911" />
        <Con id="1708" src="15" tgt="894" wght="-0.012552049215509634" />
        <Con id="1827" src="1659" tgt="23" wght="0.032942869603255015" />
        <Con id="1962" src="1541" tgt="24" wght="0.038283512252382933" />
        <Con id="2149" src="19" tgt="1064" wght="0.814387549482299" />
        <Con id="2181" src="13" tgt="2180" wght="0.019517115020408971" />
        <Con id="2487" src="8" tgt="1659" wght="0.030068765481476578" />
        <Con id="2732" src="7" tgt="2731" wght="-0.030088251845610405" />
        <Con id="2733" src="2731" tgt="894" wght="4.995663122610642" />
        <Con id="2749" src="388" tgt="2748" wght="1.7961625039625737" />
        <Con id="2750" src="2748" tgt="1456" wght="5" />
        <Con id="2773" src="22" tgt="2731" wght="-0.043207916464133661" />
        <Con id="2929" src="23" tgt="2748" wght="-2.89378194604069" />
        <Con id="2975" src="15" tgt="1906" wght="3.5914433144018392" />
        <Con id="3012" src="0" tgt="1456" wght="-0.039103280077688395" />
        <Con id="3076" src="3074" tgt="26" wght="4.9946455155031444" />
        <Con id="3166" src="18" tgt="3165" wght="-1.1163299647159874" />
        <Con id="3167" src="3165" tgt="848" wght="5" />
        <Con id="3307" src="3165" tgt="894" wght="-0.0225832546212095" />
        <Con id="3390" src="4" tgt="2748" wght="0.015340834431893656" />
        <Con id="3444" src="0" tgt="1659" wght="-0.010726279439404606" />
        <Con id="3629" src="388" tgt="3628" wght="0.502999653108418" />
        <Con id="3630" src="3628" tgt="3074" wght="5" />
        <Con id="3719" src="1456" tgt="1284" wght="0.0228865007404238" />
        <Con id="4029" src="3" tgt="1541" wght="-0.034785272483713929" />
        <Con id="4083" src="4" tgt="26" wght="-0.019524245326433671" />
        <Con id="4116" src="388" tgt="4115" wght="4.9814907107885507" />
        <Con id="4117" src="4115" tgt="1906" wght="5" />
        <Con id="4197" src="26" tgt="3628" wght="-4.7669523542899173" />
        <Con id="4242" src="22" tgt="4241" wght="0.076894301455467939" />
        <Con id="4243" src="4241" tgt="1284" wght="5" />
        <Con id="4298" src="1599" tgt="894" wght="-0.0074983207043260334" />
        <Con id="4320" src="15" tgt="4319" wght="-0.021477914415299892" />
        <Con id="4321" src="4319" tgt="1064" wght="5" />
        <Con id="4324" src="1599" tgt="388" wght="4.8351844935677946" />
        <Con id="4432" src="4430" tgt="848" wght="5" />
        <Con id="4807" src="894" tgt="3165" wght="-3.7463316513139708" />
        <Con id="4917" src="6" tgt="4916" wght="0.046956346184015278" />
        <Con id="4918" src="4916" tgt="1541" wght="5" />
        <Con id="5049" src="5047" tgt="1541" wght="5" />
        <Con id="5209" src="3628" tgt="848" wght="2.3355896398425102" />
        <Con id="5506" src="5047" tgt="1064" wght="-0.0002553457161411643" />
        <Con id="5580" src="2180" tgt="5579" wght="5" />
        <Con id="5581" src="5579" tgt="5047" wght="5" />
        <Con id="5582" src="4115" tgt="25" wght="0.015264791273511947" />
        <Con id="5616" src="1906" tgt="1541" wght="-3.9365777419880033" />
        <Con id="5635" src="17" tgt="4115" wght="1.1379398126155138" />
        <Con id="5811" src="1541" tgt="1599" wght="-3.9574574842117727" />
      </Connections>
    </Network>
    <Network id="24540" birthGen="33" fitness="0.80204911978652682">
      <Nodes>
        <Node type="bias" id="0" />
        <Node type="in" id="1" />
        <Node type="in" id="2" />
        <Node type="in" id="3" />
        <Node type="in" id="4" />
        <Node type="in" id="5" />
        <Node type="in" id="6" />
        <Node type="in" id="7" />
        <Node type="in" id="8" />
        <Node type="in" id="9" />
        <Node type="in" id="10" />
        <Node type="in" id="11" />
        <Node type="in" id="12" />
        <Node type="in" id="13" />
        <Node type="in" id="14" />
        <Node type="in" id="15" />
        <Node type="in" id="16" />
        <Node type="in" id="17" />
        <Node type="in" id="18" />
        <Node type="in" id="19" />
        <Node type="in" id="20" />
        <Node type="in" id="21" />
        <Node type="in" id="22" />
        <Node type="out" id="23" />
        <Node type="out" id="24" />
        <Node type="out" id="25" />
        <Node type="out" id="26" />
        <Node type="hid" id="196" />
        <Node type="hid" id="388" />
        <Node type="hid" id="848" />
        <Node type="hid" id="894" />
        <Node type="hid" id="1064" />
        <Node type="hid" id="1284" />
        <Node type="hid" id="1456" />
        <Node type="hid" id="1541" />
        <Node type="hid" id="1599" />
        <Node type="hid" id="1659" />
        <Node type="hid" id="1906" />
        <Node type="hid" id="2180" />
        <Node type="hid" id="2731" />
        <Node type="hid" id="2748" />
        <Node type="hid" id="3074" />
        <Node type="hid" id="3165" />
        <Node type="hid" id="3628" />
        <Node type="hid" id="4115" />
        <Node type="hid" id="4241" />
        <Node type="hid" id="4319" />
        <Node type="hid" id="4430" />
        <Node type="hid" id="5047" />
        <Node type="hid" id="5571" />
      </Nodes>
      <Connections>
        <Con id="35" src="2" tgt="23" wght="2.3265377598055137" />
        <Con id="142" src="22" tgt="23" wght="0.839317871640025" />
        <Con id="198" src="196" tgt="24" wght="4.9847614187031075" />
        <Con id="278" src="0" tgt="23" wght="0.020951040948194947" />
        <Con id="343" src="11" tgt="23" wght="0.10277710347013998" />
        <Con id="508" src="8" tgt="196" wght="-0.62481507891789079" />
        <Con id="624" src="22" tgt="196" wght="-1.9633272670071698" />
        <Con id="673" src="10" tgt="24" wght="-0.0021697883893267594" />
        <Con id="703" src="8" tgt="23" wght="4.9437973734531342" />
        <Con id="751" src="22" tgt="25" wght="-4.3662476425215724" />
        <Con id="819" src="14" tgt="25" wght="0.026333268910642658" />
        <Con id="1014" src="4" tgt="25" wght="0.029809351235800478" />
        <Con id="1096" src="22" tgt="848" wght="-0.028284123707596961" />
        <Con id="1152" src="848" tgt="23" wght="0.0012487144096806756" />
        <Con id="1164" src="894" tgt="25" wght="-3.029984834138304" />
        <Con id="1192" src="848" tgt="24" wght="-1.4104986914815034" />
        <Con id="1193" src="19" tgt="848" wght="0.060625341376382369" />
        <Con id="1286" src="1284" tgt="848" wght="5" />
        <Con id="1313" src="10" tgt="848" wght="0.0038977815996952721" />
        <Con id="1458" src="1456" tgt="894" wght="5" />
        <Con id="1600" src="21" tgt="1599" wght="1.874328285921365" />
        <Con id="1601" src="1599" tgt="848" wght="4.9940419397780911" />
        <Con id="1708" src="15" tgt="894" wght="-0.012552049215509634" />
        <Con id="1827" src="1659" tgt="23" wght="0.032942869603255015" />
        <Con id="1962" src="1541" tgt="24" wght="0.038283512252382933" />
        <Con id="2149" src="19" tgt="1064" wght="0.814387549482299" />
        <Con id="2181" src="13" tgt="2180" wght="0.019517115020408971" />
        <Con id="2487" src="8" tgt="1659" wght="0.030068765481476578" />
        <Con id="2732" src="7" tgt="2731" wght="-0.030088251845610405" />
        <Con id="2733" src="2731" tgt="894" wght="4.995663122610642" />
        <Con id="2749" src="388" tgt="2748" wght="1.7961625039625737" />
        <Con id="2750" src="2748" tgt="1456" wght="5" />
        <Con id="2773" src="22" tgt="2731" wght="-0.039900019083133675" />
        <Con id="2929" src="23" tgt="2748" wght="-2.89378194604069" />
        <Con id="2975" src="15" tgt="1906" wght="3.6146787691267686" />
        <Con id="3012" src="0" tgt="1456" wght="-0.040792523688742865" />
        <Con id="3041" src="6" tgt="1541" wght="0.046956346184015278" />
        <Con id="3076" src="3074" tgt="26" wght="4.9946455155031444" />
        <Con id="3166" src="18" tgt="3165" wght="-1.1163299647159874" />
        <Con id="3167" src="3165" tgt="848" wght="5" />
        <Con id="3307" src="3165" tgt="894" wght="-0.0225832546212095" />
        <Con id="3390" src="4" tgt="2748" wght="0.013741240220284626" />
        <Con id="3444" src="0" tgt="1659" wght="-0.010726279439404606" />
        <Con id="3629" src="388" tgt="3628" wght="-2.7770203957334161" />
        <Con id="3630" src="3628" tgt="3074" wght="5" />
        <Con id="3682" src="26" tgt="1906" wght="3.060956116400193" />
        <Con id="3719" src="1456" tgt="1284" wght="0.0228865007404238" />
        <Con id="4029" src="3" tgt="1541" wght="-0.034785272483713929" />
        <Con id="4083" src="4" tgt="26" wght="-0.019524245326433671" />
        <Con id="4116" src="388" tgt="4115" wght="4.9616613286157056" />
        <Con id="4117" src="4115" tgt="1906" wght="4.9973449650180974" />
        <Con id="4197" src="26" tgt="3628" wght="-4.7585815742853237" />
        <Con id="4242" src="22" tgt="4241" wght="0.076894301455467939" />
        <Con id="4243" src="4241" tgt="1284" wght="4.9873150508101372" />
        <Con id="4298" src="1599" tgt="894" wght="-0.0074983207043260334" />
        <Con id="4320" src="15" tgt="4319" wght="-0.021477914415299892" />
        <Con id="4321" src="4319" tgt="1064" wght="5" />
        <Con id="4324" src="1599" tgt="388" wght="4.8349176094509563" />
        <Con id="4431" src="1064" tgt="4430" wght="-0.0069055746679085742" />
        <Con id="4432" src="4430" tgt="848" wght="5" />
        <Con id="4807" src="894" tgt="3165" wght="-3.7463316513139708" />
        <Con id="5048" src="2180" tgt="5047" wght="5" />
        <Con id="5049" src="5047" tgt="1541" wght="5" />
        <Con id="5197" src="18" tgt="23" wght="-0.023641784279607236" />
        <Con id="5544" src="24" tgt="1541" wght="0.0040763298349609789" />
        <Con id="5572" src="1064" tgt="5571" wght="5" />
        <Con id="5573" src="5571" tgt="388" wght="5" />
        <Con id="5631" src="14" tgt="3165" wght="-0.037775040580891074" />
        <Con id="5680" src="5047" tgt="2748" wght="-0.019700708938762548" />
        <Con id="5856" src="1599" tgt="4115" wght="-2.6770591526292264" />
      </Connections>
    </Network>
    <Network id="24543" birthGen="33" fitness="0.75511430411232772">
      <Nodes>
        <Node type="bias" id="0" />
        <Node type="in" id="1" />
        <Node type="in" id="2" />
        <Node type="in" id="3" />
        <Node type="in" id="4" />
        <Node type="in" id="5" />
        <Node type="in" id="6" />
        <Node type="in" id="7" />
        <Node type="in" id="8" />
        <Node type="in" id="9" />
        <Node type="in" id="10" />
        <Node type="in" id="11" />
        <Node type="in" id="12" />
        <Node type="in" id="13" />
        <Node type="in" id="14" />
        <Node type="in" id="15" />
        <Node type="in" id="16" />
        <Node type="in" id="17" />
        <Node type="in" id="18" />
        <Node type="in" id="19" />
        <Node type="in" id="20" />
        <Node type="in" id="21" />
        <Node type="in" id="22" />
        <Node type="out" id="23" />
        <Node type="out" id="24" />
        <Node type="out" id="25" />
        <Node type="out" id="26" />
        <Node type="hid" id="196" />
        <Node type="hid" id="388" />
        <Node type="hid" id="848" />
        <Node type="hid" id="894" />
        <Node type="hid" id="1064" />
        <Node type="hid" id="1284" />
        <Node type="hid" id="1456" />
        <Node type="hid" id="1541" />
        <Node type="hid" id="1599" />
        <Node type="hid" id="1659" />
        <Node type="hid" id="1906" />
        <Node type="hid" id="2180" />
        <Node type="hid" id="2469" />
        <Node type="hid" id="2731" />
        <Node type="hid" id="2748" />
        <Node type="hid" id="3074" />
        <Node type="hid" id="3165" />
        <Node type="hid" id="3628" />
        <Node type="hid" id="4319" />
        <Node type="hid" id="4615" />
        <Node type="hid" id="4741" />
      </Nodes>
      <Connections>
        <Con id="35" src="2" tgt="23" wght="2.3265377598055137" />
        <Con id="142" src="22" tgt="23" wght="0.85076825295958325" />
        <Con id="198" src="196" tgt="24" wght="4.9974251530556435" />
        <Con id="203" src="6" tgt="23" wght="0.006237201282467535" />
        <Con id="278" src="0" tgt="23" wght="0.020951040948194947" />
        <Con id="343" src="11" tgt="23" wght="0.10277710347013998" />
        <Con id="508" src="8" tgt="196" wght="-0.62481507891789079" />
        <Con id="624" src="22" tgt="196" wght="-1.9633272670071698" />
        <Con id="673" src="10" tgt="24" wght="0.0021702480502426625" />
        <Con id="703" src="8" tgt="23" wght="4.9481596055640988" />
        <Con id="751" src="22" tgt="25" wght="-4.3627670430578291" />
        <Con id="789" src="3" tgt="388" wght="3.9020117535255849" />
        <Con id="819" src="14" tgt="25" wght="0.025055972604335036" />
        <Con id="895" src="18" tgt="894" wght="0.014170391872342557" />
        <Con id="919" src="5" tgt="388" wght="4.7415711840963715" />
        <Con id="1014" src="4" tgt="25" wght="0.050709584804028089" />
        <Con id="1066" src="1064" tgt="388" wght="5" />
        <Con id="1096" src="22" tgt="848" wght="-0.0124237560538432" />
        <Con id="1152" src="848" tgt="23" wght="0.0012487144096806756" />
        <Con id="1164" src="894" tgt="25" wght="-3.0107886764269796" />
        <Con id="1192" src="848" tgt="24" wght="-1.4151568484872821" />
        <Con id="1193" src="19" tgt="848" wght="0.057911681054800629" />
        <Con id="1286" src="1284" tgt="848" wght="5" />
        <Con id="1313" src="10" tgt="848" wght="0.038696388307356076" />
        <Con id="1445" src="6" tgt="388" wght="-4.6865984494797885" />
        <Con id="1458" src="1456" tgt="894" wght="-1.7275100073012215" />
        <Con id="1472" src="22" tgt="1284" wght="0.064387054753078224" />
        <Con id="1600" src="21" tgt="1599" wght="1.8778880720645852" />
        <Con id="1601" src="1599" tgt="848" wght="3.2836083183065057" />
        <Con id="1827" src="1659" tgt="23" wght="0.032942869603255015" />
        <Con id="1907" src="388" tgt="1906" wght="4.9814907107885507" />
        <Con id="1962" src="1541" tgt="24" wght="0.038283512252382933" />
        <Con id="2181" src="13" tgt="2180" wght="0.019517115020408971" />
        <Con id="2182" src="2180" tgt="1541" wght="4.9830033194363441" />
        <Con id="2471" src="2469" tgt="894" wght="-3.13564039285829" />
        <Con id="2487" src="8" tgt="1659" wght="0.030068765481476578" />
        <Con id="2617" src="1064" tgt="848" wght="0.0049840069143101571" />
        <Con id="2733" src="2731" tgt="894" wght="5" />
        <Con id="2749" src="388" tgt="2748" wght="1.8115113878058067" />
        <Con id="2773" src="22" tgt="2731" wght="-0.040114965359680357" />
        <Con id="2975" src="15" tgt="1906" wght="3.6106695677153766" />
        <Con id="3012" src="0" tgt="1456" wght="-0.039103280077688395" />
        <Con id="3041" src="6" tgt="1541" wght="0.046956346184015278" />
        <Con id="3076" src="3074" tgt="26" wght="4.9946455155031444" />
        <Con id="3166" src="18" tgt="3165" wght="-2.9133794617671409" />
        <Con id="3167" src="3165" tgt="848" wght="5" />
        <Con id="3307" src="3165" tgt="894" wght="-0.034154500602744518" />
        <Con id="3390" src="4" tgt="2748" wght="0.013741240220284626" />
        <Con id="3630" src="3628" tgt="3074" wght="5" />
        <Con id="3682" src="26" tgt="1906" wght="3.0509876319821791" />
        <Con id="3719" src="1456" tgt="1284" wght="0.0228865007404238" />
        <Con id="3947" src="848" tgt="388" wght="0.0070270494174776207" />
        <Con id="4090" src="3" tgt="2469" wght="0.035623913630843163" />
        <Con id="4160" src="1599" tgt="2748" wght="0.052214938935350064" />
        <Con id="4279" src="14" tgt="1541" wght="-0.0043811622541397813" />
        <Con id="4320" src="15" tgt="4319" wght="-0.021477914415299892" />
        <Con id="4321" src="4319" tgt="1064" wght="4.9937533341306466" />
        <Con id="4420" src="3" tgt="1284" wght="-0.027140300860628488" />
        <Con id="4572" src="1906" tgt="388" wght="-0.026843122043646871" />
        <Con id="4616" src="15" tgt="4615" wght="-0.0094005844579386558" />
        <Con id="4617" src="4615" tgt="2469" wght="5" />
        <Con id="4742" src="7" tgt="4741" wght="-0.030088251845610405" />
        <Con id="4743" src="4741" tgt="2731" wght="5" />
        <Con id="4848" src="1" tgt="4741" wght="-0.022692578155390195" />
        <Con id="5003" src="894" tgt="388" wght="1.6564672882668674" />
        <Con id="5037" src="4" tgt="388" wght="-0.047319885017350315" />
        <Con id="5141" src="1" tgt="4319" wght="-3.7538534658961" />
        <Con id="5222" src="4319" tgt="3628" wght="-1.7975927307270467" />
        <Con id="5403" src="2731" tgt="1456" wght="1.7459647753275931" />
        <Con id="5585" src="11" tgt="2748" wght="-2.4689842341467738" />
        <Con id="5666" src="10" tgt="4741" wght="3.1473787291906774" />
        <Con id="5690" src="1" tgt="1456" wght="0.010946445407293259" />
        <Con id="5712" src="13" tgt="1906" wght="0.5655448348261416" />
        <Con id="5858" src="388" tgt="2180" wght="-0.77571672620251775" />
      </Connections>
    </Network>
    <Network id="24554" birthGen="33" fitness="0.74178538096516267">
      <Nodes>
        <Node type="bias" id="0" />
        <Node type="in" id="1" />
        <Node type="in" id="2" />
        <Node type="in" id="3" />
        <Node type="in" id="4" />
        <Node type="in" id="5" />
        <Node type="in" id="6" />
        <Node type="in" id="7" />
        <Node type="in" id="8" />
        <Node type="in" id="9" />
        <Node type="in" id="10" />
        <Node type="in" id="11" />
        <Node type="in" id="12" />
        <Node type="in" id="13" />
        <Node type="in" id="14" />
        <Node type="in" id="15" />
        <Node type="in" id="16" />
        <Node type="in" id="17" />
        <Node type="in" id="18" />
        <Node type="in" id="19" />
        <Node type="in" id="20" />
        <Node type="in" id="21" />
        <Node type="in" id="22" />
        <Node type="out" id="23" />
        <Node type="out" id="24" />
        <Node type="out" id="25" />
        <Node type="out" id="26" />
        <Node type="hid" id="196" />
        <Node type="hid" id="388" />
        <Node type="hid" id="848" />
        <Node type="hid" id="894" />
        <Node type="hid" id="1064" />
        <Node type="hid" id="1284" />
        <Node type="hid" id="1456" />
        <Node type="hid" id="1541" />
        <Node type="hid" id="1599" />
        <Node type="hid" id="1659" />
        <Node type="hid" id="1906" />
        <Node type="hid" id="2180" />
        <Node type="hid" id="2731" />
        <Node type="hid" id="2748" />
        <Node type="hid" id="3074" />
        <Node type="hid" id="3165" />
        <Node type="hid" id="3628" />
        <Node type="hid" id="4912" />
        <Node type="hid" id="5467" />
      </Nodes>
      <Connections>
        <Con id="35" src="2" tgt="23" wght="2.3265377598055137" />
        <Con id="142" src="22" tgt="23" wght="0.839317871640025" />
        <Con id="198" src="196" tgt="24" wght="4.9974251530556435" />
        <Con id="203" src="6" tgt="23" wght="0.006237201282467535" />
        <Con id="278" src="0" tgt="23" wght="0.020951040948194947" />
        <Con id="343" src="11" tgt="23" wght="0.10277710347013998" />
        <Con id="508" src="8" tgt="196" wght="-0.62481507891789079" />
        <Con id="624" src="22" tgt="196" wght="-1.9633272670071698" />
        <Con id="703" src="8" tgt="23" wght="4.9543539151746057" />
        <Con id="789" src="3" tgt="388" wght="3.9020117535255849" />
        <Con id="819" src="14" tgt="25" wght="0.025055972604335036" />
        <Con id="895" src="18" tgt="894" wght="0.016171277574828349" />
        <Con id="919" src="5" tgt="388" wght="4.7415711840963715" />
        <Con id="1014" src="4" tgt="25" wght="0.050709584804028089" />
        <Con id="1066" src="1064" tgt="388" wght="5" />
        <Con id="1096" src="22" tgt="848" wght="-0.0124237560538432" />
        <Con id="1152" src="848" tgt="23" wght="0.0012487144096806756" />
        <Con id="1164" src="894" tgt="25" wght="-3.014199740006799" />
        <Con id="1192" src="848" tgt="24" wght="-1.4151568484872821" />
        <Con id="1193" src="19" tgt="848" wght="0.057911681054800629" />
        <Con id="1286" src="1284" tgt="848" wght="4.9916945696030188" />
        <Con id="1445" src="6" tgt="388" wght="0.028437055022833082" />
        <Con id="1458" src="1456" tgt="894" wght="5" />
        <Con id="1472" src="22" tgt="1284" wght="0.076894301455467939" />
        <Con id="1601" src="1599" tgt="848" wght="4.9940419397780911" />
        <Con id="1708" src="15" tgt="894" wght="-0.0053503340298310057" />
        <Con id="1827" src="1659" tgt="23" wght="0.032942869603255015" />
        <Con id="1907" src="388" tgt="1906" wght="4.984602076506512" />
        <Con id="1962" src="1541" tgt="24" wght="0.038283512252382933" />
        <Con id="2149" src="19" tgt="1064" wght="0.80575498056780626" />
        <Con id="2181" src="13" tgt="2180" wght="0.019517115020408971" />
        <Con id="2182" src="2180" tgt="1541" wght="5" />
        <Con id="2487" src="8" tgt="1659" wght="0.028315435320509664" />
        <Con id="2573" src="3" tgt="1541" wght="0.66025209237157434" />
        <Con id="2617" src="1064" tgt="848" wght="0.0049840069143101571" />
        <Con id="2732" src="7" tgt="2731" wght="-0.033043348762727832" />
        <Con id="2733" src="2731" tgt="894" wght="5" />
        <Con id="2750" src="2748" tgt="1456" wght="4.9882557370970622" />
        <Con id="2773" src="22" tgt="2731" wght="-0.040114965359680357" />
        <Con id="2776" src="15" tgt="1064" wght="-0.021477914415299892" />
        <Con id="2929" src="23" tgt="2748" wght="-2.89378194604069" />
        <Con id="3012" src="0" tgt="1456" wght="-0.039103280077688395" />
        <Con id="3076" src="3074" tgt="26" wght="4.9946455155031444" />
        <Con id="3167" src="3165" tgt="848" wght="5" />
        <Con id="3390" src="4" tgt="2748" wght="0.0097300684814483548" />
        <Con id="3629" src="388" tgt="3628" wght="0.4949738088637563" />
        <Con id="3630" src="3628" tgt="3074" wght="5" />
        <Con id="3682" src="26" tgt="1906" wght="3.0509876319821791" />
        <Con id="3719" src="1456" tgt="1284" wght="0.0228865007404238" />
        <Con id="3865" src="2" tgt="2731" wght="4.0098111773841083" />
        <Con id="3895" src="23" tgt="3628" wght="-3.1370939989574254" />
        <Con id="4157" src="3628" tgt="1541" wght="-0.24264639181255648" />
        <Con id="4196" src="894" tgt="1599" wght="0.049945783242583273" />
        <Con id="4360" src="12" tgt="1599" wght="0.047871905146166682" />
        <Con id="4870" src="24" tgt="3074" wght="0.008427162840962411" />
        <Con id="4913" src="15" tgt="4912" wght="3.6110583506885248" />
        <Con id="4914" src="4912" tgt="1906" wght="5" />
        <Con id="5021" src="20" tgt="2731" wght="-1.4207323826849461" />
        <Con id="5105" src="196" tgt="388" wght="-3.9728168024410988" />
        <Con id="5316" src="25" tgt="1541" wght="4.1184686466716327" />
        <Con id="5367" src="196" tgt="25" wght="-3.9949572924524546" />
        <Con id="5399" src="13" tgt="2731" wght="-2.7293148939497769" />
        <Con id="5468" src="18" tgt="5467" wght="-1.1132630569655091" />
        <Con id="5469" src="5467" tgt="3165" wght="5" />
        <Con id="5640" src="2748" tgt="24" wght="-2.3430470027960837" />
        <Con id="5664" src="6" tgt="25" wght="1.6270156065002084" />
        <Con id="5783" src="1541" tgt="4912" wght="0.021976307686418294" />
        <Con id="5814" src="0" tgt="3074" wght="-0.015555192343890667" />
        <Con id="5843" src="26" tgt="23" wght="-0.008886634954251349" />
        <Con id="5918" src="18" tgt="2731" wght="4.1595988417975605" />
      </Connections>
    </Network>
    <Network id="24556" birthGen="33" fitness="0.75016181121822023">
      <Nodes>
        <Node type="bias" id="0" />
        <Node type="in" id="1" />
        <Node type="in" id="2" />
        <Node type="in" id="3" />
        <Node type="in" id="4" />
        <Node type="in" id="5" />
        <Node type="in" id="6" />
        <Node type="in" id="7" />
        <Node type="in" id="8" />
        <Node type="in" id="9" />
        <Node type="in" id="10" />
        <Node type="in" id="11" />
        <Node type="in" id="12" />
        <Node type="in" id="13" />
        <Node type="in" id="14" />
        <Node type="in" id="15" />
        <Node type="in" id="16" />
        <Node type="in" id="17" />
        <Node type="in" id="18" />
        <Node type="in" id="19" />
        <Node type="in" id="20" />
        <Node type="in" id="21" />
        <Node type="in" id="22" />
        <Node type="out" id="23" />
        <Node type="out" id="24" />
        <Node type="out" id="25" />
        <Node type="out" id="26" />
        <Node type="hid" id="196" />
        <Node type="hid" id="388" />
        <Node type="hid" id="848" />
        <Node type="hid" id="894" />
        <Node type="hid" id="1064" />
        <Node type="hid" id="1284" />
        <Node type="hid" id="1456" />
        <Node type="hid" id="1541" />
        <Node type="hid" id="1599" />
        <Node type="hid" id="1659" />
        <Node type="hid" id="1906" />
        <Node type="hid" id="2180" />
        <Node type="hid" id="2731" />
        <Node type="hid" id="2748" />
        <Node type="hid" id="3074" />
        <Node type="hid" id="3165" />
        <Node type="hid" id="3628" />
        <Node type="hid" id="4912" />
        <Node type="hid" id="5467" />
      </Nodes>
      <Connections>
        <Con id="35" src="2" tgt="23" wght="2.3265377598055137" />
        <Con id="142" src="22" tgt="23" wght="0.839317871640025" />
        <Con id="198" src="196" tgt="24" wght="4.9974251530556435" />
        <Con id="203" src="6" tgt="23" wght="0.006237201282467535" />
        <Con id="278" src="0" tgt="23" wght="0.020951040948194947" />
        <Con id="343" src="11" tgt="23" wght="0.10277710347013998" />
        <Con id="508" src="8" tgt="196" wght="-0.62481507891789079" />
        <Con id="624" src="22" tgt="196" wght="-1.9633272670071698" />
        <Con id="703" src="8" tgt="23" wght="4.9543539151746057" />
        <Con id="789" src="3" tgt="388" wght="3.9020117535255849" />
        <Con id="819" src="14" tgt="25" wght="0.025055972604335036" />
        <Con id="895" src="18" tgt="894" wght="0.016171277574828349" />
        <Con id="919" src="5" tgt="388" wght="4.7415711840963715" />
        <Con id="1014" src="4" tgt="25" wght="0.050709584804028089" />
        <Con id="1066" src="1064" tgt="388" wght="5" />
        <Con id="1096" src="22" tgt="848" wght="-0.0124237560538432" />
        <Con id="1152" src="848" tgt="23" wght="0.0012487144096806756" />
        <Con id="1164" src="894" tgt="25" wght="-3.014199740006799" />
        <Con id="1192" src="848" tgt="24" wght="-1.4151568484872821" />
        <Con id="1193" src="19" tgt="848" wght="0.057911681054800629" />
        <Con id="1286" src="1284" tgt="848" wght="4.9916945696030188" />
        <Con id="1445" src="6" tgt="388" wght="0.028437055022833082" />
        <Con id="1458" src="1456" tgt="894" wght="5" />
        <Con id="1472" src="22" tgt="1284" wght="0.076894301455467939" />
        <Con id="1601" src="1599" tgt="848" wght="4.9940419397780911" />
        <Con id="1708" src="15" tgt="894" wght="-0.0053503340298310057" />
        <Con id="1827" src="1659" tgt="23" wght="0.032942869603255015" />
        <Con id="1907" src="388" tgt="1906" wght="4.984602076506512" />
        <Con id="1962" src="1541" tgt="24" wght="0.038283512252382933" />
        <Con id="2149" src="19" tgt="1064" wght="0.80575498056780626" />
        <Con id="2181" src="13" tgt="2180" wght="0.019517115020408971" />
        <Con id="2182" src="2180" tgt="1541" wght="5" />
        <Con id="2487" src="8" tgt="1659" wght="0.028315435320509664" />
        <Con id="2573" src="3" tgt="1541" wght="0.66025209237157434" />
        <Con id="2617" src="1064" tgt="848" wght="0.0049840069143101571" />
        <Con id="2732" src="7" tgt="2731" wght="-0.033043348762727832" />
        <Con id="2733" src="2731" tgt="894" wght="5" />
        <Con id="2750" src="2748" tgt="1456" wght="4.9882557370970622" />
        <Con id="2773" src="22" tgt="2731" wght="-0.040114965359680357" />
        <Con id="2776" src="15" tgt="1064" wght="-0.021477914415299892" />
        <Con id="2929" src="23" tgt="2748" wght="-2.89378194604069" />
        <Con id="3012" src="0" tgt="1456" wght="-0.039103280077688395" />
        <Con id="3076" src="3074" tgt="26" wght="4.9946455155031444" />
        <Con id="3167" src="3165" tgt="848" wght="5" />
        <Con id="3390" src="4" tgt="2748" wght="0.0097300684814483548" />
        <Con id="3629" src="388" tgt="3628" wght="0.4949738088637563" />
        <Con id="3630" src="3628" tgt="3074" wght="5" />
        <Con id="3682" src="26" tgt="1906" wght="3.0509876319821791" />
        <Con id="3719" src="1456" tgt="1284" wght="0.0228865007404238" />
        <Con id="3865" src="2" tgt="2731" wght="4.0098111773841083" />
        <Con id="3895" src="23" tgt="3628" wght="-3.1370939989574254" />
        <Con id="4157" src="3628" tgt="1541" wght="-0.24264639181255648" />
        <Con id="4196" src="894" tgt="1599" wght="0.049945783242583273" />
        <Con id="4360" src="12" tgt="1599" wght="0.047871905146166682" />
        <Con id="4870" src="24" tgt="3074" wght="0.008427162840962411" />
        <Con id="4913" src="15" tgt="4912" wght="3.6110583506885248" />
        <Con id="4914" src="4912" tgt="1906" wght="5" />
        <Con id="5021" src="20" tgt="2731" wght="-1.4207323826849461" />
        <Con id="5105" src="196" tgt="388" wght="-3.9728168024410988" />
        <Con id="5316" src="25" tgt="1541" wght="4.1184686466716327" />
        <Con id="5367" src="196" tgt="25" wght="-3.9949572924524546" />
        <Con id="5399" src="13" tgt="2731" wght="-2.7293148939497769" />
        <Con id="5468" src="18" tgt="5467" wght="-1.1132630569655091" />
        <Con id="5469" src="5467" tgt="3165" wght="5" />
        <Con id="5640" src="2748" tgt="24" wght="-2.3430470027960837" />
        <Con id="5664" src="6" tgt="25" wght="1.6270156065002084" />
        <Con id="5783" src="1541" tgt="4912" wght="0.021976307686418294" />
        <Con id="5814" src="0" tgt="3074" wght="-0.015555192343890667" />
        <Con id="5843" src="26" tgt="23" wght="-0.008886634954251349" />
        <Con id="5919" src="25" tgt="3074" wght="0.047071615792810918" />
      </Connections>
    </Network>
    <Network id="24566" birthGen="33" fitness="0.79473529795359465">
      <Nodes>
        <Node type="bias" id="0" />
        <Node type="in" id="1" />
        <Node type="in" id="2" />
        <Node type="in" id="3" />
        <Node type="in" id="4" />
        <Node type="in" id="5" />
        <Node type="in" id="6" />
        <Node type="in" id="7" />
        <Node type="in" id="8" />
        <Node type="in" id="9" />
        <Node type="in" id="10" />
        <Node type="in" id="11" />
        <Node type="in" id="12" />
        <Node type="in" id="13" />
        <Node type="in" id="14" />
        <Node type="in" id="15" />
        <Node type="in" id="16" />
        <Node type="in" id="17" />
        <Node type="in" id="18" />
        <Node type="in" id="19" />
        <Node type="in" id="20" />
        <Node type="in" id="21" />
        <Node type="in" id="22" />
        <Node type="out" id="23" />
        <Node type="out" id="24" />
        <Node type="out" id="25" />
        <Node type="out" id="26" />
        <Node type="hid" id="196" />
        <Node type="hid" id="388" />
        <Node type="hid" id="848" />
        <Node type="hid" id="894" />
        <Node type="hid" id="1064" />
        <Node type="hid" id="1284" />
        <Node type="hid" id="1456" />
        <Node type="hid" id="1541" />
        <Node type="hid" id="1599" />
        <Node type="hid" id="1659" />
        <Node type="hid" id="1906" />
        <Node type="hid" id="2180" />
        <Node type="hid" id="2469" />
        <Node type="hid" id="2731" />
        <Node type="hid" id="2748" />
        <Node type="hid" id="3074" />
        <Node type="hid" id="3165" />
        <Node type="hid" id="3628" />
        <Node type="hid" id="4319" />
        <Node type="hid" id="4615" />
        <Node type="hid" id="5726" />
        <Node type="hid" id="5885" />
      </Nodes>
      <Connections>
        <Con id="35" src="2" tgt="23" wght="2.3227448462994289" />
        <Con id="142" src="22" tgt="23" wght="0.83508115188934706" />
        <Con id="198" src="196" tgt="24" wght="4.9974251530556435" />
        <Con id="203" src="6" tgt="23" wght="0.006237201282467535" />
        <Con id="278" src="0" tgt="23" wght="0.020951040948194947" />
        <Con id="343" src="11" tgt="23" wght="0.11040036178487052" />
        <Con id="508" src="8" tgt="196" wght="-0.62481507891789079" />
        <Con id="624" src="22" tgt="196" wght="-1.9727690213056552" />
        <Con id="673" src="10" tgt="24" wght="0.0021702480502426625" />
        <Con id="703" src="8" tgt="23" wght="4.9437973734531342" />
        <Con id="751" src="22" tgt="25" wght="-4.3627670430578291" />
        <Con id="789" src="3" tgt="388" wght="3.9020117535255849" />
        <Con id="819" src="14" tgt="25" wght="0.025055972604335036" />
        <Con id="895" src="18" tgt="894" wght="0.008484395757550188" />
        <Con id="1014" src="4" tgt="25" wght="0.071535915791385712" />
        <Con id="1066" src="1064" tgt="388" wght="5" />
        <Con id="1096" src="22" tgt="848" wght="-0.0124237560538432" />
        <Con id="1152" src="848" tgt="23" wght="0.0012487144096806756" />
        <Con id="1164" src="894" tgt="25" wght="-3.0107886764269796" />
        <Con id="1192" src="848" tgt="24" wght="-1.4140662903277161" />
        <Con id="1193" src="19" tgt="848" wght="0.057911681054800629" />
        <Con id="1313" src="10" tgt="848" wght="0.034360093849698327" />
        <Con id="1445" src="6" tgt="388" wght="0.039161525270767814" />
        <Con id="1458" src="1456" tgt="894" wght="5" />
        <Con id="1472" src="22" tgt="1284" wght="0.076894301455467939" />
        <Con id="1600" src="21" tgt="1599" wght="1.874328285921365" />
        <Con id="1601" src="1599" tgt="848" wght="5" />
        <Con id="1827" src="1659" tgt="23" wght="0.032942869603255015" />
        <Con id="1907" src="388" tgt="1906" wght="4.9814907107885507" />
        <Con id="1962" src="1541" tgt="24" wght="0.038283512252382933" />
        <Con id="2181" src="13" tgt="2180" wght="0.019517115020408971" />
        <Con id="2182" src="2180" tgt="1541" wght="4.9830033194363441" />
        <Con id="2471" src="2469" tgt="894" wght="5" />
        <Con id="2487" src="8" tgt="1659" wght="0.030068765481476578" />
        <Con id="2732" src="7" tgt="2731" wght="-0.030088251845610405" />
        <Con id="2733" src="2731" tgt="894" wght="5" />
        <Con id="2749" src="388" tgt="2748" wght="1.8115113878058067" />
        <Con id="2750" src="2748" tgt="1456" wght="5" />
        <Con id="2773" src="22" tgt="2731" wght="-0.040114965359680357" />
        <Con id="2929" src="23" tgt="2748" wght="-2.89378194604069" />
        <Con id="2975" src="15" tgt="1906" wght="3.6106695677153766" />
        <Con id="3012" src="0" tgt="1456" wght="-0.039103280077688395" />
        <Con id="3041" src="6" tgt="1541" wght="0.046956346184015278" />
        <Con id="3076" src="3074" tgt="26" wght="4.9946455155031444" />
        <Con id="3166" src="18" tgt="3165" wght="-1.1163299647159874" />
        <Con id="3307" src="3165" tgt="894" wght="-0.034154500602744518" />
        <Con id="3390" src="4" tgt="2748" wght="0.026187909421257871" />
        <Con id="3630" src="3628" tgt="3074" wght="5" />
        <Con id="3719" src="1456" tgt="1284" wght="0.0228865007404238" />
        <Con id="3947" src="848" tgt="388" wght="0.021344787930483871" />
        <Con id="4021" src="25" tgt="26" wght="-0.56800533784553409" />
        <Con id="4090" src="3" tgt="2469" wght="0.035623913630843163" />
        <Con id="4160" src="1599" tgt="2748" wght="0.052214938935350064" />
        <Con id="4279" src="14" tgt="1541" wght="-0.0043811622541397813" />
        <Con id="4320" src="15" tgt="4319" wght="-0.024674999500374526" />
        <Con id="4420" src="3" tgt="1284" wght="-0.047550585627729083" />
        <Con id="4616" src="15" tgt="4615" wght="-0.0094005844579386558" />
        <Con id="4617" src="4615" tgt="2469" wght="5" />
        <Con id="4830" src="20" tgt="1456" wght="-3.3187452633865178" />
        <Con id="4926" src="1284" tgt="4615" wght="4.9838488548994064" />
        <Con id="5157" src="2748" tgt="1284" wght="2.844659005547034" />
        <Con id="5727" src="2469" tgt="5726" wght="-3.0627077701501548" />
        <Con id="5728" src="5726" tgt="3074" wght="5" />
        <Con id="5886" src="4319" tgt="5885" wght="4.9822437775550661" />
        <Con id="5887" src="5885" tgt="1064" wght="5" />
        <Con id="5920" src="24" tgt="2748" wght="-2.8707860386930406" />
      </Connections>
    </Network>
    <Network id="24571" birthGen="33" fitness="0.65844108712911753">
      <Nodes>
        <Node type="bias" id="0" />
        <Node type="in" id="1" />
        <Node type="in" id="2" />
        <Node type="in" id="3" />
        <Node type="in" id="4" />
        <Node type="in" id="5" />
        <Node type="in" id="6" />
        <Node type="in" id="7" />
        <Node type="in" id="8" />
        <Node type="in" id="9" />
        <Node type="in" id="10" />
        <Node type="in" id="11" />
        <Node type="in" id="12" />
        <Node type="in" id="13" />
        <Node type="in" id="14" />
        <Node type="in" id="15" />
        <Node type="in" id="16" />
        <Node type="in" id="17" />
        <Node type="in" id="18" />
        <Node type="in" id="19" />
        <Node type="in" id="20" />
        <Node type="in" id="21" />
        <Node type="in" id="22" />
        <Node type="out" id="23" />
        <Node type="out" id="24" />
        <Node type="out" id="25" />
        <Node type="out" id="26" />
        <Node type="hid" id="196" />
        <Node type="hid" id="388" />
        <Node type="hid" id="848" />
        <Node type="hid" id="894" />
        <Node type="hid" id="1064" />
        <Node type="hid" id="1284" />
        <Node type="hid" id="1456" />
        <Node type="hid" id="1541" />
        <Node type="hid" id="1599" />
        <Node type="hid" id="1659" />
        <Node type="hid" id="1906" />
        <Node type="hid" id="2180" />
        <Node type="hid" id="2469" />
        <Node type="hid" id="2731" />
        <Node type="hid" id="2748" />
        <Node type="hid" id="3074" />
        <Node type="hid" id="3165" />
        <Node type="hid" id="3628" />
        <Node type="hid" id="4319" />
        <Node type="hid" id="4615" />
        <Node type="hid" id="5239" />
        <Node type="hid" id="5467" />
      </Nodes>
      <Connections>
        <Con id="35" src="2" tgt="23" wght="2.3227448462994289" />
        <Con id="142" src="22" tgt="23" wght="0.83508115188934706" />
        <Con id="198" src="196" tgt="24" wght="4.9974251530556435" />
        <Con id="203" src="6" tgt="23" wght="0.006237201282467535" />
