<?xml version="1.0" encoding="utf-8"?>
<Root>
  <ActivationFunctions>
    <Fn id="0" name="LogisticFunctionSteep" prob="1" />
  </ActivationFunctions>
  <Networks>
    <Network id="34" birthGen="0" fitness="0.14599590003490448">
      <Nodes>
        <Node type="bias" id="0" />
        <Node type="in" id="1" />
        <Node type="in" id="2" />
        <Node type="in" id="3" />
        <Node type="in" id="4" />
        <Node type="in" id="5" />
        <Node type="in" id="6" />
        <Node type="in" id="7" />
        <Node type="in" id="8" />
        <Node type="in" id="9" />
        <Node type="in" id="10" />
        <Node type="in" id="11" />
        <Node type="in" id="12" />
        <Node type="in" id="13" />
        <Node type="in" id="14" />
        <Node type="in" id="15" />
        <Node type="in" id="16" />
        <Node type="in" id="17" />
        <Node type="in" id="18" />
        <Node type="in" id="19" />
        <Node type="in" id="20" />
        <Node type="in" id="21" />
        <Node type="in" id="22" />
        <Node type="in" id="23" />
        <Node type="in" id="24" />
        <Node type="in" id="25" />
        <Node type="in" id="26" />
        <Node type="in" id="27" />
        <Node type="in" id="28" />
        <Node type="in" id="29" />
        <Node type="in" id="30" />
        <Node type="out" id="31" />
        <Node type="out" id="32" />
        <Node type="out" id="33" />
        <Node type="out" id="34" />
        <Node type="out" id="35" />
      </Nodes>
      <Connections>
        <Con id="36" src="0" tgt="31" wght="2.2088807472027838" />
        <Con id="37" src="0" tgt="32" wght="0.75193922501057386" />
        <Con id="40" src="0" tgt="35" wght="1.4754379610531032" />
        <Con id="41" src="1" tgt="31" wght="-1.2690970115363598" />
        <Con id="42" src="1" tgt="32" wght="2.6362100755795836" />
        <Con id="46" src="2" tgt="31" wght="-2.8543984587304294" />
        <Con id="48" src="2" tgt="33" wght="-0.45547629473730922" />
        <Con id="49" src="2" tgt="34" wght="-0.8209048374556005" />
        <Con id="51" src="3" tgt="31" wght="3.7735316855832934" />
        <Con id="52" src="3" tgt="32" wght="-4.3577981181442738" />
        <Con id="55" src="3" tgt="35" wght="-2.7483912208117545" />
        <Con id="63" src="5" tgt="33" wght="-4.8499417724087834" />
        <Con id="64" src="5" tgt="34" wght="4.2705302755348384" />
        <Con id="67" src="6" tgt="32" wght="2.0864599850028753" />
        <Con id="69" src="6" tgt="34" wght="-1.1673646792769432" />
        <Con id="74" src="7" tgt="34" wght="-1.104708113707602" />
        <Con id="76" src="8" tgt="31" wght="-4.0568042453378439" />
        <Con id="82" src="9" tgt="32" wght="2.8759454097598791" />
        <Con id="84" src="9" tgt="34" wght="-1.7895103525370359" />
        <Con id="89" src="10" tgt="34" wght="-2.9857395682483912" />
        <Con id="90" src="10" tgt="35" wght="4.2283150530420244" />
        <Con id="92" src="11" tgt="32" wght="0.41713499231263995" />
        <Con id="94" src="11" tgt="34" wght="-3.15318742999807" />
        <Con id="99" src="12" tgt="34" wght="-1.9653020310215652" />
        <Con id="100" src="12" tgt="35" wght="1.7582965595647693" />
        <Con id="101" src="13" tgt="31" wght="0.800693929195404" />
        <Con id="102" src="13" tgt="32" wght="-3.9019321417436004" />
        <Con id="106" src="14" tgt="31" wght="-0.43860249919816852" />
        <Con id="108" src="14" tgt="33" wght="4.7196432063356042" />
        <Con id="109" src="14" tgt="34" wght="2.1726894588209689" />
        <Con id="110" src="14" tgt="35" wght="2.1940835053101182" />
        <Con id="111" src="15" tgt="31" wght="0.78343861736357212" />
        <Con id="114" src="15" tgt="34" wght="3.7409780942834914" />
        <Con id="117" src="16" tgt="32" wght="1.4566755923442543" />
        <Con id="118" src="16" tgt="33" wght="-3.6951680877245963" />
        <Con id="121" src="17" tgt="31" wght="2.9188594804145396" />
        <Con id="123" src="17" tgt="33" wght="-1.5039928094483912" />
        <Con id="124" src="17" tgt="34" wght="-4.4513884815387428" />
        <Con id="125" src="17" tgt="35" wght="-1.6298827668651938" />
        <Con id="127" src="18" tgt="32" wght="-2.9193192697130144" />
        <Con id="128" src="18" tgt="33" wght="1.395378636661917" />
        <Con id="130" src="18" tgt="35" wght="-0.78131017740815878" />
        <Con id="132" src="19" tgt="32" wght="-0.40514957858249545" />
        <Con id="134" src="19" tgt="34" wght="-1.6292060259729624" />
        <Con id="135" src="19" tgt="35" wght="2.2117697703652084" />
        <Con id="137" src="20" tgt="32" wght="1.0913818818517029" />
        <Con id="140" src="20" tgt="35" wght="2.07790867658332" />
        <Con id="143" src="21" tgt="33" wght="-1.1779825459234416" />
        <Con id="144" src="21" tgt="34" wght="-3.6582354595884681" />
        <Con id="146" src="22" tgt="31" wght="3.8521518115885556" />
        <Con id="147" src="22" tgt="32" wght="-3.153895465657115" />
        <Con id="151" src="23" tgt="31" wght="-0.7430388662032783" />
        <Con id="157" src="24" tgt="32" wght="2.919362923130393" />
        <Con id="161" src="25" tgt="31" wght="1.1712829838506877" />
        <Con id="162" src="25" tgt="32" wght="3.1300527951680124" />
        <Con id="164" src="25" tgt="34" wght="4.8945615603588521" />
        <Con id="170" src="26" tgt="35" wght="-3.3008824242278934" />
        <Con id="178" src="28" tgt="33" wght="0.6714040064252913" />
        <Con id="182" src="29" tgt="32" wght="-3.97421344416216" />
        <Con id="184" src="29" tgt="34" wght="1.2533307517878711" />
        <Con id="185" src="29" tgt="35" wght="-3.2965834345668554" />
        <Con id="188" src="30" tgt="33" wght="-1.9531355868093669" />
      </Connections>
    </Network>
    <Network id="24" birthGen="0" fitness="0.0037477670703083277">
      <Nodes>
        <Node type="bias" id="0" />
        <Node type="in" id="1" />
        <Node type="in" id="2" />
        <Node type="in" id="3" />
        <Node type="in" id="4" />
        <Node type="in" id="5" />
        <Node type="in" id="6" />
        <Node type="in" id="7" />
        <Node type="in" id="8" />
        <Node type="in" id="9" />
        <Node type="in" id="10" />
        <Node type="in" id="11" />
        <Node type="in" id="12" />
        <Node type="in" id="13" />
        <Node type="in" id="14" />
        <Node type="in" id="15" />
        <Node type="in" id="16" />
        <Node type="in" id="17" />
        <Node type="in" id="18" />
        <Node type="in" id="19" />
        <Node type="in" id="20" />
        <Node type="in" id="21" />
        <Node type="in" id="22" />
        <Node type="in" id="23" />
        <Node type="in" id="24" />
        <Node type="in" id="25" />
        <Node type="in" id="26" />
        <Node type="in" id="27" />
        <Node type="in" id="28" />
        <Node type="in" id="29" />
        <Node type="in" id="30" />
        <Node type="out" id="31" />
        <Node type="out" id="32" />
        <Node type="out" id="33" />
        <Node type="out" id="34" />
        <Node type="out" id="35" />
      </Nodes>
      <Connections>
        <Con id="39" src="0" tgt="34" wght="-3.3114482928067446" />
        <Con id="44" src="1" tgt="34" wght="-0.97264803247526288" />
        <Con id="45" src="1" tgt="35" wght="0.62752273166552186" />
        <Con id="46" src="2" tgt="31" wght="1.9066374865360558" />
        <Con id="48" src="2" tgt="33" wght="2.0365717238746583" />
        <Con id="51" src="3" tgt="31" wght="-4.4299934199079871" />
        <Con id="53" src="3" tgt="33" wght="-0.65655130194500089" />
        <Con id="54" src="3" tgt="34" wght="-4.5133599732071161" />
        <Con id="55" src="3" tgt="35" wght="-3.003048284444958" />
        <Con id="56" src="4" tgt="31" wght="4.6478005638346076" />
        <Con id="57" src="4" tgt="32" wght="-1.5075030131265521" />
        <Con id="61" src="5" tgt="31" wght="0.99653413286432624" />
        <Con id="62" src="5" tgt="32" wght="-3.6773601034656167" />
        <Con id="63" src="5" tgt="33" wght="4.4700162834487855" />
        <Con id="67" src="6" tgt="32" wght="-4.1007405682466924" />
        <Con id="69" src="6" tgt="34" wght="-2.715015874709934" />
        <Con id="71" src="7" tgt="31" wght="3.2702803681604564" />
        <Con id="75" src="7" tgt="35" wght="-3.2397304987534881" />
        <Con id="77" src="8" tgt="32" wght="-2.7020555129274726" />
        <Con id="80" src="8" tgt="35" wght="1.44410181324929" />
        <Con id="81" src="9" tgt="31" wght="-3.0062142526730895" />
        <Con id="82" src="9" tgt="32" wght="1.9807544350624084" />
        <Con id="83" src="9" tgt="33" wght="-2.5455388776026666" />
        <Con id="84" src="9" tgt="34" wght="3.0547000747174025" />
        <Con id="85" src="9" tgt="35" wght="-1.6920059756375849" />
        <Con id="86" src="10" tgt="31" wght="3.1418828177265823" />
        <Con id="89" src="10" tgt="34" wght="3.6096941702999175" />
        <Con id="93" src="11" tgt="33" wght="2.8020862792618573" />
        <Con id="94" src="11" tgt="34" wght="1.2051974679343402" />
        <Con id="95" src="11" tgt="35" wght="1.8062675092369318" />
        <Con id="97" src="12" tgt="32" wght="-3.3397584571503103" />
        <Con id="98" src="12" tgt="33" wght="0.80845251679420471" />
        <Con id="103" src="13" tgt="33" wght="0.48531072679907084" />
        <Con id="106" src="14" tgt="31" wght="-0.87036947952583432" />
        <Con id="112" src="15" tgt="32" wght="3.3104826882481575" />
        <Con id="116" src="16" tgt="31" wght="-0.58401553193107247" />
        <Con id="118" src="16" tgt="33" wght="-1.6882872255519032" />
        <Con id="124" src="17" tgt="34" wght="-2.3258523526601493" />
        <Con id="127" src="18" tgt="32" wght="-3.3047598856501281" />
        <Con id="128" src="18" tgt="33" wght="0.49568346934393048" />
        <Con id="130" src="18" tgt="35" wght="4.8986117239110172" />
        <Con id="131" src="19" tgt="31" wght="-1.1052820854820311" />
        <Con id="133" src="19" tgt="33" wght="2.8174074389971793" />
        <Con id="136" src="20" tgt="31" wght="-3.3475061156786978" />
        <Con id="143" src="21" tgt="33" wght="-2.8440209827385843" />
        <Con id="145" src="21" tgt="35" wght="-1.6578040015883744" />
        <Con id="149" src="22" tgt="34" wght="4.7949791816063225" />
        <Con id="150" src="22" tgt="35" wght="3.9853464253246784" />
        <Con id="151" src="23" tgt="31" wght="0.22673745639622211" />
        <Con id="152" src="23" tgt="32" wght="-2.735663503408432" />
        <Con id="154" src="23" tgt="34" wght="-3.8335004099644721" />
        <Con id="156" src="24" tgt="31" wght="1.2203211127780378" />
        <Con id="157" src="24" tgt="32" wght="-3.7376979109831154" />
        <Con id="158" src="24" tgt="33" wght="-1.5502285538241267" />
        <Con id="161" src="25" tgt="31" wght="3.3347022905945778" />
        <Con id="166" src="26" tgt="31" wght="1.5532075730152428" />
        <Con id="170" src="26" tgt="35" wght="2.5379739468917251" />
        <Con id="173" src="27" tgt="33" wght="2.7281117485836148" />
        <Con id="174" src="27" tgt="34" wght="-0.63251770567148924" />
        <Con id="175" src="27" tgt="35" wght="-0.42014487786218524" />
        <Con id="185" src="29" tgt="35" wght="-1.7247646418400109" />
        <Con id="188" src="30" tgt="33" wght="3.76081092748791" />
      </Connections>
    </Network>
    <Network id="17" birthGen="0" fitness="0">
      <Nodes>
        <Node type="bias" id="0" />
        <Node type="in" id="1" />
        <Node type="in" id="2" />
        <Node type="in" id="3" />
        <Node type="in" id="4" />
        <Node type="in" id="5" />
        <Node type="in" id="6" />
        <Node type="in" id="7" />
        <Node type="in" id="8" />
        <Node type="in" id="9" />
        <Node type="in" id="10" />
        <Node type="in" id="11" />
        <Node type="in" id="12" />
        <Node type="in" id="13" />
        <Node type="in" id="14" />
        <Node type="in" id="15" />
        <Node type="in" id="16" />
        <Node type="in" id="17" />
        <Node type="in" id="18" />
        <Node type="in" id="19" />
        <Node type="in" id="20" />
        <Node type="in" id="21" />
        <Node type="in" id="22" />
        <Node type="in" id="23" />
        <Node type="in" id="24" />
        <Node type="in" id="25" />
        <Node type="in" id="26" />
        <Node type="in" id="27" />
        <Node type="in" id="28" />
        <Node type="in" id="29" />
        <Node type="in" id="30" />
        <Node type="out" id="31" />
        <Node type="out" id="32" />
        <Node type="out" id="33" />
        <Node type="out" id="34" />
        <Node type="out" id="35" />
      </Nodes>
      <Connections>
        <Con id="41" src="1" tgt="31" wght="-3.3692607004195452" />
        <Con id="42" src="1" tgt="32" wght="3.1320591690018773" />
        <Con id="47" src="2" tgt="32" wght="4.3361383792944252" />
        <Con id="50" src="2" tgt="35" wght="-4.2786292289383709" />
        <Con id="51" src="3" tgt="31" wght="-3.8225438632071018" />
        <Con id="59" src="4" tgt="34" wght="-0.72695785434916615" />
        <Con id="61" src="5" tgt="31" wght="-2.9823030880652368" />
        <Con id="62" src="5" tgt="32" wght="3.9763182308524847" />
        <Con id="63" src="5" tgt="33" wght="-4.6114652301184833" />
        <Con id="65" src="5" tgt="35" wght="-2.4683894868940115" />
        <Con id="69" src="6" tgt="34" wght="1.0215553548187017" />
        <Con id="75" src="7" tgt="35" wght="-2.936729749199003" />
        <Con id="77" src="8" tgt="32" wght="-3.29911780776456" />
        <Con id="78" src="8" tgt="33" wght="-1.3769108895212412" />
        <Con id="79" src="8" tgt="34" wght="-0.46052053803578019" />
        <Con id="80" src="8" tgt="35" wght="-1.7870882130227983" />
        <Con id="81" src="9" tgt="31" wght="-1.0602143756113946" />
        <Con id="86" src="10" tgt="31" wght="-1.8931997637264431" />
        <Con id="87" src="10" tgt="32" wght="2.8205160796642303" />
        <Con id="89" src="10" tgt="34" wght="-4.65865429956466" />
        <Con id="95" src="11" tgt="35" wght="-0.34362839767709374" />
        <Con id="96" src="12" tgt="31" wght="1.2736496422439814" />
        <Con id="97" src="12" tgt="32" wght="-0.546208443120122" />
        <Con id="99" src="12" tgt="34" wght="-2.6017187815159559" />
        <Con id="101" src="13" tgt="31" wght="-3.4576631220988929" />
        <Con id="103" src="13" tgt="33" wght="-0.98166355164721608" />
        <Con id="106" src="14" tgt="31" wght="1.936444491147995" />
        <Con id="108" src="14" tgt="33" wght="1.4678441686555743" />
        <Con id="112" src="15" tgt="32" wght="1.9854338839650154" />
        <Con id="113" src="15" tgt="33" wght="-2.6649615168571472" />
        <Con id="115" src="15" tgt="35" wght="2.1822364581748843" />
        <Con id="118" src="16" tgt="33" wght="2.0497207925654948" />
        <Con id="127" src="18" tgt="32" wght="3.5423912107944489" />
        <Con id="130" src="18" tgt="35" wght="0.3759805834852159" />
        <Con id="131" src="19" tgt="31" wght="-2.1157883899286389" />
        <Con id="133" src="19" tgt="33" wght="-2.6216810662299395" />
        <Con id="134" src="19" tgt="34" wght="-1.266847737133503" />
        <Con id="135" src="19" tgt="35" wght="4.5784753793850541" />
        <Con id="136" src="20" tgt="31" wght="-2.1848993864841759" />
        <Con id="139" src="20" tgt="34" wght="-4.6950641903094947" />
        <Con id="140" src="20" tgt="35" wght="-1.5685905888676643" />
        <Con id="143" src="21" tgt="33" wght="-3.6782402475364506" />
        <Con id="145" src="21" tgt="35" wght="-3.0849446635693312" />
        <Con id="147" src="22" tgt="32" wght="3.6711577838286757" />
        <Con id="148" src="22" tgt="33" wght="2.4361809389665723" />
        <Con id="150" src="22" tgt="35" wght="0.36975649418309331" />
        <Con id="151" src="23" tgt="31" wght="-2.416492102202028" />
        <Con id="153" src="23" tgt="33" wght="-2.18478059861809" />
        <Con id="155" src="23" tgt="35" wght="-3.9755810261704028" />
        <Con id="158" src="24" tgt="33" wght="3.8302314048632979" />
        <Con id="162" src="25" tgt="32" wght="1.1025837645865977" />
        <Con id="163" src="25" tgt="33" wght="0.15734358225017786" />
        <Con id="165" src="25" tgt="35" wght="4.0420194203034043" />
        <Con id="166" src="26" tgt="31" wght="-1.361295657698065" />
        <Con id="167" src="26" tgt="32" wght="-1.1610002513043582" />
        <Con id="169" src="26" tgt="34" wght="-4.4872946850955486" />
        <Con id="172" src="27" tgt="32" wght="-1.9252420635893941" />
        <Con id="175" src="27" tgt="35" wght="-0.59329501120373607" />
        <Con id="182" src="29" tgt="32" wght="-3.4933794080279768" />
        <Con id="184" src="29" tgt="34" wght="-0.75888885883614421" />
        <Con id="186" src="30" tgt="31" wght="-0.5394608061760664" />
        <Con id="190" src="30" tgt="35" wght="-1.3145255274139345" />
      </Connections>
    </Network>
    <Network id="3" birthGen="0" fitness="0.19816091656684875">
      <Nodes>
        <Node type="bias" id="0" />
        <Node type="in" id="1" />
        <Node type="in" id="2" />
        <Node type="in" id="3" />
        <Node type="in" id="4" />
        <Node type="in" id="5" />
        <Node type="in" id="6" />
        <Node type="in" id="7" />
        <Node type="in" id="8" />
        <Node type="in" id="9" />
        <Node type="in" id="10" />
        <Node type="in" id="11" />
        <Node type="in" id="12" />
        <Node type="in" id="13" />
        <Node type="in" id="14" />
        <Node type="in" id="15" />
        <Node type="in" id="16" />
        <Node type="in" id="17" />
        <Node type="in" id="18" />
        <Node type="in" id="19" />
        <Node type="in" id="20" />
        <Node type="in" id="21" />
        <Node type="in" id="22" />
        <Node type="in" id="23" />
        <Node type="in" id="24" />
        <Node type="in" id="25" />
        <Node type="in" id="26" />
        <Node type="in" id="27" />
        <Node type="in" id="28" />
        <Node type="in" id="29" />
        <Node type="in" id="30" />
        <Node type="out" id="31" />
        <Node type="out" id="32" />
        <Node type="out" id="33" />
        <Node type="out" id="34" />
        <Node type="out" id="35" />
      </Nodes>
      <Connections>
        <Con id="39" src="0" tgt="34" wght="0.78227184014394879" />
        <Con id="42" src="1" tgt="32" wght="0.43100229231640697" />
        <Con id="43" src="1" tgt="33" wght="0.22154744016006589" />
        <Con id="45" src="1" tgt="35" wght="2.1552876406349242" />
        <Con id="46" src="2" tgt="31" wght="4.6372334868647158" />
        <Con id="48" src="2" tgt="33" wght="-2.7491477108560503" />
        <Con id="50" src="2" tgt="35" wght="0.54241628386080265" />
        <Con id="55" src="3" tgt="35" wght="1.5773125551640987" />
        <Con id="56" src="4" tgt="31" wght="2.0568811614066362" />
        <Con id="60" src="4" tgt="35" wght="-0.94539683312177658" />
        <Con id="61" src="5" tgt="31" wght="3.361432091332972" />
        <Con id="64" src="5" tgt="34" wght="4.2259332351386547" />
        <Con id="66" src="6" tgt="31" wght="-3.7183081079274416" />
        <Con id="70" src="6" tgt="35" wght="1.0253017116338015" />
        <Con id="71" src="7" tgt="31" wght="0.062328716740012169" />
        <Con id="74" src="7" tgt="34" wght="-3.1671165931038558" />
        <Con id="75" src="7" tgt="35" wght="-1.1684795119799674" />
        <Con id="76" src="8" tgt="31" wght="3.4632069012150168" />
        <Con id="79" src="8" tgt="34" wght="-3.9411321328952909" />
        <Con id="83" src="9" tgt="33" wght="2.4799188086763024" />
        <Con id="84" src="9" tgt="34" wght="-2.9278612835332751" />
        <Con id="90" src="10" tgt="35" wght="2.4011287488974631" />
        <Con id="92" src="11" tgt="32" wght="3.4517690539360046" />
        <Con id="97" src="12" tgt="32" wght="-2.6620950363576412" />
        <Con id="101" src="13" tgt="31" wght="4.4422360090538859" />
        <Con id="102" src="13" tgt="32" wght="-0.81282881554216146" />
        <Con id="105" src="13" tgt="35" wght="3.6107684834860265" />
        <Con id="108" src="14" tgt="33" wght="-4.043218984734267" />
        <Con id="110" src="14" tgt="35" wght="4.707382929045707" />
        <Con id="111" src="15" tgt="31" wght="-2.6584389922209084" />
        <Con id="120" src="16" tgt="35" wght="-1.6812102729454637" />
        <Con id="121" src="17" tgt="31" wght="-4.0769221587106586" />
        <Con id="122" src="17" tgt="32" wght="0.015478220302611589" />
        <Con id="123" src="17" tgt="33" wght="-0.70500965230166912" />
        <Con id="125" src="17" tgt="35" wght="-4.3152818386442959" />
        <Con id="126" src="18" tgt="31" wght="0.47884384403005242" />
        <Con id="127" src="18" tgt="32" wght="1.1582622770220041" />
        <Con id="131" src="19" tgt="31" wght="4.9994317232631147" />
        <Con id="134" src="19" tgt="34" wght="-4.0854088985361159" />
        <Con id="135" src="19" tgt="35" wght="-3.3254487509839237" />
        <Con id="139" src="20" tgt="34" wght="-1.9336768821813166" />
        <Con id="140" src="20" tgt="35" wght="-1.5690965810790658" />
        <Con id="141" src="21" tgt="31" wght="3.0596461868844926" />
        <Con id="143" src="21" tgt="33" wght="-4.0306431357748806" />
        <Con id="150" src="22" tgt="35" wght="-1.4290120732039213" />
        <Con id="151" src="23" tgt="31" wght="0.4096069629304111" />
        <Con id="160" src="24" tgt="35" wght="-2.6338076055981219" />
        <Con id="165" src="25" tgt="35" wght="-2.418718331027776" />
        <Con id="166" src="26" tgt="31" wght="-0.94763902015984058" />
        <Con id="167" src="26" tgt="32" wght="2.949375007301569" />
        <Con id="168" src="26" tgt="33" wght="-0.37574958987534046" />
        <Con id="169" src="26" tgt="34" wght="-2.88540649227798" />
        <Con id="171" src="27" tgt="31" wght="-0.85744707146659493" />
        <Con id="172" src="27" tgt="32" wght="2.3039627657271922" />
        <Con id="174" src="27" tgt="34" wght="4.3143276497721672" />
        <Con id="177" src="28" tgt="32" wght="0.53300207480788231" />
        <Con id="180" src="28" tgt="35" wght="2.8879295871593058" />
        <Con id="184" src="29" tgt="34" wght="3.276046987157315" />
        <Con id="185" src="29" tgt="35" wght="3.5301368753425777" />
        <Con id="186" src="30" tgt="31" wght="2.9458894743584096" />
        <Con id="188" src="30" tgt="33" wght="-4.734143940731883" />
        <Con id="189" src="30" tgt="34" wght="-4.3471582629717886" />
      </Connections>
    </Network>
    <Network id="28" birthGen="0" fitness="0.079194597899913788">
      <Nodes>
        <Node type="bias" id="0" />
        <Node type="in" id="1" />
        <Node type="in" id="2" />
        <Node type="in" id="3" />
        <Node type="in" id="4" />
        <Node type="in" id="5" />
        <Node type="in" id="6" />
        <Node type="in" id="7" />
        <Node type="in" id="8" />
        <Node type="in" id="9" />
        <Node type="in" id="10" />
        <Node type="in" id="11" />
        <Node type="in" id="12" />
        <Node type="in" id="13" />
        <Node type="in" id="14" />
        <Node type="in" id="15" />
        <Node type="in" id="16" />
        <Node type="in" id="17" />
        <Node type="in" id="18" />
        <Node type="in" id="19" />
        <Node type="in" id="20" />
        <Node type="in" id="21" />
        <Node type="in" id="22" />
        <Node type="in" id="23" />
        <Node type="in" id="24" />
        <Node type="in" id="25" />
        <Node type="in" id="26" />
        <Node type="in" id="27" />
        <Node type="in" id="28" />
        <Node type="in" id="29" />
        <Node type="in" id="30" />
        <Node type="out" id="31" />
        <Node type="out" id="32" />
        <Node type="out" id="33" />
        <Node type="out" id="34" />
        <Node type="out" id="35" />
      </Nodes>
      <Connections>
        <Con id="37" src="0" tgt="32" wght="-2.170653878711164" />
        <Con id="40" src="0" tgt="35" wght="-0.15946983126923442" />
        <Con id="41" src="1" tgt="31" wght="-3.9283896633423865" />
        <Con id="46" src="2" tgt="31" wght="-2.9113703151233494" />
        <Con id="47" src="2" tgt="32" wght="4.3582087988033891" />
        <Con id="48" src="2" tgt="33" wght="-4.668016848154366" />
        <Con id="50" src="2" tgt="35" wght="-0.063400098588317633" />
        <Con id="51" src="3" tgt="31" wght="2.38535430515185" />
        <Con id="55" src="3" tgt="35" wght="-3.2526860386133194" />
        <Con id="56" src="4" tgt="31" wght="-4.8178849183022976" />
        <Con id="57" src="4" tgt="32" wght="-1.8691759067587554" />
        <Con id="58" src="4" tgt="33" wght="-0.42612551944330335" />
        <Con id="59" src="4" tgt="34" wght="-3.7666902923956513" />
        <Con id="61" src="5" tgt="31" wght="4.4813366513699293" />
        <Con id="62" src="5" tgt="32" wght="4.4625503872521222" />
        <Con id="66" src="6" tgt="31" wght="-1.7830115533433855" />
        <Con id="69" src="6" tgt="34" wght="3.989205330144614" />
        <Con id="70" src="6" tgt="35" wght="-4.8163538100197911" />
        <Con id="71" src="7" tgt="31" wght="-3.2835482037626207" />
        <Con id="74" src="7" tgt="34" wght="-4.6952633443288505" />
        <Con id="80" src="8" tgt="35" wght="-3.76976776169613" />
        <Con id="85" src="9" tgt="35" wght="-2.02187696704641" />
        <Con id="87" src="10" tgt="32" wght="-1.4515801705420017" />
        <Con id="89" src="10" tgt="34" wght="3.1279691006056964" />
        <Con id="95" src="11" tgt="35" wght="-1.3124897284433246" />
        <Con id="96" src="12" tgt="31" wght="4.69363427022472" />
        <Con id="97" src="12" tgt="32" wght="4.3243401870131493" />
        <Con id="103" src="13" tgt="33" wght="2.9137895652092993" />
        <Con id="104" src="13" tgt="34" wght="2.1501279645599425" />
        <Con id="106" src="14" tgt="31" wght="4.0515974117442966" />
        <Con id="107" src="14" tgt="32" wght="-3.0764030758291483" />
        <Con id="111" src="15" tgt="31" wght="3.9504693448543549" />
        <Con id="114" src="15" tgt="34" wght="-0.29582162853330374" />
        <Con id="117" src="16" tgt="32" wght="-1.55970664229244" />
        <Con id="118" src="16" tgt="33" wght="1.2048525596037507" />
        <Con id="119" src="16" tgt="34" wght="2.434349104296416" />
        <Con id="125" src="17" tgt="35" wght="-2.0444645849056542" />
        <Con id="126" src="18" tgt="31" wght="-2.6873974082991481" />
        <Con id="128" src="18" tgt="33" wght="-4.63013238273561" />
        <Con id="132" src="19" tgt="32" wght="0.52516376599669456" />
        <Con id="133" src="19" tgt="33" wght="3.0506020993925631" />
        <Con id="135" src="19" tgt="35" wght="-0.818444041069597" />
        <Con id="138" src="20" tgt="33" wght="3.5860343487001956" />
        <Con id="146" src="22" tgt="31" wght="4.5378586440347135" />
        <Con id="148" src="22" tgt="33" wght="1.8545345636084676" />
        <Con id="149" src="22" tgt="34" wght="-4.0377951739355922" />
        <Con id="154" src="23" tgt="34" wght="-3.036061804741621" />
        <Con id="156" src="24" tgt="31" wght="-2.0362250623293221" />
        <Con id="157" src="24" tgt="32" wght="3.6496328236535192" />
        <Con id="161" src="25" tgt="31" wght="0.75180804822593927" />
        <Con id="162" src="25" tgt="32" wght="0.35600197501480579" />
        <Con id="166" src="26" tgt="31" wght="-2.1093220659531653" />
        <Con id="172" src="27" tgt="32" wght="3.8645014888606966" />
        <Con id="177" src="28" tgt="32" wght="-3.2338310894556344" />
        <Con id="178" src="28" tgt="33" wght="1.4054644759744406" />
        <Con id="179" src="28" tgt="34" wght="-2.1726235654205084" />
        <Con id="181" src="29" tgt="31" wght="2.5890606245957315" />
        <Con id="182" src="29" tgt="32" wght="-4.8697838885709643" />
        <Con id="183" src="29" tgt="33" wght="-2.3611524677835405" />
        <Con id="184" src="29" tgt="34" wght="2.6674569281749427" />
        <Con id="185" src="29" tgt="35" wght="-2.4940377450548112" />
        <Con id="187" src="30" tgt="32" wght="-0.18386973766610026" />
      </Connections>
    </Network>
    <Network id="25" birthGen="0" fitness="0">
      <Nodes>
        <Node type="bias" id="0" />
        <Node type="in" id="1" />
        <Node type="in" id="2" />
        <Node type="in" id="3" />
        <Node type="in" id="4" />
        <Node type="in" id="5" />
        <Node type="in" id="6" />
        <Node type="in" id="7" />
        <Node type="in" id="8" />
        <Node type="in" id="9" />
        <Node type="in" id="10" />
        <Node type="in" id="11" />
        <Node type="in" id="12" />
        <Node type="in" id="13" />
        <Node type="in" id="14" />
        <Node type="in" id="15" />
        <Node type="in" id="16" />
        <Node type="in" id="17" />
        <Node type="in" id="18" />
        <Node type="in" id="19" />
        <Node type="in" id="20" />
        <Node type="in" id="21" />
        <Node type="in" id="22" />
        <Node type="in" id="23" />
        <Node type="in" id="24" />
        <Node type="in" id="25" />
        <Node type="in" id="26" />
        <Node type="in" id="27" />
        <Node type="in" id="28" />
        <Node type="in" id="29" />
        <Node type="in" id="30" />
        <Node type="out" id="31" />
        <Node type="out" id="32" />
        <Node type="out" id="33" />
        <Node type="out" id="34" />
        <Node type="out" id="35" />
      </Nodes>
      <Connections>
        <Con id="37" src="0" tgt="32" wght="0.08683742955327034" />
        <Con id="38" src="0" tgt="33" wght="2.9944563284516335" />
        <Con id="39" src="0" tgt="34" wght="1.3947138004004955" />
        <Con id="40" src="0" tgt="35" wght="-1.0673514124937356" />
        <Con id="41" src="1" tgt="31" wght="-4.6996432263404131" />
        <Con id="45" src="1" tgt="35" wght="-3.12818810576573" />
        <Con id="53" src="3" tgt="33" wght="-0.35131442127749324" />
        <Con id="59" src="4" tgt="34" wght="1.5210213395766914" />
        <Con id="61" src="5" tgt="31" wght="-0.48194322036579251" />
        <Con id="69" src="6" tgt="34" wght="4.2953077796846628" />
        <Con id="74" src="7" tgt="34" wght="3.3493365999311209" />
        <Con id="75" src="7" tgt="35" wght="-4.5399590558372438" />
        <Con id="80" src="8" tgt="35" wght="3.8166007958352566" />
        <Con id="84" src="9" tgt="34" wght="-1.1671169474720955" />
        <Con id="86" src="10" tgt="31" wght="2.0425262628123164" />
        <Con id="92" src="11" tgt="32" wght="1.368304907809943" />
        <Con id="99" src="12" tgt="34" wght="3.9445486082695425" />
        <Con id="102" src="13" tgt="32" wght="-2.6475340058095753" />
        <Con id="104" src="13" tgt="34" wght="1.9445813284255564" />
        <Con id="108" src="14" tgt="33" wght="-3.9995072758756578" />
        <Con id="111" src="15" tgt="31" wght="4.1361172473989427" />
        <Con id="112" src="15" tgt="32" wght="-0.75242915423586965" />
        <Con id="115" src="15" tgt="35" wght="2.3350282479077578" />
        <Con id="116" src="16" tgt="31" wght="1.3686137739568949" />
        <Con id="119" src="16" tgt="34" wght="0.21755288355052471" />
        <Con id="122" src="17" tgt="32" wght="4.5650081243366" />
        <Con id="124" src="17" tgt="34" wght="4.7297062259167433" />
        <Con id="125" src="17" tgt="35" wght="3.8127511437051" />
        <Con id="127" src="18" tgt="32" wght="-4.4198379968293011" />
        <Con id="129" src="18" tgt="34" wght="4.0064315288327634" />
        <Con id="132" src="19" tgt="32" wght="1.0966411209665239" />
        <Con id="134" src="19" tgt="34" wght="-1.4777616877108812" />
        <Con id="138" src="20" tgt="33" wght="1.0759195662103593" />
        <Con id="139" src="20" tgt="34" wght="0.55021329084411263" />
        <Con id="140" src="20" tgt="35" wght="4.3621451663784683" />
        <Con id="143" src="21" tgt="33" wght="-0.34452757332473993" />
        <Con id="144" src="21" tgt="34" wght="-3.4384112013503909" />
        <Con id="146" src="22" tgt="31" wght="-2.5943438592366874" />
        <Con id="147" src="22" tgt="32" wght="-0.13622521189972758" />
        <Con id="150" src="22" tgt="35" wght="1.6692720097489655" />
        <Con id="152" src="23" tgt="32" wght="-3.0439392919652164" />
        <Con id="153" src="23" tgt="33" wght="-3.4601367544382811" />
        <Con id="154" src="23" tgt="34" wght="-0.71578122675418854" />
        <Con id="156" src="24" tgt="31" wght="-3.8142587873153389" />
        <Con id="158" src="24" tgt="33" wght="-1.470682614017278" />
        <Con id="159" src="24" tgt="34" wght="0.52896877285093069" />
        <Con id="161" src="25" tgt="31" wght="2.7166400663554668" />
        <Con id="162" src="25" tgt="32" wght="1.8675841274671257" />
        <Con id="164" src="25" tgt="34" wght="-0.513535737991333" />
        <Con id="165" src="25" tgt="35" wght="-0.68170502316206694" />
        <Con id="169" src="26" tgt="34" wght="4.9980481597594917" />
        <Con id="172" src="27" tgt="32" wght="-1.8112424109131098" />
        <Con id="175" src="27" tgt="35" wght="0.094757121987640858" />
        <Con id="176" src="28" tgt="31" wght="-0.28332772199064493" />
        <Con id="178" src="28" tgt="33" wght="0.765447283629328" />
        <Con id="180" src="28" tgt="35" wght="1.1153955012559891" />
        <Con id="181" src="29" tgt="31" wght="-4.1567329550161958" />
        <Con id="182" src="29" tgt="32" wght="0.13947157422080636" />
        <Con id="183" src="29" tgt="33" wght="0.56937630521133542" />
        <Con id="184" src="29" tgt="34" wght="4.9728553555905819" />
        <Con id="188" src="30" tgt="33" wght="-4.1701690410263836" />
        <Con id="190" src="30" tgt="35" wght="-1.8883731728419662" />
      </Connections>
    </Network>
    <Network id="12" birthGen="0" fitness="0.13595226407051086">
      <Nodes>
        <Node type="bias" id="0" />
        <Node type="in" id="1" />
        <Node type="in" id="2" />
        <Node type="in" id="3" />
        <Node type="in" id="4" />
        <Node type="in" id="5" />
        <Node type="in" id="6" />
        <Node type="in" id="7" />
        <Node type="in" id="8" />
        <Node type="in" id="9" />
        <Node type="in" id="10" />
        <Node type="in" id="11" />
        <Node type="in" id="12" />
        <Node type="in" id="13" />
        <Node type="in" id="14" />
        <Node type="in" id="15" />
        <Node type="in" id="16" />
        <Node type="in" id="17" />
        <Node type="in" id="18" />
        <Node type="in" id="19" />
        <Node type="in" id="20" />
        <Node type="in" id="21" />
        <Node type="in" id="22" />
        <Node type="in" id="23" />
        <Node type="in" id="24" />
        <Node type="in" id="25" />
        <Node type="in" id="26" />
        <Node type="in" id="27" />
        <Node type="in" id="28" />
        <Node type="in" id="29" />
        <Node type="in" id="30" />
        <Node type="out" id="31" />
        <Node type="out" id="32" />
        <Node type="out" id="33" />
        <Node type="out" id="34" />
        <Node type="out" id="35" />
      </Nodes>
      <Connections>
        <Con id="36" src="0" tgt="31" wght="2.6113889925181866" />
        <Con id="37" src="0" tgt="32" wght="-3.2999339303933084" />
        <Con id="41" src="1" tgt="31" wght="-2.4609464081004262" />
        <Con id="42" src="1" tgt="32" wght="0.16778727294877172" />
        <Con id="45" src="1" tgt="35" wght="2.8774455515667796" />
        <Con id="47" src="2" tgt="32" wght="4.9724109075032175" />
        <Con id="53" src="3" tgt="33" wght="4.3172348756343126" />
        <Con id="55" src="3" tgt="35" wght="3.3149401354603469" />
        <Con id="58" src="4" tgt="33" wght="-2.4335738830268383" />
        <Con id="64" src="5" tgt="34" wght="2.51891300547868" />
        <Con id="65" src="5" tgt="35" wght="-3.9165166113525629" />
        <Con id="69" src="6" tgt="34" wght="-3.8633680739440024" />
        <Con id="72" src="7" tgt="32" wght="-3.3860169700346887" />
        <Con id="74" src="7" tgt="34" wght="3.0800121836364269" />
        <Con id="76" src="8" tgt="31" wght="4.436068763025105" />
        <Con id="78" src="8" tgt="33" wght="1.8158337054774165" />
        <Con id="79" src="8" tgt="34" wght="1.2516174674965441" />
        <Con id="81" src="9" tgt="31" wght="-4.0307933720760047" />
        <Con id="83" src="9" tgt="33" wght="-3.9342718594707549" />
        <Con id="85" src="9" tgt="35" wght="-2.3558056703768671" />
        <Con id="87" src="10" tgt="32" wght="0.20239547360688448" />
        <Con id="91" src="11" tgt="31" wght="-2.8127816808409989" />
        <Con id="92" src="11" tgt="32" wght="-1.96784004336223" />
        <Con id="93" src="11" tgt="33" wght="-0.80396459437906742" />
        <Con id="94" src="11" tgt="34" wght="-4.0552327339537442" />
        <Con id="96" src="12" tgt="31" wght="3.5834114509634674" />
        <Con id="98" src="12" tgt="33" wght="-3.3415491762571037" />
        <Con id="99" src="12" tgt="34" wght="0.98395888227969408" />
        <Con id="100" src="12" tgt="35" wght="-2.2201163414865732" />
        <Con id="101" src="13" tgt="31" wght="-0.70273700170218945" />
        <Con id="109" src="14" tgt="34" wght="-1.3694377173669636" />
        <Con id="110" src="14" tgt="35" wght="-0.3685673582367599" />
        <Con id="118" src="16" tgt="33" wght="-4.4278955343179405" />
        <Con id="124" src="17" tgt="34" wght="-2.2626717993989587" />
        <Con id="126" src="18" tgt="31" wght="-4.9085510824806988" />
        <Con id="127" src="18" tgt="32" wght="-2.393916507717222" />
        <Con id="128" src="18" tgt="33" wght="1.562689021229744" />
        <Con id="131" src="19" tgt="31" wght="-1.9177644466981292" />
        <Con id="133" src="19" tgt="33" wght="0.35187271190807223" />
        <Con id="136" src="20" tgt="31" wght="-1.7801540065556765" />
        <Con id="141" src="21" tgt="31" wght="-4.0455080126412213" />
        <Con id="142" src="21" tgt="32" wght="-1.5687863901257515" />
        <Con id="143" src="21" tgt="33" wght="4.2886791354976594" />
        <Con id="148" src="22" tgt="33" wght="0.46087922062724829" />
        <Con id="150" src="22" tgt="35" wght="-2.2239557094872" />
        <Con id="155" src="23" tgt="35" wght="3.671710267663002" />
        <Con id="159" src="24" tgt="34" wght="-0.81441371003165841" />
        <Con id="160" src="24" tgt="35" wght="-3.5825704806484282" />
        <Con id="163" src="25" tgt="33" wght="2.663334240205586" />
        <Con id="164" src="25" tgt="34" wght="-1.2038745381869376" />
        <Con id="165" src="25" tgt="35" wght="-1.644747550599277" />
        <Con id="167" src="26" tgt="32" wght="3.9979342697188258" />
        <Con id="171" src="27" tgt="31" wght="-2.9098306293599308" />
        <Con id="175" src="27" tgt="35" wght="1.592067766468972" />
        <Con id="176" src="28" tgt="31" wght="0.07682000519707799" />
        <Con id="181" src="29" tgt="31" wght="-2.701533988583833" />
        <Con id="183" src="29" tgt="33" wght="1.1120134545490146" />
        <Con id="184" src="29" tgt="34" wght="-4.4238200504332781" />
        <Con id="186" src="30" tgt="31" wght="-0.62049690634012222" />
        <Con id="187" src="30" tgt="32" wght="2.6484927022829652" />
        <Con id="188" src="30" tgt="33" wght="-3.6670753662474453" />
        <Con id="190" src="30" tgt="35" wght="-3.1503749010153115" />
      </Connections>
    </Network>
    <Network id="42" birthGen="0" fitness="0.015849756076931953">
      <Nodes>
        <Node type="bias" id="0" />
        <Node type="in" id="1" />
        <Node type="in" id="2" />
        <Node type="in" id="3" />
        <Node type="in" id="4" />
        <Node type="in" id="5" />
        <Node type="in" id="6" />
        <Node type="in" id="7" />
        <Node type="in" id="8" />
        <Node type="in" id="9" />
        <Node type="in" id="10" />
        <Node type="in" id="11" />
        <Node type="in" id="12" />
        <Node type="in" id="13" />
        <Node type="in" id="14" />
        <Node type="in" id="15" />
        <Node type="in" id="16" />
        <Node type="in" id="17" />
        <Node type="in" id="18" />
        <Node type="in" id="19" />
        <Node type="in" id="20" />
        <Node type="in" id="21" />
        <Node type="in" id="22" />
        <Node type="in" id="23" />
        <Node type="in" id="24" />
        <Node type="in" id="25" />
        <Node type="in" id="26" />
        <Node type="in" id="27" />
        <Node type="in" id="28" />
        <Node type="in" id="29" />
        <Node type="in" id="30" />
        <Node type="out" id="31" />
        <Node type="out" id="32" />
        <Node type="out" id="33" />
        <Node type="out" id="34" />
        <Node type="out" id="35" />
      </Nodes>
      <Connections>
        <Con id="41" src="1" tgt="31" wght="1.6055919602513313" />
        <Con id="42" src="1" tgt="32" wght="4.7452562698163092" />
        <Con id="47" src="2" tgt="32" wght="-0.48187765059992671" />
        <Con id="48" src="2" tgt="33" wght="-4.8274459200911224" />
        <Con id="51" src="3" tgt="31" wght="-0.31891877530142665" />
        <Con id="52" src="3" tgt="32" wght="1.9764682045206428" />
        <Con id="53" src="3" tgt="33" wght="-4.534038498532027" />
        <Con id="54" src="3" tgt="34" wght="2.3423136747442186" />
        <Con id="56" src="4" tgt="31" wght="-1.6187430010177195" />
        <Con id="58" src="4" tgt="33" wght="0.52704551490023732" />
        <Con id="59" src="4" tgt="34" wght="3.5985108697786927" />
        <Con id="61" src="5" tgt="31" wght="-2.8216633223928511" />
        <Con id="68" src="6" tgt="33" wght="3.0845653521828353" />
        <Con id="70" src="6" tgt="35" wght="-2.2457569232210517" />
        <Con id="76" src="8" tgt="31" wght="0.25993278017267585" />
        <Con id="77" src="8" tgt="32" wght="-0.22993537597358227" />
        <Con id="79" src="8" tgt="34" wght="3.1740498216822743" />
        <Con id="83" src="9" tgt="33" wght="2.4228339712135494" />
        <Con id="84" src="9" tgt="34" wght="-3.441325097810477" />
        <Con id="86" src="10" tgt="31" wght="0.754121751524508" />
        <Con id="87" src="10" tgt="32" wght="-4.3015581136569381" />
        <Con id="88" src="10" tgt="33" wght="-0.4943220061250031" />
        <Con id="90" src="10" tgt="35" wght="-4.1690449975430965" />
        <Con id="95" src="11" tgt="35" wght="3.1996952020563185" />
        <Con id="101" src="13" tgt="31" wght="-4.7957513737492263" />
        <Con id="102" src="13" tgt="32" wght="0.75290527194738388" />
        <Con id="103" src="13" tgt="33" wght="1.5308254165574908" />
        <Con id="106" src="14" tgt="31" wght="4.4116995227523148" />
        <Con id="107" src="14" tgt="32" wght="3.6147641553543508" />
        <Con id="108" src="14" tgt="33" wght="2.8103015455417335" />
        <Con id="109" src="14" tgt="34" wght="2.6813568919897079" />
        <Con id="112" src="15" tgt="32" wght="4.7185231419280171" />
        <Con id="116" src="16" tgt="31" wght="-3.5100006521679461" />
        <Con id="117" src="16" tgt="32" wght="-2.533668156247586" />
        <Con id="119" src="16" tgt="34" wght="-3.0637346254661679" />
        <Con id="121" src="17" tgt="31" wght="4.1103321290574968" />
        <Con id="123" src="17" tgt="33" wght="1.5551426447927952" />
        <Con id="125" src="17" tgt="35" wght="-0.49278151476755738" />
        <Con id="128" src="18" tgt="33" wght="1.6974779078736901" />
        <Con id="132" src="19" tgt="32" wght="-0.97956898855045438" />
        <Con id="136" src="20" tgt="31" wght="-1.1637336318381131" />
        <Con id="138" src="20" tgt="33" wght="-3.2547202380374074" />
        <Con id="140" src="20" tgt="35" wght="-4.11414084257558" />
        <Con id="141" src="21" tgt="31" wght="2.3078524298034608" />
        <Con id="142" src="21" tgt="32" wght="-2.8392865648493171" />
        <Con id="144" src="21" tgt="34" wght="2.9260277841240168" />
        <Con id="155" src="23" tgt="35" wght="-0.75206631096079946" />
        <Con id="156" src="24" tgt="31" wght="3.6498437472619116" />
        <Con id="160" src="24" tgt="35" wght="2.0285594346933067" />
        <Con id="161" src="25" tgt="31" wght="-2.297608545050025" />
        <Con id="164" src="25" tgt="34" wght="-1.4997382694855332" />
        <Con id="170" src="26" tgt="35" wght="0.55300015956163406" />
        <Con id="171" src="27" tgt="31" wght="-3.7199780391529202" />
        <Con id="173" src="27" tgt="33" wght="-3.9707909198477864" />
        <Con id="174" src="27" tgt="34" wght="-0.43685657670721412" />
        <Con id="175" src="27" tgt="35" wght="-0.056092182639986277" />
        <Con id="176" src="28" tgt="31" wght="-0.72303888155147433" />
        <Con id="178" src="28" tgt="33" wght="-0.091218971647322178" />
        <Con id="181" src="29" tgt="31" wght="3.5877177258953452" />
        <Con id="185" src="29" tgt="35" wght="-4.6587210241705179" />
        <Con id="186" src="30" tgt="31" wght="3.830310320481658" />
        <Con id="188" src="30" tgt="33" wght="-1.1430387035943568" />
      </Connections>
    </Network>
    <Network id="18" birthGen="0" fitness="0.18784447014331818">
      <Nodes>
        <Node type="bias" id="0" />
        <Node type="in" id="1" />
        <Node type="in" id="2" />
        <Node type="in" id="3" />
        <Node type="in" id="4" />
        <Node type="in" id="5" />
        <Node type="in" id="6" />
        <Node type="in" id="7" />
        <Node type="in" id="8" />
        <Node type="in" id="9" />
        <Node type="in" id="10" />
        <Node type="in" id="11" />
        <Node type="in" id="12" />
        <Node type="in" id="13" />
        <Node type="in" id="14" />
        <Node type="in" id="15" />
        <Node type="in" id="16" />
        <Node type="in" id="17" />
        <Node type="in" id="18" />
        <Node type="in" id="19" />
        <Node type="in" id="20" />
        <Node type="in" id="21" />
        <Node type="in" id="22" />
        <Node type="in" id="23" />
        <Node type="in" id="24" />
        <Node type="in" id="25" />
        <Node type="in" id="26" />
        <Node type="in" id="27" />
        <Node type="in" id="28" />
        <Node type="in" id="29" />
        <Node type="in" id="30" />
        <Node type="out" id="31" />
        <Node type="out" id="32" />
        <Node type="out" id="33" />
        <Node type="out" id="34" />
        <Node type="out" id="35" />
      </Nodes>
      <Connections>
        <Con id="36" src="0" tgt="31" wght="-3.4531667269766331" />
        <Con id="37" src="0" tgt="32" wght="0.81853860057890415" />
        <Con id="38" src="0" tgt="33" wght="-4.9083491251803935" />
        <Con id="40" src="0" tgt="35" wght="4.0165694942697883" />
        <Con id="43" src="1" tgt="33" wght="-3.5453459317795932" />
        <Con id="44" src="1" tgt="34" wght="-0.2345567150041461" />
        <Con id="45" src="1" tgt="35" wght="4.0486916597001255" />
        <Con id="47" src="2" tgt="32" wght="0.79190434422343969" />
        <Con id="49" src="2" tgt="34" wght="-3.0114071862772107" />
        <Con id="53" src="3" tgt="33" wght="-2.1498627937398851" />
        <Con id="54" src="3" tgt="34" wght="-4.884325279854238" />
        <Con id="56" src="4" tgt="31" wght="0.49214495811611414" />
        <Con id="58" src="4" tgt="33" wght="-4.0404317690990865" />
        <Con id="62" src="5" tgt="32" wght="1.5748783317394555" />
        <Con id="63" src="5" tgt="33" wght="4.31248962180689" />
        <Con id="64" src="5" tgt="34" wght="1.3511700113303959" />
        <Con id="65" src="5" tgt="35" wght="2.9132626811042428" />
        <Con id="69" src="6" tgt="34" wght="4.5711421291343868" />
        <Con id="71" src="7" tgt="31" wght="-4.05703627737239" />
        <Con id="75" src="7" tgt="35" wght="-1.4444763096980751" />
        <Con id="77" src="8" tgt="32" wght="0.55493551539257169" />
        <Con id="78" src="8" tgt="33" wght="3.4073700080625713" />
        <Con id="79" src="8" tgt="34" wght="-0.286425007507205" />
        <Con id="80" src="8" tgt="35" wght="-0.19185889745131135" />
        <Con id="85" src="9" tgt="35" wght="-3.4069274202920496" />
        <Con id="86" src="10" tgt="31" wght="-2.8513529221527278" />
        <Con id="87" src="10" tgt="32" wght="3.1378590222448111" />
        <Con id="88" src="10" tgt="33" wght="-3.2629484008066356" />
        <Con id="91" src="11" tgt="31" wght="3.8264255225658417" />
        <Con id="96" src="12" tgt="31" wght="-1.5056840376928449" />
        <Con id="97" src="12" tgt="32" wght="3.14501253888011" />
        <Con id="99" src="12" tgt="34" wght="-2.5724827847443521" />
        <Con id="100" src="12" tgt="35" wght="-0.91373684583231807" />
        <Con id="106" src="14" tgt="31" wght="3.02180910250172" />
        <Con id="107" src="14" tgt="32" wght="-4.806979566346854" />
        <Con id="108" src="14" tgt="33" wght="-0.37337316665798426" />
        <Con id="110" src="14" tgt="35" wght="-0.82644010661169887" />
        <Con id="113" src="15" tgt="33" wght="0.92086827848106623" />
        <Con id="117" src="16" tgt="32" wght="0.16658972948789597" />
        <Con id="119" src="16" tgt="34" wght="4.455765220336616" />
        <Con id="120" src="16" tgt="35" wght="3.9011102728545666" />
        <Con id="122" src="17" tgt="32" wght="0.93123641796410084" />
        <Con id="123" src="17" tgt="33" wght="-4.1515806433744729" />
        <Con id="125" src="17" tgt="35" wght="-3.1215359712950885" />
        <Con id="135" src="19" tgt="35" wght="-0.21584150847047567" />
        <Con id="138" src="20" tgt="33" wght="1.9428324978798628" />
        <Con id="140" src="20" tgt="35" wght="0.62297408701851964" />
        <Con id="142" src="21" tgt="32" wght="1.3249113201163709" />
        <Con id="146" src="22" tgt="31" wght="3.462347942404449" />
        <Con id="150" src="22" tgt="35" wght="-2.4104345589876175" />
        <Con id="152" src="23" tgt="32" wght="-4.0387943666428328" />
        <Con id="156" src="24" tgt="31" wght="-2.5157299684360623" />
        <Con id="157" src="24" tgt="32" wght="-3.3013133518397808" />
        <Con id="159" src="24" tgt="34" wght="1.4400380966253579" />
        <Con id="160" src="24" tgt="35" wght="-3.4890188626013696" />
        <Con id="164" src="25" tgt="34" wght="-0.68255192134529352" />
        <Con id="169" src="26" tgt="34" wght="-3.1984330643899739" />
        <Con id="172" src="27" tgt="32" wght="-4.4850569125264883" />
        <Con id="179" src="28" tgt="34" wght="-1.3788849767297506" />
        <Con id="182" src="29" tgt="32" wght="-2.7026957343332469" />
        <Con id="184" src="29" tgt="34" wght="0.89560101740062237" />
        <Con id="189" src="30" tgt="34" wght="4.3628233089111745" />
      </Connections>
    </Network>
    <Network id="10" birthGen="0" fitness="0.60029256343841553">
      <Nodes>
        <Node type="bias" id="0" />
        <Node type="in" id="1" />
        <Node type="in" id="2" />
        <Node type="in" id="3" />
        <Node type="in" id="4" />
        <Node type="in" id="5" />
        <Node type="in" id="6" />
        <Node type="in" id="7" />
        <Node type="in" id="8" />
        <Node type="in" id="9" />
        <Node type="in" id="10" />
        <Node type="in" id="11" />
        <Node type="in" id="12" />
        <Node type="in" id="13" />
        <Node type="in" id="14" />
        <Node type="in" id="15" />
        <Node type="in" id="16" />
        <Node type="in" id="17" />
        <Node type="in" id="18" />
        <Node type="in" id="19" />
        <Node type="in" id="20" />
        <Node type="in" id="21" />
        <Node type="in" id="22" />
        <Node type="in" id="23" />
        <Node type="in" id="24" />
        <Node type="in" id="25" />
        <Node type="in" id="26" />
        <Node type="in" id="27" />
        <Node type="in" id="28" />
        <Node type="in" id="29" />
        <Node type="in" id="30" />
        <Node type="out" id="31" />
        <Node type="out" id="32" />
        <Node type="out" id="33" />
        <Node type="out" id="34" />
        <Node type="out" id="35" />
      </Nodes>
      <Connections>
        <Con id="41" src="1" tgt="31" wght="4.3371043400838971" />
        <Con id="42" src="1" tgt="32" wght="0.99630847107619047" />
        <Con id="43" src="1" tgt="33" wght="0.96532481256872416" />
        <Con id="49" src="2" tgt="34" wght="0.49664297141134739" />
        <Con id="54" src="3" tgt="34" wght="-1.9294047262519598" />
        <Con id="57" src="4" tgt="32" wght="3.3066909830085933" />
        <Con id="58" src="4" tgt="33" wght="-0.2861499972641468" />
        <Con id="59" src="4" tgt="34" wght="4.603287042118609" />
        <Con id="61" src="5" tgt="31" wght="-1.5448197722434998" />
        <Con id="62" src="5" tgt="32" wght="-0.91850263299420476" />
        <Con id="66" src="6" tgt="31" wght="-3.6840781336650252" />
        <Con id="67" src="6" tgt="32" wght="0.00063852174207568169" />
        <Con id="68" src="6" tgt="33" wght="-1.2678416958078742" />
        <Con id="70" src="6" tgt="35" wght="-1.4286896283738315" />
        <Con id="72" src="7" tgt="32" wght="2.347515388391912" />
        <Con id="74" src="7" tgt="34" wght="-1.2319223489612341" />
        <Con id="76" src="8" tgt="31" wght="0.01982460729777813" />
        <Con id="77" src="8" tgt="32" wght="4.9270288087427616" />
        <Con id="78" src="8" tgt="33" wght="3.4677806100808084" />
        <Con id="79" src="8" tgt="34" wght="-1.8851458327844739" />
        <Con id="81" src="9" tgt="31" wght="3.7638608552515507" />
        <Con id="82" src="9" tgt="32" wght="-3.0892862193286419" />
        <Con id="84" src="9" tgt="34" wght="3.0409632925875485" />
        <Con id="87" src="10" tgt="32" wght="2.4884207593277097" />
        <Con id="88" src="10" tgt="33" wght="-1.6475827409885824" />
        <Con id="91" src="11" tgt="31" wght="-3.2347964681684971" />
        <Con id="92" src="11" tgt="32" wght="-1.190526511054486" />
        <Con id="95" src="11" tgt="35" wght="-4.9782169214449823" />
        <Con id="96" src="12" tgt="31" wght="0.69040571805089712" />
        <Con id="98" src="12" tgt="33" wght="4.8763961810618639" />
        <Con id="100" src="12" tgt="35" wght="-3.2260891865007579" />
        <Con id="102" src="13" tgt="32" wght="-2.5935384887270629" />
        <Con id="104" src="13" tgt="34" wght="-4.7505075950175524" />
        <Con id="106" src="14" tgt="31" wght="1.9880456919781864" />
        <Con id="107" src="14" tgt="32" wght="-3.7620412581600249" />
        <Con id="108" src="14" tgt="33" wght="3.0190376215614378" />
        <Con id="111" src="15" tgt="31" wght="-0.19770513754338026" />
        <Con id="112" src="15" tgt="32" wght="4.835880275350064" />
        <Con id="113" src="15" tgt="33" wght="2.0413839491084218" />
        <Con id="116" src="16" tgt="31" wght="-1.9017752865329385" />
        <Con id="118" src="16" tgt="33" wght="3.3924673777073622" />
        <Con id="120" src="16" tgt="35" wght="3.7070128484629095" />
        <Con id="125" src="17" tgt="35" wght="-2.3966849013231695" />
        <Con id="127" src="18" tgt="32" wght="1.7210823576897383" />
        <Con id="128" src="18" tgt="33" wght="-2.7959086350165308" />
        <Con id="129" src="18" tgt="34" wght="3.515397235751152" />
        <Con id="131" src="19" tgt="31" wght="-4.9489520280621946" />
        <Con id="137" src="20" tgt="32" wght="2.4739073356613517" />
        <Con id="142" src="21" tgt="32" wght="0.47206120099872351" />
        <Con id="145" src="21" tgt="35" wght="0.62119436217471957" />
        <Con id="146" src="22" tgt="31" wght="-1.5022007212974131" />
        <Con id="151" src="23" tgt="31" wght="-0.44976915465667844" />
        <Con id="153" src="23" tgt="33" wght="1.0119479382410645" />
        <Con id="155" src="23" tgt="35" wght="3.7932301894761622" />
        <Con id="158" src="24" tgt="33" wght="2.5099709420464933" />
        <Con id="162" src="25" tgt="32" wght="3.4848992503248155" />
        <Con id="168" src="26" tgt="33" wght="1.5223237546160817" />
        <Con id="171" src="27" tgt="31" wght="-4.5147020439617336" />
        <Con id="178" src="28" tgt="33" wght="2.4581871624104679" />
        <Con id="185" src="29" tgt="35" wght="1.2215327564626932" />
        <Con id="186" src="30" tgt="31" wght="-0.85650377674028277" />
        <Con id="190" src="30" tgt="35" wght="-1.6829351871274412" />
      </Connections>
    </Network>
    <Network id="47" birthGen="0" fitness="0.14497901499271393">
      <Nodes>
        <Node type="bias" id="0" />
        <Node type="in" id="1" />
        <Node type="in" id="2" />
        <Node type="in" id="3" />
        <Node type="in" id="4" />
        <Node type="in" id="5" />
        <Node type="in" id="6" />
        <Node type="in" id="7" />
        <Node type="in" id="8" />
        <Node type="in" id="9" />
        <Node type="in" id="10" />
        <Node type="in" id="11" />
        <Node type="in" id="12" />
        <Node type="in" id="13" />
        <Node type="in" id="14" />
        <Node type="in" id="15" />
        <Node type="in" id="16" />
        <Node type="in" id="17" />
        <Node type="in" id="18" />
        <Node type="in" id="19" />
        <Node type="in" id="20" />
        <Node type="in" id="21" />
        <Node type="in" id="22" />
        <Node type="in" id="23" />
        <Node type="in" id="24" />
        <Node type="in" id="25" />
        <Node type="in" id="26" />
        <Node type="in" id="27" />
        <Node type="in" id="28" />
        <Node type="in" id="29" />
        <Node type="in" id="30" />
        <Node type="out" id="31" />
        <Node type="out" id="32" />
        <Node type="out" id="33" />
        <Node type="out" id="34" />
        <Node type="out" id="35" />
      </Nodes>
      <Connections>
        <Con id="37" src="0" tgt="32" wght="0.43439254397526383" />
        <Con id="39" src="0" tgt="34" wght="-4.2704216320998967" />
        <Con id="41" src="1" tgt="31" wght="-2.4138086754828691" />
        <Con id="44" src="1" tgt="34" wght="-3.2307986356317997" />
        <Con id="45" src="1" tgt="35" wght="-2.6558084902353585" />
        <Con id="47" src="2" tgt="32" wght="0.16459442675113678" />
        <Con id="49" src="2" tgt="34" wght="2.5835928088054061" />
        <Con id="53" src="3" tgt="33" wght="3.5424785106442869" />
        <Con id="54" src="3" tgt="34" wght="-0.4324349039234221" />
        <Con id="57" src="4" tgt="32" wght="-4.1468081995844841" />
        <Con id="61" src="5" tgt="31" wght="0.35779760219156742" />
        <Con id="63" src="5" tgt="33" wght="-1.6487801680341363" />
        <Con id="66" src="6" tgt="31" wght="-1.4209451875649393" />
        <Con id="67" src="6" tgt="32" wght="0.28665342135354877" />
        <Con id="70" src="6" tgt="35" wght="3.1755919940769672" />
        <Con id="72" src="7" tgt="32" wght="1.0334735317155719" />
        <Con id="73" src="7" tgt="33" wght="-1.6210673260502517" />
        <Con id="79" src="8" tgt="34" wght="2.871640904340893" />
        <Con id="80" src="8" tgt="35" wght="1.7895987792871892" />
        <Con id="84" src="9" tgt="34" wght="-1.9741071108728647" />
        <Con id="85" src="9" tgt="35" wght="-4.5428933412767947" />
        <Con id="86" src="10" tgt="31" wght="-1.3848569663241506" />
        <Con id="87" src="10" tgt="32" wght="-3.608135124668479" />
        <Con id="97" src="12" tgt="32" wght="3.3658303436823189" />
        <Con id="99" src="12" tgt="34" wght="2.7123737521469593" />
        <Con id="103" src="13" tgt="33" wght="-2.3372083785943687" />
        <Con id="104" src="13" tgt="34" wght="-0.76467139879241586" />
        <Con id="107" src="14" tgt="32" wght="-4.9545816285535693" />
        <Con id="108" src="14" tgt="33" wght="2.0882155001163483" />
        <Con id="109" src="14" tgt="34" wght="2.3193179862573743" />
        <Con id="110" src="14" tgt="35" wght="4.2486810823902488" />
        <Con id="111" src="15" tgt="31" wght="1.9543787697330117" />
        <Con id="113" src="15" tgt="33" wght="3.2166758086532354" />
        <Con id="116" src="16" tgt="31" wght="4.1088621062226593" />
        <Con id="117" src="16" tgt="32" wght="2.7783023961819708" />
        <Con id="122" src="17" tgt="32" wght="-0.73964068898931146" />
        <Con id="123" src="17" tgt="33" wght="1.2875805818475783" />
        <Con id="126" src="18" tgt="31" wght="4.2497792630456388" />
        <Con id="127" src="18" tgt="32" wght="0.036046439781785011" />
        <Con id="128" src="18" tgt="33" wght="-3.2501218491233885" />
        <Con id="134" src="19" tgt="34" wght="-1.3063955260440707" />
        <Con id="135" src="19" tgt="35" wght="-1.361064650118351" />
        <Con id="137" src="20" tgt="32" wght="3.8984955055639148" />
        <Con id="139" src="20" tgt="34" wght="-0.71291422471404076" />
        <Con id="140" src="20" tgt="35" wght="4.8195535689592361" />
        <Con id="145" src="21" tgt="35" wght="1.3003967609256506" />
        <Con id="147" src="22" tgt="32" wght="-1.458126085344702" />
        <Con id="148" src="22" tgt="33" wght="0.0079291942529380322" />
        <Con id="154" src="23" tgt="34" wght="4.7825125348754227" />
        <Con id="160" src="24" tgt="35" wght="3.1597772799432278" />
        <Con id="161" src="25" tgt="31" wght="2.2766566555947065" />
        <Con id="163" src="25" tgt="33" wght="-0.61109536793082952" />
        <Con id="164" src="25" tgt="34" wght="1.2165313516743481" />
        <Con id="169" src="26" tgt="34" wght="-1.9660080224275589" />
        <Con id="172" src="27" tgt="32" wght="4.0517480415292084" />
        <Con id="176" src="28" tgt="31" wght="-3.8392819254659116" />
        <Con id="179" src="28" tgt="34" wght="-3.7678411905653775" />
        <Con id="182" src="29" tgt="32" wght="-2.3792154854163527" />
        <Con id="183" src="29" tgt="33" wght="-0.75677211862057447" />
        <Con id="184" src="29" tgt="34" wght="-1.6565446509048343" />
        <Con id="188" src="30" tgt="33" wght="0.82264372380450368" />
        <Con id="189" src="30" tgt="34" wght="3.5392672941088676" />
      </Connections>
    </Network>
    <Network id="50" birthGen="1" fitness="0.15613254904747009">
      <Nodes>
        <Node type="bias" id="0" />
        <Node type="in" id="1" />
        <Node type="in" id="2" />
        <Node type="in" id="3" />
        <Node type="in" id="4" />
        <Node type="in" id="5" />
        <Node type="in" id="6" />
        <Node type="in" id="7" />
        <Node type="in" id="8" />
        <Node type="in" id="9" />
        <Node type="in" id="10" />
        <Node type="in" id="11" />
        <Node type="in" id="12" />
        <Node type="in" id="13" />
        <Node type="in" id="14" />
        <Node type="in" id="15" />
        <Node type="in" id="16" />
        <Node type="in" id="17" />
        <Node type="in" id="18" />
        <Node type="in" id="19" />
        <Node type="in" id="20" />
        <Node type="in" id="21" />
        <Node type="in" id="22" />
        <Node type="in" id="23" />
        <Node type="in" id="24" />
        <Node type="in" id="25" />
        <Node type="in" id="26" />
        <Node type="in" id="27" />
        <Node type="in" id="28" />
        <Node type="in" id="29" />
        <Node type="in" id="30" />
        <Node type="out" id="31" />
        <Node type="out" id="32" />
        <Node type="out" id="33" />
        <Node type="out" id="34" />
        <Node type="out" id="35" />
      </Nodes>
      <Connections>
        <Con id="36" src="0" tgt="31" wght="2.2088807472027838" />
        <Con id="37" src="0" tgt="32" wght="0.75193922501057386" />
        <Con id="40" src="0" tgt="35" wght="1.4754379610531032" />
        <Con id="41" src="1" tgt="31" wght="-1.2690970115363598" />
        <Con id="42" src="1" tgt="32" wght="2.6362100755795836" />
        <Con id="46" src="2" tgt="31" wght="-2.8543984587304294" />
        <Con id="48" src="2" tgt="33" wght="-0.45547629473730922" />
        <Con id="49" src="2" tgt="34" wght="-0.8209048374556005" />
        <Con id="51" src="3" tgt="31" wght="3.7735316855832934" />
        <Con id="52" src="3" tgt="32" wght="-4.3577981181442738" />
        <Con id="55" src="3" tgt="35" wght="-2.7483912208117545" />
        <Con id="63" src="5" tgt="33" wght="-4.8499417724087834" />
        <Con id="64" src="5" tgt="34" wght="4.2705302755348384" />
        <Con id="67" src="6" tgt="32" wght="2.0864599850028753" />
        <Con id="69" src="6" tgt="34" wght="-1.1673646792769432" />
        <Con id="74" src="7" tgt="34" wght="-1.104708113707602" />
        <Con id="76" src="8" tgt="31" wght="-4.0568042453378439" />
        <Con id="82" src="9" tgt="32" wght="2.8759454097598791" />
        <Con id="84" src="9" tgt="34" wght="-1.7895103525370359" />
        <Con id="89" src="10" tgt="34" wght="-2.9857395682483912" />
        <Con id="90" src="10" tgt="35" wght="4.2283150530420244" />
        <Con id="92" src="11" tgt="32" wght="0.41713499231263995" />
        <Con id="94" src="11" tgt="34" wght="-3.15318742999807" />
        <Con id="99" src="12" tgt="34" wght="-1.9653020310215652" />
        <Con id="100" src="12" tgt="35" wght="1.7582965595647693" />
        <Con id="101" src="13" tgt="31" wght="0.800693929195404" />
        <Con id="102" src="13" tgt="32" wght="-3.9019321417436004" />
        <Con id="106" src="14" tgt="31" wght="-0.43860249919816852" />
        <Con id="108" src="14" tgt="33" wght="4.7196432063356042" />
        <Con id="109" src="14" tgt="34" wght="2.1726894588209689" />
        <Con id="110" src="14" tgt="35" wght="2.1940835053101182" />
        <Con id="111" src="15" tgt="31" wght="0.78343861736357212" />
        <Con id="114" src="15" tgt="34" wght="3.7409780942834914" />
        <Con id="117" src="16" tgt="32" wght="1.4566755923442543" />
        <Con id="118" src="16" tgt="33" wght="-3.6951680877245963" />
        <Con id="121" src="17" tgt="31" wght="2.9188594804145396" />
        <Con id="123" src="17" tgt="33" wght="-1.5039928094483912" />
        <Con id="124" src="17" tgt="34" wght="-4.4513884815387428" />
        <Con id="125" src="17" tgt="35" wght="-1.6298827668651938" />
        <Con id="127" src="18" tgt="32" wght="-2.9193192697130144" />
        <Con id="128" src="18" tgt="33" wght="1.395378636661917" />
        <Con id="130" src="18" tgt="35" wght="-0.78131017740815878" />
        <Con id="132" src="19" tgt="32" wght="-0.40514957858249545" />
        <Con id="134" src="19" tgt="34" wght="-1.6292060259729624" />
        <Con id="135" src="19" tgt="35" wght="2.2117697703652084" />
        <Con id="137" src="20" tgt="32" wght="1.0913818818517029" />
        <Con id="140" src="20" tgt="35" wght="2.07790867658332" />
        <Con id="143" src="21" tgt="33" wght="-1.1779825459234416" />
        <Con id="144" src="21" tgt="34" wght="-3.6582354595884681" />
        <Con id="146" src="22" tgt="31" wght="3.8521518115885556" />
        <Con id="147" src="22" tgt="32" wght="-3.153895465657115" />
        <Con id="151" src="23" tgt="31" wght="-0.7430388662032783" />
        <Con id="157" src="24" tgt="32" wght="2.919362923130393" />
        <Con id="161" src="25" tgt="31" wght="1.1712829838506877" />
        <Con id="162" src="25" tgt="32" wght="3.1300527951680124" />
        <Con id="164" src="25" tgt="34" wght="4.8945615603588521" />
        <Con id="170" src="26" tgt="35" wght="-3.3008824242278934" />
        <Con id="178" src="28" tgt="33" wght="0.6714040064252913" />
        <Con id="182" src="29" tgt="32" wght="-3.97421344416216" />
        <Con id="184" src="29" tgt="34" wght="1.2533307517878711" />
        <Con id="185" src="29" tgt="35" wght="-3.2965834345668554" />
        <Con id="188" src="30" tgt="33" wght="-1.9531355868093669" />
        <Con id="191" src="13" tgt="34" wght="-0.026507749548181893" />
      </Connections>
    </Network>
    <Network id="51" birthGen="1" fitness="0.096903108060359955">
      <Nodes>
        <Node type="bias" id="0" />
        <Node type="in" id="1" />
        <Node type="in" id="2" />
        <Node type="in" id="3" />
        <Node type="in" id="4" />
        <Node type="in" id="5" />
        <Node type="in" id="6" />
        <Node type="in" id="7" />
        <Node type="in" id="8" />
        <Node type="in" id="9" />
        <Node type="in" id="10" />
        <Node type="in" id="11" />
        <Node type="in" id="12" />
        <Node type="in" id="13" />
        <Node type="in" id="14" />
        <Node type="in" id="15" />
        <Node type="in" id="16" />
        <Node type="in" id="17" />
        <Node type="in" id="18" />
        <Node type="in" id="19" />
        <Node type="in" id="20" />
        <Node type="in" id="21" />
        <Node type="in" id="22" />
        <Node type="in" id="23" />
        <Node type="in" id="24" />
        <Node type="in" id="25" />
        <Node type="in" id="26" />
        <Node type="in" id="27" />
        <Node type="in" id="28" />
        <Node type="in" id="29" />
        <Node type="in" id="30" />
        <Node type="out" id="31" />
        <Node type="out" id="32" />
        <Node type="out" id="33" />
        <Node type="out" id="34" />
        <Node type="out" id="35" />
      </Nodes>
      <Connections>
        <Con id="36" src="0" tgt="31" wght="2.2088807472027838" />
        <Con id="37" src="0" tgt="32" wght="0.75193922501057386" />
        <Con id="40" src="0" tgt="35" wght="1.4754379610531032" />
        <Con id="41" src="1" tgt="31" wght="-1.2690970115363598" />
        <Con id="42" src="1" tgt="32" wght="2.6362100755795836" />
        <Con id="46" src="2" tgt="31" wght="-2.8543984587304294" />
        <Con id="48" src="2" tgt="33" wght="-0.45547629473730922" />
        <Con id="49" src="2" tgt="34" wght="-0.8209048374556005" />
        <Con id="51" src="3" tgt="31" wght="3.7735316855832934" />
        <Con id="52" src="3" tgt="32" wght="-4.3577981181442738" />
        <Con id="55" src="3" tgt="35" wght="-2.7483912208117545" />
        <Con id="63" src="5" tgt="33" wght="-4.8499417724087834" />
        <Con id="64" src="5" tgt="34" wght="4.2705302755348384" />
        <Con id="67" src="6" tgt="32" wght="2.0864599850028753" />
        <Con id="69" src="6" tgt="34" wght="-1.1673646792769432" />
        <Con id="74" src="7" tgt="34" wght="-1.104708113707602" />
        <Con id="76" src="8" tgt="31" wght="-4.0568042453378439" />
        <Con id="82" src="9" tgt="32" wght="2.8759454097598791" />
        <Con id="84" src="9" tgt="34" wght="-1.7895103525370359" />
        <Con id="89" src="10" tgt="34" wght="-2.9857395682483912" />
        <Con id="90" src="10" tgt="35" wght="4.2283150530420244" />
        <Con id="92" src="11" tgt="32" wght="0.41713499231263995" />
        <Con id="94" src="11" tgt="34" wght="-3.15318742999807" />
        <Con id="99" src="12" tgt="34" wght="-1.9653020310215652" />
        <Con id="100" src="12" tgt="35" wght="1.7597584962741635" />
        <Con id="101" src="13" tgt="31" wght="0.800693929195404" />
        <Con id="102" src="13" tgt="32" wght="-3.9019321417436004" />
        <Con id="106" src="14" tgt="31" wght="-0.43860249919816852" />
        <Con id="108" src="14" tgt="33" wght="4.7196432063356042" />
        <Con id="109" src="14" tgt="34" wght="2.1726894588209689" />
        <Con id="110" src="14" tgt="35" wght="2.1940835053101182" />
        <Con id="111" src="15" tgt="31" wght="0.78343861736357212" />
        <Con id="114" src="15" tgt="34" wght="3.7409780942834914" />
        <Con id="117" src="16" tgt="32" wght="1.4566755923442543" />
        <Con id="118" src="16" tgt="33" wght="-3.6951680877245963" />
        <Con id="121" src="17" tgt="31" wght="2.9188594804145396" />
        <Con id="123" src="17" tgt="33" wght="-1.5039928094483912" />
        <Con id="124" src="17" tgt="34" wght="-4.4513884815387428" />
        <Con id="125" src="17" tgt="35" wght="-1.6298827668651938" />
        <Con id="127" src="18" tgt="32" wght="-2.9193192697130144" />
        <Con id="128" src="18" tgt="33" wght="1.395378636661917" />
        <Con id="130" src="18" tgt="35" wght="-0.78131017740815878" />
        <Con id="132" src="19" tgt="32" wght="-0.40514957858249545" />
        <Con id="134" src="19" tgt="34" wght="-1.6292060259729624" />
        <Con id="135" src="19" tgt="35" wght="2.2117697703652084" />
        <Con id="137" src="20" tgt="32" wght="1.0913818818517029" />
        <Con id="140" src="20" tgt="35" wght="2.07790867658332" />
        <Con id="143" src="21" tgt="33" wght="-1.1779825459234416" />
        <Con id="144" src="21" tgt="34" wght="-3.6582354595884681" />
        <Con id="146" src="22" tgt="31" wght="3.8521518115885556" />
        <Con id="147" src="22" tgt="32" wght="-3.153895465657115" />
        <Con id="151" src="23" tgt="31" wght="-0.7430388662032783" />
        <Con id="157" src="24" tgt="32" wght="2.919362923130393" />
        <Con id="161" src="25" tgt="31" wght="1.1712829838506877" />
        <Con id="162" src="25" tgt="32" wght="3.1300527951680124" />
        <Con id="164" src="25" tgt="34" wght="4.8945615603588521" />
        <Con id="170" src="26" tgt="35" wght="-3.3008824242278934" />
        <Con id="178" src="28" tgt="33" wght="0.6714040064252913" />
        <Con id="182" src="29" tgt="32" wght="-3.97421344416216" />
        <Con id="184" src="29" tgt="34" wght="1.2533307517878711" />
        <Con id="185" src="29" tgt="35" wght="-3.2965834345668554" />
        <Con id="188" src="30" tgt="33" wght="-1.9531355868093669" />
      </Connections>
    </Network>
    <Network id="52" birthGen="1" fitness="0.0891934260725975">
      <Nodes>
        <Node type="bias" id="0" />
        <Node type="in" id="1" />
        <Node type="in" id="2" />
        <Node type="in" id="3" />
        <Node type="in" id="4" />
        <Node type="in" id="5" />
        <Node type="in" id="6" />
        <Node type="in" id="7" />
        <Node type="in" id="8" />
        <Node type="in" id="9" />
        <Node type="in" id="10" />
        <Node type="in" id="11" />
        <Node type="in" id="12" />
        <Node type="in" id="13" />
        <Node type="in" id="14" />
        <Node type="in" id="15" />
        <Node type="in" id="16" />
        <Node type="in" id="17" />
        <Node type="in" id="18" />
        <Node type="in" id="19" />
        <Node type="in" id="20" />
        <Node type="in" id="21" />
        <Node type="in" id="22" />
        <Node type="in" id="23" />
        <Node type="in" id="24" />
        <Node type="in" id="25" />
        <Node type="in" id="26" />
        <Node type="in" id="27" />
        <Node type="in" id="28" />
        <Node type="in" id="29" />
        <Node type="in" id="30" />
        <Node type="out" id="31" />
        <Node type="out" id="32" />
        <Node type="out" id="33" />
        <Node type="out" id="34" />
        <Node type="out" id="35" />
      </Nodes>
      <Connections>
        <Con id="41" src="1" tgt="31" wght="-3.3692607004195452" />
        <Con id="42" src="1" tgt="32" wght="3.1320591690018773" />
        <Con id="47" src="2" tgt="32" wght="4.3361383792944252" />
        <Con id="50" src="2" tgt="35" wght="-4.2786292289383709" />
        <Con id="51" src="3" tgt="31" wght="-3.8225438632071018" />
        <Con id="59" src="4" tgt="34" wght="-0.72695785434916615" />
        <Con id="61" src="5" tgt="31" wght="-2.9823030880652368" />
        <Con id="62" src="5" tgt="32" wght="3.9763182308524847" />
        <Con id="63" src="5" tgt="33" wght="-4.6114652301184833" />
        <Con id="65" src="5" tgt="35" wght="-2.4683894868940115" />
        <Con id="69" src="6" tgt="34" wght="1.0215553548187017" />
        <Con id="75" src="7" tgt="35" wght="-2.936729749199003" />
        <Con id="77" src="8" tgt="32" wght="-3.29911780776456" />
        <Con id="78" src="8" tgt="33" wght="-1.3769108895212412" />
        <Con id="79" src="8" tgt="34" wght="-0.46052053803578019" />
        <Con id="80" src="8" tgt="35" wght="-1.7870882130227983" />
        <Con id="81" src="9" tgt="31" wght="-1.0602143756113946" />
        <Con id="86" src="10" tgt="31" wght="-1.8931997637264431" />
        <Con id="87" src="10" tgt="32" wght="2.8205160796642303" />
        <Con id="89" src="10" tgt="34" wght="-4.65865429956466" />
        <Con id="95" src="11" tgt="35" wght="-0.34362839767709374" />
        <Con id="96" src="12" tgt="31" wght="1.2736496422439814" />
        <Con id="97" src="12" tgt="32" wght="-0.546208443120122" />
        <Con id="99" src="12" tgt="34" wght="-2.6017187815159559" />
        <Con id="101" src="13" tgt="31" wght="-3.4576631220988929" />
        <Con id="103" src="13" tgt="33" wght="-0.98166355164721608" />
        <Con id="106" src="14" tgt="31" wght="1.936444491147995" />
        <Con id="108" src="14" tgt="33" wght="1.4678441686555743" />
        <Con id="112" src="15" tgt="32" wght="1.9854338839650154" />
        <Con id="113" src="15" tgt="33" wght="-2.6649615168571472" />
        <Con id="115" src="15" tgt="35" wght="2.1822364581748843" />
        <Con id="118" src="16" tgt="33" wght="2.0497207925654948" />
        <Con id="127" src="18" tgt="32" wght="3.5423912107944489" />
        <Con id="130" src="18" tgt="35" wght="0.3759805834852159" />
        <Con id="131" src="19" tgt="31" wght="-2.1157883899286389" />
        <Con id="133" src="19" tgt="33" wght="-2.6216810662299395" />
        <Con id="134" src="19" tgt="34" wght="-1.266847737133503" />
        <Con id="135" src="19" tgt="35" wght="4.5784753793850541" />
        <Con id="136" src="20" tgt="31" wght="-2.1848993864841759" />
        <Con id="139" src="20" tgt="34" wght="-4.6950641903094947" />
        <Con id="140" src="20" tgt="35" wght="-1.5685905888676643" />
        <Con id="143" src="21" tgt="33" wght="-3.6782402475364506" />
        <Con id="145" src="21" tgt="35" wght="-3.0849446635693312" />
        <Con id="147" src="22" tgt="32" wght="3.6711577838286757" />
        <Con id="148" src="22" tgt="33" wght="2.4361809389665723" />
        <Con id="150" src="22" tgt="35" wght="0.36975649418309331" />
        <Con id="151" src="23" tgt="31" wght="-2.416492102202028" />
        <Con id="153" src="23" tgt="33" wght="-2.18478059861809" />
        <Con id="155" src="23" tgt="35" wght="-3.9755810261704028" />
        <Con id="158" src="24" tgt="33" wght="3.8302314048632979" />
        <Con id="162" src="25" tgt="32" wght="1.1025837645865977" />
        <Con id="163" src="25" tgt="33" wght="0.15734358225017786" />
        <Con id="165" src="25" tgt="35" wght="4.0420194203034043" />
        <Con id="166" src="26" tgt="31" wght="-1.361295657698065" />
        <Con id="167" src="26" tgt="32" wght="-1.1610002513043582" />
        <Con id="169" src="26" tgt="34" wght="-4.4872946850955486" />
        <Con id="172" src="27" tgt="32" wght="-1.9252420635893941" />
        <Con id="175" src="27" tgt="35" wght="-0.59329501120373607" />
        <Con id="182" src="29" tgt="32" wght="-3.4933794080279768" />
        <Con id="184" src="29" tgt="34" wght="-0.75413905006914839" />
        <Con id="186" src="30" tgt="31" wght="-0.5394608061760664" />
        <Con id="190" src="30" tgt="35" wght="-1.3145255274139345" />
      </Connections>
    </Network>
    <Network id="53" birthGen="1" fitness="0.0672762393951416">
      <Nodes>
        <Node type="bias" id="0" />
        <Node type="in" id="1" />
        <Node type="in" id="2" />
        <Node type="in" id="3" />
        <Node type="in" id="4" />
        <Node type="in" id="5" />
        <Node type="in" id="6" />
        <Node type="in" id="7" />
        <Node type="in" id="8" />
        <Node type="in" id="9" />
        <Node type="in" id="10" />
        <Node type="in" id="11" />
        <Node type="in" id="12" />
        <Node type="in" id="13" />
        <Node type="in" id="14" />
        <Node type="in" id="15" />
        <Node type="in" id="16" />
        <Node type="in" id="17" />
        <Node type="in" id="18" />
        <Node type="in" id="19" />
        <Node type="in" id="20" />
        <Node type="in" id="21" />
        <Node type="in" id="22" />
        <Node type="in" id="23" />
        <Node type="in" id="24" />
        <Node type="in" id="25" />
        <Node type="in" id="26" />
        <Node type="in" id="27" />
        <Node type="in" id="28" />
        <Node type="in" id="29" />
        <Node type="in" id="30" />
        <Node type="out" id="31" />
        <Node type="out" id="32" />
        <Node type="out" id="33" />
        <Node type="out" id="34" />
        <Node type="out" id="35" />
      </Nodes>
      <Connections>
        <Con id="39" src="0" tgt="34" wght="0.78227184014394879" />
        <Con id="42" src="1" tgt="32" wght="0.43100229231640697" />
        <Con id="43" src="1" tgt="33" wght="0.22154744016006589" />
        <Con id="45" src="1" tgt="35" wght="2.1552876406349242" />
        <Con id="46" src="2" tgt="31" wght="4.6372334868647158" />
        <Con id="48" src="2" tgt="33" wght="-2.7491477108560503" />
        <Con id="50" src="2" tgt="35" wght="0.54241628386080265" />
        <Con id="55" src="3" tgt="35" wght="1.5773125551640987" />
        <Con id="56" src="4" tgt="31" wght="2.0568811614066362" />
        <Con id="60" src="4" tgt="35" wght="-0.94539683312177658" />
        <Con id="61" src="5" tgt="31" wght="3.361432091332972" />
        <Con id="64" src="5" tgt="34" wght="4.2259332351386547" />
        <Con id="66" src="6" tgt="31" wght="-3.7183081079274416" />
        <Con id="70" src="6" tgt="35" wght="1.0253017116338015" />
        <Con id="71" src="7" tgt="31" wght="0.062328716740012169" />
        <Con id="74" src="7" tgt="34" wght="-3.1671165931038558" />
        <Con id="75" src="7" tgt="35" wght="-1.1684795119799674" />
        <Con id="76" src="8" tgt="31" wght="3.4632069012150168" />
        <Con id="79" src="8" tgt="34" wght="-3.9411321328952909" />
        <Con id="83" src="9" tgt="33" wght="2.4799188086763024" />
        <Con id="84" src="9" tgt="34" wght="-2.9278612835332751" />
        <Con id="90" src="10" tgt="35" wght="2.4011287488974631" />
        <Con id="92" src="11" tgt="32" wght="3.4517690539360046" />
        <Con id="97" src="12" tgt="32" wght="-2.6620950363576412" />
        <Con id="101" src="13" tgt="31" wght="4.4422360090538859" />
        <Con id="102" src="13" tgt="32" wght="-0.81282881554216146" />
        <Con id="105" src="13" tgt="35" wght="3.6107684834860265" />
        <Con id="108" src="14" tgt="33" wght="-4.043218984734267" />
        <Con id="110" src="14" tgt="35" wght="4.707382929045707" />
        <Con id="111" src="15" tgt="31" wght="-2.6584389922209084" />
        <Con id="120" src="16" tgt="35" wght="-1.6812102729454637" />
        <Con id="121" src="17" tgt="31" wght="-4.0769221587106586" />
        <Con id="122" src="17" tgt="32" wght="0.015478220302611589" />
        <Con id="123" src="17" tgt="33" wght="-0.70500965230166912" />
        <Con id="125" src="17" tgt="35" wght="-4.3152818386442959" />
        <Con id="126" src="18" tgt="31" wght="0.47884384403005242" />
        <Con id="127" src="18" tgt="32" wght="1.1582622770220041" />
        <Con id="131" src="19" tgt="31" wght="4.9994317232631147" />
        <Con id="134" src="19" tgt="34" wght="-4.0854088985361159" />
        <Con id="135" src="19" tgt="35" wght="-3.3254487509839237" />
        <Con id="139" src="20" tgt="34" wght="-1.9336768821813166" />
        <Con id="140" src="20" tgt="35" wght="-1.5690965810790658" />
        <Con id="141" src="21" tgt="31" wght="3.0596461868844926" />
        <Con id="143" src="21" tgt="33" wght="-4.0306431357748806" />
        <Con id="150" src="22" tgt="35" wght="-1.4290120732039213" />
        <Con id="151" src="23" tgt="31" wght="0.4096069629304111" />
        <Con id="160" src="24" tgt="35" wght="-2.6338076055981219" />
        <Con id="165" src="25" tgt="35" wght="-2.418718331027776" />
        <Con id="166" src="26" tgt="31" wght="-0.94763902015984058" />
        <Con id="167" src="26" tgt="32" wght="2.949375007301569" />
        <Con id="168" src="26" tgt="33" wght="-0.37574958987534046" />
        <Con id="169" src="26" tgt="34" wght="-2.88540649227798" />
        <Con id="171" src="27" tgt="31" wght="-0.85744707146659493" />
        <Con id="172" src="27" tgt="32" wght="2.3039627657271922" />
        <Con id="174" src="27" tgt="34" wght="4.3143276497721672" />
        <Con id="177" src="28" tgt="32" wght="0.53300207480788231" />
        <Con id="180" src="28" tgt="35" wght="2.8879295871593058" />
        <Con id="184" src="29" tgt="34" wght="3.276046987157315" />
        <Con id="185" src="29" tgt="35" wght="3.5301368753425777" />
        <Con id="186" src="30" tgt="31" wght="2.9458894743584096" />
        <Con id="188" src="30" tgt="33" wght="-4.734143940731883" />
        <Con id="189" src="30" tgt="34" wght="-4.3471582629717886" />
        <Con id="192" src="25" tgt="32" wght="-2.621073133777827" />
      </Connections>
    </Network>
    <Network id="54" birthGen="1" fitness="0">
      <Nodes>
        <Node type="bias" id="0" />
        <Node type="in" id="1" />
        <Node type="in" id="2" />
        <Node type="in" id="3" />
        <Node type="in" id="4" />
        <Node type="in" id="5" />
        <Node type="in" id="6" />
        <Node type="in" id="7" />
        <Node type="in" id="8" />
        <Node type="in" id="9" />
        <Node type="in" id="10" />
        <Node type="in" id="11" />
        <Node type="in" id="12" />
        <Node type="in" id="13" />
        <Node type="in" id="14" />
        <Node type="in" id="15" />
        <Node type="in" id="16" />
        <Node type="in" id="17" />
        <Node type="in" id="18" />
        <Node type="in" id="19" />
        <Node type="in" id="20" />
        <Node type="in" id="21" />
        <Node type="in" id="22" />
        <Node type="in" id="23" />
        <Node type="in" id="24" />
        <Node type="in" id="25" />
        <Node type="in" id="26" />
        <Node type="in" id="27" />
        <Node type="in" id="28" />
        <Node type="in" id="29" />
        <Node type="in" id="30" />
        <Node type="out" id="31" />
        <Node type="out" id="32" />
        <Node type="out" id="33" />
        <Node type="out" id="34" />
        <Node type="out" id="35" />
      </Nodes>
      <Connections>
        <Con id="41" src="1" tgt="31" wght="-3.3692607004195452" />
        <Con id="42" src="1" tgt="32" wght="3.1320591690018773" />
        <Con id="47" src="2" tgt="32" wght="4.3361383792944252" />
        <Con id="50" src="2" tgt="35" wght="-4.2786292289383709" />
        <Con id="51" src="3" tgt="31" wght="-3.8225438632071018" />
        <Con id="59" src="4" tgt="34" wght="-0.72695785434916615" />
        <Con id="61" src="5" tgt="31" wght="-2.9823030880652368" />
        <Con id="62" src="5" tgt="32" wght="3.9763182308524847" />
        <Con id="63" src="5" tgt="33" wght="-4.6114652301184833" />
        <Con id="65" src="5" tgt="35" wght="-2.4683894868940115" />
        <Con id="69" src="6" tgt="34" wght="1.0215553548187017" />
        <Con id="75" src="7" tgt="35" wght="-2.936729749199003" />
        <Con id="77" src="8" tgt="32" wght="-3.29911780776456" />
        <Con id="78" src="8" tgt="33" wght="-1.3769108895212412" />
        <Con id="79" src="8" tgt="34" wght="-0.46052053803578019" />
        <Con id="80" src="8" tgt="35" wght="-1.7870882130227983" />
        <Con id="81" src="9" tgt="31" wght="-1.0602143756113946" />
        <Con id="86" src="10" tgt="31" wght="-1.8931997637264431" />
        <Con id="87" src="10" tgt="32" wght="2.8205160796642303" />
        <Con id="89" src="10" tgt="34" wght="-4.65865429956466" />
        <Con id="95" src="11" tgt="35" wght="-0.34362839767709374" />
        <Con id="96" src="12" tgt="31" wght="1.2736496422439814" />
        <Con id="97" src="12" tgt="32" wght="-0.546208443120122" />
        <Con id="99" src="12" tgt="34" wght="-2.6017187815159559" />
        <Con id="101" src="13" tgt="31" wght="-3.4576631220988929" />
        <Con id="103" src="13" tgt="33" wght="-0.98166355164721608" />
        <Con id="106" src="14" tgt="31" wght="1.936444491147995" />
        <Con id="108" src="14" tgt="33" wght="1.4678441686555743" />
        <Con id="112" src="15" tgt="32" wght="1.9854338839650154" />
        <Con id="113" src="15" tgt="33" wght="-2.6649615168571472" />
        <Con id="115" src="15" tgt="35" wght="2.1822364581748843" />
        <Con id="118" src="16" tgt="33" wght="2.0497207925654948" />
        <Con id="127" src="18" tgt="32" wght="3.5423912107944489" />
        <Con id="130" src="18" tgt="35" wght="0.3759805834852159" />
        <Con id="131" src="19" tgt="31" wght="-2.1157883899286389" />
        <Con id="133" src="19" tgt="33" wght="-2.6216810662299395" />
        <Con id="134" src="19" tgt="34" wght="-1.266847737133503" />
        <Con id="135" src="19" tgt="35" wght="4.5784753793850541" />
        <Con id="136" src="20" tgt="31" wght="-2.1848993864841759" />
        <Con id="139" src="20" tgt="34" wght="-4.6950641903094947" />
        <Con id="140" src="20" tgt="35" wght="-1.5685905888676643" />
        <Con id="143" src="21" tgt="33" wght="-3.6782402475364506" />
        <Con id="145" src="21" tgt="35" wght="-3.0849446635693312" />
        <Con id="147" src="22" tgt="32" wght="3.6711577838286757" />
        <Con id="148" src="22" tgt="33" wght="2.4361809389665723" />
        <Con id="150" src="22" tgt="35" wght="0.36975649418309331" />
        <Con id="151" src="23" tgt="31" wght="-2.416492102202028" />
        <Con id="153" src="23" tgt="33" wght="-2.18478059861809" />
        <Con id="155" src="23" tgt="35" wght="-3.9755810261704028" />
        <Con id="158" src="24" tgt="33" wght="3.8302314048632979" />
        <Con id="162" src="25" tgt="32" wght="1.1025837645865977" />
        <Con id="163" src="25" tgt="33" wght="0.15734358225017786" />
        <Con id="165" src="25" tgt="35" wght="4.0420194203034043" />
        <Con id="166" src="26" tgt="31" wght="-1.361295657698065" />
        <Con id="167" src="26" tgt="32" wght="-1.1610002513043582" />
        <Con id="169" src="26" tgt="34" wght="-4.4872946850955486" />
        <Con id="172" src="27" tgt="32" wght="3.9284205692820251" />
        <Con id="175" src="27" tgt="35" wght="-0.59329501120373607" />
        <Con id="182" src="29" tgt="32" wght="0.00337233766913414" />
        <Con id="184" src="29" tgt="34" wght="-0.75888885883614421" />
        <Con id="186" src="30" tgt="31" wght="-0.5394608061760664" />
        <Con id="190" src="30" tgt="35" wght="-1.3145255274139345" />
      </Connections>
    </Network>
    <Network id="55" birthGen="1" fitness="0.099255591630935669">
      <Nodes>
        <Node type="bias" id="0" />
        <Node type="in" id="1" />
        <Node type="in" id="2" />
        <Node type="in" id="3" />
        <Node type="in" id="4" />
        <Node type="in" id="5" />
        <Node type="in" id="6" />
        <Node type="in" id="7" />
        <Node type="in" id="8" />
        <Node type="in" id="9" />
        <Node type="in" id="10" />
        <Node type="in" id="11" />
        <Node type="in" id="12" />
        <Node type="in" id="13" />
        <Node type="in" id="14" />
        <Node type="in" id="15" />
        <Node type="in" id="16" />
        <Node type="in" id="17" />
        <Node type="in" id="18" />
        <Node type="in" id="19" />
        <Node type="in" id="20" />
        <Node type="in" id="21" />
        <Node type="in" id="22" />
        <Node type="in" id="23" />
        <Node type="in" id="24" />
        <Node type="in" id="25" />
        <Node type="in" id="26" />
        <Node type="in" id="27" />
        <Node type="in" id="28" />
        <Node type="in" id="29" />
        <Node type="in" id="30" />
        <Node type="out" id="31" />
        <Node type="out" id="32" />
        <Node type="out" id="33" />
        <Node type="out" id="34" />
        <Node type="out" id="35" />
      </Nodes>
      <Connections>
        <Con id="41" src="1" tgt="31" wght="-1.2690970115363598" />
        <Con id="42" src="1" tgt="32" wght="2.6362100755795836" />
        <Con id="47" src="2" tgt="32" wght="4.3361383792944252" />
        <Con id="50" src="2" tgt="35" wght="-4.2786292289383709" />
        <Con id="51" src="3" tgt="31" wght="3.7735316855832934" />
        <Con id="59" src="4" tgt="34" wght="-0.72695785434916615" />
        <Con id="61" src="5" tgt="31" wght="-2.9823030880652368" />
        <Con id="62" src="5" tgt="32" wght="3.9763182308524847" />
        <Con id="63" src="5" tgt="33" wght="-4.8499417724087834" />
        <Con id="65" src="5" tgt="35" wght="-2.4683894868940115" />
        <Con id="69" src="6" tgt="34" wght="-1.1673646792769432" />
        <Con id="75" src="7" tgt="35" wght="-2.936729749199003" />
        <Con id="77" src="8" tgt="32" wght="-3.29911780776456" />
        <Con id="78" src="8" tgt="33" wght="-1.3769108895212412" />
        <Con id="79" src="8" tgt="34" wght="-0.46052053803578019" />
        <Con id="80" src="8" tgt="35" wght="-1.7870882130227983" />
        <Con id="81" src="9" tgt="31" wght="-1.0602143756113946" />
        <Con id="86" src="10" tgt="31" wght="-1.8931997637264431" />
        <Con id="87" src="10" tgt="32" wght="2.8205160796642303" />
        <Con id="89" src="10" tgt="34" wght="-4.65865429956466" />
        <Con id="95" src="11" tgt="35" wght="-0.34362839767709374" />
        <Con id="96" src="12" tgt="31" wght="1.2736496422439814" />
        <Con id="97" src="12" tgt="32" wght="-0.546208443120122" />
        <Con id="99" src="12" tgt="34" wght="-1.9653020310215652" />
        <Con id="101" src="13" tgt="31" wght="0.800693929195404" />
        <Con id="103" src="13" tgt="33" wght="-0.98166355164721608" />
        <Con id="106" src="14" tgt="31" wght="-0.43860249919816852" />
        <Con id="108" src="14" tgt="33" wght="1.4678441686555743" />
        <Con id="112" src="15" tgt="32" wght="1.9854338839650154" />
        <Con id="113" src="15" tgt="33" wght="-2.6649615168571472" />
        <Con id="115" src="15" tgt="35" wght="2.1822364581748843" />
        <Con id="118" src="16" tgt="33" wght="2.0497207925654948" />
        <Con id="127" src="18" tgt="32" wght="3.5423912107944489" />
        <Con id="130" src="18" tgt="35" wght="0.3759805834852159" />
        <Con id="131" src="19" tgt="31" wght="-2.1157883899286389" />
        <Con id="133" src="19" tgt="33" wght="-2.6216810662299395" />
        <Con id="134" src="19" tgt="34" wght="-1.6292060259729624" />
        <Con id="135" src="19" tgt="35" wght="4.5784753793850541" />
        <Con id="136" src="20" tgt="31" wght="-2.1848993864841759" />
        <Con id="139" src="20" tgt="34" wght="-4.6950641903094947" />
        <Con id="140" src="20" tgt="35" wght="-1.5685905888676643" />
        <Con id="143" src="21" tgt="33" wght="-1.1779825459234416" />
        <Con id="145" src="21" tgt="35" wght="-3.0849446635693312" />
        <Con id="147" src="22" tgt="32" wght="-3.153895465657115" />
        <Con id="148" src="22" tgt="33" wght="2.4361809389665723" />
        <Con id="150" src="22" tgt="35" wght="0.36975649418309331" />
        <Con id="151" src="23" tgt="31" wght="-0.7430388662032783" />
        <Con id="153" src="23" tgt="33" wght="-2.18478059861809" />
        <Con id="155" src="23" tgt="35" wght="-3.9755810261704028" />
        <Con id="158" src="24" tgt="33" wght="3.8302314048632979" />
        <Con id="162" src="25" tgt="32" wght="3.1300527951680124" />
        <Con id="163" src="25" tgt="33" wght="0.15734358225017786" />
        <Con id="165" src="25" tgt="35" wght="4.0420194203034043" />
        <Con id="166" src="26" tgt="31" wght="-1.361295657698065" />
        <Con id="167" src="26" tgt="32" wght="-1.1610002513043582" />
        <Con id="169" src="26" tgt="34" wght="-4.4872946850955486" />
        <Con id="172" src="27" tgt="32" wght="-1.9252420635893941" />
        <Con id="175" src="27" tgt="35" wght="-0.59329501120373607" />
        <Con id="182" src="29" tgt="32" wght="-3.97421344416216" />
        <Con id="184" src="29" tgt="34" wght="-0.75888885883614421" />
        <Con id="186" src="30" tgt="31" wght="-0.5394608061760664" />
        <Con id="190" src="30" tgt="35" wght="-1.3145255274139345" />
      </Connections>
    </Network>
    <Network id="56" birthGen="1" fitness="0.019607948139309883">
      <Nodes>
        <Node type="bias" id="0" />
        <Node type="in" id="1" />
        <Node type="in" id="2" />
        <Node type="in" id="3" />
        <Node type="in" id="4" />
        <Node type="in" id="5" />
        <Node type="in" id="6" />
        <Node type="in" id="7" />
        <Node type="in" id="8" />
        <Node type="in" id="9" />
        <Node type="in" id="10" />
        <Node type="in" id="11" />
        <Node type="in" id="12" />
        <Node type="in" id="13" />
        <Node type="in" id="14" />
        <Node type="in" id="15" />
        <Node type="in" id="16" />
        <Node type="in" id="17" />
        <Node type="in" id="18" />
        <Node type="in" id="19" />
        <Node type="in" id="20" />
        <Node type="in" id="21" />
        <Node type="in" id="22" />
        <Node type="in" id="23" />
        <Node type="in" id="24" />
        <Node type="in" id="25" />
        <Node type="in" id="26" />
        <Node type="in" id="27" />
        <Node type="in" id="28" />
        <Node type="in" id="29" />
        <Node type="in" id="30" />
        <Node type="out" id="31" />
        <Node type="out" id="32" />
        <Node type="out" id="33" />
        <Node type="out" id="34" />
        <Node type="out" id="35" />
      </Nodes>
      <Connections>
        <Con id="39" src="0" tgt="34" wght="-3.3114482928067446" />
        <Con id="44" src="1" tgt="34" wght="-0.97264803247526288" />
        <Con id="45" src="1" tgt="35" wght="0.62752273166552186" />
        <Con id="46" src="2" tgt="31" wght="-2.8543984587304294" />
        <Con id="48" src="2" tgt="33" wght="2.0365717238746583" />
        <Con id="51" src="3" tgt="31" wght="3.7735316855832934" />
        <Con id="53" src="3" tgt="33" wght="-0.65655130194500089" />
        <Con id="54" src="3" tgt="34" wght="-4.5133599732071161" />
        <Con id="55" src="3" tgt="35" wght="-3.003048284444958" />
        <Con id="56" src="4" tgt="31" wght="4.6478005638346076" />
        <Con id="57" src="4" tgt="32" wght="-1.5075030131265521" />
        <Con id="61" src="5" tgt="31" wght="0.99653413286432624" />
        <Con id="62" src="5" tgt="32" wght="-3.6773601034656167" />
        <Con id="63" src="5" tgt="33" wght="-4.8499417724087834" />
        <Con id="67" src="6" tgt="32" wght="2.0864599850028753" />
        <Con id="69" src="6" tgt="34" wght="-1.1673646792769432" />
        <Con id="71" src="7" tgt="31" wght="3.2702803681604564" />
        <Con id="75" src="7" tgt="35" wght="-3.2397304987534881" />
        <Con id="77" src="8" tgt="32" wght="-2.7020555129274726" />
        <Con id="80" src="8" tgt="35" wght="1.44410181324929" />
        <Con id="81" src="9" tgt="31" wght="-3.0062142526730895" />
        <Con id="82" src="9" tgt="32" wght="2.8759454097598791" />
        <Con id="83" src="9" tgt="33" wght="-2.5455388776026666" />
        <Con id="84" src="9" tgt="34" wght="3.0547000747174025" />
        <Con id="85" src="9" tgt="35" wght="-1.6920059756375849" />
        <Con id="86" src="10" tgt="31" wght="3.1418828177265823" />
        <Con id="89" src="10" tgt="34" wght="-2.9857395682483912" />
        <Con id="93" src="11" tgt="33" wght="2.8020862792618573" />
