<?xml version="1.0" encoding="utf-8"?>
<Root>
  <ActivationFunctions>
    <Fn id="0" name="LogisticFunctionSteep" prob="1" />
  </ActivationFunctions>
  <Networks>
    <Network id="40" birthGen="0" fitness="0">
      <Nodes>
        <Node type="bias" id="0" />
        <Node type="in" id="1" />
        <Node type="in" id="2" />
        <Node type="in" id="3" />
        <Node type="in" id="4" />
        <Node type="in" id="5" />
        <Node type="in" id="6" />
        <Node type="in" id="7" />
        <Node type="in" id="8" />
        <Node type="in" id="9" />
        <Node type="in" id="10" />
        <Node type="in" id="11" />
        <Node type="in" id="12" />
        <Node type="in" id="13" />
        <Node type="in" id="14" />
        <Node type="in" id="15" />
        <Node type="in" id="16" />
        <Node type="in" id="17" />
        <Node type="in" id="18" />
        <Node type="in" id="19" />
        <Node type="in" id="20" />
        <Node type="in" id="21" />
        <Node type="in" id="22" />
        <Node type="in" id="23" />
        <Node type="in" id="24" />
        <Node type="in" id="25" />
        <Node type="in" id="26" />
        <Node type="in" id="27" />
        <Node type="in" id="28" />
        <Node type="in" id="29" />
        <Node type="in" id="30" />
        <Node type="out" id="31" />
        <Node type="out" id="32" />
        <Node type="out" id="33" />
        <Node type="out" id="34" />
        <Node type="out" id="35" />
      </Nodes>
      <Connections>
        <Con id="40" src="0" tgt="35" wght="2.9267186857759953" />
        <Con id="42" src="1" tgt="32" wght="4.2757320869714022" />
        <Con id="43" src="1" tgt="33" wght="4.0947023802436888" />
        <Con id="47" src="2" tgt="32" wght="-3.7841191305778921" />
        <Con id="48" src="2" tgt="33" wght="3.5605994099751115" />
        <Con id="52" src="3" tgt="32" wght="-4.0406216820701957" />
        <Con id="53" src="3" tgt="33" wght="-0.91889853123575449" />
        <Con id="57" src="4" tgt="32" wght="-0.89361639926210046" />
        <Con id="59" src="4" tgt="34" wght="-1.0554801323451102" />
        <Con id="61" src="5" tgt="31" wght="3.5204626549966633" />
        <Con id="62" src="5" tgt="32" wght="-1.4414060604758561" />
        <Con id="64" src="5" tgt="34" wght="-1.9761721813119948" />
        <Con id="65" src="5" tgt="35" wght="2.7659369027242064" />
        <Con id="66" src="6" tgt="31" wght="3.8008469250053167" />
        <Con id="68" src="6" tgt="33" wght="2.6835086639039218" />
        <Con id="69" src="6" tgt="34" wght="3.2917242078110576" />
        <Con id="70" src="6" tgt="35" wght="0.95888334792107344" />
        <Con id="73" src="7" tgt="33" wght="-1.5816121944226325" />
        <Con id="75" src="7" tgt="35" wght="4.0525254793465137" />
        <Con id="78" src="8" tgt="33" wght="0.040901724714785814" />
        <Con id="82" src="9" tgt="32" wght="3.444320852868259" />
        <Con id="85" src="9" tgt="35" wght="2.4200760223902762" />
        <Con id="92" src="11" tgt="32" wght="3.9185263961553574" />
        <Con id="93" src="11" tgt="33" wght="-2.7266538003459573" />
        <Con id="95" src="11" tgt="35" wght="0.92285454971715808" />
        <Con id="98" src="12" tgt="33" wght="4.3412418384104967" />
        <Con id="101" src="13" tgt="31" wght="3.7381878448650241" />
        <Con id="106" src="14" tgt="31" wght="-3.6296246387064457" />
        <Con id="111" src="15" tgt="31" wght="3.2412222120910883" />
        <Con id="112" src="15" tgt="32" wght="-3.2435017940588295" />
        <Con id="113" src="15" tgt="33" wght="2.345543778501451" />
        <Con id="119" src="16" tgt="34" wght="-4.8953664791770279" />
        <Con id="120" src="16" tgt="35" wght="-0.96706644864752889" />
        <Con id="129" src="18" tgt="34" wght="-0.28379063121974468" />
        <Con id="139" src="20" tgt="34" wght="-0.50515344366431236" />
        <Con id="140" src="20" tgt="35" wght="-4.7384489024989307" />
        <Con id="142" src="21" tgt="32" wght="-4.0477390703745186" />
        <Con id="145" src="21" tgt="35" wght="2.9121358832344413" />
        <Con id="148" src="22" tgt="33" wght="3.8385272049345076" />
        <Con id="149" src="22" tgt="34" wght="-2.2251604543998837" />
        <Con id="150" src="22" tgt="35" wght="3.3436026982963085" />
        <Con id="152" src="23" tgt="32" wght="1.7808910645544529" />
        <Con id="153" src="23" tgt="33" wght="-2.4142848746851087" />
        <Con id="154" src="23" tgt="34" wght="3.6241759918630123" />
        <Con id="161" src="25" tgt="31" wght="2.6054139924235642" />
        <Con id="162" src="25" tgt="32" wght="-1.2176220444962382" />
        <Con id="164" src="25" tgt="34" wght="-4.6888094744645059" />
        <Con id="167" src="26" tgt="32" wght="4.6185504295863211" />
        <Con id="168" src="26" tgt="33" wght="-4.6865845448337495" />
        <Con id="170" src="26" tgt="35" wght="-2.0066852797754109" />
        <Con id="171" src="27" tgt="31" wght="1.5361807169392705" />
        <Con id="173" src="27" tgt="33" wght="-2.1240121312439442" />
        <Con id="177" src="28" tgt="32" wght="2.400866390671581" />
        <Con id="178" src="28" tgt="33" wght="0.23920760024338961" />
        <Con id="180" src="28" tgt="35" wght="-3.6662723822519183" />
        <Con id="181" src="29" tgt="31" wght="-4.9685843172483146" />
        <Con id="184" src="29" tgt="34" wght="-1.3300958089530468" />
        <Con id="186" src="30" tgt="31" wght="-0.094121461734175682" />
        <Con id="187" src="30" tgt="32" wght="2.25563621846959" />
        <Con id="188" src="30" tgt="33" wght="1.0753410262987018" />
        <Con id="189" src="30" tgt="34" wght="0.47848523827269673" />
        <Con id="190" src="30" tgt="35" wght="-4.9809805559925735" />
      </Connections>
    </Network>
    <Network id="37" birthGen="0" fitness="0">
      <Nodes>
        <Node type="bias" id="0" />
        <Node type="in" id="1" />
        <Node type="in" id="2" />
        <Node type="in" id="3" />
        <Node type="in" id="4" />
        <Node type="in" id="5" />
        <Node type="in" id="6" />
        <Node type="in" id="7" />
        <Node type="in" id="8" />
        <Node type="in" id="9" />
        <Node type="in" id="10" />
        <Node type="in" id="11" />
        <Node type="in" id="12" />
        <Node type="in" id="13" />
        <Node type="in" id="14" />
        <Node type="in" id="15" />
        <Node type="in" id="16" />
        <Node type="in" id="17" />
        <Node type="in" id="18" />
        <Node type="in" id="19" />
        <Node type="in" id="20" />
        <Node type="in" id="21" />
        <Node type="in" id="22" />
        <Node type="in" id="23" />
        <Node type="in" id="24" />
        <Node type="in" id="25" />
        <Node type="in" id="26" />
        <Node type="in" id="27" />
        <Node type="in" id="28" />
        <Node type="in" id="29" />
        <Node type="in" id="30" />
        <Node type="out" id="31" />
        <Node type="out" id="32" />
        <Node type="out" id="33" />
        <Node type="out" id="34" />
        <Node type="out" id="35" />
      </Nodes>
      <Connections>
        <Con id="40" src="0" tgt="35" wght="0.46510322950780392" />
        <Con id="42" src="1" tgt="32" wght="-0.22612493252381682" />
        <Con id="43" src="1" tgt="33" wght="1.3600140134803951" />
        <Con id="47" src="2" tgt="32" wght="4.7994144749827683" />
        <Con id="48" src="2" tgt="33" wght="-2.5700880913063884" />
        <Con id="51" src="3" tgt="31" wght="4.5099217118695378" />
        <Con id="56" src="4" tgt="31" wght="2.5876439525745809" />
        <Con id="63" src="5" tgt="33" wght="-2.6079282048158348" />
        <Con id="64" src="5" tgt="34" wght="2.8129933518357575" />
        <Con id="66" src="6" tgt="31" wght="0.70599464001134038" />
        <Con id="71" src="7" tgt="31" wght="-2.8808463341556489" />
        <Con id="72" src="7" tgt="32" wght="3.9294942002743483" />
        <Con id="76" src="8" tgt="31" wght="3.3796131750568748" />
        <Con id="77" src="8" tgt="32" wght="4.1513365507125854" />
        <Con id="81" src="9" tgt="31" wght="-3.6754199536517262" />
        <Con id="82" src="9" tgt="32" wght="0.82567630102857947" />
        <Con id="85" src="9" tgt="35" wght="-1.2958026467822492" />
        <Con id="89" src="10" tgt="34" wght="-4.6265195170417428" />
        <Con id="90" src="10" tgt="35" wght="0.0420446484349668" />
        <Con id="91" src="11" tgt="31" wght="-4.7716660145670176" />
        <Con id="92" src="11" tgt="32" wght="-3.767097401432693" />
        <Con id="95" src="11" tgt="35" wght="-3.5596298240125179" />
        <Con id="96" src="12" tgt="31" wght="4.4788758736103773" />
        <Con id="98" src="12" tgt="33" wght="-4.0357082011178136" />
        <Con id="99" src="12" tgt="34" wght="-3.8567816955037415" />
        <Con id="102" src="13" tgt="32" wght="-0.86015744134783745" />
        <Con id="104" src="13" tgt="34" wght="0.81532698823139071" />
        <Con id="106" src="14" tgt="31" wght="0.33024629345163703" />
        <Con id="109" src="14" tgt="34" wght="4.9656675430014729" />
        <Con id="113" src="15" tgt="33" wght="-1.6528348997235298" />
        <Con id="114" src="15" tgt="34" wght="-1.1824756115674973" />
        <Con id="115" src="15" tgt="35" wght="3.6188386776484549" />
        <Con id="118" src="16" tgt="33" wght="4.0504210605286062" />
        <Con id="121" src="17" tgt="31" wght="2.21316437702626" />
        <Con id="126" src="18" tgt="31" wght="4.5672016311436892" />
        <Con id="127" src="18" tgt="32" wght="-0.628841994330287" />
        <Con id="130" src="18" tgt="35" wght="4.3022402259521186" />
        <Con id="131" src="19" tgt="31" wght="-2.762755835428834" />
        <Con id="132" src="19" tgt="32" wght="-2.5150079000741243" />
        <Con id="135" src="19" tgt="35" wght="2.7004395518451929" />
        <Con id="137" src="20" tgt="32" wght="2.0664098206907511" />
        <Con id="138" src="20" tgt="33" wght="0.40018475381657481" />
        <Con id="141" src="21" tgt="31" wght="2.2785916435532272" />
        <Con id="144" src="21" tgt="34" wght="4.6469525177963078" />
        <Con id="145" src="21" tgt="35" wght="1.1147683020681143" />
        <Con id="153" src="23" tgt="33" wght="2.5096530700102448" />
        <Con id="157" src="24" tgt="32" wght="0.815250095911324" />
        <Con id="158" src="24" tgt="33" wght="3.3267283136956394" />
        <Con id="159" src="24" tgt="34" wght="-1.26640310510993" />
        <Con id="160" src="24" tgt="35" wght="-1.4900983241386712" />
        <Con id="162" src="25" tgt="32" wght="-2.4368017702363431" />
        <Con id="163" src="25" tgt="33" wght="2.2030418599024415" />
        <Con id="166" src="26" tgt="31" wght="-4.1500962944701314" />
        <Con id="170" src="26" tgt="35" wght="-1.07224092585966" />
        <Con id="171" src="27" tgt="31" wght="-4.5565874315798283" />
        <Con id="172" src="27" tgt="32" wght="-4.0862295078113675" />
        <Con id="175" src="27" tgt="35" wght="-2.8324816934764385" />
        <Con id="179" src="28" tgt="34" wght="-1.9946419075131416" />
        <Con id="181" src="29" tgt="31" wght="0.35165106877684593" />
        <Con id="183" src="29" tgt="33" wght="-1.4198723877780139" />
        <Con id="184" src="29" tgt="34" wght="-0.48729201080277562" />
        <Con id="188" src="30" tgt="33" wght="0.72579917032271624" />
      </Connections>
    </Network>
    <Network id="35" birthGen="0" fitness="0">
      <Nodes>
        <Node type="bias" id="0" />
        <Node type="in" id="1" />
        <Node type="in" id="2" />
        <Node type="in" id="3" />
        <Node type="in" id="4" />
        <Node type="in" id="5" />
        <Node type="in" id="6" />
        <Node type="in" id="7" />
        <Node type="in" id="8" />
        <Node type="in" id="9" />
        <Node type="in" id="10" />
        <Node type="in" id="11" />
        <Node type="in" id="12" />
        <Node type="in" id="13" />
        <Node type="in" id="14" />
        <Node type="in" id="15" />
        <Node type="in" id="16" />
        <Node type="in" id="17" />
        <Node type="in" id="18" />
        <Node type="in" id="19" />
        <Node type="in" id="20" />
        <Node type="in" id="21" />
        <Node type="in" id="22" />
        <Node type="in" id="23" />
        <Node type="in" id="24" />
        <Node type="in" id="25" />
        <Node type="in" id="26" />
        <Node type="in" id="27" />
        <Node type="in" id="28" />
        <Node type="in" id="29" />
        <Node type="in" id="30" />
        <Node type="out" id="31" />
        <Node type="out" id="32" />
        <Node type="out" id="33" />
        <Node type="out" id="34" />
        <Node type="out" id="35" />
      </Nodes>
      <Connections>
        <Con id="38" src="0" tgt="33" wght="-1.365020046941936" />
        <Con id="44" src="1" tgt="34" wght="2.8849758650176227" />
        <Con id="48" src="2" tgt="33" wght="0.9745146194472909" />
        <Con id="50" src="2" tgt="35" wght="1.8488522060215473" />
        <Con id="51" src="3" tgt="31" wght="-1.4859601156786084" />
        <Con id="53" src="3" tgt="33" wght="2.8751388331875205" />
        <Con id="55" src="3" tgt="35" wght="3.1317052897065878" />
        <Con id="56" src="4" tgt="31" wght="1.3738883752375841" />
        <Con id="57" src="4" tgt="32" wght="1.5266970498487353" />
        <Con id="59" src="4" tgt="34" wght="2.6082954625599086" />
        <Con id="61" src="5" tgt="31" wght="-1.4573920238763094" />
        <Con id="62" src="5" tgt="32" wght="4.8877595877274871" />
        <Con id="70" src="6" tgt="35" wght="4.7302231076173484" />
        <Con id="71" src="7" tgt="31" wght="4.9678310821764171" />
        <Con id="73" src="7" tgt="33" wght="-0.77741621294990182" />
        <Con id="75" src="7" tgt="35" wght="-1.7179833957925439" />
        <Con id="77" src="8" tgt="32" wght="-1.9575135898776352" />
        <Con id="78" src="8" tgt="33" wght="1.4091010601259768" />
        <Con id="80" src="8" tgt="35" wght="-0.42893907055258751" />
        <Con id="81" src="9" tgt="31" wght="-0.89461546624079347" />
        <Con id="82" src="9" tgt="32" wght="2.1874420018866658" />
        <Con id="85" src="9" tgt="35" wght="4.696897438261658" />
        <Con id="88" src="10" tgt="33" wght="1.2589978775940835" />
        <Con id="91" src="11" tgt="31" wght="3.3856580452993512" />
        <Con id="92" src="11" tgt="32" wght="1.1690000514499843" />
        <Con id="96" src="12" tgt="31" wght="-1.1700226203538477" />
        <Con id="99" src="12" tgt="34" wght="-4.7330195247195661" />
        <Con id="102" src="13" tgt="32" wght="3.5948286741040647" />
        <Con id="103" src="13" tgt="33" wght="-0.69042624905705452" />
        <Con id="104" src="13" tgt="34" wght="0.17418196192011237" />
        <Con id="107" src="14" tgt="32" wght="-0.43386172270402312" />
        <Con id="109" src="14" tgt="34" wght="3.7089030235074461" />
        <Con id="112" src="15" tgt="32" wght="4.897168087773025" />
        <Con id="113" src="15" tgt="33" wght="2.4113682983443141" />
        <Con id="115" src="15" tgt="35" wght="2.5476687541231513" />
        <Con id="116" src="16" tgt="31" wght="-4.0682790894061327" />
        <Con id="117" src="16" tgt="32" wght="-3.4937679418362677" />
        <Con id="121" src="17" tgt="31" wght="3.7981197726912796" />
        <Con id="123" src="17" tgt="33" wght="-4.3720865878276527" />
        <Con id="125" src="17" tgt="35" wght="-4.829414680134505" />
        <Con id="129" src="18" tgt="34" wght="3.7108475645072758" />
        <Con id="130" src="18" tgt="35" wght="-1.5908427210524678" />
        <Con id="134" src="19" tgt="34" wght="2.662162717897445" />
        <Con id="138" src="20" tgt="33" wght="4.74933153251186" />
        <Con id="139" src="20" tgt="34" wght="1.3997506373561919" />
        <Con id="141" src="21" tgt="31" wght="2.9939272697083652" />
        <Con id="142" src="21" tgt="32" wght="-1.7076764605008066" />
        <Con id="145" src="21" tgt="35" wght="4.0880082338117063" />
        <Con id="148" src="22" tgt="33" wght="-0.083462567999958992" />
        <Con id="152" src="23" tgt="32" wght="2.7091913181357086" />
        <Con id="157" src="24" tgt="32" wght="-3.33435723092407" />
        <Con id="158" src="24" tgt="33" wght="-1.3725504418835044" />
        <Con id="160" src="24" tgt="35" wght="3.4682964673265815" />
        <Con id="162" src="25" tgt="32" wght="-1.1925489641726017" />
        <Con id="166" src="26" tgt="31" wght="0.6792321358807385" />
        <Con id="172" src="27" tgt="32" wght="3.4398651192896068" />
        <Con id="177" src="28" tgt="32" wght="1.8960433057509363" />
        <Con id="180" src="28" tgt="35" wght="1.6016739816404879" />
        <Con id="181" src="29" tgt="31" wght="-3.2048459840007126" />
        <Con id="183" src="29" tgt="33" wght="1.0008551832288504" />
        <Con id="187" src="30" tgt="32" wght="2.2101101186126471" />
        <Con id="190" src="30" tgt="35" wght="-1.9200149597600102" />
      </Connections>
    </Network>
    <Network id="36" birthGen="0" fitness="0">
      <Nodes>
        <Node type="bias" id="0" />
        <Node type="in" id="1" />
        <Node type="in" id="2" />
        <Node type="in" id="3" />
        <Node type="in" id="4" />
        <Node type="in" id="5" />
        <Node type="in" id="6" />
        <Node type="in" id="7" />
        <Node type="in" id="8" />
        <Node type="in" id="9" />
        <Node type="in" id="10" />
        <Node type="in" id="11" />
        <Node type="in" id="12" />
        <Node type="in" id="13" />
        <Node type="in" id="14" />
        <Node type="in" id="15" />
        <Node type="in" id="16" />
        <Node type="in" id="17" />
        <Node type="in" id="18" />
        <Node type="in" id="19" />
        <Node type="in" id="20" />
        <Node type="in" id="21" />
        <Node type="in" id="22" />
        <Node type="in" id="23" />
        <Node type="in" id="24" />
        <Node type="in" id="25" />
        <Node type="in" id="26" />
        <Node type="in" id="27" />
        <Node type="in" id="28" />
        <Node type="in" id="29" />
        <Node type="in" id="30" />
        <Node type="out" id="31" />
        <Node type="out" id="32" />
        <Node type="out" id="33" />
        <Node type="out" id="34" />
        <Node type="out" id="35" />
      </Nodes>
      <Connections>
        <Con id="37" src="0" tgt="32" wght="4.2315199109725654" />
        <Con id="39" src="0" tgt="34" wght="0.34504989394918084" />
        <Con id="41" src="1" tgt="31" wght="-0.48932841047644615" />
        <Con id="42" src="1" tgt="32" wght="1.8236094480380416" />
        <Con id="45" src="1" tgt="35" wght="-3.306627485435456" />
        <Con id="47" src="2" tgt="32" wght="2.8285921970382333" />
        <Con id="51" src="3" tgt="31" wght="3.9112615888006985" />
        <Con id="54" src="3" tgt="34" wght="-2.213673775549978" />
        <Con id="55" src="3" tgt="35" wght="-2.4929931946098804" />
        <Con id="62" src="5" tgt="32" wght="4.560878686606884" />
        <Con id="63" src="5" tgt="33" wght="2.9455736908130348" />
        <Con id="64" src="5" tgt="34" wght="4.8817091435194016" />
        <Con id="68" src="6" tgt="33" wght="2.4190700682811439" />
        <Con id="70" src="6" tgt="35" wght="-3.670200256165117" />
        <Con id="72" src="7" tgt="32" wght="-4.9930105963721871" />
        <Con id="74" src="7" tgt="34" wght="-2.8755861078388989" />
        <Con id="79" src="8" tgt="34" wght="1.74468532204628" />
        <Con id="82" src="9" tgt="32" wght="2.2015054919756949" />
        <Con id="85" src="9" tgt="35" wght="-4.9713989743031561" />
        <Con id="86" src="10" tgt="31" wght="-2.1236499189399183" />
        <Con id="89" src="10" tgt="34" wght="0.98143319832161069" />
        <Con id="92" src="11" tgt="32" wght="-0.029412037692964077" />
        <Con id="94" src="11" tgt="34" wght="4.9886716436594725" />
        <Con id="96" src="12" tgt="31" wght="2.5124665349721909" />
        <Con id="100" src="12" tgt="35" wght="-3.4032307239249349" />
        <Con id="111" src="15" tgt="31" wght="1.8087213416583836" />
        <Con id="114" src="15" tgt="34" wght="-2.7314263582229614" />
        <Con id="115" src="15" tgt="35" wght="-1.9847342255525291" />
        <Con id="116" src="16" tgt="31" wght="-4.9725135508924723" />
        <Con id="117" src="16" tgt="32" wght="-1.3909860793501139" />
        <Con id="122" src="17" tgt="32" wght="-0.0089296908117830753" />
        <Con id="123" src="17" tgt="33" wght="3.84157047374174" />
        <Con id="124" src="17" tgt="34" wght="4.3913231906481087" />
        <Con id="129" src="18" tgt="34" wght="2.2804859466850758" />
        <Con id="130" src="18" tgt="35" wght="-3.8035844662226737" />
        <Con id="133" src="19" tgt="33" wght="1.7667931946925819" />
        <Con id="135" src="19" tgt="35" wght="-4.6311335801146924" />
        <Con id="137" src="20" tgt="32" wght="3.8163490034639835" />
        <Con id="138" src="20" tgt="33" wght="-0.70125194033607841" />
        <Con id="140" src="20" tgt="35" wght="4.1450512362644076" />
        <Con id="142" src="21" tgt="32" wght="0.17155118752270937" />
        <Con id="144" src="21" tgt="34" wght="-3.9176132879219949" />
        <Con id="145" src="21" tgt="35" wght="-2.3691606754437089" />
        <Con id="146" src="22" tgt="31" wght="-1.8259978201240301" />
        <Con id="148" src="22" tgt="33" wght="-0.35054482752457261" />
        <Con id="153" src="23" tgt="33" wght="1.0569927119649947" />
        <Con id="154" src="23" tgt="34" wght="-3.7945375428535044" />
        <Con id="155" src="23" tgt="35" wght="-2.9143499513156712" />
        <Con id="156" src="24" tgt="31" wght="-4.5105630275793374" />
        <Con id="160" src="24" tgt="35" wght="1.6506883245892823" />
        <Con id="164" src="25" tgt="34" wght="-1.4463687012903392" />
        <Con id="165" src="25" tgt="35" wght="-1.2050839094445109" />
        <Con id="167" src="26" tgt="32" wght="-0.51139329560101032" />
        <Con id="168" src="26" tgt="33" wght="-3.9754649880342185" />
        <Con id="173" src="27" tgt="33" wght="1.3819525483995676" />
        <Con id="180" src="28" tgt="35" wght="-1.3400468020699918" />
        <Con id="182" src="29" tgt="32" wght="4.8776729428209364" />
        <Con id="183" src="29" tgt="33" wght="-2.377366058062762" />
        <Con id="184" src="29" tgt="34" wght="0.739728594198823" />
        <Con id="186" src="30" tgt="31" wght="-1.7291634366847575" />
        <Con id="189" src="30" tgt="34" wght="3.8348262617364526" />
        <Con id="190" src="30" tgt="35" wght="0.99136901320889592" />
      </Connections>
    </Network>
    <Network id="44" birthGen="0" fitness="0.1390364021062851">
      <Nodes>
        <Node type="bias" id="0" />
        <Node type="in" id="1" />
        <Node type="in" id="2" />
        <Node type="in" id="3" />
        <Node type="in" id="4" />
        <Node type="in" id="5" />
        <Node type="in" id="6" />
        <Node type="in" id="7" />
        <Node type="in" id="8" />
        <Node type="in" id="9" />
        <Node type="in" id="10" />
        <Node type="in" id="11" />
        <Node type="in" id="12" />
        <Node type="in" id="13" />
        <Node type="in" id="14" />
        <Node type="in" id="15" />
        <Node type="in" id="16" />
        <Node type="in" id="17" />
        <Node type="in" id="18" />
        <Node type="in" id="19" />
        <Node type="in" id="20" />
        <Node type="in" id="21" />
        <Node type="in" id="22" />
        <Node type="in" id="23" />
        <Node type="in" id="24" />
        <Node type="in" id="25" />
        <Node type="in" id="26" />
        <Node type="in" id="27" />
        <Node type="in" id="28" />
        <Node type="in" id="29" />
        <Node type="in" id="30" />
        <Node type="out" id="31" />
        <Node type="out" id="32" />
        <Node type="out" id="33" />
        <Node type="out" id="34" />
        <Node type="out" id="35" />
      </Nodes>
      <Connections>
        <Con id="36" src="0" tgt="31" wght="-1.1581154237501323" />
        <Con id="37" src="0" tgt="32" wght="-1.3079175027087331" />
        <Con id="42" src="1" tgt="32" wght="-3.9888789271935821" />
        <Con id="44" src="1" tgt="34" wght="2.4058564915321767" />
        <Con id="46" src="2" tgt="31" wght="-3.9587470237165689" />
        <Con id="47" src="2" tgt="32" wght="-0.17325782682746649" />
        <Con id="49" src="2" tgt="34" wght="1.7257249425165355" />
        <Con id="50" src="2" tgt="35" wght="-2.5118671311065555" />
        <Con id="53" src="3" tgt="33" wght="2.7270381944254041" />
        <Con id="57" src="4" tgt="32" wght="4.5597671973519027" />
        <Con id="58" src="4" tgt="33" wght="-2.9056778107769787" />
        <Con id="59" src="4" tgt="34" wght="-3.1832387414760888" />
        <Con id="60" src="4" tgt="35" wght="4.4280733377672732" />
        <Con id="62" src="5" tgt="32" wght="1.9166124006733298" />
        <Con id="64" src="5" tgt="34" wght="-4.5986644458025694" />
        <Con id="66" src="6" tgt="31" wght="-3.41001809341833" />
        <Con id="69" src="6" tgt="34" wght="-1.0014745825901628" />
        <Con id="71" src="7" tgt="31" wght="-3.3288089232519269" />
        <Con id="74" src="7" tgt="34" wght="3.8279857859015465" />
        <Con id="75" src="7" tgt="35" wght="-2.1993896458297968" />
        <Con id="76" src="8" tgt="31" wght="2.0306536625139415" />
        <Con id="77" src="8" tgt="32" wght="3.5651716962456703" />
        <Con id="88" src="10" tgt="33" wght="2.6658995426259935" />
        <Con id="92" src="11" tgt="32" wght="4.2979670106433332" />
        <Con id="95" src="11" tgt="35" wght="-4.9456784781068563" />
        <Con id="100" src="12" tgt="35" wght="-4.0594686497934163" />
        <Con id="102" src="13" tgt="32" wght="4.0367177501320839" />
        <Con id="103" src="13" tgt="33" wght="0.012784488499164581" />
        <Con id="105" src="13" tgt="35" wght="-2.6621723221614957" />
        <Con id="109" src="14" tgt="34" wght="-4.9149823631159961" />
        <Con id="110" src="14" tgt="35" wght="2.2572454740293324" />
        <Con id="111" src="15" tgt="31" wght="3.3493019244633615" />
        <Con id="114" src="15" tgt="34" wght="-2.2260148776695132" />
        <Con id="115" src="15" tgt="35" wght="3.3004565862938762" />
        <Con id="116" src="16" tgt="31" wght="2.4467263603582978" />
        <Con id="117" src="16" tgt="32" wght="0.60598202049732208" />
        <Con id="120" src="16" tgt="35" wght="4.1677289549261332" />
        <Con id="123" src="17" tgt="33" wght="4.2849061265587807" />
        <Con id="124" src="17" tgt="34" wght="4.294302873313427" />
        <Con id="129" src="18" tgt="34" wght="2.5260614207945764" />
        <Con id="135" src="19" tgt="35" wght="4.8850545636378229" />
        <Con id="136" src="20" tgt="31" wght="0.80569525016471744" />
        <Con id="140" src="20" tgt="35" wght="3.9382253191433847" />
        <Con id="142" src="21" tgt="32" wght="-1.1970232729800045" />
        <Con id="149" src="22" tgt="34" wght="4.6100323693826795" />
        <Con id="150" src="22" tgt="35" wght="-1.8066403409466147" />
        <Con id="153" src="23" tgt="33" wght="0.3142328723333776" />
        <Con id="154" src="23" tgt="34" wght="-1.0591519135050476" />
        <Con id="155" src="23" tgt="35" wght="-0.978336394764483" />
        <Con id="157" src="24" tgt="32" wght="2.6306658983230591" />
        <Con id="158" src="24" tgt="33" wght="1.394048307556659" />
        <Con id="165" src="25" tgt="35" wght="-0.51944463280960917" />
        <Con id="166" src="26" tgt="31" wght="1.9586691516451538" />
        <Con id="167" src="26" tgt="32" wght="2.7743186801671982" />
        <Con id="168" src="26" tgt="33" wght="2.454478912986815" />
        <Con id="170" src="26" tgt="35" wght="-4.4316704873926938" />
        <Con id="173" src="27" tgt="33" wght="2.0287903142161667" />
        <Con id="174" src="27" tgt="34" wght="-2.4496746412478387" />
        <Con id="175" src="27" tgt="35" wght="-1.906534438021481" />
        <Con id="177" src="28" tgt="32" wght="-4.563530320301652" />
        <Con id="183" src="29" tgt="33" wght="-0.13140462571755052" />
        <Con id="186" src="30" tgt="31" wght="-3.2347455178387463" />
      </Connections>
    </Network>
    <Network id="19" birthGen="0" fitness="0.034111779183149338">
      <Nodes>
        <Node type="bias" id="0" />
        <Node type="in" id="1" />
        <Node type="in" id="2" />
        <Node type="in" id="3" />
        <Node type="in" id="4" />
        <Node type="in" id="5" />
        <Node type="in" id="6" />
        <Node type="in" id="7" />
        <Node type="in" id="8" />
        <Node type="in" id="9" />
        <Node type="in" id="10" />
        <Node type="in" id="11" />
        <Node type="in" id="12" />
        <Node type="in" id="13" />
        <Node type="in" id="14" />
        <Node type="in" id="15" />
        <Node type="in" id="16" />
        <Node type="in" id="17" />
        <Node type="in" id="18" />
        <Node type="in" id="19" />
        <Node type="in" id="20" />
        <Node type="in" id="21" />
        <Node type="in" id="22" />
        <Node type="in" id="23" />
        <Node type="in" id="24" />
        <Node type="in" id="25" />
        <Node type="in" id="26" />
        <Node type="in" id="27" />
        <Node type="in" id="28" />
        <Node type="in" id="29" />
        <Node type="in" id="30" />
        <Node type="out" id="31" />
        <Node type="out" id="32" />
        <Node type="out" id="33" />
        <Node type="out" id="34" />
        <Node type="out" id="35" />
      </Nodes>
      <Connections>
        <Con id="39" src="0" tgt="34" wght="2.951351476367563" />
        <Con id="40" src="0" tgt="35" wght="-2.3639532830566168" />
        <Con id="41" src="1" tgt="31" wght="-1.2909493967890739" />
        <Con id="43" src="1" tgt="33" wght="-2.7144210366532207" />
        <Con id="48" src="2" tgt="33" wght="1.7041219375096262" />
        <Con id="50" src="2" tgt="35" wght="-4.8927014134824276" />
        <Con id="51" src="3" tgt="31" wght="3.2672505523078144" />
        <Con id="59" src="4" tgt="34" wght="0.67161953775212169" />
        <Con id="60" src="4" tgt="35" wght="-4.5929244486615062" />
        <Con id="61" src="5" tgt="31" wght="-4.2111809505149722" />
        <Con id="63" src="5" tgt="33" wght="-1.5028508007526398" />
        <Con id="66" src="6" tgt="31" wght="-1.6262484411709011" />
        <Con id="67" src="6" tgt="32" wght="3.5877980478107929" />
        <Con id="68" src="6" tgt="33" wght="-4.6115035214461386" />
        <Con id="70" src="6" tgt="35" wght="0.42697303928434849" />
        <Con id="74" src="7" tgt="34" wght="4.5112467673607171" />
        <Con id="75" src="7" tgt="35" wght="-4.8292282107286155" />
        <Con id="76" src="8" tgt="31" wght="-0.27624377282336354" />
        <Con id="77" src="8" tgt="32" wght="1.5548012359067798" />
        <Con id="78" src="8" tgt="33" wght="2.0587355853058398" />
        <Con id="79" src="8" tgt="34" wght="-3.2622525398619473" />
        <Con id="80" src="8" tgt="35" wght="-3.218222523573786" />
        <Con id="84" src="9" tgt="34" wght="-2.4882801808416843" />
        <Con id="86" src="10" tgt="31" wght="0.64905276754871011" />
        <Con id="87" src="10" tgt="32" wght="-4.3370441580191255" />
        <Con id="95" src="11" tgt="35" wght="3.1720621953718364" />
        <Con id="96" src="12" tgt="31" wght="3.1455261260271072" />
        <Con id="100" src="12" tgt="35" wght="-3.2135844556614757" />
        <Con id="101" src="13" tgt="31" wght="3.521026277448982" />
        <Con id="102" src="13" tgt="32" wght="0.83460835739970207" />
        <Con id="106" src="14" tgt="31" wght="-3.9533824915997684" />
        <Con id="108" src="14" tgt="33" wght="-3.4310877905227244" />
        <Con id="110" src="14" tgt="35" wght="2.6096090814098716" />
        <Con id="115" src="15" tgt="35" wght="2.0289395470172167" />
        <Con id="116" src="16" tgt="31" wght="1.981971263885498" />
        <Con id="121" src="17" tgt="31" wght="2.9343770421110094" />
        <Con id="126" src="18" tgt="31" wght="0.75655722292140126" />
        <Con id="130" src="18" tgt="35" wght="4.9514449248090386" />
        <Con id="133" src="19" tgt="33" wght="2.8882389515638351" />
        <Con id="135" src="19" tgt="35" wght="1.6730167670175433" />
        <Con id="136" src="20" tgt="31" wght="1.798565243370831" />
        <Con id="139" src="20" tgt="34" wght="3.4863513940945268" />
        <Con id="141" src="21" tgt="31" wght="-2.8260224615223706" />
        <Con id="143" src="21" tgt="33" wght="3.7098462344147265" />
        <Con id="144" src="21" tgt="34" wght="-1.1698376038111746" />
        <Con id="151" src="23" tgt="31" wght="-1.0706062940880656" />
        <Con id="155" src="23" tgt="35" wght="3.7462763674557209" />
        <Con id="157" src="24" tgt="32" wght="3.918468514457345" />
        <Con id="158" src="24" tgt="33" wght="-1.6854596417397261" />
        <Con id="159" src="24" tgt="34" wght="0.93605010770261288" />
        <Con id="160" src="24" tgt="35" wght="3.6506494879722595" />
        <Con id="168" src="26" tgt="33" wght="3.5794536932371557" />
        <Con id="169" src="26" tgt="34" wght="-1.2620268412865698" />
        <Con id="173" src="27" tgt="33" wght="3.1072490359656513" />
        <Con id="176" src="28" tgt="31" wght="1.22480837861076" />
        <Con id="177" src="28" tgt="32" wght="4.8972782422788441" />
        <Con id="178" src="28" tgt="33" wght="-0.92941798735409975" />
        <Con id="179" src="28" tgt="34" wght="-1.1147622065618634" />
        <Con id="181" src="29" tgt="31" wght="0.24713930441066623" />
        <Con id="187" src="30" tgt="32" wght="-4.3931574886664748" />
        <Con id="188" src="30" tgt="33" wght="0.406218976713717" />
        <Con id="189" src="30" tgt="34" wght="-0.81421357579529285" />
      </Connections>
    </Network>
    <Network id="34" birthGen="0" fitness="0">
      <Nodes>
        <Node type="bias" id="0" />
        <Node type="in" id="1" />
        <Node type="in" id="2" />
        <Node type="in" id="3" />
        <Node type="in" id="4" />
        <Node type="in" id="5" />
        <Node type="in" id="6" />
        <Node type="in" id="7" />
        <Node type="in" id="8" />
        <Node type="in" id="9" />
        <Node type="in" id="10" />
        <Node type="in" id="11" />
        <Node type="in" id="12" />
        <Node type="in" id="13" />
        <Node type="in" id="14" />
        <Node type="in" id="15" />
        <Node type="in" id="16" />
        <Node type="in" id="17" />
        <Node type="in" id="18" />
        <Node type="in" id="19" />
        <Node type="in" id="20" />
        <Node type="in" id="21" />
        <Node type="in" id="22" />
        <Node type="in" id="23" />
        <Node type="in" id="24" />
        <Node type="in" id="25" />
        <Node type="in" id="26" />
        <Node type="in" id="27" />
        <Node type="in" id="28" />
        <Node type="in" id="29" />
        <Node type="in" id="30" />
        <Node type="out" id="31" />
        <Node type="out" id="32" />
        <Node type="out" id="33" />
        <Node type="out" id="34" />
        <Node type="out" id="35" />
      </Nodes>
      <Connections>
        <Con id="40" src="0" tgt="35" wght="2.0573716657236218" />
        <Con id="42" src="1" tgt="32" wght="2.6780803664587438" />
        <Con id="43" src="1" tgt="33" wght="4.29263505153358" />
        <Con id="45" src="1" tgt="35" wght="-2.7149082394316792" />
        <Con id="47" src="2" tgt="32" wght="-2.6629246026277542" />
        <Con id="49" src="2" tgt="34" wght="4.5597692276351154" />
        <Con id="50" src="2" tgt="35" wght="-4.9327039578929543" />
        <Con id="55" src="3" tgt="35" wght="2.3098376579582691" />
        <Con id="56" src="4" tgt="31" wght="2.454874140676111" />
        <Con id="58" src="4" tgt="33" wght="2.8946395311504602" />
        <Con id="64" src="5" tgt="34" wght="0.91793737607076764" />
        <Con id="65" src="5" tgt="35" wght="3.2247745408676565" />
        <Con id="66" src="6" tgt="31" wght="-2.6533709093928337" />
        <Con id="67" src="6" tgt="32" wght="2.9156145290471613" />
        <Con id="68" src="6" tgt="33" wght="2.9654312063939869" />
        <Con id="70" src="6" tgt="35" wght="-3.9222046290524304" />
        <Con id="71" src="7" tgt="31" wght="2.5350959878414869" />
        <Con id="73" src="7" tgt="33" wght="-4.5126154785975814" />
        <Con id="79" src="8" tgt="34" wght="-3.8499027886427939" />
        <Con id="80" src="8" tgt="35" wght="0.22339389193803072" />
        <Con id="84" src="9" tgt="34" wght="0.88389988522976637" />
        <Con id="87" src="10" tgt="32" wght="-4.639997873455286" />
        <Con id="96" src="12" tgt="31" wght="1.1183373094536364" />
        <Con id="101" src="13" tgt="31" wght="-2.2415728238411248" />
        <Con id="104" src="13" tgt="34" wght="4.176265096757561" />
        <Con id="105" src="13" tgt="35" wght="-1.8682682351209223" />
        <Con id="106" src="14" tgt="31" wght="0.81500873202458024" />
        <Con id="107" src="14" tgt="32" wght="3.7262178910896182" />
        <Con id="108" src="14" tgt="33" wght="2.1344187576323748" />
        <Con id="111" src="15" tgt="31" wght="0.21120568737387657" />
        <Con id="116" src="16" tgt="31" wght="-4.4202885334379971" />
        <Con id="117" src="16" tgt="32" wght="-3.2781500136479735" />
        <Con id="122" src="17" tgt="32" wght="-3.2065296219661832" />
        <Con id="123" src="17" tgt="33" wght="-2.7991653722710907" />
        <Con id="125" src="17" tgt="35" wght="-3.6496874131262302" />
        <Con id="130" src="18" tgt="35" wght="-3.5567028168588877" />
        <Con id="133" src="19" tgt="33" wght="0.66676794784143567" />
        <Con id="137" src="20" tgt="32" wght="2.7777409320697188" />
        <Con id="142" src="21" tgt="32" wght="4.28742787335068" />
        <Con id="145" src="21" tgt="35" wght="-1.2679964280687273" />
        <Con id="146" src="22" tgt="31" wght="-2.648958102799952" />
        <Con id="147" src="22" tgt="32" wght="0.066749616526067257" />
        <Con id="148" src="22" tgt="33" wght="1.8664092174731195" />
        <Con id="151" src="23" tgt="31" wght="1.1498974985443056" />
        <Con id="152" src="23" tgt="32" wght="2.06484014634043" />
        <Con id="156" src="24" tgt="31" wght="-3.5740498336963356" />
        <Con id="159" src="24" tgt="34" wght="-3.7192867742851377" />
        <Con id="160" src="24" tgt="35" wght="-0.27020852314308286" />
        <Con id="161" src="25" tgt="31" wght="3.8981370138935745" />
        <Con id="163" src="25" tgt="33" wght="-1.6091926279477775" />
        <Con id="165" src="25" tgt="35" wght="1.5771134872920811" />
        <Con id="166" src="26" tgt="31" wght="-3.6141403624787927" />
        <Con id="167" src="26" tgt="32" wght="0.88948004879057407" />
        <Con id="168" src="26" tgt="33" wght="1.1998812877573073" />
        <Con id="172" src="27" tgt="32" wght="1.7875764705240726" />
        <Con id="173" src="27" tgt="33" wght="4.6225563320331275" />
        <Con id="174" src="27" tgt="34" wght="-4.5616563269868493" />
        <Con id="175" src="27" tgt="35" wght="-1.3703093957155943" />
        <Con id="176" src="28" tgt="31" wght="-3.678164416924119" />
        <Con id="180" src="28" tgt="35" wght="2.7087083482183516" />
        <Con id="186" src="30" tgt="31" wght="0.61104422435164452" />
        <Con id="188" src="30" tgt="33" wght="3.5749418195337057" />
      </Connections>
    </Network>
    <Network id="2" birthGen="0" fitness="0">
      <Nodes>
        <Node type="bias" id="0" />
        <Node type="in" id="1" />
        <Node type="in" id="2" />
        <Node type="in" id="3" />
        <Node type="in" id="4" />
        <Node type="in" id="5" />
        <Node type="in" id="6" />
        <Node type="in" id="7" />
        <Node type="in" id="8" />
        <Node type="in" id="9" />
        <Node type="in" id="10" />
        <Node type="in" id="11" />
        <Node type="in" id="12" />
        <Node type="in" id="13" />
        <Node type="in" id="14" />
        <Node type="in" id="15" />
        <Node type="in" id="16" />
        <Node type="in" id="17" />
        <Node type="in" id="18" />
        <Node type="in" id="19" />
        <Node type="in" id="20" />
        <Node type="in" id="21" />
        <Node type="in" id="22" />
        <Node type="in" id="23" />
        <Node type="in" id="24" />
        <Node type="in" id="25" />
        <Node type="in" id="26" />
        <Node type="in" id="27" />
        <Node type="in" id="28" />
        <Node type="in" id="29" />
        <Node type="in" id="30" />
        <Node type="out" id="31" />
        <Node type="out" id="32" />
        <Node type="out" id="33" />
        <Node type="out" id="34" />
        <Node type="out" id="35" />
      </Nodes>
      <Connections>
        <Con id="36" src="0" tgt="31" wght="-2.3385393107309937" />
        <Con id="38" src="0" tgt="33" wght="-3.6062068142928183" />
        <Con id="40" src="0" tgt="35" wght="-1.7828683718107641" />
        <Con id="42" src="1" tgt="32" wght="4.3031805893406272" />
        <Con id="44" src="1" tgt="34" wght="-0.23283569840714335" />
        <Con id="45" src="1" tgt="35" wght="2.3136064619757235" />
        <Con id="47" src="2" tgt="32" wght="2.4394471989944577" />
        <Con id="48" src="2" tgt="33" wght="2.4991818610578775" />
        <Con id="50" src="2" tgt="35" wght="-1.5675563714466989" />
        <Con id="51" src="3" tgt="31" wght="-0.82160386024042964" />
        <Con id="57" src="4" tgt="32" wght="2.0475966716185212" />
        <Con id="58" src="4" tgt="33" wght="-2.3619464016519487" />
        <Con id="63" src="5" tgt="33" wght="-0.31832266598939896" />
        <Con id="65" src="5" tgt="35" wght="3.1976929726079106" />
        <Con id="66" src="6" tgt="31" wght="-0.042578666470944881" />
        <Con id="67" src="6" tgt="32" wght="-3.0767020909115672" />
        <Con id="68" src="6" tgt="33" wght="-1.404038374312222" />
        <Con id="69" src="6" tgt="34" wght="0.69074691971763968" />
        <Con id="70" src="6" tgt="35" wght="4.315028521232307" />
        <Con id="71" src="7" tgt="31" wght="-3.0862665781751275" />
        <Con id="72" src="7" tgt="32" wght="-1.7236396437510848" />
        <Con id="74" src="7" tgt="34" wght="-0.40551461512222886" />
        <Con id="83" src="9" tgt="33" wght="4.9868188286200166" />
        <Con id="85" src="9" tgt="35" wght="0.81666416954249144" />
        <Con id="86" src="10" tgt="31" wght="1.1754938052035868" />
        <Con id="93" src="11" tgt="33" wght="-2.4645627499558032" />
        <Con id="95" src="11" tgt="35" wght="3.7517974548973143" />
        <Con id="96" src="12" tgt="31" wght="-2.2419797210022807" />
        <Con id="97" src="12" tgt="32" wght="-2.917754037771374" />
        <Con id="98" src="12" tgt="33" wght="-0.10417674668133259" />
        <Con id="101" src="13" tgt="31" wght="-1.5335014462471008" />
        <Con id="102" src="13" tgt="32" wght="-2.29824181413278" />
        <Con id="103" src="13" tgt="33" wght="0.75804254971444607" />
        <Con id="105" src="13" tgt="35" wght="2.4260121281258762" />
        <Con id="106" src="14" tgt="31" wght="4.3463459517806768" />
        <Con id="108" src="14" tgt="33" wght="3.5338688362389803" />
        <Con id="109" src="14" tgt="34" wght="3.2508755405433476" />
        <Con id="110" src="14" tgt="35" wght="-4.6345057338476181" />
        <Con id="115" src="15" tgt="35" wght="-1.2443687091581523" />
        <Con id="116" src="16" tgt="31" wght="4.9999737623147666" />
        <Con id="117" src="16" tgt="32" wght="3.0297680431976914" />
        <Con id="118" src="16" tgt="33" wght="-1.1148871155455709" />
        <Con id="121" src="17" tgt="31" wght="3.303285741712898" />
        <Con id="122" src="17" tgt="32" wght="0.64175374107435346" />
        <Con id="125" src="17" tgt="35" wght="3.4878127323463559" />
        <Con id="126" src="18" tgt="31" wght="-1.1061602691188455" />
        <Con id="128" src="18" tgt="33" wght="4.8474187077954412" />
        <Con id="129" src="18" tgt="34" wght="3.6715011624619365" />
        <Con id="130" src="18" tgt="35" wght="2.2608766844496131" />
        <Con id="131" src="19" tgt="31" wght="-4.2962303082458675" />
        <Con id="136" src="20" tgt="31" wght="-1.5031721745617688" />
        <Con id="145" src="21" tgt="35" wght="0.60980623122304678" />
        <Con id="147" src="22" tgt="32" wght="3.3883179142139852" />
        <Con id="154" src="23" tgt="34" wght="4.2093345196917653" />
        <Con id="156" src="24" tgt="31" wght="-2.0389187359251082" />
        <Con id="159" src="24" tgt="34" wght="3.1538530276156962" />
        <Con id="170" src="26" tgt="35" wght="1.609650170430541" />
        <Con id="173" src="27" tgt="33" wght="-1.8774998420849442" />
        <Con id="177" src="28" tgt="32" wght="0.22786002838984132" />
        <Con id="180" src="28" tgt="35" wght="0.23354161065071821" />
        <Con id="183" src="29" tgt="33" wght="1.5824107034131885" />
        <Con id="185" src="29" tgt="35" wght="-1.2301831925287843" />
      </Connections>
    </Network>
    <Network id="23" birthGen="0" fitness="0">
      <Nodes>
        <Node type="bias" id="0" />
        <Node type="in" id="1" />
        <Node type="in" id="2" />
        <Node type="in" id="3" />
        <Node type="in" id="4" />
        <Node type="in" id="5" />
        <Node type="in" id="6" />
        <Node type="in" id="7" />
        <Node type="in" id="8" />
        <Node type="in" id="9" />
        <Node type="in" id="10" />
        <Node type="in" id="11" />
        <Node type="in" id="12" />
        <Node type="in" id="13" />
        <Node type="in" id="14" />
        <Node type="in" id="15" />
        <Node type="in" id="16" />
        <Node type="in" id="17" />
        <Node type="in" id="18" />
        <Node type="in" id="19" />
        <Node type="in" id="20" />
        <Node type="in" id="21" />
        <Node type="in" id="22" />
        <Node type="in" id="23" />
        <Node type="in" id="24" />
        <Node type="in" id="25" />
        <Node type="in" id="26" />
        <Node type="in" id="27" />
        <Node type="in" id="28" />
        <Node type="in" id="29" />
        <Node type="in" id="30" />
        <Node type="out" id="31" />
        <Node type="out" id="32" />
        <Node type="out" id="33" />
        <Node type="out" id="34" />
        <Node type="out" id="35" />
      </Nodes>
      <Connections>
        <Con id="37" src="0" tgt="32" wght="-4.8742470145225525" />
        <Con id="39" src="0" tgt="34" wght="3.7771698995493352" />
        <Con id="40" src="0" tgt="35" wght="-3.377713777590543" />
        <Con id="42" src="1" tgt="32" wght="4.95016053551808" />
        <Con id="47" src="2" tgt="32" wght="-4.7095930390059948" />
        <Con id="49" src="2" tgt="34" wght="-1.0198251879774034" />
        <Con id="53" src="3" tgt="33" wght="3.637675940990448" />
        <Con id="56" src="4" tgt="31" wght="-2.8209063201211393" />
        <Con id="62" src="5" tgt="32" wght="1.0401727608405054" />
        <Con id="63" src="5" tgt="33" wght="2.8001955663785338" />
        <Con id="66" src="6" tgt="31" wght="3.5030369041487575" />
        <Con id="69" src="6" tgt="34" wght="1.8800359731540084" />
        <Con id="71" src="7" tgt="31" wght="0.019266982562839985" />
        <Con id="73" src="7" tgt="33" wght="3.75391473993659" />
        <Con id="76" src="8" tgt="31" wght="1.1889485130086541" />
        <Con id="77" src="8" tgt="32" wght="-1.178555958904326" />
        <Con id="78" src="8" tgt="33" wght="-0.97567024640738964" />
        <Con id="79" src="8" tgt="34" wght="-2.1323734195902944" />
        <Con id="83" src="9" tgt="33" wght="4.2780305747874081" />
        <Con id="84" src="9" tgt="34" wght="0.90136894257739186" />
        <Con id="85" src="9" tgt="35" wght="-0.83351940847933292" />
        <Con id="89" src="10" tgt="34" wght="4.1958398767746985" />
        <Con id="96" src="12" tgt="31" wght="-2.457462539896369" />
        <Con id="99" src="12" tgt="34" wght="-3.5738069610670209" />
        <Con id="106" src="14" tgt="31" wght="-2.192207002080977" />
        <Con id="107" src="14" tgt="32" wght="3.1172650679945946" />
        <Con id="111" src="15" tgt="31" wght="-1.0205838968977332" />
        <Con id="114" src="15" tgt="34" wght="2.330124753061682" />
        <Con id="115" src="15" tgt="35" wght="3.6181507515721023" />
        <Con id="117" src="16" tgt="32" wght="-1.7728647356852889" />
        <Con id="121" src="17" tgt="31" wght="0.49902222817763686" />
        <Con id="125" src="17" tgt="35" wght="-3.2375835510902107" />
        <Con id="128" src="18" tgt="33" wght="0.68847221089527011" />
        <Con id="130" src="18" tgt="35" wght="-2.643397836945951" />
        <Con id="131" src="19" tgt="31" wght="-1.2534455535933375" />
        <Con id="132" src="19" tgt="32" wght="2.9629312898032367" />
        <Con id="134" src="19" tgt="34" wght="-2.6766964257694781" />
        <Con id="138" src="20" tgt="33" wght="1.1512373643927276" />
        <Con id="145" src="21" tgt="35" wght="1.3727311417460442" />
        <Con id="146" src="22" tgt="31" wght="-2.8394791507162154" />
        <Con id="148" src="22" tgt="33" wght="-3.4975572675466537" />
        <Con id="150" src="22" tgt="35" wght="-1.3140425784513354" />
        <Con id="151" src="23" tgt="31" wght="-2.4530868837609887" />
        <Con id="152" src="23" tgt="32" wght="3.4386684908531606" />
        <Con id="154" src="23" tgt="34" wght="-1.1222292040474713" />
        <Con id="158" src="24" tgt="33" wght="-4.0087616094388068" />
        <Con id="159" src="24" tgt="34" wght="3.5998676344752312" />
        <Con id="160" src="24" tgt="35" wght="4.3296788726001978" />
        <Con id="162" src="25" tgt="32" wght="4.0166497766040266" />
        <Con id="164" src="25" tgt="34" wght="1.9699942413717508" />
        <Con id="166" src="26" tgt="31" wght="3.8391357567161322" />
        <Con id="170" src="26" tgt="35" wght="4.1452089953236282" />
        <Con id="172" src="27" tgt="32" wght="0.40067691588774323" />
        <Con id="176" src="28" tgt="31" wght="4.8175323731265962" />
        <Con id="177" src="28" tgt="32" wght="1.4652843261137605" />
        <Con id="179" src="28" tgt="34" wght="-3.7224856531247497" />
        <Con id="182" src="29" tgt="32" wght="-4.4748798571527" />
        <Con id="183" src="29" tgt="33" wght="-3.2641890994273126" />
        <Con id="185" src="29" tgt="35" wght="2.2968924581073225" />
        <Con id="187" src="30" tgt="32" wght="2.2890508943237364" />
        <Con id="188" src="30" tgt="33" wght="-1.0768660018220544" />
        <Con id="189" src="30" tgt="34" wght="0.5659611732698977" />
      </Connections>
    </Network>
    <Network id="11" birthGen="0" fitness="0">
      <Nodes>
        <Node type="bias" id="0" />
        <Node type="in" id="1" />
        <Node type="in" id="2" />
        <Node type="in" id="3" />
        <Node type="in" id="4" />
        <Node type="in" id="5" />
        <Node type="in" id="6" />
        <Node type="in" id="7" />
        <Node type="in" id="8" />
        <Node type="in" id="9" />
        <Node type="in" id="10" />
        <Node type="in" id="11" />
        <Node type="in" id="12" />
        <Node type="in" id="13" />
        <Node type="in" id="14" />
        <Node type="in" id="15" />
        <Node type="in" id="16" />
        <Node type="in" id="17" />
        <Node type="in" id="18" />
        <Node type="in" id="19" />
        <Node type="in" id="20" />
        <Node type="in" id="21" />
        <Node type="in" id="22" />
        <Node type="in" id="23" />
        <Node type="in" id="24" />
        <Node type="in" id="25" />
        <Node type="in" id="26" />
        <Node type="in" id="27" />
        <Node type="in" id="28" />
        <Node type="in" id="29" />
        <Node type="in" id="30" />
        <Node type="out" id="31" />
        <Node type="out" id="32" />
        <Node type="out" id="33" />
        <Node type="out" id="34" />
        <Node type="out" id="35" />
      </Nodes>
      <Connections>
        <Con id="38" src="0" tgt="33" wght="1.9490487594157457" />
        <Con id="39" src="0" tgt="34" wght="-0.24492120603099465" />
        <Con id="40" src="0" tgt="35" wght="-2.2308576782234013" />
        <Con id="46" src="2" tgt="31" wght="-0.65747787477448583" />
        <Con id="52" src="3" tgt="32" wght="3.2909004297107458" />
        <Con id="53" src="3" tgt="33" wght="-1.5828770049847662" />
        <Con id="54" src="3" tgt="34" wght="-4.3091310444287956" />
        <Con id="57" src="4" tgt="32" wght="-1.1728472518734634" />
        <Con id="59" src="4" tgt="34" wght="0.87275601690635085" />
        <Con id="63" src="5" tgt="33" wght="-2.6229113596491516" />
        <Con id="67" src="6" tgt="32" wght="3.5468701901845634" />
        <Con id="69" src="6" tgt="34" wght="-4.9990333709865808" />
        <Con id="73" src="7" tgt="33" wght="-1.6160929156467319" />
        <Con id="75" src="7" tgt="35" wght="4.40503187244758" />
        <Con id="76" src="8" tgt="31" wght="0.019760869909077883" />
        <Con id="77" src="8" tgt="32" wght="-4.5981857576407492" />
        <Con id="83" src="9" tgt="33" wght="-1.7507443577051163" />
        <Con id="85" src="9" tgt="35" wght="4.4558115652762353" />
        <Con id="89" src="10" tgt="34" wght="2.6992786978371441" />
        <Con id="91" src="11" tgt="31" wght="-1.9426875561475754" />
        <Con id="92" src="11" tgt="32" wght="3.6336895264685154" />
        <Con id="96" src="12" tgt="31" wght="2.4959617829881608" />
        <Con id="100" src="12" tgt="35" wght="2.2439909284003079" />
        <Con id="103" src="13" tgt="33" wght="3.1290870788507164" />
        <Con id="104" src="13" tgt="34" wght="-2.2657696763053536" />
        <Con id="108" src="14" tgt="33" wght="-1.9808032014407218" />
        <Con id="109" src="14" tgt="34" wght="2.5458220834843814" />
        <Con id="115" src="15" tgt="35" wght="0.24105917196720839" />
        <Con id="116" src="16" tgt="31" wght="-3.5632923082448542" />
        <Con id="118" src="16" tgt="33" wght="-0.0067839864641427994" />
        <Con id="123" src="17" tgt="33" wght="-4.8905748943798244" />
        <Con id="124" src="17" tgt="34" wght="-1.5146950725466013" />
        <Con id="128" src="18" tgt="33" wght="3.9382648747414351" />
        <Con id="133" src="19" tgt="33" wght="1.443906775675714" />
        <Con id="135" src="19" tgt="35" wght="4.7117556794546545" />
        <Con id="136" src="20" tgt="31" wght="0.21259480156004429" />
        <Con id="140" src="20" tgt="35" wght="0.64357044408097863" />
        <Con id="141" src="21" tgt="31" wght="0.37714601960033178" />
        <Con id="142" src="21" tgt="32" wght="0.12182654812932014" />
        <Con id="147" src="22" tgt="32" wght="-2.6115604233928025" />
        <Con id="149" src="22" tgt="34" wght="-3.9174145832657814" />
        <Con id="151" src="23" tgt="31" wght="-3.1340163899585605" />
        <Con id="152" src="23" tgt="32" wght="-3.2826570188626647" />
        <Con id="153" src="23" tgt="33" wght="-4.1845971345901489" />
        <Con id="155" src="23" tgt="35" wght="1.8718969100154936" />
        <Con id="156" src="24" tgt="31" wght="-0.41272192727774382" />
        <Con id="157" src="24" tgt="32" wght="3.6168782459571958" />
        <Con id="158" src="24" tgt="33" wght="4.1888100234791636" />
        <Con id="159" src="24" tgt="34" wght="2.4531961116008461" />
        <Con id="161" src="25" tgt="31" wght="-0.66981343785300851" />
        <Con id="163" src="25" tgt="33" wght="2.7113947179168463" />
        <Con id="164" src="25" tgt="34" wght="4.8773015872575343" />
        <Con id="168" src="26" tgt="33" wght="-0.90497150551527739" />
        <Con id="169" src="26" tgt="34" wght="-3.4968460630625486" />
        <Con id="170" src="26" tgt="35" wght="-4.0697182947769761" />
        <Con id="174" src="27" tgt="34" wght="2.757552566472441" />
        <Con id="176" src="28" tgt="31" wght="2.1229158993810415" />
        <Con id="181" src="29" tgt="31" wght="4.1434080363251269" />
        <Con id="184" src="29" tgt="34" wght="-1.0531298420391977" />
        <Con id="185" src="29" tgt="35" wght="-3.1973447557538748" />
        <Con id="188" src="30" tgt="33" wght="-1.78885193541646" />
        <Con id="190" src="30" tgt="35" wght="0.17662228550761938" />
      </Connections>
    </Network>
    <Network id="50" birthGen="1" fitness="0.15345665812492371">
      <Nodes>
        <Node type="bias" id="0" />
        <Node type="in" id="1" />
        <Node type="in" id="2" />
        <Node type="in" id="3" />
        <Node type="in" id="4" />
        <Node type="in" id="5" />
        <Node type="in" id="6" />
        <Node type="in" id="7" />
        <Node type="in" id="8" />
        <Node type="in" id="9" />
        <Node type="in" id="10" />
        <Node type="in" id="11" />
        <Node type="in" id="12" />
        <Node type="in" id="13" />
        <Node type="in" id="14" />
        <Node type="in" id="15" />
        <Node type="in" id="16" />
        <Node type="in" id="17" />
        <Node type="in" id="18" />
        <Node type="in" id="19" />
        <Node type="in" id="20" />
        <Node type="in" id="21" />
        <Node type="in" id="22" />
        <Node type="in" id="23" />
        <Node type="in" id="24" />
        <Node type="in" id="25" />
        <Node type="in" id="26" />
        <Node type="in" id="27" />
        <Node type="in" id="28" />
        <Node type="in" id="29" />
        <Node type="in" id="30" />
        <Node type="out" id="31" />
        <Node type="out" id="32" />
        <Node type="out" id="33" />
        <Node type="out" id="34" />
        <Node type="out" id="35" />
      </Nodes>
      <Connections>
        <Con id="38" src="0" tgt="33" wght="-0.81324772210791707" />
        <Con id="40" src="0" tgt="35" wght="0.80415958305820823" />
        <Con id="41" src="1" tgt="31" wght="-1.6733211278915405" />
        <Con id="42" src="1" tgt="32" wght="4.963892106898129" />
        <Con id="43" src="1" tgt="33" wght="-0.84189802641049027" />
        <Con id="48" src="2" tgt="33" wght="-3.633763964753598" />
        <Con id="50" src="2" tgt="35" wght="-4.2735985177569091" />
        <Con id="55" src="3" tgt="35" wght="4.3738876935094595" />
        <Con id="56" src="4" tgt="31" wght="-3.1117219245061278" />
        <Con id="57" src="4" tgt="32" wght="4.3095692247152328" />
        <Con id="60" src="4" tgt="35" wght="4.0233569988049567" />
        <Con id="62" src="5" tgt="32" wght="4.63538589887321" />
        <Con id="65" src="5" tgt="35" wght="-3.3541011763736606" />
        <Con id="68" src="6" tgt="33" wght="3.661779121030122" />
        <Con id="69" src="6" tgt="34" wght="-2.4221736448816955" />
        <Con id="72" src="7" tgt="32" wght="2.8525009471923113" />
        <Con id="78" src="8" tgt="33" wght="-4.8461565468460321" />
        <Con id="82" src="9" tgt="32" wght="2.4350689491257071" />
        <Con id="84" src="9" tgt="34" wght="4.2333787307143211" />
        <Con id="85" src="9" tgt="35" wght="-2.8293482586741447" />
        <Con id="86" src="10" tgt="31" wght="-0.53351369220763445" />
        <Con id="93" src="11" tgt="33" wght="3.1384860607795417" />
        <Con id="100" src="12" tgt="35" wght="-3.1733223795890808" />
        <Con id="102" src="13" tgt="32" wght="2.4012139532715082" />
        <Con id="105" src="13" tgt="35" wght="3.8656123611144722" />
        <Con id="108" src="14" tgt="33" wght="-0.47083119163289666" />
        <Con id="109" src="14" tgt="34" wght="-0.69475245662033558" />
        <Con id="111" src="15" tgt="31" wght="-4.7224353393539786" />
        <Con id="112" src="15" tgt="32" wght="0.99517754977568984" />
        <Con id="114" src="15" tgt="34" wght="3.8760130503214896" />
        <Con id="118" src="16" tgt="33" wght="2.1852452284656465" />
        <Con id="120" src="16" tgt="35" wght="-1.3158380566164851" />
        <Con id="121" src="17" tgt="31" wght="-4.8780297744087875" />
        <Con id="122" src="17" tgt="32" wght="-0.953616148326546" />
        <Con id="123" src="17" tgt="33" wght="4.9384820647537708" />
        <Con id="126" src="18" tgt="31" wght="1.1432815808802843" />
        <Con id="127" src="18" tgt="32" wght="-4.4459717767313123" />
        <Con id="128" src="18" tgt="33" wght="-2.2438269224949181" />
        <Con id="129" src="18" tgt="34" wght="-4.040818193461746" />
        <Con id="135" src="19" tgt="35" wght="3.21542882360518" />
        <Con id="141" src="21" tgt="31" wght="0.69906157479690645" />
        <Con id="145" src="21" tgt="35" wght="4.9927488714456558" />
        <Con id="149" src="22" tgt="34" wght="0.030862423591315746" />
        <Con id="150" src="22" tgt="35" wght="0.35333215026184916" />
        <Con id="151" src="23" tgt="31" wght="2.6329750823788345" />
        <Con id="154" src="23" tgt="34" wght="4.15714513277635" />
        <Con id="156" src="24" tgt="31" wght="-0.18445924390107393" />
        <Con id="157" src="24" tgt="32" wght="-3.7949245190247893" />
        <Con id="160" src="24" tgt="35" wght="-2.105894589331001" />
        <Con id="161" src="25" tgt="31" wght="-2.6376891369000077" />
        <Con id="163" src="25" tgt="33" wght="-4.908967362716794" />
        <Con id="164" src="25" tgt="34" wght="4.0704663190990686" />
        <Con id="167" src="26" tgt="32" wght="-1.5107468492351472" />
        <Con id="168" src="26" tgt="33" wght="0.37545682862401009" />
        <Con id="171" src="27" tgt="31" wght="-0.28854593867436051" />
        <Con id="174" src="27" tgt="34" wght="-1.6261668014340103" />
        <Con id="176" src="28" tgt="31" wght="-1.3859525322914124" />
        <Con id="179" src="28" tgt="34" wght="-0.0677133584395051" />
        <Con id="181" src="29" tgt="31" wght="-2.20942449523136" />
        <Con id="183" src="29" tgt="33" wght="4.3886579549871385" />
        <Con id="185" src="29" tgt="35" wght="3.1000133068300784" />
        <Con id="188" src="30" tgt="33" wght="-0.74419674463570118" />
      </Connections>
    </Network>
    <Network id="51" birthGen="1" fitness="0.10075011849403381">
      <Nodes>
        <Node type="bias" id="0" />
        <Node type="in" id="1" />
        <Node type="in" id="2" />
        <Node type="in" id="3" />
        <Node type="in" id="4" />
        <Node type="in" id="5" />
        <Node type="in" id="6" />
        <Node type="in" id="7" />
        <Node type="in" id="8" />
        <Node type="in" id="9" />
        <Node type="in" id="10" />
        <Node type="in" id="11" />
        <Node type="in" id="12" />
        <Node type="in" id="13" />
        <Node type="in" id="14" />
        <Node type="in" id="15" />
        <Node type="in" id="16" />
        <Node type="in" id="17" />
        <Node type="in" id="18" />
        <Node type="in" id="19" />
        <Node type="in" id="20" />
        <Node type="in" id="21" />
        <Node type="in" id="22" />
        <Node type="in" id="23" />
        <Node type="in" id="24" />
        <Node type="in" id="25" />
        <Node type="in" id="26" />
        <Node type="in" id="27" />
        <Node type="in" id="28" />
        <Node type="in" id="29" />
        <Node type="in" id="30" />
        <Node type="out" id="31" />
        <Node type="out" id="32" />
        <Node type="out" id="33" />
        <Node type="out" id="34" />
        <Node type="out" id="35" />
      </Nodes>
      <Connections>
        <Con id="40" src="0" tgt="35" wght="0.46510322950780392" />
        <Con id="42" src="1" tgt="32" wght="-0.22612493252381682" />
        <Con id="43" src="1" tgt="33" wght="1.3600140134803951" />
        <Con id="47" src="2" tgt="32" wght="4.7994144749827683" />
        <Con id="48" src="2" tgt="33" wght="-2.5700880913063884" />
        <Con id="51" src="3" tgt="31" wght="4.5099217118695378" />
        <Con id="56" src="4" tgt="31" wght="2.5876439525745809" />
        <Con id="63" src="5" tgt="33" wght="-2.6079282048158348" />
        <Con id="64" src="5" tgt="34" wght="2.8129933518357575" />
        <Con id="66" src="6" tgt="31" wght="0.70599464001134038" />
        <Con id="71" src="7" tgt="31" wght="-2.8808463341556489" />
        <Con id="72" src="7" tgt="32" wght="3.9294942002743483" />
        <Con id="76" src="8" tgt="31" wght="3.3796131750568748" />
        <Con id="77" src="8" tgt="32" wght="4.1513365507125854" />
        <Con id="81" src="9" tgt="31" wght="-3.6754199536517262" />
        <Con id="82" src="9" tgt="32" wght="0.82567630102857947" />
        <Con id="85" src="9" tgt="35" wght="-1.2958026467822492" />
        <Con id="89" src="10" tgt="34" wght="-4.6265195170417428" />
        <Con id="90" src="10" tgt="35" wght="0.0420446484349668" />
        <Con id="91" src="11" tgt="31" wght="-4.7716660145670176" />
        <Con id="92" src="11" tgt="32" wght="-3.767097401432693" />
        <Con id="95" src="11" tgt="35" wght="-3.5596298240125179" />
        <Con id="96" src="12" tgt="31" wght="4.4788758736103773" />
        <Con id="98" src="12" tgt="33" wght="-4.0357082011178136" />
        <Con id="99" src="12" tgt="34" wght="-3.8567816955037415" />
        <Con id="102" src="13" tgt="32" wght="-0.86015744134783745" />
        <Con id="104" src="13" tgt="34" wght="0.81532698823139071" />
        <Con id="106" src="14" tgt="31" wght="0.33024629345163703" />
        <Con id="109" src="14" tgt="34" wght="4.9656675430014729" />
        <Con id="113" src="15" tgt="33" wght="-1.6528348997235298" />
        <Con id="114" src="15" tgt="34" wght="-1.1824756115674973" />
        <Con id="115" src="15" tgt="35" wght="3.6188386776484549" />
        <Con id="118" src="16" tgt="33" wght="4.0504210605286062" />
        <Con id="121" src="17" tgt="31" wght="2.21316437702626" />
        <Con id="126" src="18" tgt="31" wght="4.5672016311436892" />
        <Con id="127" src="18" tgt="32" wght="-0.628841994330287" />
        <Con id="130" src="18" tgt="35" wght="4.3022402259521186" />
        <Con id="131" src="19" tgt="31" wght="-2.762755835428834" />
        <Con id="132" src="19" tgt="32" wght="-2.5150079000741243" />
        <Con id="135" src="19" tgt="35" wght="2.7004395518451929" />
        <Con id="137" src="20" tgt="32" wght="2.0664098206907511" />
        <Con id="138" src="20" tgt="33" wght="0.40018475381657481" />
        <Con id="141" src="21" tgt="31" wght="2.2785916435532272" />
        <Con id="144" src="21" tgt="34" wght="4.6469525177963078" />
        <Con id="145" src="21" tgt="35" wght="1.1147683020681143" />
        <Con id="153" src="23" tgt="33" wght="2.5096530700102448" />
        <Con id="157" src="24" tgt="32" wght="0.815250095911324" />
        <Con id="158" src="24" tgt="33" wght="3.3267283136956394" />
        <Con id="159" src="24" tgt="34" wght="-1.26640310510993" />
        <Con id="160" src="24" tgt="35" wght="-1.4900983241386712" />
        <Con id="162" src="25" tgt="32" wght="-2.4368017702363431" />
        <Con id="163" src="25" tgt="33" wght="2.2030418599024415" />
        <Con id="166" src="26" tgt="31" wght="-4.1500962944701314" />
        <Con id="170" src="26" tgt="35" wght="-1.07224092585966" />
        <Con id="171" src="27" tgt="31" wght="-4.5565874315798283" />
        <Con id="172" src="27" tgt="32" wght="-4.0862295078113675" />
        <Con id="175" src="27" tgt="35" wght="-2.8324816934764385" />
        <Con id="179" src="28" tgt="34" wght="-1.9946419075131416" />
        <Con id="181" src="29" tgt="31" wght="0.35165106877684593" />
        <Con id="183" src="29" tgt="33" wght="-1.4198723877780139" />
        <Con id="184" src="29" tgt="34" wght="-0.48729201080277562" />
        <Con id="188" src="30" tgt="33" wght="0.72579917032271624" />
        <Con id="191" src="28" tgt="35" wght="0.043294828175567089" />
      </Connections>
    </Network>
    <Network id="52" birthGen="1" fitness="0">
      <Nodes>
        <Node type="bias" id="0" />
        <Node type="in" id="1" />
        <Node type="in" id="2" />
        <Node type="in" id="3" />
        <Node type="in" id="4" />
        <Node type="in" id="5" />
        <Node type="in" id="6" />
        <Node type="in" id="7" />
        <Node type="in" id="8" />
        <Node type="in" id="9" />
        <Node type="in" id="10" />
        <Node type="in" id="11" />
        <Node type="in" id="12" />
        <Node type="in" id="13" />
        <Node type="in" id="14" />
        <Node type="in" id="15" />
        <Node type="in" id="16" />
        <Node type="in" id="17" />
        <Node type="in" id="18" />
        <Node type="in" id="19" />
        <Node type="in" id="20" />
        <Node type="in" id="21" />
        <Node type="in" id="22" />
        <Node type="in" id="23" />
        <Node type="in" id="24" />
        <Node type="in" id="25" />
        <Node type="in" id="26" />
        <Node type="in" id="27" />
        <Node type="in" id="28" />
        <Node type="in" id="29" />
        <Node type="in" id="30" />
        <Node type="out" id="31" />
        <Node type="out" id="32" />
        <Node type="out" id="33" />
        <Node type="out" id="34" />
        <Node type="out" id="35" />
      </Nodes>
      <Connections>
        <Con id="40" src="0" tgt="35" wght="0.46322118785387534" />
        <Con id="42" src="1" tgt="32" wght="-0.22612493252381682" />
        <Con id="43" src="1" tgt="33" wght="1.3600140134803951" />
        <Con id="47" src="2" tgt="32" wght="4.7994144749827683" />
        <Con id="48" src="2" tgt="33" wght="-2.5700880913063884" />
        <Con id="51" src="3" tgt="31" wght="4.5099217118695378" />
        <Con id="56" src="4" tgt="31" wght="2.5876439525745809" />
        <Con id="63" src="5" tgt="33" wght="-2.6079282048158348" />
        <Con id="64" src="5" tgt="34" wght="2.8129933518357575" />
        <Con id="66" src="6" tgt="31" wght="0.70599464001134038" />
        <Con id="71" src="7" tgt="31" wght="-2.8808463341556489" />
        <Con id="72" src="7" tgt="32" wght="3.9294942002743483" />
        <Con id="76" src="8" tgt="31" wght="3.3796131750568748" />
        <Con id="77" src="8" tgt="32" wght="4.1513365507125854" />
        <Con id="81" src="9" tgt="31" wght="-3.6754199536517262" />
        <Con id="82" src="9" tgt="32" wght="0.82567630102857947" />
        <Con id="85" src="9" tgt="35" wght="-1.2958026467822492" />
        <Con id="89" src="10" tgt="34" wght="-4.6265195170417428" />
        <Con id="90" src="10" tgt="35" wght="0.0420446484349668" />
        <Con id="91" src="11" tgt="31" wght="-4.7716660145670176" />
        <Con id="92" src="11" tgt="32" wght="-3.767097401432693" />
        <Con id="95" src="11" tgt="35" wght="-3.5596298240125179" />
        <Con id="96" src="12" tgt="31" wght="4.4788758736103773" />
        <Con id="98" src="12" tgt="33" wght="-4.0357082011178136" />
        <Con id="99" src="12" tgt="34" wght="-3.8567816955037415" />
        <Con id="102" src="13" tgt="32" wght="-0.86015744134783745" />
        <Con id="104" src="13" tgt="34" wght="0.81532698823139071" />
        <Con id="106" src="14" tgt="31" wght="0.33024629345163703" />
        <Con id="109" src="14" tgt="34" wght="4.9656675430014729" />
        <Con id="113" src="15" tgt="33" wght="-1.6528348997235298" />
        <Con id="114" src="15" tgt="34" wght="-1.1824756115674973" />
        <Con id="115" src="15" tgt="35" wght="3.6188386776484549" />
        <Con id="118" src="16" tgt="33" wght="4.0504210605286062" />
        <Con id="121" src="17" tgt="31" wght="2.21316437702626" />
        <Con id="126" src="18" tgt="31" wght="4.5672016311436892" />
        <Con id="127" src="18" tgt="32" wght="-0.628841994330287" />
        <Con id="130" src="18" tgt="35" wght="4.3089945463100037" />
        <Con id="131" src="19" tgt="31" wght="-2.762755835428834" />
        <Con id="132" src="19" tgt="32" wght="-2.5150079000741243" />
        <Con id="135" src="19" tgt="35" wght="2.7004395518451929" />
        <Con id="137" src="20" tgt="32" wght="2.0664098206907511" />
        <Con id="138" src="20" tgt="33" wght="0.40018475381657481" />
        <Con id="141" src="21" tgt="31" wght="2.2785916435532272" />
        <Con id="144" src="21" tgt="34" wght="4.6469525177963078" />
        <Con id="145" src="21" tgt="35" wght="1.1147683020681143" />
        <Con id="153" src="23" tgt="33" wght="2.5096530700102448" />
        <Con id="157" src="24" tgt="32" wght="0.815250095911324" />
        <Con id="158" src="24" tgt="33" wght="3.3267283136956394" />
        <Con id="159" src="24" tgt="34" wght="-1.26640310510993" />
        <Con id="160" src="24" tgt="35" wght="-1.4900983241386712" />
        <Con id="162" src="25" tgt="32" wght="-2.4368017702363431" />
        <Con id="163" src="25" tgt="33" wght="2.1858322487244188" />
        <Con id="166" src="26" tgt="31" wght="-4.1500962944701314" />
        <Con id="170" src="26" tgt="35" wght="-1.07224092585966" />
        <Con id="171" src="27" tgt="31" wght="-4.5565874315798283" />
        <Con id="172" src="27" tgt="32" wght="-4.0862295078113675" />
        <Con id="175" src="27" tgt="35" wght="-2.8324816934764385" />
        <Con id="179" src="28" tgt="34" wght="-1.9946419075131416" />
        <Con id="181" src="29" tgt="31" wght="0.35165106877684593" />
        <Con id="183" src="29" tgt="33" wght="-1.4198723877780139" />
        <Con id="184" src="29" tgt="34" wght="-0.48729201080277562" />
        <Con id="188" src="30" tgt="33" wght="0.72579917032271624" />
      </Connections>
    </Network>
    <Network id="53" birthGen="1" fitness="0">
      <Nodes>
        <Node type="bias" id="0" />
        <Node type="in" id="1" />
        <Node type="in" id="2" />
        <Node type="in" id="3" />
        <Node type="in" id="4" />
        <Node type="in" id="5" />
        <Node type="in" id="6" />
        <Node type="in" id="7" />
        <Node type="in" id="8" />
        <Node type="in" id="9" />
        <Node type="in" id="10" />
        <Node type="in" id="11" />
        <Node type="in" id="12" />
        <Node type="in" id="13" />
        <Node type="in" id="14" />
        <Node type="in" id="15" />
        <Node type="in" id="16" />
        <Node type="in" id="17" />
        <Node type="in" id="18" />
        <Node type="in" id="19" />
        <Node type="in" id="20" />
        <Node type="in" id="21" />
        <Node type="in" id="22" />
        <Node type="in" id="23" />
        <Node type="in" id="24" />
        <Node type="in" id="25" />
        <Node type="in" id="26" />
        <Node type="in" id="27" />
        <Node type="in" id="28" />
        <Node type="in" id="29" />
        <Node type="in" id="30" />
        <Node type="out" id="31" />
        <Node type="out" id="32" />
        <Node type="out" id="33" />
        <Node type="out" id="34" />
        <Node type="out" id="35" />
      </Nodes>
      <Connections>
        <Con id="40" src="0" tgt="35" wght="2.9267186857759953" />
        <Con id="42" src="1" tgt="32" wght="4.2757320869714022" />
        <Con id="43" src="1" tgt="33" wght="4.0947023802436888" />
        <Con id="47" src="2" tgt="32" wght="-3.7841191305778921" />
        <Con id="48" src="2" tgt="33" wght="3.5605994099751115" />
        <Con id="52" src="3" tgt="32" wght="-4.0354036636137431" />
        <Con id="53" src="3" tgt="33" wght="-0.91889853123575449" />
        <Con id="57" src="4" tgt="32" wght="-0.89361639926210046" />
        <Con id="59" src="4" tgt="34" wght="-1.0554801323451102" />
        <Con id="61" src="5" tgt="31" wght="3.5204626549966633" />
        <Con id="62" src="5" tgt="32" wght="-1.4414060604758561" />
        <Con id="64" src="5" tgt="34" wght="-1.9761721813119948" />
        <Con id="65" src="5" tgt="35" wght="2.7659369027242064" />
        <Con id="66" src="6" tgt="31" wght="3.8008469250053167" />
        <Con id="68" src="6" tgt="33" wght="2.6835086639039218" />
        <Con id="69" src="6" tgt="34" wght="3.2917242078110576" />
        <Con id="70" src="6" tgt="35" wght="0.95888334792107344" />
        <Con id="73" src="7" tgt="33" wght="-1.5816121944226325" />
        <Con id="75" src="7" tgt="35" wght="4.0525254793465137" />
        <Con id="78" src="8" tgt="33" wght="0.040901724714785814" />
        <Con id="82" src="9" tgt="32" wght="3.444320852868259" />
        <Con id="85" src="9" tgt="35" wght="2.4200760223902762" />
        <Con id="92" src="11" tgt="32" wght="3.9185263961553574" />
        <Con id="93" src="11" tgt="33" wght="-2.7266538003459573" />
        <Con id="95" src="11" tgt="35" wght="0.92285454971715808" />
        <Con id="98" src="12" tgt="33" wght="4.3412418384104967" />
        <Con id="101" src="13" tgt="31" wght="3.7381878448650241" />
        <Con id="106" src="14" tgt="31" wght="-3.6296246387064457" />
        <Con id="111" src="15" tgt="31" wght="3.2412222120910883" />
        <Con id="112" src="15" tgt="32" wght="-3.2435017940588295" />
        <Con id="113" src="15" tgt="33" wght="2.345543778501451" />
        <Con id="119" src="16" tgt="34" wght="-4.8953664791770279" />
        <Con id="120" src="16" tgt="35" wght="-0.96706644864752889" />
        <Con id="129" src="18" tgt="34" wght="-0.28379063121974468" />
        <Con id="139" src="20" tgt="34" wght="-0.50515344366431236" />
        <Con id="140" src="20" tgt="35" wght="-4.7384489024989307" />
        <Con id="142" src="21" tgt="32" wght="-4.0477390703745186" />
        <Con id="145" src="21" tgt="35" wght="2.9121358832344413" />
        <Con id="148" src="22" tgt="33" wght="3.8385272049345076" />
        <Con id="149" src="22" tgt="34" wght="-2.2251604543998837" />
        <Con id="150" src="22" tgt="35" wght="3.3436026982963085" />
        <Con id="152" src="23" tgt="32" wght="1.7808910645544529" />
        <Con id="153" src="23" tgt="33" wght="-2.4142848746851087" />
        <Con id="154" src="23" tgt="34" wght="3.6241759918630123" />
        <Con id="161" src="25" tgt="31" wght="2.6054139924235642" />
        <Con id="162" src="25" tgt="32" wght="-1.2176220444962382" />
        <Con id="164" src="25" tgt="34" wght="-4.6888094744645059" />
        <Con id="167" src="26" tgt="32" wght="4.6185504295863211" />
        <Con id="168" src="26" tgt="33" wght="-4.6865845448337495" />
        <Con id="170" src="26" tgt="35" wght="-2.0066852797754109" />
        <Con id="171" src="27" tgt="31" wght="1.5361807169392705" />
        <Con id="173" src="27" tgt="33" wght="-2.1240121312439442" />
        <Con id="177" src="28" tgt="32" wght="2.400866390671581" />
        <Con id="178" src="28" tgt="33" wght="0.23920760024338961" />
        <Con id="180" src="28" tgt="35" wght="-3.6662723822519183" />
        <Con id="181" src="29" tgt="31" wght="-4.9685843172483146" />
        <Con id="184" src="29" tgt="34" wght="-1.3300958089530468" />
        <Con id="186" src="30" tgt="31" wght="-0.094121461734175682" />
        <Con id="187" src="30" tgt="32" wght="2.25563621846959" />
        <Con id="188" src="30" tgt="33" wght="1.0753410262987018" />
        <Con id="189" src="30" tgt="34" wght="0.47848523827269673" />
        <Con id="190" src="30" tgt="35" wght="-4.9809805559925735" />
      </Connections>
    </Network>
    <Network id="54" birthGen="1" fitness="0">
      <Nodes>
        <Node type="bias" id="0" />
        <Node type="in" id="1" />
        <Node type="in" id="2" />
        <Node type="in" id="3" />
        <Node type="in" id="4" />
        <Node type="in" id="5" />
        <Node type="in" id="6" />
        <Node type="in" id="7" />
        <Node type="in" id="8" />
        <Node type="in" id="9" />
        <Node type="in" id="10" />
        <Node type="in" id="11" />
        <Node type="in" id="12" />
        <Node type="in" id="13" />
        <Node type="in" id="14" />
        <Node type="in" id="15" />
        <Node type="in" id="16" />
        <Node type="in" id="17" />
        <Node type="in" id="18" />
        <Node type="in" id="19" />
        <Node type="in" id="20" />
        <Node type="in" id="21" />
        <Node type="in" id="22" />
        <Node type="in" id="23" />
        <Node type="in" id="24" />
        <Node type="in" id="25" />
        <Node type="in" id="26" />
        <Node type="in" id="27" />
        <Node type="in" id="28" />
        <Node type="in" id="29" />
        <Node type="in" id="30" />
        <Node type="out" id="31" />
        <Node type="out" id="32" />
        <Node type="out" id="33" />
        <Node type="out" id="34" />
        <Node type="out" id="35" />
      </Nodes>
      <Connections>
        <Con id="40" src="0" tgt="35" wght="2.9267186857759953" />
        <Con id="42" src="1" tgt="32" wght="4.2757320869714022" />
        <Con id="43" src="1" tgt="33" wght="4.0947023802436888" />
        <Con id="47" src="2" tgt="32" wght="-3.7841191305778921" />
        <Con id="48" src="2" tgt="33" wght="3.5605994099751115" />
        <Con id="52" src="3" tgt="32" wght="-4.0406216820701957" />
        <Con id="53" src="3" tgt="33" wght="-0.91889853123575449" />
        <Con id="57" src="4" tgt="32" wght="-0.89361639926210046" />
        <Con id="59" src="4" tgt="34" wght="-1.0554801323451102" />
        <Con id="61" src="5" tgt="31" wght="3.5204626549966633" />
        <Con id="62" src="5" tgt="32" wght="-1.4414060604758561" />
        <Con id="64" src="5" tgt="34" wght="-1.9761721813119948" />
        <Con id="65" src="5" tgt="35" wght="2.7659369027242064" />
        <Con id="66" src="6" tgt="31" wght="3.8008469250053167" />
        <Con id="68" src="6" tgt="33" wght="2.6835086639039218" />
        <Con id="69" src="6" tgt="34" wght="3.2917242078110576" />
        <Con id="70" src="6" tgt="35" wght="0.95888334792107344" />
        <Con id="73" src="7" tgt="33" wght="-1.5816121944226325" />
        <Con id="75" src="7" tgt="35" wght="4.0525254793465137" />
        <Con id="78" src="8" tgt="33" wght="0.040901724714785814" />
        <Con id="82" src="9" tgt="32" wght="3.444320852868259" />
        <Con id="85" src="9" tgt="35" wght="2.4200760223902762" />
        <Con id="92" src="11" tgt="32" wght="3.9185263961553574" />
        <Con id="93" src="11" tgt="33" wght="-2.7266538003459573" />
        <Con id="95" src="11" tgt="35" wght="0.92285454971715808" />
        <Con id="98" src="12" tgt="33" wght="4.3412418384104967" />
        <Con id="101" src="13" tgt="31" wght="3.7381878448650241" />
        <Con id="106" src="14" tgt="31" wght="-3.6296246387064457" />
        <Con id="111" src="15" tgt="31" wght="3.2412222120910883" />
        <Con id="112" src="15" tgt="32" wght="-3.2435017940588295" />
        <Con id="113" src="15" tgt="33" wght="2.345543778501451" />
        <Con id="119" src="16" tgt="34" wght="-4.8953664791770279" />
        <Con id="120" src="16" tgt="35" wght="-0.96706644864752889" />
        <Con id="129" src="18" tgt="34" wght="-0.28379063121974468" />
        <Con id="139" src="20" tgt="34" wght="-0.50515344366431236" />
        <Con id="140" src="20" tgt="35" wght="-4.7441180777404073" />
        <Con id="142" src="21" tgt="32" wght="-4.0477390703745186" />
        <Con id="145" src="21" tgt="35" wght="2.9121358832344413" />
        <Con id="148" src="22" tgt="33" wght="3.8385272049345076" />
        <Con id="149" src="22" tgt="34" wght="-2.2251604543998837" />
        <Con id="150" src="22" tgt="35" wght="3.3436026982963085" />
        <Con id="152" src="23" tgt="32" wght="1.7808910645544529" />
        <Con id="153" src="23" tgt="33" wght="-2.4142848746851087" />
        <Con id="154" src="23" tgt="34" wght="3.6241759918630123" />
        <Con id="161" src="25" tgt="31" wght="2.6054139924235642" />
        <Con id="162" src="25" tgt="32" wght="-1.2176220444962382" />
        <Con id="164" src="25" tgt="34" wght="-4.6888094744645059" />
        <Con id="167" src="26" tgt="32" wght="4.6185504295863211" />
        <Con id="168" src="26" tgt="33" wght="-4.6865845448337495" />
        <Con id="170" src="26" tgt="35" wght="-2.0066852797754109" />
        <Con id="171" src="27" tgt="31" wght="1.5361807169392705" />
        <Con id="173" src="27" tgt="33" wght="-2.1240121312439442" />
        <Con id="177" src="28" tgt="32" wght="2.400866390671581" />
        <Con id="178" src="28" tgt="33" wght="0.23920760024338961" />
        <Con id="180" src="28" tgt="35" wght="-3.6662723822519183" />
        <Con id="181" src="29" tgt="31" wght="-4.9685843172483146" />
        <Con id="184" src="29" tgt="34" wght="-1.3300958089530468" />
        <Con id="186" src="30" tgt="31" wght="-0.094121461734175682" />
        <Con id="187" src="30" tgt="32" wght="2.25563621846959" />
        <Con id="188" src="30" tgt="33" wght="1.0753410262987018" />
        <Con id="189" src="30" tgt="34" wght="0.47848523827269673" />
        <Con id="190" src="30" tgt="35" wght="-4.9809805559925735" />
      </Connections>
    </Network>
    <Network id="55" birthGen="1" fitness="0.35437247157096863">
      <Nodes>
        <Node type="bias" id="0" />
        <Node type="in" id="1" />
        <Node type="in" id="2" />
        <Node type="in" id="3" />
        <Node type="in" id="4" />
        <Node type="in" id="5" />
        <Node type="in" id="6" />
        <Node type="in" id="7" />
        <Node type="in" id="8" />
        <Node type="in" id="9" />
        <Node type="in" id="10" />
        <Node type="in" id="11" />
        <Node type="in" id="12" />
        <Node type="in" id="13" />
        <Node type="in" id="14" />
        <Node type="in" id="15" />
        <Node type="in" id="16" />
        <Node type="in" id="17" />
        <Node type="in" id="18" />
        <Node type="in" id="19" />
        <Node type="in" id="20" />
        <Node type="in" id="21" />
        <Node type="in" id="22" />
        <Node type="in" id="23" />
        <Node type="in" id="24" />
        <Node type="in" id="25" />
        <Node type="in" id="26" />
        <Node type="in" id="27" />
        <Node type="in" id="28" />
        <Node type="in" id="29" />
        <Node type="in" id="30" />
        <Node type="out" id="31" />
        <Node type="out" id="32" />
        <Node type="out" id="33" />
        <Node type="out" id="34" />
        <Node type="out" id="35" />
      </Nodes>
      <Connections>
        <Con id="38" src="0" tgt="33" wght="-0.81324772210791707" />
        <Con id="40" src="0" tgt="35" wght="0.80415958305820823" />
        <Con id="41" src="1" tgt="31" wght="-1.6733211278915405" />
        <Con id="42" src="1" tgt="32" wght="4.963892106898129" />
        <Con id="43" src="1" tgt="33" wght="-0.84189802641049027" />
        <Con id="48" src="2" tgt="33" wght="-3.633763964753598" />
        <Con id="50" src="2" tgt="35" wght="-4.2735985177569091" />
        <Con id="55" src="3" tgt="35" wght="4.3738876935094595" />
        <Con id="56" src="4" tgt="31" wght="-3.1117219245061278" />
        <Con id="57" src="4" tgt="32" wght="4.3095692247152328" />
        <Con id="60" src="4" tgt="35" wght="4.0233569988049567" />
        <Con id="62" src="5" tgt="32" wght="4.63538589887321" />
        <Con id="65" src="5" tgt="35" wght="-3.3541011763736606" />
        <Con id="68" src="6" tgt="33" wght="3.661779121030122" />
        <Con id="69" src="6" tgt="34" wght="-2.4221736448816955" />
        <Con id="72" src="7" tgt="32" wght="2.8525009471923113" />
        <Con id="78" src="8" tgt="33" wght="-4.8461565468460321" />
        <Con id="82" src="9" tgt="32" wght="2.4350689491257071" />
        <Con id="84" src="9" tgt="34" wght="4.2333787307143211" />
        <Con id="85" src="9" tgt="35" wght="-2.8293482586741447" />
        <Con id="86" src="10" tgt="31" wght="-0.53351369220763445" />
        <Con id="93" src="11" tgt="33" wght="3.1384860607795417" />
        <Con id="100" src="12" tgt="35" wght="-3.1733223795890808" />
        <Con id="102" src="13" tgt="32" wght="2.4012139532715082" />
        <Con id="105" src="13" tgt="35" wght="3.8656123611144722" />
        <Con id="108" src="14" tgt="33" wght="-0.47083119163289666" />
        <Con id="109" src="14" tgt="34" wght="-0.69475245662033558" />
        <Con id="111" src="15" tgt="31" wght="-4.7224353393539786" />
        <Con id="112" src="15" tgt="32" wght="0.99517754977568984" />
        <Con id="114" src="15" tgt="34" wght="3.8760130503214896" />
        <Con id="118" src="16" tgt="33" wght="2.1852452284656465" />
        <Con id="120" src="16" tgt="35" wght="-1.3158380566164851" />
        <Con id="121" src="17" tgt="31" wght="-4.8780297744087875" />
        <Con id="122" src="17" tgt="32" wght="-0.953616148326546" />
        <Con id="123" src="17" tgt="33" wght="4.9384820647537708" />
        <Con id="126" src="18" tgt="31" wght="1.1432815808802843" />
        <Con id="127" src="18" tgt="32" wght="-4.4459717767313123" />
        <Con id="128" src="18" tgt="33" wght="-2.2438269224949181" />
        <Con id="129" src="18" tgt="34" wght="-4.040818193461746" />
        <Con id="135" src="19" tgt="35" wght="3.21542882360518" />
        <Con id="141" src="21" tgt="31" wght="0.70843111723661423" />
        <Con id="145" src="21" tgt="35" wght="4.9927488714456558" />
        <Con id="149" src="22" tgt="34" wght="0.030862423591315746" />
        <Con id="150" src="22" tgt="35" wght="0.35333215026184916" />
        <Con id="151" src="23" tgt="31" wght="2.6329750823788345" />
        <Con id="154" src="23" tgt="34" wght="4.15714513277635" />
        <Con id="156" src="24" tgt="31" wght="-0.18445924390107393" />
        <Con id="157" src="24" tgt="32" wght="-3.7949245190247893" />
        <Con id="160" src="24" tgt="35" wght="-2.105894589331001" />
        <Con id="161" src="25" tgt="31" wght="-2.6376891369000077" />
        <Con id="163" src="25" tgt="33" wght="-4.908967362716794" />
        <Con id="164" src="25" tgt="34" wght="4.0704663190990686" />
        <Con id="167" src="26" tgt="32" wght="-1.5107468492351472" />
        <Con id="168" src="26" tgt="33" wght="0.37545682862401009" />
        <Con id="171" src="27" tgt="31" wght="-0.28854593867436051" />
        <Con id="174" src="27" tgt="34" wght="-1.6261668014340103" />
        <Con id="176" src="28" tgt="31" wght="-1.3859525322914124" />
        <Con id="179" src="28" tgt="34" wght="-0.0677133584395051" />
        <Con id="181" src="29" tgt="31" wght="-2.20942449523136" />
        <Con id="183" src="29" tgt="33" wght="4.3886579549871385" />
        <Con id="185" src="29" tgt="35" wght="3.1000133068300784" />
        <Con id="188" src="30" tgt="33" wght="-0.74419674463570118" />
        <Con id="192" src="29" tgt="32" wght="0.031918525206856431" />
      </Connections>
    </Network>
    <Network id="56" birthGen="1" fitness="0">
      <Nodes>
        <Node type="bias" id="0" />
        <Node type="in" id="1" />
        <Node type="in" id="2" />
        <Node type="in" id="3" />
        <Node type="in" id="4" />
        <Node type="in" id="5" />
        <Node type="in" id="6" />
        <Node type="in" id="7" />
        <Node type="in" id="8" />
        <Node type="in" id="9" />
        <Node type="in" id="10" />
        <Node type="in" id="11" />
        <Node type="in" id="12" />
        <Node type="in" id="13" />
        <Node type="in" id="14" />
        <Node type="in" id="15" />
        <Node type="in" id="16" />
        <Node type="in" id="17" />
        <Node type="in" id="18" />
        <Node type="in" id="19" />
        <Node type="in" id="20" />
        <Node type="in" id="21" />
        <Node type="in" id="22" />
        <Node type="in" id="23" />
        <Node type="in" id="24" />
        <Node type="in" id="25" />
        <Node type="in" id="26" />
        <Node type="in" id="27" />
        <Node type="in" id="28" />
        <Node type="in" id="29" />
        <Node type="in" id="30" />
        <Node type="out" id="31" />
        <Node type="out" id="32" />
        <Node type="out" id="33" />
        <Node type="out" id="34" />
        <Node type="out" id="35" />
      </Nodes>
      <Connections>
        <Con id="40" src="0" tgt="35" wght="0.80415958305820823" />
        <Con id="42" src="1" tgt="32" wght="-0.22612493252381682" />
        <Con id="43" src="1" tgt="33" wght="-0.84189802641049027" />
        <Con id="47" src="2" tgt="32" wght="4.7994144749827683" />
        <Con id="48" src="2" tgt="33" wght="-2.5700880913063884" />
        <Con id="51" src="3" tgt="31" wght="4.5099217118695378" />
        <Con id="56" src="4" tgt="31" wght="-3.1117219245061278" />
        <Con id="63" src="5" tgt="33" wght="-2.6079282048158348" />
        <Con id="64" src="5" tgt="34" wght="2.8129933518357575" />
        <Con id="66" src="6" tgt="31" wght="0.70599464001134038" />
        <Con id="71" src="7" tgt="31" wght="-2.8808463341556489" />
        <Con id="72" src="7" tgt="32" wght="2.8525009471923113" />
        <Con id="76" src="8" tgt="31" wght="3.3796131750568748" />
        <Con id="77" src="8" tgt="32" wght="4.1513365507125854" />
        <Con id="81" src="9" tgt="31" wght="-3.6754199536517262" />
        <Con id="82" src="9" tgt="32" wght="0.82567630102857947" />
        <Con id="85" src="9" tgt="35" wght="-1.2958026467822492" />
        <Con id="89" src="10" tgt="34" wght="-4.6265195170417428" />
        <Con id="90" src="10" tgt="35" wght="0.0420446484349668" />
        <Con id="91" src="11" tgt="31" wght="-4.7716660145670176" />
        <Con id="92" src="11" tgt="32" wght="-3.767097401432693" />
        <Con id="95" src="11" tgt="35" wght="-3.5596298240125179" />
        <Con id="96" src="12" tgt="31" wght="4.4788758736103773" />
        <Con id="98" src="12" tgt="33" wght="-4.0357082011178136" />
        <Con id="99" src="12" tgt="34" wght="-3.8567816955037415" />
        <Con id="102" src="13" tgt="32" wght="2.4012139532715082" />
        <Con id="104" src="13" tgt="34" wght="0.81532698823139071" />
        <Con id="106" src="14" tgt="31" wght="0.33024629345163703" />
        <Con id="109" src="14" tgt="34" wght="-0.69475245662033558" />
        <Con id="113" src="15" tgt="33" wght="-1.6528348997235298" />
        <Con id="114" src="15" tgt="34" wght="3.8760130503214896" />
        <Con id="115" src="15" tgt="35" wght="3.6188386776484549" />
        <Con id="118" src="16" tgt="33" wght="4.0504210605286062" />
        <Con id="121" src="17" tgt="31" wght="2.21316437702626" />
        <Con id="126" src="18" tgt="31" wght="1.1432815808802843" />
        <Con id="127" src="18" tgt="32" wght="-0.628841994330287" />
        <Con id="130" src="18" tgt="35" wght="4.3022402259521186" />
        <Con id="131" src="19" tgt="31" wght="-2.762755835428834" />
        <Con id="132" src="19" tgt="32" wght="-2.5150079000741243" />
        <Con id="135" src="19" tgt="35" wght="3.21542882360518" />
        <Con id="137" src="20" tgt="32" wght="2.0664098206907511" />
        <Con id="138" src="20" tgt="33" wght="0.40018475381657481" />
        <Con id="141" src="21" tgt="31" wght="2.2785916435532272" />
        <Con id="144" src="21" tgt="34" wght="4.6469525177963078" />
        <Con id="145" src="21" tgt="35" wght="4.9927488714456558" />
        <Con id="153" src="23" tgt="33" wght="2.5096530700102448" />
        <Con id="157" src="24" tgt="32" wght="-3.7949245190247893" />
        <Con id="158" src="24" tgt="33" wght="3.3267283136956394" />
        <Con id="159" src="24" tgt="34" wght="-1.26640310510993" />
        <Con id="160" src="24" tgt="35" wght="-2.105894589331001" />
        <Con id="162" src="25" tgt="32" wght="-2.4368017702363431" />
        <Con id="163" src="25" tgt="33" wght="2.2030418599024415" />
        <Con id="166" src="26" tgt="31" wght="-4.1500962944701314" />
        <Con id="170" src="26" tgt="35" wght="-1.07224092585966" />
        <Con id="171" src="27" tgt="31" wght="-4.5565874315798283" />
        <Con id="172" src="27" tgt="32" wght="-4.0862295078113675" />
        <Con id="175" src="27" tgt="35" wght="-2.8324816934764385" />
        <Con id="179" src="28" tgt="34" wght="-1.9946419075131416" />
        <Con id="181" src="29" tgt="31" wght="0.35165106877684593" />
        <Con id="183" src="29" tgt="33" wght="4.3886579549871385" />
        <Con id="184" src="29" tgt="34" wght="-0.48729201080277562" />
        <Con id="188" src="30" tgt="33" wght="0.72579917032271624" />
      </Connections>
    </Network>
    <Network id="57" birthGen="1" fitness="0">
      <Nodes>
        <Node type="bias" id="0" />
        <Node type="in" id="1" />
        <Node type="in" id="2" />
        <Node type="in" id="3" />
        <Node type="in" id="4" />
        <Node type="in" id="5" />
        <Node type="in" id="6" />
        <Node type="in" id="7" />
        <Node type="in" id="8" />
        <Node type="in" id="9" />
        <Node type="in" id="10" />
        <Node type="in" id="11" />
        <Node type="in" id="12" />
        <Node type="in" id="13" />
        <Node type="in" id="14" />
        <Node type="in" id="15" />
        <Node type="in" id="16" />
        <Node type="in" id="17" />
        <Node type="in" id="18" />
        <Node type="in" id="19" />
        <Node type="in" id="20" />
        <Node type="in" id="21" />
        <Node type="in" id="22" />
        <Node type="in" id="23" />
        <Node type="in" id="24" />
        <Node type="in" id="25" />
        <Node type="in" id="26" />
        <Node type="in" id="27" />
        <Node type="in" id="28" />
        <Node type="in" id="29" />
        <Node type="in" id="30" />
        <Node type="out" id="31" />
        <Node type="out" id="32" />
        <Node type="out" id="33" />
        <Node type="out" id="34" />
        <Node type="out" id="35" />
      </Nodes>
      <Connections>
        <Con id="40" src="0" tgt="35" wght="0.80415958305820823" />
        <Con id="42" src="1" tgt="32" wght="4.963892106898129" />
        <Con id="43" src="1" tgt="33" wght="-0.84189802641049027" />
        <Con id="47" src="2" tgt="32" wght="-3.7841191305778921" />
        <Con id="48" src="2" tgt="33" wght="3.5605994099751115" />
        <Con id="52" src="3" tgt="32" wght="-4.0406216820701957" />
        <Con id="53" src="3" tgt="33" wght="-0.91889853123575449" />
        <Con id="57" src="4" tgt="32" wght="-0.89361639926210046" />
        <Con id="59" src="4" tgt="34" wght="-1.0554801323451102" />
        <Con id="61" src="5" tgt="31" wght="3.5204626549966633" />
        <Con id="62" src="5" tgt="32" wght="4.63538589887321" />
        <Con id="64" src="5" tgt="34" wght="-1.9761721813119948" />
        <Con id="65" src="5" tgt="35" wght="2.7659369027242064" />
        <Con id="66" src="6" tgt="31" wght="3.8008469250053167" />
        <Con id="68" src="6" tgt="33" wght="3.661779121030122" />
        <Con id="69" src="6" tgt="34" wght="-2.4221736448816955" />
        <Con id="70" src="6" tgt="35" wght="0.95888334792107344" />
        <Con id="73" src="7" tgt="33" wght="-1.5816121944226325" />
        <Con id="75" src="7" tgt="35" wght="4.0525254793465137" />
        <Con id="78" src="8" tgt="33" wght="0.040901724714785814" />
        <Con id="82" src="9" tgt="32" wght="3.444320852868259" />
        <Con id="85" src="9" tgt="35" wght="-2.8293482586741447" />
        <Con id="92" src="11" tgt="32" wght="3.9185263961553574" />
        <Con id="93" src="11" tgt="33" wght="-2.7266538003459573" />
        <Con id="95" src="11" tgt="35" wght="0.92285454971715808" />
        <Con id="98" src="12" tgt="33" wght="4.3412418384104967" />
        <Con id="101" src="13" tgt="31" wght="3.7381878448650241" />
        <Con id="106" src="14" tgt="31" wght="-3.6296246387064457" />
        <Con id="111" src="15" tgt="31" wght="-4.7224353393539786" />
        <Con id="112" src="15" tgt="32" wght="-3.2435017940588295" />
        <Con id="113" src="15" tgt="33" wght="2.345543778501451" />
