<?xml version="1.0" encoding="utf-8"?>
<Root>
  <ActivationFunctions>
    <Fn id="0" name="LogisticFunctionSteep" prob="1" />
  </ActivationFunctions>
  <Networks>
    <Network id="0" birthGen="0" fitness="0">
      <Nodes>
        <Node type="bias" id="0" />
        <Node type="in" id="1" />
        <Node type="in" id="2" />
        <Node type="in" id="3" />
        <Node type="in" id="4" />
        <Node type="in" id="5" />
        <Node type="in" id="6" />
        <Node type="in" id="7" />
        <Node type="in" id="8" />
        <Node type="in" id="9" />
        <Node type="in" id="10" />
        <Node type="in" id="11" />
        <Node type="in" id="12" />
        <Node type="in" id="13" />
        <Node type="in" id="14" />
        <Node type="in" id="15" />
        <Node type="in" id="16" />
        <Node type="in" id="17" />
        <Node type="in" id="18" />
        <Node type="in" id="19" />
        <Node type="in" id="20" />
        <Node type="in" id="21" />
        <Node type="in" id="22" />
        <Node type="in" id="23" />
        <Node type="in" id="24" />
        <Node type="in" id="25" />
        <Node type="in" id="26" />
        <Node type="in" id="27" />
        <Node type="in" id="28" />
        <Node type="in" id="29" />
        <Node type="in" id="30" />
        <Node type="out" id="31" />
        <Node type="out" id="32" />
        <Node type="out" id="33" />
        <Node type="out" id="34" />
        <Node type="out" id="35" />
      </Nodes>
      <Connections>
        <Con id="36" src="0" tgt="31" wght="4.248226301278919" />
        <Con id="39" src="0" tgt="34" wght="4.562719261739403" />
        <Con id="42" src="1" tgt="32" wght="2.3089905478991568" />
        <Con id="47" src="2" tgt="32" wght="4.2571081500500441" />
        <Con id="48" src="2" tgt="33" wght="4.7984328656457365" />
        <Con id="52" src="3" tgt="32" wght="-4.0820047655142844" />
        <Con id="53" src="3" tgt="33" wght="4.33299669995904" />
        <Con id="56" src="4" tgt="31" wght="2.74975948035717" />
        <Con id="59" src="4" tgt="34" wght="-0.52558512892574072" />
        <Con id="60" src="4" tgt="35" wght="1.2517044600099325" />
        <Con id="66" src="6" tgt="31" wght="-3.3783155609853566" />
        <Con id="67" src="6" tgt="32" wght="-4.6828185766935349" />
        <Con id="69" src="6" tgt="34" wght="0.48591678962111473" />
        <Con id="70" src="6" tgt="35" wght="3.7264986429363489" />
        <Con id="72" src="7" tgt="32" wght="-0.23915993515402079" />
        <Con id="75" src="7" tgt="35" wght="-1.1780902300961316" />
        <Con id="81" src="9" tgt="31" wght="-4.00732422946021" />
        <Con id="82" src="9" tgt="32" wght="0.660278641153127" />
        <Con id="83" src="9" tgt="33" wght="4.2851347732357681" />
        <Con id="84" src="9" tgt="34" wght="2.3162858188152313" />
        <Con id="85" src="9" tgt="35" wght="-1.8785452982410789" />
        <Con id="88" src="10" tgt="33" wght="1.7955913092009723" />
        <Con id="90" src="10" tgt="35" wght="4.107494461350143" />
        <Con id="100" src="12" tgt="35" wght="-3.2913343771360815" />
        <Con id="101" src="13" tgt="31" wght="2.3677163664251566" />
        <Con id="103" src="13" tgt="33" wght="-4.2027534055523574" />
        <Con id="104" src="13" tgt="34" wght="-2.2720348997972906" />
        <Con id="105" src="13" tgt="35" wght="-4.1235547605901957" />
        <Con id="108" src="14" tgt="33" wght="-0.96317863324657083" />
        <Con id="113" src="15" tgt="33" wght="1.0610734648071229" />
        <Con id="114" src="15" tgt="34" wght="1.6032128990627825" />
        <Con id="116" src="16" tgt="31" wght="-3.6188004119321704" />
        <Con id="117" src="16" tgt="32" wght="2.0086845266632736" />
        <Con id="123" src="17" tgt="33" wght="-2.7699657087214291" />
        <Con id="126" src="18" tgt="31" wght="2.2124475333839655" />
        <Con id="127" src="18" tgt="32" wght="-1.0355171444825828" />
        <Con id="131" src="19" tgt="31" wght="-1.6168293263763189" />
        <Con id="133" src="19" tgt="33" wght="0.53481161128729582" />
        <Con id="138" src="20" tgt="33" wght="-0.660839716438204" />
        <Con id="140" src="20" tgt="35" wght="3.18170074140653" />
        <Con id="143" src="21" tgt="33" wght="2.4349220958538353" />
        <Con id="145" src="21" tgt="35" wght="4.8292237240821123" />
        <Con id="146" src="22" tgt="31" wght="-3.1217887531965971" />
        <Con id="148" src="22" tgt="33" wght="1.4450706029310822" />
        <Con id="149" src="22" tgt="34" wght="4.4675006484612823" />
        <Con id="150" src="22" tgt="35" wght="-3.4464997542090714" />
        <Con id="160" src="24" tgt="35" wght="-2.2475062659941614" />
        <Con id="162" src="25" tgt="32" wght="1.3755363970994949" />
        <Con id="167" src="26" tgt="32" wght="-1.4650793024338782" />
        <Con id="168" src="26" tgt="33" wght="-2.6188378245569766" />
        <Con id="170" src="26" tgt="35" wght="4.6284299367107451" />
        <Con id="174" src="27" tgt="34" wght="0.043170580174773932" />
        <Con id="176" src="28" tgt="31" wght="1.9717527809552848" />
        <Con id="178" src="28" tgt="33" wght="3.1754072569310665" />
        <Con id="179" src="28" tgt="34" wght="4.5745159056968987" />
        <Con id="182" src="29" tgt="32" wght="-4.2142398422583938" />
        <Con id="184" src="29" tgt="34" wght="-1.7190338741056621" />
        <Con id="185" src="29" tgt="35" wght="3.5595487453974783" />
        <Con id="187" src="30" tgt="32" wght="4.0153898298740387" />
        <Con id="188" src="30" tgt="33" wght="-4.318716349080205" />
        <Con id="189" src="30" tgt="34" wght="-0.37801495986059308" />
        <Con id="190" src="30" tgt="35" wght="-2.4336445005610585" />
      </Connections>
    </Network>
    <Network id="1" birthGen="0" fitness="0">
      <Nodes>
        <Node type="bias" id="0" />
        <Node type="in" id="1" />
        <Node type="in" id="2" />
        <Node type="in" id="3" />
        <Node type="in" id="4" />
        <Node type="in" id="5" />
        <Node type="in" id="6" />
        <Node type="in" id="7" />
        <Node type="in" id="8" />
        <Node type="in" id="9" />
        <Node type="in" id="10" />
        <Node type="in" id="11" />
        <Node type="in" id="12" />
        <Node type="in" id="13" />
        <Node type="in" id="14" />
        <Node type="in" id="15" />
        <Node type="in" id="16" />
        <Node type="in" id="17" />
        <Node type="in" id="18" />
        <Node type="in" id="19" />
        <Node type="in" id="20" />
        <Node type="in" id="21" />
        <Node type="in" id="22" />
        <Node type="in" id="23" />
        <Node type="in" id="24" />
        <Node type="in" id="25" />
        <Node type="in" id="26" />
        <Node type="in" id="27" />
        <Node type="in" id="28" />
        <Node type="in" id="29" />
        <Node type="in" id="30" />
        <Node type="out" id="31" />
        <Node type="out" id="32" />
        <Node type="out" id="33" />
        <Node type="out" id="34" />
        <Node type="out" id="35" />
      </Nodes>
      <Connections>
        <Con id="37" src="0" tgt="32" wght="-0.51442855270579457" />
        <Con id="38" src="0" tgt="33" wght="3.6765661812387407" />
        <Con id="45" src="1" tgt="35" wght="-1.6387781733646989" />
        <Con id="49" src="2" tgt="34" wght="3.5174039262346923" />
        <Con id="52" src="3" tgt="32" wght="-4.6733554848469794" />
        <Con id="53" src="3" tgt="33" wght="1.8489320552907884" />
        <Con id="54" src="3" tgt="34" wght="3.4636903158389032" />
        <Con id="57" src="4" tgt="32" wght="3.5874102241359651" />
        <Con id="58" src="4" tgt="33" wght="-1.3208477757871151" />
        <Con id="60" src="4" tgt="35" wght="0.53209965582937" />
        <Con id="63" src="5" tgt="33" wght="4.1167593561112881" />
        <Con id="64" src="5" tgt="34" wght="-3.6612379900179803" />
        <Con id="67" src="6" tgt="32" wght="-4.7274157218635082" />
        <Con id="69" src="6" tgt="34" wght="0.5149019998498261" />
        <Con id="70" src="6" tgt="35" wght="-1.9199962727725506" />
        <Con id="80" src="8" tgt="35" wght="4.135293981526047" />
        <Con id="82" src="9" tgt="32" wght="3.1238684616982937" />
        <Con id="83" src="9" tgt="33" wght="1.618703412823379" />
        <Con id="85" src="9" tgt="35" wght="0.75539498357102275" />
        <Con id="93" src="11" tgt="33" wght="-0.90716410195454955" />
        <Con id="95" src="11" tgt="35" wght="-4.1265793750062585" />
        <Con id="99" src="12" tgt="34" wght="0.075073828920722008" />
        <Con id="101" src="13" tgt="31" wght="-1.2714338768273592" />
        <Con id="105" src="13" tgt="35" wght="-0.52490563597530127" />
        <Con id="107" src="14" tgt="32" wght="4.4443299015983939" />
        <Con id="110" src="14" tgt="35" wght="-2.9680721089243889" />
        <Con id="112" src="15" tgt="32" wght="-3.3467493765056133" />
        <Con id="114" src="15" tgt="34" wght="-4.6982739679515362" />
        <Con id="117" src="16" tgt="32" wght="-2.3059297888539732" />
        <Con id="120" src="16" tgt="35" wght="2.6293531921692193" />
        <Con id="122" src="17" tgt="32" wght="3.3852222794666886" />
        <Con id="125" src="17" tgt="35" wght="-2.8444408369250596" />
        <Con id="128" src="18" tgt="33" wght="3.8271141215227544" />
        <Con id="131" src="19" tgt="31" wght="4.4714535889215767" />
        <Con id="132" src="19" tgt="32" wght="-1.8478701845742762" />
        <Con id="133" src="19" tgt="33" wght="2.582343842368573" />
        <Con id="136" src="20" tgt="31" wght="-2.3806595755741" />
        <Con id="137" src="20" tgt="32" wght="-1.4003397524356842" />
        <Con id="138" src="20" tgt="33" wght="-0.018061487935483456" />
        <Con id="139" src="20" tgt="34" wght="4.2443909682333469" />
        <Con id="141" src="21" tgt="31" wght="1.7387125454843044" />
        <Con id="143" src="21" tgt="33" wght="-4.7497604181990027" />
        <Con id="145" src="21" tgt="35" wght="1.0165816638618708" />
        <Con id="146" src="22" tgt="31" wght="-1.5518276765942574" />
        <Con id="147" src="22" tgt="32" wght="2.756364403758198" />
        <Con id="150" src="22" tgt="35" wght="2.2046838398091495" />
        <Con id="152" src="23" tgt="32" wght="-0.31284179538488388" />
        <Con id="155" src="23" tgt="35" wght="-3.4069444518536329" />
        <Con id="156" src="24" tgt="31" wght="1.8521962617523968" />
        <Con id="161" src="25" tgt="31" wght="-1.9797107158228755" />
        <Con id="163" src="25" tgt="33" wght="4.997288272716105" />
        <Con id="165" src="25" tgt="35" wght="-0.74660933343693614" />
        <Con id="166" src="26" tgt="31" wght="2.2505834884941578" />
        <Con id="168" src="26" tgt="33" wght="0.0468201469630003" />
        <Con id="174" src="27" tgt="34" wght="-1.8808325310237706" />
        <Con id="175" src="27" tgt="35" wght="-4.1430666926316917" />
        <Con id="179" src="28" tgt="34" wght="-1.8937586201354861" />
        <Con id="180" src="28" tgt="35" wght="3.5282713919878006" />
        <Con id="182" src="29" tgt="32" wght="0.44932672055438161" />
        <Con id="187" src="30" tgt="32" wght="0.6776949972845614" />
        <Con id="189" src="30" tgt="34" wght="-0.65139600541442633" />
        <Con id="190" src="30" tgt="35" wght="3.9084559213370085" />
      </Connections>
    </Network>
    <Network id="2" birthGen="0" fitness="0">
      <Nodes>
        <Node type="bias" id="0" />
        <Node type="in" id="1" />
        <Node type="in" id="2" />
        <Node type="in" id="3" />
        <Node type="in" id="4" />
        <Node type="in" id="5" />
        <Node type="in" id="6" />
        <Node type="in" id="7" />
        <Node type="in" id="8" />
        <Node type="in" id="9" />
        <Node type="in" id="10" />
        <Node type="in" id="11" />
        <Node type="in" id="12" />
        <Node type="in" id="13" />
        <Node type="in" id="14" />
        <Node type="in" id="15" />
        <Node type="in" id="16" />
        <Node type="in" id="17" />
        <Node type="in" id="18" />
        <Node type="in" id="19" />
        <Node type="in" id="20" />
        <Node type="in" id="21" />
        <Node type="in" id="22" />
        <Node type="in" id="23" />
        <Node type="in" id="24" />
        <Node type="in" id="25" />
        <Node type="in" id="26" />
        <Node type="in" id="27" />
        <Node type="in" id="28" />
        <Node type="in" id="29" />
        <Node type="in" id="30" />
        <Node type="out" id="31" />
        <Node type="out" id="32" />
        <Node type="out" id="33" />
        <Node type="out" id="34" />
        <Node type="out" id="35" />
      </Nodes>
      <Connections>
        <Con id="43" src="1" tgt="33" wght="2.9818302043713629" />
        <Con id="46" src="2" tgt="31" wght="1.8907102197408676" />
        <Con id="48" src="2" tgt="33" wght="-4.8344590631313622" />
        <Con id="49" src="2" tgt="34" wght="-1.2875273008830845" />
        <Con id="50" src="2" tgt="35" wght="-1.7707661795429885" />
        <Con id="51" src="3" tgt="31" wght="1.6266431915573776" />
        <Con id="54" src="3" tgt="34" wght="-1.7709990194998682" />
        <Con id="61" src="5" tgt="31" wght="-2.2055148566141725" />
        <Con id="64" src="5" tgt="34" wght="-2.669031098484993" />
        <Con id="66" src="6" tgt="31" wght="-1.0271554091013968" />
        <Con id="67" src="6" tgt="32" wght="-1.9466460659168661" />
        <Con id="68" src="6" tgt="33" wght="-1.2451367382891476" />
        <Con id="70" src="6" tgt="35" wght="1.1395273823291063" />
        <Con id="72" src="7" tgt="32" wght="-3.1296610715799034" />
        <Con id="74" src="7" tgt="34" wght="0.93772989464923739" />
        <Con id="75" src="7" tgt="35" wght="-3.41631097253412" />
        <Con id="78" src="8" tgt="33" wght="4.4641351909376681" />
        <Con id="79" src="8" tgt="34" wght="4.62699604453519" />
        <Con id="83" src="9" tgt="33" wght="-2.0655006007291377" />
        <Con id="87" src="10" tgt="32" wght="4.1523023834452033" />
        <Con id="92" src="11" tgt="32" wght="-1.4586744434200227" />
        <Con id="94" src="11" tgt="34" wght="-1.097255339846015" />
        <Con id="95" src="11" tgt="35" wght="-1.7374512320384383" />
        <Con id="97" src="12" tgt="32" wght="-2.9842549469321966" />
        <Con id="98" src="12" tgt="33" wght="2.7828060393221676" />
        <Con id="101" src="13" tgt="31" wght="-4.26708942046389" />
        <Con id="102" src="13" tgt="32" wght="3.2244198117405176" />
        <Con id="104" src="13" tgt="34" wght="-4.0477637480944395" />
        <Con id="107" src="14" tgt="32" wght="-2.2626378107815981" />
        <Con id="110" src="14" tgt="35" wght="4.3054084503091872" />
        <Con id="115" src="15" tgt="35" wght="-1.5304017020389438" />
        <Con id="117" src="16" tgt="32" wght="-0.74483303353190422" />
        <Con id="118" src="16" tgt="33" wght="0.97684769425541162" />
        <Con id="120" src="16" tgt="35" wght="3.856378816999495" />
        <Con id="121" src="17" tgt="31" wght="3.3503751154057682" />
        <Con id="122" src="17" tgt="32" wght="4.6457730513066053" />
        <Con id="124" src="17" tgt="34" wght="-2.4259005091153085" />
        <Con id="128" src="18" tgt="33" wght="3.3812855207361281" />
        <Con id="134" src="19" tgt="34" wght="-1.4360243966802955" />
        <Con id="135" src="19" tgt="35" wght="4.369858275167644" />
        <Con id="141" src="21" tgt="31" wght="-0.11823991546407342" />
        <Con id="145" src="21" tgt="35" wght="2.2166555444709957" />
        <Con id="146" src="22" tgt="31" wght="-4.09775678999722" />
        <Con id="148" src="22" tgt="33" wght="-4.9109154916368425" />
        <Con id="151" src="23" tgt="31" wght="4.9658293859101832" />
        <Con id="152" src="23" tgt="32" wght="3.6599675077013671" />
        <Con id="156" src="24" tgt="31" wght="3.3245186321437359" />
        <Con id="158" src="24" tgt="33" wght="4.74263914860785" />
        <Con id="160" src="24" tgt="35" wght="-1.8663902929984033" />
        <Con id="163" src="25" tgt="33" wght="4.5668743224814534" />
        <Con id="167" src="26" tgt="32" wght="1.0449367575347424" />
        <Con id="169" src="26" tgt="34" wght="0.019082117360085249" />
        <Con id="171" src="27" tgt="31" wght="-0.14264029217883945" />
        <Con id="173" src="27" tgt="33" wght="3.3334876922890544" />
        <Con id="174" src="27" tgt="34" wght="-1.624258488882333" />
        <Con id="176" src="28" tgt="31" wght="-3.6682964791543782" />
        <Con id="178" src="28" tgt="33" wght="4.7126760939136147" />
        <Con id="181" src="29" tgt="31" wght="2.6881167641840875" />
        <Con id="184" src="29" tgt="34" wght="-3.1742768129333854" />
        <Con id="185" src="29" tgt="35" wght="2.9409596393816173" />
        <Con id="186" src="30" tgt="31" wght="-1.9502525217831135" />
        <Con id="190" src="30" tgt="35" wght="1.7465369123965502" />
      </Connections>
    </Network>
    <Network id="3" birthGen="0" fitness="0">
      <Nodes>
        <Node type="bias" id="0" />
        <Node type="in" id="1" />
        <Node type="in" id="2" />
        <Node type="in" id="3" />
        <Node type="in" id="4" />
        <Node type="in" id="5" />
        <Node type="in" id="6" />
        <Node type="in" id="7" />
        <Node type="in" id="8" />
        <Node type="in" id="9" />
        <Node type="in" id="10" />
        <Node type="in" id="11" />
        <Node type="in" id="12" />
        <Node type="in" id="13" />
        <Node type="in" id="14" />
        <Node type="in" id="15" />
        <Node type="in" id="16" />
        <Node type="in" id="17" />
        <Node type="in" id="18" />
        <Node type="in" id="19" />
        <Node type="in" id="20" />
        <Node type="in" id="21" />
        <Node type="in" id="22" />
        <Node type="in" id="23" />
        <Node type="in" id="24" />
        <Node type="in" id="25" />
        <Node type="in" id="26" />
        <Node type="in" id="27" />
        <Node type="in" id="28" />
        <Node type="in" id="29" />
        <Node type="in" id="30" />
        <Node type="out" id="31" />
        <Node type="out" id="32" />
        <Node type="out" id="33" />
        <Node type="out" id="34" />
        <Node type="out" id="35" />
      </Nodes>
      <Connections>
        <Con id="38" src="0" tgt="33" wght="-3.354091108776629" />
        <Con id="40" src="0" tgt="35" wght="-4.62039144244045" />
        <Con id="45" src="1" tgt="35" wght="-3.8723350688815117" />
        <Con id="48" src="2" tgt="33" wght="-4.5609338069334626" />
        <Con id="54" src="3" tgt="34" wght="0.61531448736786842" />
        <Con id="58" src="4" tgt="33" wght="-3.9567378652282059" />
        <Con id="63" src="5" tgt="33" wght="2.0130849466659129" />
        <Con id="65" src="5" tgt="35" wght="3.3356694737449288" />
        <Con id="69" src="6" tgt="34" wght="-3.31504829460755" />
        <Con id="74" src="7" tgt="34" wght="4.8992683948017657" />
        <Con id="75" src="7" tgt="35" wght="0.36163995042443275" />
        <Con id="77" src="8" tgt="32" wght="-0.38788199657574296" />
        <Con id="78" src="8" tgt="33" wght="-1.4116087229922414" />
        <Con id="79" src="8" tgt="34" wght="-3.2919606799259782" />
        <Con id="81" src="9" tgt="31" wght="2.6199602079577744" />
        <Con id="84" src="9" tgt="34" wght="-0.59469872852787375" />
        <Con id="85" src="9" tgt="35" wght="4.7634749999269843" />
        <Con id="87" src="10" tgt="32" wght="4.2583813914097846" />
        <Con id="90" src="10" tgt="35" wght="4.106862370390445" />
        <Con id="93" src="11" tgt="33" wght="-3.9469637419097126" />
        <Con id="96" src="12" tgt="31" wght="4.8898421204648912" />
        <Con id="98" src="12" tgt="33" wght="3.1013697502203286" />
        <Con id="100" src="12" tgt="35" wght="-3.6994718038477004" />
        <Con id="101" src="13" tgt="31" wght="-3.6241956707090139" />
        <Con id="105" src="13" tgt="35" wght="-4.6385407447814941" />
        <Con id="107" src="14" tgt="32" wght="2.1291832393035293" />
        <Con id="113" src="15" tgt="33" wght="2.578504141420126" />
        <Con id="114" src="15" tgt="34" wght="-1.580314077436924" />
        <Con id="117" src="16" tgt="32" wght="3.0894319154322147" />
        <Con id="120" src="16" tgt="35" wght="-3.9009417849592865" />
        <Con id="122" src="17" tgt="32" wght="1.6149337962269783" />
        <Con id="124" src="17" tgt="34" wght="1.1409222288057208" />
        <Con id="125" src="17" tgt="35" wght="3.4551391983404756" />
        <Con id="126" src="18" tgt="31" wght="4.6280011651106179" />
        <Con id="127" src="18" tgt="32" wght="-3.6388599406927824" />
        <Con id="130" src="18" tgt="35" wght="0.02850610064342618" />
        <Con id="133" src="19" tgt="33" wght="0.19911387702450156" />
        <Con id="134" src="19" tgt="34" wght="-1.5052281483076513" />
        <Con id="139" src="20" tgt="34" wght="-1.5938608115538955" />
        <Con id="140" src="20" tgt="35" wght="1.8001863127574325" />
        <Con id="142" src="21" tgt="32" wght="0.97800748888403177" />
        <Con id="143" src="21" tgt="33" wght="3.6782086547464132" />
        <Con id="144" src="21" tgt="34" wght="2.961945787537843" />
        <Con id="145" src="21" tgt="35" wght="0.9937231196090579" />
        <Con id="147" src="22" tgt="32" wght="0.32691332744434476" />
        <Con id="148" src="22" tgt="33" wght="3.0559023167006671" />
        <Con id="150" src="22" tgt="35" wght="-2.3232935531996191" />
        <Con id="151" src="23" tgt="31" wght="2.9097948572598398" />
        <Con id="153" src="23" tgt="33" wght="-3.5337414010427892" />
        <Con id="154" src="23" tgt="34" wght="2.8282807767391205" />
        <Con id="156" src="24" tgt="31" wght="2.7261860715225339" />
        <Con id="157" src="24" tgt="32" wght="-3.4187631611712277" />
        <Con id="158" src="24" tgt="33" wght="3.8477355125360191" />
        <Con id="167" src="26" tgt="32" wght="-0.92938805464655161" />
        <Con id="169" src="26" tgt="34" wght="-3.7869726377539337" />
        <Con id="170" src="26" tgt="35" wght="-1.5569739602506161" />
        <Con id="173" src="27" tgt="33" wght="3.1501575442962348" />
        <Con id="175" src="27" tgt="35" wght="0.12562535237520933" />
        <Con id="177" src="28" tgt="32" wght="2.3047699546441436" />
        <Con id="180" src="28" tgt="35" wght="-1.3460450782440603" />
        <Con id="181" src="29" tgt="31" wght="2.965495774988085" />
        <Con id="186" src="30" tgt="31" wght="0.028332697693258524" />
      </Connections>
    </Network>
    <Network id="4" birthGen="0" fitness="0">
      <Nodes>
        <Node type="bias" id="0" />
        <Node type="in" id="1" />
        <Node type="in" id="2" />
        <Node type="in" id="3" />
        <Node type="in" id="4" />
        <Node type="in" id="5" />
        <Node type="in" id="6" />
        <Node type="in" id="7" />
        <Node type="in" id="8" />
        <Node type="in" id="9" />
        <Node type="in" id="10" />
        <Node type="in" id="11" />
        <Node type="in" id="12" />
        <Node type="in" id="13" />
        <Node type="in" id="14" />
        <Node type="in" id="15" />
        <Node type="in" id="16" />
        <Node type="in" id="17" />
        <Node type="in" id="18" />
        <Node type="in" id="19" />
        <Node type="in" id="20" />
        <Node type="in" id="21" />
        <Node type="in" id="22" />
        <Node type="in" id="23" />
        <Node type="in" id="24" />
        <Node type="in" id="25" />
        <Node type="in" id="26" />
        <Node type="in" id="27" />
        <Node type="in" id="28" />
        <Node type="in" id="29" />
        <Node type="in" id="30" />
        <Node type="out" id="31" />
        <Node type="out" id="32" />
        <Node type="out" id="33" />
        <Node type="out" id="34" />
        <Node type="out" id="35" />
      </Nodes>
      <Connections>
        <Con id="36" src="0" tgt="31" wght="0.56302190059795976" />
        <Con id="38" src="0" tgt="33" wght="2.4759536609053612" />
        <Con id="43" src="1" tgt="33" wght="3.6414023139514029" />
        <Con id="45" src="1" tgt="35" wght="-3.8758861063979566" />
        <Con id="46" src="2" tgt="31" wght="-0.93321321764960885" />
        <Con id="48" src="2" tgt="33" wght="4.1155181522481143" />
        <Con id="53" src="3" tgt="33" wght="-2.2774647758342326" />
        <Con id="59" src="4" tgt="34" wght="-4.1907382244244218" />
        <Con id="61" src="5" tgt="31" wght="2.8041889378800988" />
        <Con id="63" src="5" tgt="33" wght="2.6004326879046857" />
        <Con id="65" src="5" tgt="35" wght="-4.4855731911957264" />
        <Con id="67" src="6" tgt="32" wght="0.80062777502462268" />
        <Con id="72" src="7" tgt="32" wght="4.7234124247916043" />
        <Con id="73" src="7" tgt="33" wght="-0.853764358907938" />
        <Con id="74" src="7" tgt="34" wght="3.4020899375900626" />
        <Con id="76" src="8" tgt="31" wght="-4.79707843856886" />
        <Con id="78" src="8" tgt="33" wght="-3.3206554991193116" />
        <Con id="81" src="9" tgt="31" wght="-3.0215140036307275" />
        <Con id="84" src="9" tgt="34" wght="2.986585299950093" />
        <Con id="86" src="10" tgt="31" wght="0.18207061570137739" />
        <Con id="91" src="11" tgt="31" wght="2.2827219218015671" />
        <Con id="97" src="12" tgt="32" wght="-4.0536732552573085" />
        <Con id="100" src="12" tgt="35" wght="-3.4799402742646635" />
        <Con id="102" src="13" tgt="32" wght="-1.0229308297857642" />
        <Con id="105" src="13" tgt="35" wght="-4.8202607058919966" />
        <Con id="108" src="14" tgt="33" wght="2.5290763261727989" />
        <Con id="109" src="14" tgt="34" wght="1.4557563979178667" />
        <Con id="110" src="14" tgt="35" wght="-3.9564591040834785" />
        <Con id="112" src="15" tgt="32" wght="-1.3907073182053864" />
        <Con id="117" src="16" tgt="32" wght="1.787983241956681" />
        <Con id="120" src="16" tgt="35" wght="4.3623577686958015" />
        <Con id="121" src="17" tgt="31" wght="-2.4407039233483374" />
        <Con id="123" src="17" tgt="33" wght="-2.3388630105182528" />
        <Con id="126" src="18" tgt="31" wght="0.60107577359303832" />
        <Con id="128" src="18" tgt="33" wght="2.0872731204144657" />
        <Con id="130" src="18" tgt="35" wght="4.863182355184108" />
        <Con id="132" src="19" tgt="32" wght="1.7816021922044456" />
        <Con id="133" src="19" tgt="33" wght="2.5409917929209769" />
        <Con id="135" src="19" tgt="35" wght="-2.2383310738950968" />
        <Con id="136" src="20" tgt="31" wght="-2.54113876959309" />
        <Con id="138" src="20" tgt="33" wght="0.6596801127307117" />
        <Con id="140" src="20" tgt="35" wght="-4.7736631683073938" />
        <Con id="145" src="21" tgt="35" wght="2.9009746038354933" />
        <Con id="150" src="22" tgt="35" wght="-4.0959062078036368" />
        <Con id="151" src="23" tgt="31" wght="2.8237678878940642" />
        <Con id="154" src="23" tgt="34" wght="-4.5675875130109489" />
        <Con id="155" src="23" tgt="35" wght="-2.8346242220140994" />
        <Con id="156" src="24" tgt="31" wght="-3.3951229974627495" />
        <Con id="157" src="24" tgt="32" wght="2.7607758436352015" />
        <Con id="158" src="24" tgt="33" wght="4.3013779516331851" />
        <Con id="160" src="24" tgt="35" wght="1.4033846440725029" />
        <Con id="161" src="25" tgt="31" wght="-4.1911706910468638" />
        <Con id="162" src="25" tgt="32" wght="-2.5301929749548435" />
        <Con id="166" src="26" tgt="31" wght="-1.0502168862149119" />
        <Con id="167" src="26" tgt="32" wght="-1.1731125880032778" />
        <Con id="174" src="27" tgt="34" wght="3.9379815757274628" />
        <Con id="175" src="27" tgt="35" wght="0.4367300751619041" />
        <Con id="178" src="28" tgt="33" wght="-2.5566363171674311" />
        <Con id="182" src="29" tgt="32" wght="0.44994222931563854" />
        <Con id="183" src="29" tgt="33" wght="3.1390462396666408" />
        <Con id="186" src="30" tgt="31" wght="-4.294989169575274" />
        <Con id="189" src="30" tgt="34" wght="2.7323015499860048" />
      </Connections>
    </Network>
    <Network id="5" birthGen="0" fitness="0">
      <Nodes>
        <Node type="bias" id="0" />
        <Node type="in" id="1" />
        <Node type="in" id="2" />
        <Node type="in" id="3" />
        <Node type="in" id="4" />
        <Node type="in" id="5" />
        <Node type="in" id="6" />
        <Node type="in" id="7" />
        <Node type="in" id="8" />
        <Node type="in" id="9" />
        <Node type="in" id="10" />
        <Node type="in" id="11" />
        <Node type="in" id="12" />
        <Node type="in" id="13" />
        <Node type="in" id="14" />
        <Node type="in" id="15" />
        <Node type="in" id="16" />
        <Node type="in" id="17" />
        <Node type="in" id="18" />
        <Node type="in" id="19" />
        <Node type="in" id="20" />
        <Node type="in" id="21" />
        <Node type="in" id="22" />
        <Node type="in" id="23" />
        <Node type="in" id="24" />
        <Node type="in" id="25" />
        <Node type="in" id="26" />
        <Node type="in" id="27" />
        <Node type="in" id="28" />
        <Node type="in" id="29" />
        <Node type="in" id="30" />
        <Node type="out" id="31" />
        <Node type="out" id="32" />
        <Node type="out" id="33" />
        <Node type="out" id="34" />
        <Node type="out" id="35" />
      </Nodes>
      <Connections>
        <Con id="36" src="0" tgt="31" wght="-1.8230864149518311" />
        <Con id="41" src="1" tgt="31" wght="-2.6387411146424711" />
        <Con id="44" src="1" tgt="34" wght="-2.4288548831827939" />
        <Con id="46" src="2" tgt="31" wght="4.7237717476673424" />
        <Con id="49" src="2" tgt="34" wght="2.510865842923522" />
        <Con id="51" src="3" tgt="31" wght="-3.4355930658057332" />
        <Con id="52" src="3" tgt="32" wght="-1.6988489567302167" />
        <Con id="54" src="3" tgt="34" wght="1.8193697091192007" />
        <Con id="56" src="4" tgt="31" wght="3.7229309789836407" />
        <Con id="61" src="5" tgt="31" wght="1.4006047393195331" />
        <Con id="68" src="6" tgt="33" wght="-4.297867682762444" />
        <Con id="71" src="7" tgt="31" wght="0.16410380369052291" />
        <Con id="75" src="7" tgt="35" wght="-0.79422692069783807" />
        <Con id="76" src="8" tgt="31" wght="1.9644467392936349" />
        <Con id="79" src="8" tgt="34" wght="2.2657362720929086" />
        <Con id="81" src="9" tgt="31" wght="0.760854019317776" />
        <Con id="82" src="9" tgt="32" wght="-4.8649551486596465" />
        <Con id="84" src="9" tgt="34" wght="2.7454578666947782" />
        <Con id="87" src="10" tgt="32" wght="4.2717367503792048" />
        <Con id="88" src="10" tgt="33" wght="4.0328873717226088" />
        <Con id="91" src="11" tgt="31" wght="0.35212305607274175" />
        <Con id="95" src="11" tgt="35" wght="4.0412900364026427" />
        <Con id="96" src="12" tgt="31" wght="-3.6852195439860225" />
        <Con id="98" src="12" tgt="33" wght="-1.8898164643906057" />
        <Con id="108" src="14" tgt="33" wght="-1.2824329338036478" />
        <Con id="109" src="14" tgt="34" wght="-4.3522176658734679" />
        <Con id="113" src="15" tgt="33" wght="0.87337319971993566" />
        <Con id="114" src="15" tgt="34" wght="0.27174232061952353" />
        <Con id="115" src="15" tgt="35" wght="4.705705267842859" />
        <Con id="116" src="16" tgt="31" wght="-0.41857099859043956" />
        <Con id="118" src="16" tgt="33" wght="-1.0065834387205541" />
        <Con id="122" src="17" tgt="32" wght="-2.1212733746506274" />
        <Con id="124" src="17" tgt="34" wght="3.2843144005164504" />
        <Con id="125" src="17" tgt="35" wght="3.9465792383998632" />
        <Con id="127" src="18" tgt="32" wght="0.87121108779683709" />
        <Con id="130" src="18" tgt="35" wght="-2.8440475533716381" />
        <Con id="131" src="19" tgt="31" wght="-3.6375983618199825" />
        <Con id="133" src="19" tgt="33" wght="-4.5705825183540583" />
        <Con id="139" src="20" tgt="34" wght="4.1324560227803886" />
        <Con id="141" src="21" tgt="31" wght="3.6367868771776557" />
        <Con id="142" src="21" tgt="32" wght="-0.16799047822132707" />
        <Con id="144" src="21" tgt="34" wght="1.7494357959367335" />
        <Con id="146" src="22" tgt="31" wght="-3.2293091202154756" />
        <Con id="150" src="22" tgt="35" wght="-0.27422226266935468" />
        <Con id="154" src="23" tgt="34" wght="-2.6306084636598825" />
        <Con id="156" src="24" tgt="31" wght="-3.3619463443756104" />
        <Con id="158" src="24" tgt="33" wght="3.6355996807105839" />
        <Con id="159" src="24" tgt="34" wght="2.2076013777405024" />
        <Con id="160" src="24" tgt="35" wght="-3.5380493500269949" />
        <Con id="161" src="25" tgt="31" wght="2.900746245868504" />
        <Con id="164" src="25" tgt="34" wght="1.512449299916625" />
        <Con id="166" src="26" tgt="31" wght="4.78469678433612" />
        <Con id="171" src="27" tgt="31" wght="1.2820713245309889" />
        <Con id="176" src="28" tgt="31" wght="0.45890967128798366" />
        <Con id="177" src="28" tgt="32" wght="-0.11180173140019178" />
        <Con id="179" src="28" tgt="34" wght="-0.55278624407947063" />
        <Con id="180" src="28" tgt="35" wght="3.6253155954182148" />
        <Con id="184" src="29" tgt="34" wght="2.6155666867271066" />
        <Con id="185" src="29" tgt="35" wght="-1.2971044867299497" />
        <Con id="186" src="30" tgt="31" wght="2.052949236240238" />
        <Con id="187" src="30" tgt="32" wght="1.094666738063097" />
        <Con id="190" src="30" tgt="35" wght="0.53186809876933694" />
      </Connections>
    </Network>
    <Network id="6" birthGen="0" fitness="0">
      <Nodes>
        <Node type="bias" id="0" />
        <Node type="in" id="1" />
        <Node type="in" id="2" />
        <Node type="in" id="3" />
        <Node type="in" id="4" />
        <Node type="in" id="5" />
        <Node type="in" id="6" />
        <Node type="in" id="7" />
        <Node type="in" id="8" />
        <Node type="in" id="9" />
        <Node type="in" id="10" />
        <Node type="in" id="11" />
        <Node type="in" id="12" />
        <Node type="in" id="13" />
        <Node type="in" id="14" />
        <Node type="in" id="15" />
        <Node type="in" id="16" />
        <Node type="in" id="17" />
        <Node type="in" id="18" />
        <Node type="in" id="19" />
        <Node type="in" id="20" />
        <Node type="in" id="21" />
        <Node type="in" id="22" />
        <Node type="in" id="23" />
        <Node type="in" id="24" />
        <Node type="in" id="25" />
        <Node type="in" id="26" />
        <Node type="in" id="27" />
        <Node type="in" id="28" />
        <Node type="in" id="29" />
        <Node type="in" id="30" />
        <Node type="out" id="31" />
        <Node type="out" id="32" />
        <Node type="out" id="33" />
        <Node type="out" id="34" />
        <Node type="out" id="35" />
      </Nodes>
      <Connections>
        <Con id="40" src="0" tgt="35" wght="2.8042239276692271" />
        <Con id="45" src="1" tgt="35" wght="-2.7021541981957853" />
        <Con id="50" src="2" tgt="35" wght="4.7860999614931643" />
        <Con id="51" src="3" tgt="31" wght="-4.7488319175317883" />
        <Con id="54" src="3" tgt="34" wght="2.3814307618886232" />
        <Con id="56" src="4" tgt="31" wght="4.9929687147960067" />
        <Con id="57" src="4" tgt="32" wght="1.4121593325398862" />
        <Con id="58" src="4" tgt="33" wght="-1.6990599152632058" />
        <Con id="59" src="4" tgt="34" wght="1.6380662238225341" />
        <Con id="60" src="4" tgt="35" wght="0.3257349506020546" />
        <Con id="61" src="5" tgt="31" wght="-3.0967482808046043" />
        <Con id="63" src="5" tgt="33" wght="-3.5169786657206714" />
        <Con id="64" src="5" tgt="34" wght="0.39942413568496704" />
        <Con id="66" src="6" tgt="31" wght="2.617978707421571" />
        <Con id="68" src="6" tgt="33" wght="4.5769438822753727" />
        <Con id="71" src="7" tgt="31" wght="3.8543572393245995" />
        <Con id="73" src="7" tgt="33" wght="4.2772974469698966" />
        <Con id="75" src="7" tgt="35" wght="-1.4847139734774828" />
        <Con id="78" src="8" tgt="33" wght="4.2580576823093" />
        <Con id="80" src="8" tgt="35" wght="-2.8011953318491578" />
        <Con id="81" src="9" tgt="31" wght="4.96498903259635" />
        <Con id="83" src="9" tgt="33" wght="-3.6634745472110808" />
        <Con id="84" src="9" tgt="34" wght="-0.18570553511381149" />
        <Con id="93" src="11" tgt="33" wght="-0.50936505431309342" />
        <Con id="95" src="11" tgt="35" wght="-0.3287373180501163" />
        <Con id="97" src="12" tgt="32" wght="-3.7613799818791449" />
        <Con id="100" src="12" tgt="35" wght="2.3741244873963296" />
        <Con id="101" src="13" tgt="31" wght="0.12749021174386144" />
        <Con id="102" src="13" tgt="32" wght="3.6890162085182965" />
        <Con id="110" src="14" tgt="35" wght="4.7954433644190431" />
        <Con id="114" src="15" tgt="34" wght="-0.82850112346932292" />
        <Con id="115" src="15" tgt="35" wght="4.7019306640140712" />
        <Con id="117" src="16" tgt="32" wght="-2.3683908488601446" />
        <Con id="118" src="16" tgt="33" wght="4.4392262911424041" />
        <Con id="119" src="16" tgt="34" wght="-3.1664604321122169" />
        <Con id="120" src="16" tgt="35" wght="3.8129286514595151" />
        <Con id="122" src="17" tgt="32" wght="4.1016456880606711" />
        <Con id="126" src="18" tgt="31" wght="-4.15615564212203" />
        <Con id="129" src="18" tgt="34" wght="0.69013524567708373" />
        <Con id="136" src="20" tgt="31" wght="1.5646403236314654" />
        <Con id="137" src="20" tgt="32" wght="4.1903645568527281" />
        <Con id="139" src="20" tgt="34" wght="-0.68789005279541016" />
        <Con id="143" src="21" tgt="33" wght="-1.5909062698483467" />
        <Con id="152" src="23" tgt="32" wght="-3.90815561870113" />
        <Con id="154" src="23" tgt="34" wght="-2.3766154213808477" />
        <Con id="155" src="23" tgt="35" wght="-4.568128171376884" />
        <Con id="156" src="24" tgt="31" wght="3.7684520753100514" />
        <Con id="158" src="24" tgt="33" wght="-2.6826575887389481" />
        <Con id="163" src="25" tgt="33" wght="-0.607650971505791" />
        <Con id="166" src="26" tgt="31" wght="3.9040320692583919" />
        <Con id="175" src="27" tgt="35" wght="2.5999860838055611" />
        <Con id="176" src="28" tgt="31" wght="-3.6621481017209589" />
        <Con id="177" src="28" tgt="32" wght="2.714474112726748" />
        <Con id="179" src="28" tgt="34" wght="-0.47652175417169929" />
        <Con id="180" src="28" tgt="35" wght="-3.7506181187927723" />
        <Con id="182" src="29" tgt="32" wght="-0.19491829909384251" />
        <Con id="183" src="29" tgt="33" wght="4.5231302548199892" />
        <Con id="184" src="29" tgt="34" wght="-0.96064699115231633" />
        <Con id="185" src="29" tgt="35" wght="-3.2098476868122816" />
        <Con id="187" src="30" tgt="32" wght="-1.3730917358770967" />
        <Con id="188" src="30" tgt="33" wght="-2.9053528374060988" />
        <Con id="190" src="30" tgt="35" wght="-1.764016121160239" />
      </Connections>
    </Network>
    <Network id="7" birthGen="0" fitness="0">
      <Nodes>
        <Node type="bias" id="0" />
        <Node type="in" id="1" />
        <Node type="in" id="2" />
        <Node type="in" id="3" />
        <Node type="in" id="4" />
        <Node type="in" id="5" />
        <Node type="in" id="6" />
        <Node type="in" id="7" />
        <Node type="in" id="8" />
        <Node type="in" id="9" />
        <Node type="in" id="10" />
        <Node type="in" id="11" />
        <Node type="in" id="12" />
        <Node type="in" id="13" />
        <Node type="in" id="14" />
        <Node type="in" id="15" />
        <Node type="in" id="16" />
        <Node type="in" id="17" />
        <Node type="in" id="18" />
        <Node type="in" id="19" />
        <Node type="in" id="20" />
        <Node type="in" id="21" />
        <Node type="in" id="22" />
        <Node type="in" id="23" />
        <Node type="in" id="24" />
        <Node type="in" id="25" />
        <Node type="in" id="26" />
        <Node type="in" id="27" />
        <Node type="in" id="28" />
        <Node type="in" id="29" />
        <Node type="in" id="30" />
        <Node type="out" id="31" />
        <Node type="out" id="32" />
        <Node type="out" id="33" />
        <Node type="out" id="34" />
        <Node type="out" id="35" />
      </Nodes>
      <Connections>
        <Con id="38" src="0" tgt="33" wght="-3.4742931462824345" />
        <Con id="39" src="0" tgt="34" wght="4.720751813147217" />
        <Con id="42" src="1" tgt="32" wght="-0.80735652009025216" />
        <Con id="44" src="1" tgt="34" wght="-1.0387985757552087" />
        <Con id="47" src="2" tgt="32" wght="4.848910067230463" />
        <Con id="48" src="2" tgt="33" wght="-4.0967833390459418" />
        <Con id="49" src="2" tgt="34" wght="-0.49966153455898166" />
        <Con id="50" src="2" tgt="35" wght="1.2109529413282871" />
        <Con id="53" src="3" tgt="33" wght="-2.451701695099473" />
        <Con id="54" src="3" tgt="34" wght="0.5420395266264677" />
        <Con id="55" src="3" tgt="35" wght="-2.6393399154767394" />
        <Con id="56" src="4" tgt="31" wght="-2.8877134923823178" />
        <Con id="61" src="5" tgt="31" wght="4.6918273158371449" />
        <Con id="64" src="5" tgt="34" wght="3.1986870686523616" />
        <Con id="67" src="6" tgt="32" wght="3.3864099252969027" />
        <Con id="69" src="6" tgt="34" wght="2.7810273482464254" />
        <Con id="70" src="6" tgt="35" wght="4.3903024075552821" />
        <Con id="71" src="7" tgt="31" wght="4.4087491044774652" />
        <Con id="73" src="7" tgt="33" wght="3.6074156197719276" />
        <Con id="74" src="7" tgt="34" wght="-2.7214676421135664" />
        <Con id="76" src="8" tgt="31" wght="3.9109596912749112" />
        <Con id="78" src="8" tgt="33" wght="4.9106677831150591" />
        <Con id="79" src="8" tgt="34" wght="-1.0583539772778749" />
        <Con id="80" src="8" tgt="35" wght="-4.0359240560792387" />
        <Con id="87" src="10" tgt="32" wght="-1.8014637264423072" />
        <Con id="88" src="10" tgt="33" wght="-2.6371336402371526" />
        <Con id="94" src="11" tgt="34" wght="1.0062773572281003" />
        <Con id="95" src="11" tgt="35" wght="2.5067358091473579" />
        <Con id="99" src="12" tgt="34" wght="-4.4350132159888744" />
        <Con id="103" src="13" tgt="33" wght="-0.85812709294259548" />
        <Con id="104" src="13" tgt="34" wght="2.7894721110351384" />
        <Con id="105" src="13" tgt="35" wght="-4.1787100466899574" />
        <Con id="107" src="14" tgt="32" wght="1.4481958118267357" />
        <Con id="109" src="14" tgt="34" wght="3.3819691184908152" />
        <Con id="111" src="15" tgt="31" wght="0.030431407503783703" />
        <Con id="112" src="15" tgt="32" wght="-2.5034837331622839" />
        <Con id="113" src="15" tgt="33" wght="4.5765899866819382" />
        <Con id="114" src="15" tgt="34" wght="-3.7036189064383507" />
        <Con id="117" src="16" tgt="32" wght="-1.9309592992067337" />
        <Con id="118" src="16" tgt="33" wght="0.12272741179913282" />
        <Con id="125" src="17" tgt="35" wght="-0.99210798740386963" />
        <Con id="126" src="18" tgt="31" wght="1.3570635346695781" />
        <Con id="130" src="18" tgt="35" wght="-2.6494409586302936" />
        <Con id="132" src="19" tgt="32" wght="0.481114040594548" />
        <Con id="133" src="19" tgt="33" wght="4.1688484768383205" />
        <Con id="137" src="20" tgt="32" wght="4.1793641448020935" />
        <Con id="139" src="20" tgt="34" wght="1.0677378647960722" />
        <Con id="140" src="20" tgt="35" wght="-1.115517548751086" />
        <Con id="143" src="21" tgt="33" wght="2.1371568064205348" />
        <Con id="145" src="21" tgt="35" wght="-2.1174434735439718" />
        <Con id="147" src="22" tgt="32" wght="-2.93735095532611" />
        <Con id="152" src="23" tgt="32" wght="3.1660225964151323" />
        <Con id="157" src="24" tgt="32" wght="3.035132463555783" />
        <Con id="158" src="24" tgt="33" wght="-4.4650795962661505" />
        <Con id="159" src="24" tgt="34" wght="3.0029315175488591" />
        <Con id="160" src="24" tgt="35" wght="-1.6577417403459549" />
        <Con id="164" src="25" tgt="34" wght="3.2750377245247364" />
        <Con id="165" src="25" tgt="35" wght="1.2943987315520644" />
        <Con id="167" src="26" tgt="32" wght="2.9030074644833803" />
        <Con id="172" src="27" tgt="32" wght="4.4015892781317234" />
        <Con id="180" src="28" tgt="35" wght="3.9897897257469594" />
        <Con id="189" src="30" tgt="34" wght="0.38877140730619431" />
      </Connections>
    </Network>
    <Network id="8" birthGen="0" fitness="0">
      <Nodes>
        <Node type="bias" id="0" />
        <Node type="in" id="1" />
        <Node type="in" id="2" />
        <Node type="in" id="3" />
        <Node type="in" id="4" />
        <Node type="in" id="5" />
        <Node type="in" id="6" />
        <Node type="in" id="7" />
        <Node type="in" id="8" />
        <Node type="in" id="9" />
        <Node type="in" id="10" />
        <Node type="in" id="11" />
        <Node type="in" id="12" />
        <Node type="in" id="13" />
        <Node type="in" id="14" />
        <Node type="in" id="15" />
        <Node type="in" id="16" />
        <Node type="in" id="17" />
        <Node type="in" id="18" />
        <Node type="in" id="19" />
        <Node type="in" id="20" />
        <Node type="in" id="21" />
        <Node type="in" id="22" />
        <Node type="in" id="23" />
        <Node type="in" id="24" />
        <Node type="in" id="25" />
        <Node type="in" id="26" />
        <Node type="in" id="27" />
        <Node type="in" id="28" />
        <Node type="in" id="29" />
        <Node type="in" id="30" />
        <Node type="out" id="31" />
        <Node type="out" id="32" />
        <Node type="out" id="33" />
        <Node type="out" id="34" />
        <Node type="out" id="35" />
      </Nodes>
      <Connections>
        <Con id="36" src="0" tgt="31" wght="-4.9669692828319967" />
        <Con id="37" src="0" tgt="32" wght="-0.50893194042146206" />
        <Con id="38" src="0" tgt="33" wght="-4.5035566110163927" />
        <Con id="41" src="1" tgt="31" wght="-4.434501389041543" />
        <Con id="42" src="1" tgt="32" wght="-1.9733299105428159" />
        <Con id="43" src="1" tgt="33" wght="-1.6856415010988712" />
        <Con id="44" src="1" tgt="34" wght="0.26718788547441363" />
        <Con id="47" src="2" tgt="32" wght="-2.3211930436082184" />
        <Con id="48" src="2" tgt="33" wght="-2.9414397943764925" />
        <Con id="49" src="2" tgt="34" wght="-4.8505885992199183" />
        <Con id="50" src="2" tgt="35" wght="1.02067252388224" />
        <Con id="51" src="3" tgt="31" wght="3.5850476915948093" />
        <Con id="53" src="3" tgt="33" wght="0.37950708298012614" />
        <Con id="54" src="3" tgt="34" wght="0.53293731762096286" />
        <Con id="56" src="4" tgt="31" wght="4.9235812923870981" />
        <Con id="59" src="4" tgt="34" wght="-0.62868310604244471" />
        <Con id="60" src="4" tgt="35" wght="-1.8784114648588002" />
        <Con id="61" src="5" tgt="31" wght="1.7093167267739773" />
        <Con id="66" src="6" tgt="31" wght="2.6916476967744529" />
        <Con id="67" src="6" tgt="32" wght="2.6690420368686318" />
        <Con id="68" src="6" tgt="33" wght="3.0956321791745722" />
        <Con id="69" src="6" tgt="34" wght="-2.1518834889866412" />
        <Con id="72" src="7" tgt="32" wght="-1.128594153560698" />
        <Con id="74" src="7" tgt="34" wght="3.0314881075173616" />
        <Con id="75" src="7" tgt="35" wght="3.379356344230473" />
        <Con id="80" src="8" tgt="35" wght="1.7874450515955687" />
        <Con id="81" src="9" tgt="31" wght="-1.6790810693055391" />
        <Con id="82" src="9" tgt="32" wght="1.5836278768256307" />
        <Con id="84" src="9" tgt="34" wght="-4.8611481999978423" />
        <Con id="85" src="9" tgt="35" wght="-3.3170011383481324" />
        <Con id="89" src="10" tgt="34" wght="3.3574785641394556" />
        <Con id="90" src="10" tgt="35" wght="-1.1205059057101607" />
        <Con id="96" src="12" tgt="31" wght="1.3798556779511273" />
        <Con id="100" src="12" tgt="35" wght="-3.991304961964488" />
        <Con id="103" src="13" tgt="33" wght="1.7750194389373064" />
        <Con id="106" src="14" tgt="31" wght="-4.5629881811328232" />
        <Con id="107" src="14" tgt="32" wght="3.8824021560139954" />
        <Con id="109" src="14" tgt="34" wght="-1.737367759924382" />
        <Con id="110" src="14" tgt="35" wght="2.5834882562048733" />
        <Con id="112" src="15" tgt="32" wght="-3.9111096458509564" />
        <Con id="113" src="15" tgt="33" wght="-4.2060567950829864" />
        <Con id="120" src="16" tgt="35" wght="-0.4697448736988008" />
        <Con id="123" src="17" tgt="33" wght="-0.070702510420233011" />
        <Con id="128" src="18" tgt="33" wght="-3.7297748657874763" />
        <Con id="129" src="18" tgt="34" wght="-1.3827976793982089" />
        <Con id="131" src="19" tgt="31" wght="4.032036098651588" />
        <Con id="134" src="19" tgt="34" wght="-1.175879689399153" />
        <Con id="135" src="19" tgt="35" wght="-0.38667307700961828" />
        <Con id="136" src="20" tgt="31" wght="-4.6693249372765422" />
        <Con id="138" src="20" tgt="33" wght="3.1628843932412565" />
        <Con id="139" src="20" tgt="34" wght="-2.7419401914812624" />
        <Con id="141" src="21" tgt="31" wght="0.82062764326110482" />
        <Con id="143" src="21" tgt="33" wght="4.5334505778737366" />
        <Con id="148" src="22" tgt="33" wght="-3.7087784823961556" />
        <Con id="150" src="22" tgt="35" wght="4.9241923773661256" />
        <Con id="152" src="23" tgt="32" wght="2.706625412683934" />
        <Con id="156" src="24" tgt="31" wght="-4.831066788174212" />
        <Con id="157" src="24" tgt="32" wght="-3.9779621758498251" />
        <Con id="162" src="25" tgt="32" wght="-1.3522530137561262" />
        <Con id="167" src="26" tgt="32" wght="3.926721615716815" />
        <Con id="181" src="29" tgt="31" wght="3.8314110552892089" />
        <Con id="184" src="29" tgt="34" wght="-1.9270609365776181" />
      </Connections>
    </Network>
    <Network id="9" birthGen="0" fitness="0">
      <Nodes>
        <Node type="bias" id="0" />
        <Node type="in" id="1" />
        <Node type="in" id="2" />
        <Node type="in" id="3" />
        <Node type="in" id="4" />
        <Node type="in" id="5" />
        <Node type="in" id="6" />
        <Node type="in" id="7" />
        <Node type="in" id="8" />
        <Node type="in" id="9" />
        <Node type="in" id="10" />
        <Node type="in" id="11" />
        <Node type="in" id="12" />
        <Node type="in" id="13" />
        <Node type="in" id="14" />
        <Node type="in" id="15" />
        <Node type="in" id="16" />
        <Node type="in" id="17" />
        <Node type="in" id="18" />
        <Node type="in" id="19" />
        <Node type="in" id="20" />
        <Node type="in" id="21" />
        <Node type="in" id="22" />
        <Node type="in" id="23" />
        <Node type="in" id="24" />
        <Node type="in" id="25" />
        <Node type="in" id="26" />
        <Node type="in" id="27" />
        <Node type="in" id="28" />
        <Node type="in" id="29" />
        <Node type="in" id="30" />
        <Node type="out" id="31" />
        <Node type="out" id="32" />
        <Node type="out" id="33" />
        <Node type="out" id="34" />
        <Node type="out" id="35" />
      </Nodes>
      <Connections>
        <Con id="36" src="0" tgt="31" wght="2.9550099791958928" />
        <Con id="37" src="0" tgt="32" wght="-1.6960302414372563" />
        <Con id="38" src="0" tgt="33" wght="-3.5529161267913878" />
        <Con id="42" src="1" tgt="32" wght="1.0049645998515189" />
        <Con id="43" src="1" tgt="33" wght="-1.9199345679953694" />
        <Con id="47" src="2" tgt="32" wght="-2.2655117837712169" />
        <Con id="50" src="2" tgt="35" wght="-0.01910459017381072" />
        <Con id="53" src="3" tgt="33" wght="0.18645078176632524" />
        <Con id="55" src="3" tgt="35" wght="1.9874937529675663" />
        <Con id="57" src="4" tgt="32" wght="-4.4875745242461562" />
        <Con id="58" src="4" tgt="33" wght="-3.4579356899484992" />
        <Con id="60" src="4" tgt="35" wght="-1.3347787922248244" />
        <Con id="66" src="6" tgt="31" wght="3.9237556746229529" />
        <Con id="68" src="6" tgt="33" wght="1.5797103219665587" />
        <Con id="71" src="7" tgt="31" wght="-3.23994287988171" />
        <Con id="72" src="7" tgt="32" wght="-3.915530398953706" />
        <Con id="73" src="7" tgt="33" wght="3.3997107460163534" />
        <Con id="74" src="7" tgt="34" wght="-0.04971212474629283" />
        <Con id="75" src="7" tgt="35" wght="-4.88239252474159" />
        <Con id="76" src="8" tgt="31" wght="-2.8600312909111381" />
        <Con id="88" src="10" tgt="33" wght="1.2327135144732893" />
        <Con id="92" src="11" tgt="32" wght="-2.35826259246096" />
        <Con id="93" src="11" tgt="33" wght="3.872804562561214" />
        <Con id="94" src="11" tgt="34" wght="2.9051416041329503" />
        <Con id="95" src="11" tgt="35" wght="4.3009505653753877" />
        <Con id="97" src="12" tgt="32" wght="-3.2839382393285632" />
        <Con id="101" src="13" tgt="31" wght="0.41894824942573905" />
        <Con id="102" src="13" tgt="32" wght="0.78072194242849946" />
        <Con id="104" src="13" tgt="34" wght="-1.4635315793566406" />
        <Con id="105" src="13" tgt="35" wght="-0.9144478477537632" />
        <Con id="106" src="14" tgt="31" wght="-0.32863406464457512" />
        <Con id="107" src="14" tgt="32" wght="4.0017454163171351" />
        <Con id="110" src="14" tgt="35" wght="3.4158218302764" />
        <Con id="111" src="15" tgt="31" wght="-0.72826838353648782" />
        <Con id="114" src="15" tgt="34" wght="-3.1596197537146509" />
        <Con id="116" src="16" tgt="31" wght="-2.1804024325683713" />
        <Con id="118" src="16" tgt="33" wght="-3.0019836802966893" />
        <Con id="121" src="17" tgt="31" wght="-0.30149264726787806" />
        <Con id="122" src="17" tgt="32" wght="4.3248344957828522" />
        <Con id="123" src="17" tgt="33" wght="-0.079002475831657648" />
        <Con id="126" src="18" tgt="31" wght="4.7880376665852964" />
        <Con id="131" src="19" tgt="31" wght="-1.1185490409843624" />
        <Con id="132" src="19" tgt="32" wght="2.3197544575668871" />
        <Con id="133" src="19" tgt="33" wght="0.42527925223112106" />
        <Con id="134" src="19" tgt="34" wght="-1.6919627855531871" />
        <Con id="140" src="20" tgt="35" wght="0.46960762469097972" />
        <Con id="141" src="21" tgt="31" wght="0.88315543718636036" />
        <Con id="143" src="21" tgt="33" wght="-3.7131137493997812" />
        <Con id="146" src="22" tgt="31" wght="-1.1196166300214827" />
        <Con id="147" src="22" tgt="32" wght="-4.00983446277678" />
        <Con id="150" src="22" tgt="35" wght="2.2969518089666963" />
        <Con id="151" src="23" tgt="31" wght="1.2671801703982055" />
        <Con id="160" src="24" tgt="35" wght="-4.5320694730617106" />
        <Con id="161" src="25" tgt="31" wght="-1.5544091630727053" />
        <Con id="165" src="25" tgt="35" wght="0.0015457579866051674" />
        <Con id="167" src="26" tgt="32" wght="4.8988787201233208" />
        <Con id="169" src="26" tgt="34" wght="2.8488530125468969" />
        <Con id="171" src="27" tgt="31" wght="-2.8640611562877893" />
        <Con id="174" src="27" tgt="34" wght="2.7584443427622318" />
        <Con id="183" src="29" tgt="33" wght="3.880397672764957" />
        <Con id="187" src="30" tgt="32" wght="-1.8547059199772775" />
        <Con id="190" src="30" tgt="35" wght="-4.0621866728179157" />
      </Connections>
    </Network>
    <Network id="10" birthGen="0" fitness="0">
      <Nodes>
        <Node type="bias" id="0" />
        <Node type="in" id="1" />
        <Node type="in" id="2" />
        <Node type="in" id="3" />
        <Node type="in" id="4" />
        <Node type="in" id="5" />
        <Node type="in" id="6" />
        <Node type="in" id="7" />
        <Node type="in" id="8" />
        <Node type="in" id="9" />
        <Node type="in" id="10" />
        <Node type="in" id="11" />
        <Node type="in" id="12" />
        <Node type="in" id="13" />
        <Node type="in" id="14" />
        <Node type="in" id="15" />
        <Node type="in" id="16" />
        <Node type="in" id="17" />
        <Node type="in" id="18" />
        <Node type="in" id="19" />
        <Node type="in" id="20" />
        <Node type="in" id="21" />
        <Node type="in" id="22" />
        <Node type="in" id="23" />
        <Node type="in" id="24" />
        <Node type="in" id="25" />
        <Node type="in" id="26" />
        <Node type="in" id="27" />
        <Node type="in" id="28" />
        <Node type="in" id="29" />
        <Node type="in" id="30" />
        <Node type="out" id="31" />
        <Node type="out" id="32" />
        <Node type="out" id="33" />
        <Node type="out" id="34" />
        <Node type="out" id="35" />
      </Nodes>
      <Connections>
        <Con id="36" src="0" tgt="31" wght="-9.2687550932168961E-05" />
        <Con id="38" src="0" tgt="33" wght="3.57997935032472" />
        <Con id="43" src="1" tgt="33" wght="-0.55131945526227355" />
        <Con id="44" src="1" tgt="34" wght="-1.4715847931802273" />
        <Con id="48" src="2" tgt="33" wght="-2.0691598067060113" />
        <Con id="52" src="3" tgt="32" wght="2.2419144050218165" />
        <Con id="53" src="3" tgt="33" wght="0.75217343168333173" />
        <Con id="54" src="3" tgt="34" wght="-4.2089267680421472" />
        <Con id="55" src="3" tgt="35" wght="-1.0125128738582134" />
        <Con id="58" src="4" tgt="33" wght="3.2348110503517091" />
        <Con id="60" src="4" tgt="35" wght="-2.7227630256675184" />
        <Con id="61" src="5" tgt="31" wght="-0.27806518599390984" />
        <Con id="62" src="5" tgt="32" wght="-1.3681312138214707" />
        <Con id="69" src="6" tgt="34" wght="-1.3725297432392836" />
        <Con id="71" src="7" tgt="31" wght="-0.31901644775643945" />
        <Con id="74" src="7" tgt="34" wght="-3.067998019978404" />
        <Con id="75" src="7" tgt="35" wght="-1.34858324425295" />
        <Con id="76" src="8" tgt="31" wght="3.7414541537873447" />
        <Con id="79" src="8" tgt="34" wght="3.2077338267117739" />
        <Con id="80" src="8" tgt="35" wght="1.4713509008288383" />
        <Con id="81" src="9" tgt="31" wght="0.84577490342780948" />
        <Con id="83" src="9" tgt="33" wght="3.8791350368410349" />
        <Con id="86" src="10" tgt="31" wght="-3.5528755583800375" />
        <Con id="90" src="10" tgt="35" wght="-0.395219549536705" />
        <Con id="96" src="12" tgt="31" wght="-3.1146084610372782" />
        <Con id="97" src="12" tgt="32" wght="-4.4216207810677588" />
        <Con id="99" src="12" tgt="34" wght="0.060664864722639322" />
        <Con id="103" src="13" tgt="33" wght="-1.4097742666490376" />
        <Con id="104" src="13" tgt="34" wght="2.760569523088634" />
        <Con id="108" src="14" tgt="33" wght="-0.57667677057906985" />
        <Con id="109" src="14" tgt="34" wght="-2.1368662640452385" />
        <Con id="114" src="15" tgt="34" wght="-4.5230423402972519" />
        <Con id="116" src="16" tgt="31" wght="2.7952676708810031" />
        <Con id="120" src="16" tgt="35" wght="0.61285228002816439" />
        <Con id="123" src="17" tgt="33" wght="-2.2100186487659812" />
        <Con id="124" src="17" tgt="34" wght="-3.6539369728416204" />
        <Con id="126" src="18" tgt="31" wght="1.9719572924077511" />
        <Con id="127" src="18" tgt="32" wght="-2.6079106563702226" />
        <Con id="132" src="19" tgt="32" wght="3.47435565199703" />
        <Con id="136" src="20" tgt="31" wght="-2.0537317590788007" />
        <Con id="137" src="20" tgt="32" wght="-1.1965186358429492" />
        <Con id="138" src="20" tgt="33" wght="-1.6212834813632071" />
        <Con id="139" src="20" tgt="34" wght="3.0659068166278303" />
        <Con id="140" src="20" tgt="35" wght="1.539370003156364" />
        <Con id="144" src="21" tgt="34" wght="-2.09786826511845" />
        <Con id="145" src="21" tgt="35" wght="0.39166873088106513" />
        <Con id="148" src="22" tgt="33" wght="4.0939621557481587" />
        <Con id="151" src="23" tgt="31" wght="4.1719941049814224" />
        <Con id="155" src="23" tgt="35" wght="3.1587397772818804" />
        <Con id="156" src="24" tgt="31" wght="3.856368800625205" />
        <Con id="160" src="24" tgt="35" wght="4.1571584017947316" />
        <Con id="162" src="25" tgt="32" wght="-2.1349244145676494" />
        <Con id="163" src="25" tgt="33" wght="-1.953499554656446" />
        <Con id="164" src="25" tgt="34" wght="0.29891838785260916" />
        <Con id="168" src="26" tgt="33" wght="-1.0566208511590958" />
        <Con id="171" src="27" tgt="31" wght="3.7177476799115539" />
        <Con id="173" src="27" tgt="33" wght="1.7079059686511755" />
        <Con id="176" src="28" tgt="31" wght="-2.0390716521069407" />
        <Con id="177" src="28" tgt="32" wght="4.3464044737629592" />
        <Con id="185" src="29" tgt="35" wght="0.011867240536957979" />
        <Con id="187" src="30" tgt="32" wght="4.5410626707598567" />
        <Con id="190" src="30" tgt="35" wght="4.7102712164632976" />
      </Connections>
    </Network>
    <Network id="11" birthGen="0" fitness="0">
      <Nodes>
        <Node type="bias" id="0" />
        <Node type="in" id="1" />
        <Node type="in" id="2" />
        <Node type="in" id="3" />
        <Node type="in" id="4" />
        <Node type="in" id="5" />
        <Node type="in" id="6" />
        <Node type="in" id="7" />
        <Node type="in" id="8" />
        <Node type="in" id="9" />
        <Node type="in" id="10" />
        <Node type="in" id="11" />
        <Node type="in" id="12" />
        <Node type="in" id="13" />
        <Node type="in" id="14" />
        <Node type="in" id="15" />
        <Node type="in" id="16" />
        <Node type="in" id="17" />
        <Node type="in" id="18" />
        <Node type="in" id="19" />
        <Node type="in" id="20" />
        <Node type="in" id="21" />
        <Node type="in" id="22" />
        <Node type="in" id="23" />
        <Node type="in" id="24" />
        <Node type="in" id="25" />
        <Node type="in" id="26" />
        <Node type="in" id="27" />
        <Node type="in" id="28" />
        <Node type="in" id="29" />
        <Node type="in" id="30" />
        <Node type="out" id="31" />
        <Node type="out" id="32" />
        <Node type="out" id="33" />
        <Node type="out" id="34" />
        <Node type="out" id="35" />
      </Nodes>
      <Connections>
        <Con id="38" src="0" tgt="33" wght="0.04482652060687542" />
        <Con id="40" src="0" tgt="35" wght="-2.5343484384939075" />
        <Con id="41" src="1" tgt="31" wght="0.20248007262125611" />
        <Con id="43" src="1" tgt="33" wght="-4.2278445465490222" />
        <Con id="44" src="1" tgt="34" wght="2.96394468517974" />
        <Con id="48" src="2" tgt="33" wght="2.7886748616583645" />
        <Con id="50" src="2" tgt="35" wght="0.00730942003428936" />
        <Con id="52" src="3" tgt="32" wght="-4.5778938801959157" />
        <Con id="56" src="4" tgt="31" wght="0.71303755743429065" />
        <Con id="58" src="4" tgt="33" wght="4.3945154477842152" />
        <Con id="59" src="4" tgt="34" wght="3.0600863415747881" />
        <Con id="60" src="4" tgt="35" wght="2.01059112790972" />
        <Con id="64" src="5" tgt="34" wght="-0.20955736050382257" />
        <Con id="65" src="5" tgt="35" wght="-2.687722397968173" />
        <Con id="68" src="6" tgt="33" wght="1.2247411720454693" />
        <Con id="70" src="6" tgt="35" wght="4.8397328471764922" />
        <Con id="72" src="7" tgt="32" wght="-4.4559403695166111" />
        <Con id="73" src="7" tgt="33" wght="1.4509972697123885" />
        <Con id="77" src="8" tgt="32" wght="-1.5475704916752875" />
        <Con id="79" src="8" tgt="34" wght="-2.1535907709039748" />
        <Con id="81" src="9" tgt="31" wght="0.055919724982231855" />
        <Con id="82" src="9" tgt="32" wght="0.427671370562166" />
        <Con id="84" src="9" tgt="34" wght="2.0532840234227479" />
        <Con id="86" src="10" tgt="31" wght="-1.2243161536753178" />
        <Con id="87" src="10" tgt="32" wght="3.00878643989563" />
        <Con id="92" src="11" tgt="32" wght="2.4818763486109674" />
        <Con id="93" src="11" tgt="33" wght="-0.15106354840099812" />
        <Con id="96" src="12" tgt="31" wght="-2.0056566433049738" />
        <Con id="98" src="12" tgt="33" wght="4.149450056720525" />
        <Con id="100" src="12" tgt="35" wght="3.1397988181561232" />
        <Con id="101" src="13" tgt="31" wght="-0.85539424326270819" />
        <Con id="102" src="13" tgt="32" wght="-2.7815380180254579" />
        <Con id="106" src="14" tgt="31" wght="2.9638415784575045" />
        <Con id="108" src="14" tgt="33" wght="-2.8293275856412947" />
        <Con id="109" src="14" tgt="34" wght="-1.4295965316705406" />
        <Con id="110" src="14" tgt="35" wght="-0.62718050554394722" />
        <Con id="118" src="16" tgt="33" wght="-1.5838099829852581" />
        <Con id="119" src="16" tgt="34" wght="-2.1610803832300007" />
        <Con id="120" src="16" tgt="35" wght="4.5178420073352754" />
        <Con id="122" src="17" tgt="32" wght="-4.1316181747242808" />
        <Con id="127" src="18" tgt="32" wght="2.2596535924822092" />
        <Con id="128" src="18" tgt="33" wght="-0.74892550939694047" />
        <Con id="132" src="19" tgt="32" wght="-1.7555096303112805" />
        <Con id="133" src="19" tgt="33" wght="4.675112827681005" />
        <Con id="135" src="19" tgt="35" wght="4.5763966464437544" />
        <Con id="140" src="20" tgt="35" wght="-4.38392783049494" />
        <Con id="141" src="21" tgt="31" wght="-2.4263303983025253" />
        <Con id="146" src="22" tgt="31" wght="3.2402079645544291" />
        <Con id="148" src="22" tgt="33" wght="-0.412342909257859" />
        <Con id="151" src="23" tgt="31" wght="-3.8949891552329063" />
        <Con id="158" src="24" tgt="33" wght="4.4209337513893843" />
        <Con id="159" src="24" tgt="34" wght="-2.4341310746967793" />
        <Con id="160" src="24" tgt="35" wght="-3.885067324154079" />
        <Con id="163" src="25" tgt="33" wght="-4.7769807022996247" />
        <Con id="167" src="26" tgt="32" wght="-3.0872354446910322" />
        <Con id="170" src="26" tgt="35" wght="-2.736041855532676" />
        <Con id="172" src="27" tgt="32" wght="3.7525445455685258" />
        <Con id="178" src="28" tgt="33" wght="-4.8002148838713765" />
        <Con id="180" src="28" tgt="35" wght="-0.83167725242674351" />
        <Con id="185" src="29" tgt="35" wght="4.30024461587891" />
        <Con id="188" src="30" tgt="33" wght="4.4825283042155206" />
        <Con id="190" src="30" tgt="35" wght="-1.3256826926954091" />
      </Connections>
    </Network>
    <Network id="12" birthGen="0" fitness="0">
      <Nodes>
        <Node type="bias" id="0" />
        <Node type="in" id="1" />
        <Node type="in" id="2" />
        <Node type="in" id="3" />
        <Node type="in" id="4" />
        <Node type="in" id="5" />
        <Node type="in" id="6" />
        <Node type="in" id="7" />
        <Node type="in" id="8" />
        <Node type="in" id="9" />
        <Node type="in" id="10" />
        <Node type="in" id="11" />
        <Node type="in" id="12" />
        <Node type="in" id="13" />
        <Node type="in" id="14" />
        <Node type="in" id="15" />
        <Node type="in" id="16" />
        <Node type="in" id="17" />
        <Node type="in" id="18" />
        <Node type="in" id="19" />
        <Node type="in" id="20" />
        <Node type="in" id="21" />
        <Node type="in" id="22" />
        <Node type="in" id="23" />
        <Node type="in" id="24" />
        <Node type="in" id="25" />
        <Node type="in" id="26" />
        <Node type="in" id="27" />
        <Node type="in" id="28" />
        <Node type="in" id="29" />
        <Node type="in" id="30" />
        <Node type="out" id="31" />
        <Node type="out" id="32" />
        <Node type="out" id="33" />
        <Node type="out" id="34" />
        <Node type="out" id="35" />
      </Nodes>
      <Connections>
        <Con id="36" src="0" tgt="31" wght="2.2840350400656462" />
        <Con id="37" src="0" tgt="32" wght="1.1995894531719387" />
        <Con id="38" src="0" tgt="33" wght="-0.26553323958069086" />
        <Con id="40" src="0" tgt="35" wght="0.6023533153347671" />
        <Con id="41" src="1" tgt="31" wght="4.1821226384490728" />
        <Con id="47" src="2" tgt="32" wght="2.4085189239121974" />
        <Con id="51" src="3" tgt="31" wght="2.6597981597296894" />
        <Con id="52" src="3" tgt="32" wght="3.669945215806365" />
        <Con id="55" src="3" tgt="35" wght="1.8316831742413342" />
        <Con id="56" src="4" tgt="31" wght="-0.20784232998266816" />
        <Con id="58" src="4" tgt="33" wght="1.6858743317425251" />
        <Con id="60" src="4" tgt="35" wght="4.9124636105261743" />
        <Con id="61" src="5" tgt="31" wght="-2.119693816639483" />
        <Con id="66" src="6" tgt="31" wght="-4.393812466878444" />
        <Con id="72" src="7" tgt="32" wght="-4.6399566414766014" />
        <Con id="80" src="8" tgt="35" wght="-0.0039707217365503311" />
        <Con id="84" src="9" tgt="34" wght="-4.5637067849747837" />
        <Con id="88" src="10" tgt="33" wght="1.7547704838216305" />
        <Con id="94" src="11" tgt="34" wght="3.2067539403215051" />
        <Con id="95" src="11" tgt="35" wght="-1.8487271759659052" />
        <Con id="96" src="12" tgt="31" wght="-3.477287869900465" />
        <Con id="97" src="12" tgt="32" wght="4.4147121906280518" />
        <Con id="98" src="12" tgt="33" wght="0.8282948867417872" />
        <Con id="99" src="12" tgt="34" wght="0.2562920656055212" />
        <Con id="100" src="12" tgt="35" wght="1.0253316070884466" />
        <Con id="103" src="13" tgt="33" wght="-2.9793695430271327" />
        <Con id="105" src="13" tgt="35" wght="4.2265882273204625" />
        <Con id="106" src="14" tgt="31" wght="-2.7129669953137636" />
        <Con id="112" src="15" tgt="32" wght="-4.7651262301951647" />
        <Con id="113" src="15" tgt="33" wght="0.41242165956646204" />
        <Con id="114" src="15" tgt="34" wght="3.75749243889004" />
        <Con id="115" src="15" tgt="35" wght="-3.8783121760934591" />
        <Con id="116" src="16" tgt="31" wght="-0.1970522990450263" />
        <Con id="118" src="16" tgt="33" wght="0.41521852603182197" />
        <Con id="122" src="17" tgt="32" wght="4.8705632495693862" />
        <Con id="123" src="17" tgt="33" wght="2.0891446294263005" />
        <Con id="125" src="17" tgt="35" wght="-1.0247920756228268" />
        <Con id="126" src="18" tgt="31" wght="4.3268142151646316" />
        <Con id="128" src="18" tgt="33" wght="1.05131097137928" />
        <Con id="131" src="19" tgt="31" wght="2.3574872128665447" />
        <Con id="132" src="19" tgt="32" wght="4.8970021307468414" />
        <Con id="135" src="19" tgt="35" wght="-4.97805381892249" />
        <Con id="137" src="20" tgt="32" wght="-1.7451251344755292" />
        <Con id="138" src="20" tgt="33" wght="2.2268354892730713" />
        <Con id="139" src="20" tgt="34" wght="-1.6130303614772856" />
        <Con id="140" src="20" tgt="35" wght="1.787859161850065" />
        <Con id="146" src="22" tgt="31" wght="-1.1215203930623829" />
        <Con id="149" src="22" tgt="34" wght="-2.1104657812975347" />
        <Con id="154" src="23" tgt="34" wght="2.3881637351587415" />
        <Con id="157" src="24" tgt="32" wght="-1.9490592111833394" />
        <Con id="160" src="24" tgt="35" wght="-1.9987756782211363" />
        <Con id="162" src="25" tgt="32" wght="-2.7127730567008257" />
        <Con id="163" src="25" tgt="33" wght="3.5516882757656276" />
        <Con id="164" src="25" tgt="34" wght="1.2124788830988109" />
        <Con id="169" src="26" tgt="34" wght="-2.6448429096490145" />
        <Con id="174" src="27" tgt="34" wght="-1.7933524190448225" />
        <Con id="176" src="28" tgt="31" wght="4.5368012925609946" />
        <Con id="178" src="28" tgt="33" wght="-1.7342343972995877" />
        <Con id="186" src="30" tgt="31" wght="4.8139212862588465" />
        <Con id="187" src="30" tgt="32" wght="-1.6207527299411595" />
        <Con id="188" src="30" tgt="33" wght="2.151126426178962" />
        <Con id="190" src="30" tgt="35" wght="2.3211361258290708" />
      </Connections>
    </Network>
    <Network id="13" birthGen="0" fitness="0">
      <Nodes>
        <Node type="bias" id="0" />
        <Node type="in" id="1" />
        <Node type="in" id="2" />
        <Node type="in" id="3" />
        <Node type="in" id="4" />
        <Node type="in" id="5" />
        <Node type="in" id="6" />
        <Node type="in" id="7" />
        <Node type="in" id="8" />
        <Node type="in" id="9" />
        <Node type="in" id="10" />
        <Node type="in" id="11" />
        <Node type="in" id="12" />
        <Node type="in" id="13" />
        <Node type="in" id="14" />
        <Node type="in" id="15" />
        <Node type="in" id="16" />
        <Node type="in" id="17" />
        <Node type="in" id="18" />
        <Node type="in" id="19" />
        <Node type="in" id="20" />
        <Node type="in" id="21" />
        <Node type="in" id="22" />
        <Node type="in" id="23" />
        <Node type="in" id="24" />
        <Node type="in" id="25" />
        <Node type="in" id="26" />
        <Node type="in" id="27" />
        <Node type="in" id="28" />
        <Node type="in" id="29" />
        <Node type="in" id="30" />
        <Node type="out" id="31" />
        <Node type="out" id="32" />
        <Node type="out" id="33" />
        <Node type="out" id="34" />
        <Node type="out" id="35" />
      </Nodes>
      <Connections>
        <Con id="36" src="0" tgt="31" wght="3.5087236133404076" />
        <Con id="37" src="0" tgt="32" wght="-2.0883715199306607" />
        <Con id="41" src="1" tgt="31" wght="0.84159092977643013" />
        <Con id="45" src="1" tgt="35" wght="3.3034890284761786" />
        <Con id="51" src="3" tgt="31" wght="4.19860849622637" />
        <Con id="52" src="3" tgt="32" wght="1.44879468716681" />
        <Con id="54" src="3" tgt="34" wght="-4.1184835415333509" />
        <Con id="55" src="3" tgt="35" wght="4.3590984283946455" />
        <Con id="56" src="4" tgt="31" wght="1.4001934486441314" />
        <Con id="58" src="4" tgt="33" wght="4.5317246089689434" />
        <Con id="59" src="4" tgt="34" wght="-2.8335400577634573" />
        <Con id="60" src="4" tgt="35" wght="-2.7926010941155255" />
        <Con id="61" src="5" tgt="31" wght="0.14398925239220262" />
        <Con id="62" src="5" tgt="32" wght="-3.7121567153371871" />
        <Con id="64" src="5" tgt="34" wght="3.8852348062209785" />
        <Con id="65" src="5" tgt="35" wght="3.4635389340110123" />
        <Con id="66" src="6" tgt="31" wght="4.0095121925696731" />
        <Con id="67" src="6" tgt="32" wght="-1.269713593646884" />
        <Con id="68" src="6" tgt="33" wght="-3.5624759458005428" />
        <Con id="69" src="6" tgt="34" wght="-4.5688189542852342" />
        <Con id="70" src="6" tgt="35" wght="-1.6783260926604271" />
        <Con id="71" src="7" tgt="31" wght="-2.3445740598253906" />
        <Con id="72" src="7" tgt="32" wght="2.3619043175131083" />
        <Con id="74" src="7" tgt="34" wght="4.3680885946378112" />
        <Con id="75" src="7" tgt="35" wght="1.6437459131702781" />
        <Con id="76" src="8" tgt="31" wght="-2.3001414490863681" />
        <Con id="81" src="9" tgt="31" wght="1.4533333387225866" />
        <Con id="84" src="9" tgt="34" wght="0.036199726164340973" />
        <Con id="90" src="10" tgt="35" wght="3.3804566599428654" />
        <Con id="99" src="12" tgt="34" wght="0.33746898174285889" />
        <Con id="102" src="13" tgt="32" wght="1.7748158471658826" />
        <Con id="104" src="13" tgt="34" wght="0.2735252259299159" />
        <Con id="106" src="14" tgt="31" wght="-2.4001900455914438" />
        <Con id="107" src="14" tgt="32" wght="-4.3096136301755905" />
        <Con id="115" src="15" tgt="35" wght="4.5532769756391644" />
        <Con id="116" src="16" tgt="31" wght="1.3547759363427758" />
        <Con id="118" src="16" tgt="33" wght="-1.6719542839564383" />
        <Con id="121" src="17" tgt="31" wght="1.5723340515978634" />
        <Con id="125" src="17" tgt="35" wght="0.68583324085921049" />
        <Con id="127" src="18" tgt="32" wght="-4.8978074453771114" />
        <Con id="130" src="18" tgt="35" wght="1.5181132825091481" />
        <Con id="131" src="19" tgt="31" wght="3.2675825385376811" />
        <Con id="132" src="19" tgt="32" wght="1.4631975092925131" />
        <Con id="133" src="19" tgt="33" wght="-0.3744049184024334" />
        <Con id="137" src="20" tgt="32" wght="-4.6735623851418495" />
        <Con id="141" src="21" tgt="31" wght="-1.4223069814033806" />
        <Con id="145" src="21" tgt="35" wght="-3.165119830518961" />
        <Con id="146" src="22" tgt="31" wght="2.9126344178803265" />
        <Con id="151" src="23" tgt="31" wght="4.0240766992792487" />
        <Con id="152" src="23" tgt="32" wght="-2.5899690389633179" />
        <Con id="153" src="23" tgt="33" wght="0.69667080184444785" />
        <Con id="155" src="23" tgt="35" wght="2.2805108525790274" />
        <Con id="156" src="24" tgt="31" wght="-1.9750070967711508" />
        <Con id="162" src="25" tgt="32" wght="-4.2651158152148128" />
        <Con id="164" src="25" tgt="34" wght="-3.384873615577817" />
        <Con id="170" src="26" tgt="35" wght="-4.9926148564554751" />
        <Con id="172" src="27" tgt="32" wght="-1.1988766654394567" />
        <Con id="173" src="27" tgt="33" wght="-4.0762359835207462" />
        <Con id="175" src="27" tgt="35" wght="1.7397238872945309" />
        <Con id="180" src="28" tgt="35" wght="-4.6124890423379838" />
        <Con id="182" src="29" tgt="32" wght="-1.5694193355739117" />
        <Con id="189" src="30" tgt="34" wght="0.71928316261619329" />
      </Connections>
    </Network>
    <Network id="14" birthGen="0" fitness="0">
      <Nodes>
        <Node type="bias" id="0" />
        <Node type="in" id="1" />
        <Node type="in" id="2" />
        <Node type="in" id="3" />
        <Node type="in" id="4" />
        <Node type="in" id="5" />
        <Node type="in" id="6" />
        <Node type="in" id="7" />
        <Node type="in" id="8" />
        <Node type="in" id="9" />
        <Node type="in" id="10" />
        <Node type="in" id="11" />
        <Node type="in" id="12" />
        <Node type="in" id="13" />
        <Node type="in" id="14" />
        <Node type="in" id="15" />
        <Node type="in" id="16" />
        <Node type="in" id="17" />
        <Node type="in" id="18" />
        <Node type="in" id="19" />
        <Node type="in" id="20" />
        <Node type="in" id="21" />
        <Node type="in" id="22" />
        <Node type="in" id="23" />
        <Node type="in" id="24" />
        <Node type="in" id="25" />
        <Node type="in" id="26" />
        <Node type="in" id="27" />
        <Node type="in" id="28" />
        <Node type="in" id="29" />
        <Node type="in" id="30" />
        <Node type="out" id="31" />
        <Node type="out" id="32" />
        <Node type="out" id="33" />
        <Node type="out" id="34" />
        <Node type="out" id="35" />
      </Nodes>
      <Connections>
        <Con id="44" src="1" tgt="34" wght="0.736010626424104" />
        <Con id="52" src="3" tgt="32" wght="-4.9422919400967658" />
        <Con id="57" src="4" tgt="32" wght="3.3691631397232413" />
        <Con id="58" src="4" tgt="33" wght="4.0976240509189665" />
        <Con id="60" src="4" tgt="35" wght="1.7415577592328191" />
        <Con id="63" src="5" tgt="33" wght="-3.9775724778883159" />
        <Con id="64" src="5" tgt="34" wght="2.94512020656839" />
        <Con id="65" src="5" tgt="35" wght="-3.2744189049117267" />
        <Con id="69" src="6" tgt="34" wght="2.0953365182504058" />
        <Con id="73" src="7" tgt="33" wght="4.5923657855018973" />
        <Con id="79" src="8" tgt="34" wght="1.0942955478094518" />
        <Con id="80" src="8" tgt="35" wght="-3.2812699908390641" />
        <Con id="81" src="9" tgt="31" wght="0.29530810657888651" />
        <Con id="82" src="9" tgt="32" wght="-2.5197950610890985" />
        <Con id="86" src="10" tgt="31" wght="-2.0003777439706028" />
        <Con id="90" src="10" tgt="35" wght="0.49768527271226048" />
        <Con id="95" src="11" tgt="35" wght="1.7119928565807641" />
        <Con id="96" src="12" tgt="31" wght="-1.3622797606512904" />
        <Con id="97" src="12" tgt="32" wght="1.0902887093834579" />
        <Con id="98" src="12" tgt="33" wght="2.8078675433062017" />
        <Con id="99" src="12" tgt="34" wght="3.2918122946284711" />
        <Con id="100" src="12" tgt="35" wght="-1.5525421081110835" />
        <Con id="102" src="13" tgt="32" wght="1.1031188606284559" />
        <Con id="103" src="13" tgt="33" wght="-2.4832396511919796" />
        <Con id="105" src="13" tgt="35" wght="0.35054852487519383" />
        <Con id="107" src="14" tgt="32" wght="2.7555328118614852" />
        <Con id="111" src="15" tgt="31" wght="-0.095633151941001415" />
        <Con id="115" src="15" tgt="35" wght="-2.9374346067197621" />
        <Con id="119" src="16" tgt="34" wght="4.9828558671288192" />
        <Con id="120" src="16" tgt="35" wght="-1.80257877567783" />
        <Con id="121" src="17" tgt="31" wght="-3.3040271117351949" />
        <Con id="123" src="17" tgt="33" wght="1.8098847498185933" />
        <Con id="125" src="17" tgt="35" wght="-1.3856443762779236" />
        <Con id="126" src="18" tgt="31" wght="4.7982560633681715" />
        <Con id="127" src="18" tgt="32" wght="1.08838917221874" />
        <Con id="130" src="18" tgt="35" wght="-2.2610088740475476" />
        <Con id="131" src="19" tgt="31" wght="4.6130075468681753" />
        <Con id="132" src="19" tgt="32" wght="-2.7502465341240168" />
        <Con id="135" src="19" tgt="35" wght="1.838397360406816" />
        <Con id="138" src="20" tgt="33" wght="2.0025017415173352" />
        <Con id="140" src="20" tgt="35" wght="2.8553857980296016" />
        <Con id="144" src="21" tgt="34" wght="1.5698229311965406" />
        <Con id="146" src="22" tgt="31" wght="-3.9964978350326419" />
        <Con id="147" src="22" tgt="32" wght="-1.6233097249642015" />
        <Con id="150" src="22" tgt="35" wght="1.2173843826167285" />
        <Con id="151" src="23" tgt="31" wght="3.9286785502918065" />
        <Con id="154" src="23" tgt="34" wght="-4.3156659859232605" />
        <Con id="155" src="23" tgt="35" wght="2.0664705755189061" />
        <Con id="156" src="24" tgt="31" wght="4.9047007923945785" />
        <Con id="157" src="24" tgt="32" wght="4.2908591334708035" />
        <Con id="158" src="24" tgt="33" wght="0.049794933293014765" />
        <Con id="162" src="25" tgt="32" wght="-4.0147883025929332" />
        <Con id="165" src="25" tgt="35" wght="3.8323723641224205" />
        <Con id="166" src="26" tgt="31" wght="2.5317548005841672" />
        <Con id="168" src="26" tgt="33" wght="1.0862038168124855" />
        <Con id="171" src="27" tgt="31" wght="3.1763841188512743" />
        <Con id="174" src="27" tgt="34" wght="-3.4291301714256406" />
        <Con id="177" src="28" tgt="32" wght="3.250112715177238" />
        <Con id="181" src="29" tgt="31" wght="-4.7795102535746992" />
        <Con id="184" src="29" tgt="34" wght="-2.5664409319870174" />
        <Con id="186" src="30" tgt="31" wght="1.0063439910300076" />
        <Con id="189" src="30" tgt="34" wght="-0.48775026574730873" />
      </Connections>
    </Network>
    <Network id="15" birthGen="0" fitness="0">
      <Nodes>
        <Node type="bias" id="0" />
        <Node type="in" id="1" />
        <Node type="in" id="2" />
        <Node type="in" id="3" />
        <Node type="in" id="4" />
        <Node type="in" id="5" />
        <Node type="in" id="6" />
        <Node type="in" id="7" />
        <Node type="in" id="8" />
        <Node type="in" id="9" />
        <Node type="in" id="10" />
        <Node type="in" id="11" />
        <Node type="in" id="12" />
        <Node type="in" id="13" />
        <Node type="in" id="14" />
        <Node type="in" id="15" />
        <Node type="in" id="16" />
        <Node type="in" id="17" />
        <Node type="in" id="18" />
        <Node type="in" id="19" />
        <Node type="in" id="20" />
        <Node type="in" id="21" />
        <Node type="in" id="22" />
        <Node type="in" id="23" />
        <Node type="in" id="24" />
        <Node type="in" id="25" />
        <Node type="in" id="26" />
        <Node type="in" id="27" />
        <Node type="in" id="28" />
        <Node type="in" id="29" />
        <Node type="in" id="30" />
        <Node type="out" id="31" />
        <Node type="out" id="32" />
        <Node type="out" id="33" />
        <Node type="out" id="34" />
        <Node type="out" id="35" />
      </Nodes>
      <Connections>
        <Con id="36" src="0" tgt="31" wght="-3.8301593484357" />
        <Con id="39" src="0" tgt="34" wght="-4.0530719724483788" />
        <Con id="40" src="0" tgt="35" wght="2.6287760981358588" />
        <Con id="42" src="1" tgt="32" wght="2.3957715858705342" />
        <Con id="43" src="1" tgt="33" wght="-4.5996808586642146" />
        <Con id="49" src="2" tgt="34" wght="-2.1298185060732067" />
        <Con id="52" src="3" tgt="32" wght="-3.2269424013793468" />
        <Con id="54" src="3" tgt="34" wght="-3.4829233400523663" />
        <Con id="56" src="4" tgt="31" wght="-3.6222253181040287" />
        <Con id="57" src="4" tgt="32" wght="0.907301208935678" />
        <Con id="61" src="5" tgt="31" wght="-4.1947404411621392" />
        <Con id="64" src="5" tgt="34" wght="-0.037901520263403654" />
        <Con id="65" src="5" tgt="35" wght="1.2550945323891938" />
        <Con id="66" src="6" tgt="31" wght="-4.4160964526236057" />
        <Con id="71" src="7" tgt="31" wght="-3.243729374371469" />
        <Con id="72" src="7" tgt="32" wght="-2.4551429413259029" />
        <Con id="75" src="7" tgt="35" wght="2.0722080185078084" />
        <Con id="80" src="8" tgt="35" wght="2.8963408758863807" />
        <Con id="85" src="9" tgt="35" wght="3.01327001536265" />
        <Con id="92" src="11" tgt="32" wght="3.0394307617098093" />
        <Con id="93" src="11" tgt="33" wght="2.4917286867275834" />
        <Con id="94" src="11" tgt="34" wght="4.7552997618913651" />
        <Con id="98" src="12" tgt="33" wght="-1.6149805602617562" />
        <Con id="99" src="12" tgt="34" wght="0.61655116034671664" />
        <Con id="103" src="13" tgt="33" wght="0.55257967673242092" />
        <Con id="105" src="13" tgt="35" wght="3.4262645314447582" />
        <Con id="108" src="14" tgt="33" wght="3.7261155480518937" />
        <Con id="109" src="14" tgt="34" wght="0.64395184628665447" />
        <Con id="110" src="14" tgt="35" wght="2.1242236252874136" />
        <Con id="113" src="15" tgt="33" wght="-3.3450307976454496" />
        <Con id="115" src="15" tgt="35" wght="0.51825202535837889" />
        <Con id="116" src="16" tgt="31" wght="-0.87166181998327374" />
        <Con id="119" src="16" tgt="34" wght="-2.5052229757420719" />
        <Con id="122" src="17" tgt="32" wght="2.4797835852950811" />
        <Con id="123" src="17" tgt="33" wght="3.4558071615174413" />
        <Con id="125" src="17" tgt="35" wght="1.8887436715885997" />
        <Con id="126" src="18" tgt="31" wght="-1.0375714907422662" />
        <Con id="127" src="18" tgt="32" wght="-4.0661514340899885" />
        <Con id="128" src="18" tgt="33" wght="2.7850471180863678" />
        <Con id="130" src="18" tgt="35" wght="4.090692566242069" />
        <Con id="134" src="19" tgt="34" wght="-4.5389886875636876" />
        <Con id="135" src="19" tgt="35" wght="-2.6274361438117921" />
        <Con id="137" src="20" tgt="32" wght="-1.6023379983380437" />
        <Con id="139" src="20" tgt="34" wght="-0.96571336500346661" />
        <Con id="142" src="21" tgt="32" wght="4.3596622534096241" />
        <Con id="143" src="21" tgt="33" wght="4.5215071924030781" />
        <Con id="146" src="22" tgt="31" wght="-1.227168207988143" />
        <Con id="148" src="22" tgt="33" wght="-0.64383882330730557" />
        <Con id="150" src="22" tgt="35" wght="-4.9419465544633567" />
        <Con id="154" src="23" tgt="34" wght="-4.32834014063701" />
        <Con id="155" src="23" tgt="35" wght="1.9046336156316102" />
        <Con id="156" src="24" tgt="31" wght="-2.4288388434797525" />
        <Con id="157" src="24" tgt="32" wght="-3.3757514716126025" />
        <Con id="158" src="24" tgt="33" wght="1.2758127693086863" />
        <Con id="159" src="24" tgt="34" wght="2.4587857141159475" />
        <Con id="170" src="26" tgt="35" wght="-1.7145575792528689" />
        <Con id="171" src="27" tgt="31" wght="-0.70402066223323345" />
        <Con id="173" src="27" tgt="33" wght="3.8558600749820471" />
        <Con id="174" src="27" tgt="34" wght="3.1512993760406971" />
        <Con id="175" src="27" tgt="35" wght="2.116228633094579" />
        <Con id="180" src="28" tgt="35" wght="1.6749753546901047" />
        <Con id="184" src="29" tgt="34" wght="-0.9812560910359025" />
      </Connections>
    </Network>
    <Network id="16" birthGen="0" fitness="0">
      <Nodes>
        <Node type="bias" id="0" />
        <Node type="in" id="1" />
        <Node type="in" id="2" />
        <Node type="in" id="3" />
        <Node type="in" id="4" />
        <Node type="in" id="5" />
        <Node type="in" id="6" />
        <Node type="in" id="7" />
        <Node type="in" id="8" />
        <Node type="in" id="9" />
        <Node type="in" id="10" />
        <Node type="in" id="11" />
        <Node type="in" id="12" />
        <Node type="in" id="13" />
        <Node type="in" id="14" />
        <Node type="in" id="15" />
        <Node type="in" id="16" />
        <Node type="in" id="17" />
        <Node type="in" id="18" />
        <Node type="in" id="19" />
        <Node type="in" id="20" />
        <Node type="in" id="21" />
        <Node type="in" id="22" />
        <Node type="in" id="23" />
        <Node type="in" id="24" />
        <Node type="in" id="25" />
        <Node type="in" id="26" />
        <Node type="in" id="27" />
        <Node type="in" id="28" />
        <Node type="in" id="29" />
        <Node type="in" id="30" />
        <Node type="out" id="31" />
        <Node type="out" id="32" />
        <Node type="out" id="33" />
        <Node type="out" id="34" />
        <Node type="out" id="35" />
      </Nodes>
      <Connections>
        <Con id="47" src="2" tgt="32" wght="-3.8225026289001107" />
        <Con id="48" src="2" tgt="33" wght="-1.1861740238964558" />
        <Con id="52" src="3" tgt="32" wght="1.9118858454748988" />
        <Con id="55" src="3" tgt="35" wght="-4.84620655188337" />
        <Con id="57" src="4" tgt="32" wght="4.67599174240604" />
        <Con id="58" src="4" tgt="33" wght="0.023989975452423096" />
        <Con id="63" src="5" tgt="33" wght="-0.709107827860862" />
        <Con id="65" src="5" tgt="35" wght="-4.208947925362736" />
        <Con id="67" src="6" tgt="32" wght="0.62410364393144846" />
        <Con id="69" src="6" tgt="34" wght="-4.55154909286648" />
        <Con id="70" src="6" tgt="35" wght="2.9105818294920027" />
        <Con id="73" src="7" tgt="33" wght="-1.523755791131407" />
        <Con id="74" src="7" tgt="34" wght="4.029634774196893" />
        <Con id="77" src="8" tgt="32" wght="-4.5683483174070716" />
        <Con id="78" src="8" tgt="33" wght="0.33238441683351994" />
        <Con id="79" src="8" tgt="34" wght="-4.8650975781492889" />
        <Con id="81" src="9" tgt="31" wght="2.9224770097061992" />
        <Con id="85" src="9" tgt="35" wght="1.1289609619416296" />
        <Con id="86" src="10" tgt="31" wght="0.82597882952541113" />
        <Con id="87" src="10" tgt="32" wght="-0.70074443938210607" />
        <Con id="88" src="10" tgt="33" wght="0.738508019130677" />
        <Con id="89" src="10" tgt="34" wght="2.1447063167579472" />
        <Con id="91" src="11" tgt="31" wght="0.43259584810584784" />
        <Con id="92" src="11" tgt="32" wght="-0.024099759757518768" />
        <Con id="94" src="11" tgt="34" wght="-2.5206613121554255" />
        <Con id="98" src="12" tgt="33" wght="-2.1233750344254076" />
        <Con id="100" src="12" tgt="35" wght="2.9209368745796382" />
        <Con id="102" src="13" tgt="32" wght="0.0029066740535199642" />
        <Con id="104" src="13" tgt="34" wght="-1.6473559034056962" />
        <Con id="109" src="14" tgt="34" wght="-2.7652165782637894" />
        <Con id="111" src="15" tgt="31" wght="-2.6057635643519461" />
        <Con id="118" src="16" tgt="33" wght="-0.587710493709892" />
        <Con id="119" src="16" tgt="34" wght="2.6743196533061564" />
        <Con id="124" src="17" tgt="34" wght="4.3500680639408529" />
        <Con id="125" src="17" tgt="35" wght="4.6390538662672043" />
        <Con id="126" src="18" tgt="31" wght="1.1379878502339125" />
        <Con id="129" src="18" tgt="34" wght="-3.7902744836173952" />
        <Con id="130" src="18" tgt="35" wght="-2.0037107914686203" />
        <Con id="131" src="19" tgt="31" wght="1.1071001854725182" />
        <Con id="133" src="19" tgt="33" wght="-0.9730049897916615" />
        <Con id="135" src="19" tgt="35" wght="4.3819902464747429" />
        <Con id="137" src="20" tgt="32" wght="-3.5032330662943423" />
        <Con id="139" src="20" tgt="34" wght="-2.5775215961039066" />
        <Con id="140" src="20" tgt="35" wght="-1.123350013513118" />
        <Con id="141" src="21" tgt="31" wght="2.0971076632849872" />
        <Con id="142" src="21" tgt="32" wght="-0.91448707738891244" />
        <Con id="144" src="21" tgt="34" wght="-3.6448384821414948" />
        <Con id="147" src="22" tgt="32" wght="-2.2262700623832643" />
        <Con id="152" src="23" tgt="32" wght="-3.9500479632988572" />
        <Con id="155" src="23" tgt="35" wght="-4.8680463735945523" />
        <Con id="160" src="24" tgt="35" wght="-3.1955630355514586" />
        <Con id="162" src="25" tgt="32" wght="1.4902098663151264" />
        <Con id="164" src="25" tgt="34" wght="2.1862427424639463" />
        <Con id="165" src="25" tgt="35" wght="3.3194589195773005" />
        <Con id="169" src="26" tgt="34" wght="-3.6326422914862633" />
        <Con id="172" src="27" tgt="32" wght="-1.8632785230875015" />
        <Con id="179" src="28" tgt="34" wght="-2.4878746713511646" />
        <Con id="183" src="29" tgt="33" wght="-1.0422672587446868" />
        <Con id="184" src="29" tgt="34" wght="-0.71297527523711324" />
        <Con id="185" src="29" tgt="35" wght="3.7295649037696421" />
        <Con id="186" src="30" tgt="31" wght="1.8176811537705362" />
        <Con id="190" src="30" tgt="35" wght="-4.2587316571734846" />
      </Connections>
    </Network>
    <Network id="17" birthGen="0" fitness="0">
      <Nodes>
        <Node type="bias" id="0" />
        <Node type="in" id="1" />
        <Node type="in" id="2" />
        <Node type="in" id="3" />
        <Node type="in" id="4" />
        <Node type="in" id="5" />
        <Node type="in" id="6" />
        <Node type="in" id="7" />
        <Node type="in" id="8" />
        <Node type="in" id="9" />
        <Node type="in" id="10" />
        <Node type="in" id="11" />
        <Node type="in" id="12" />
        <Node type="in" id="13" />
        <Node type="in" id="14" />
        <Node type="in" id="15" />
        <Node type="in" id="16" />
        <Node type="in" id="17" />
        <Node type="in" id="18" />
        <Node type="in" id="19" />
        <Node type="in" id="20" />
        <Node type="in" id="21" />
        <Node type="in" id="22" />
        <Node type="in" id="23" />
        <Node type="in" id="24" />
        <Node type="in" id="25" />
        <Node type="in" id="26" />
        <Node type="in" id="27" />
        <Node type="in" id="28" />
        <Node type="in" id="29" />
        <Node type="in" id="30" />
        <Node type="out" id="31" />
        <Node type="out" id="32" />
        <Node type="out" id="33" />
        <Node type="out" id="34" />
        <Node type="out" id="35" />
      </Nodes>
      <Connections>
        <Con id="37" src="0" tgt="32" wght="-3.6741640768013895" />
        <Con id="38" src="0" tgt="33" wght="4.545231070369482" />
        <Con id="44" src="1" tgt="34" wght="-4.5372728956863284" />
        <Con id="49" src="2" tgt="34" wght="1.8029841012321413" />
        <Con id="50" src="2" tgt="35" wght="-2.4083854863420129" />
        <Con id="53" src="3" tgt="33" wght="-3.2833426794968545" />
        <Con id="56" src="4" tgt="31" wght="-3.1322697945870459" />
        <Con id="57" src="4" tgt="32" wght="-1.9793788366951048" />
        <Con id="62" src="5" tgt="32" wght="-4.0406604041345417" />
        <Con id="66" src="6" tgt="31" wght="3.9099590131081641" />
        <Con id="67" src="6" tgt="32" wght="-1.0680161253549159" />
        <Con id="73" src="7" tgt="33" wght="4.4600327056832612" />
        <Con id="74" src="7" tgt="34" wght="-4.003687147051096" />
        <Con id="76" src="8" tgt="31" wght="4.8892564629204571" />
        <Con id="82" src="9" tgt="32" wght="-2.3300250712782145" />
        <Con id="84" src="9" tgt="34" wght="4.4036757852882147" />
        <Con id="87" src="10" tgt="32" wght="-0.31503644771873951" />
        <Con id="94" src="11" tgt="34" wght="-0.13600768288597465" />
        <Con id="96" src="12" tgt="31" wght="-3.9155885856598616" />
        <Con id="100" src="12" tgt="35" wght="1.4114272338338196" />
        <Con id="101" src="13" tgt="31" wght="-4.6467524580657482" />
        <Con id="102" src="13" tgt="32" wght="-3.0225062137469649" />
        <Con id="103" src="13" tgt="33" wght="-1.1087606986984611" />
        <Con id="104" src="13" tgt="34" wght="2.7408216707408428" />
        <Con id="105" src="13" tgt="35" wght="0.92641413444653153" />
        <Con id="108" src="14" tgt="33" wght="0.39422921137884259" />
        <Con id="110" src="14" tgt="35" wght="2.2243856871500611" />
        <Con id="111" src="15" tgt="31" wght="4.2182639823295176" />
        <Con id="112" src="15" tgt="32" wght="-0.76588494703173637" />
        <Con id="113" src="15" tgt="33" wght="4.7295555751770735" />
        <Con id="115" src="15" tgt="35" wght="4.0441157435998321" />
        <Con id="117" src="16" tgt="32" wght="2.8629281418398023" />
        <Con id="118" src="16" tgt="33" wght="3.7071281089447439" />
        <Con id="119" src="16" tgt="34" wght="4.399941221345216" />
        <Con id="120" src="16" tgt="35" wght="-1.6090045776218176" />
