<?xml version="1.0" encoding="utf-8"?>
<Root>
  <ActivationFunctions>
    <Fn id="0" name="LogisticFunctionSteep" prob="1" />
  </ActivationFunctions>
  <Networks>
    <Network id="281" birthGen="11" fitness="0">
      <Nodes>
        <Node type="bias" id="0" />
        <Node type="in" id="1" />
        <Node type="in" id="2" />
        <Node type="in" id="3" />
        <Node type="in" id="4" />
        <Node type="in" id="5" />
        <Node type="in" id="6" />
        <Node type="in" id="7" />
        <Node type="in" id="8" />
        <Node type="in" id="9" />
        <Node type="in" id="10" />
        <Node type="in" id="11" />
        <Node type="in" id="12" />
        <Node type="in" id="13" />
        <Node type="in" id="14" />
        <Node type="in" id="15" />
        <Node type="in" id="16" />
        <Node type="in" id="17" />
        <Node type="in" id="18" />
        <Node type="in" id="19" />
        <Node type="in" id="20" />
        <Node type="in" id="21" />
        <Node type="in" id="22" />
        <Node type="in" id="23" />
        <Node type="in" id="24" />
        <Node type="in" id="25" />
        <Node type="in" id="26" />
        <Node type="in" id="27" />
        <Node type="in" id="28" />
        <Node type="in" id="29" />
        <Node type="out" id="30" />
        <Node type="out" id="31" />
        <Node type="out" id="32" />
        <Node type="out" id="33" />
        <Node type="out" id="34" />
        <Node type="hid" id="193" />
        <Node type="hid" id="216" />
        <Node type="hid" id="223" />
        <Node type="hid" id="259" />
        <Node type="hid" id="283" />
      </Nodes>
      <Connections>
        <Con id="36" src="0" tgt="31" wght="1.5138351893983781" />
        <Con id="38" src="0" tgt="33" wght="-2.0137343369424343" />
        <Con id="48" src="2" tgt="33" wght="-4.4593468517996371" />
        <Con id="50" src="3" tgt="30" wght="2.8466702811419964" />
        <Con id="56" src="4" tgt="31" wght="0.68976115202531219" />
        <Con id="57" src="4" tgt="32" wght="1.6859008185565472" />
        <Con id="65" src="6" tgt="30" wght="0.95232908381149173" />
        <Con id="67" src="6" tgt="32" wght="1.3051425386220217" />
        <Con id="72" src="7" tgt="32" wght="-0.79159005312249064" />
        <Con id="76" src="8" tgt="31" wght="-1.3106582383625209" />
        <Con id="78" src="8" tgt="33" wght="-1.9050406967289746" />
        <Con id="79" src="8" tgt="34" wght="-3.785446509718895" />
        <Con id="92" src="11" tgt="32" wght="-0.012221126817166805" />
        <Con id="99" src="12" tgt="34" wght="-0.75962033297034715" />
        <Con id="101" src="13" tgt="31" wght="-1.4216492907144129" />
        <Con id="108" src="14" tgt="33" wght="-3.1525993533432484" />
        <Con id="112" src="15" tgt="32" wght="0.36456666188314557" />
        <Con id="115" src="16" tgt="30" wght="4.5891845179721713" />
        <Con id="125" src="18" tgt="30" wght="-2.1775955171324313" />
        <Con id="131" src="19" tgt="31" wght="-3.7667282320253128" />
        <Con id="132" src="19" tgt="32" wght="2.7313391119241714" />
        <Con id="138" src="20" tgt="33" wght="-3.6396213946864009" />
        <Con id="140" src="21" tgt="30" wght="1.8736319965682924" />
        <Con id="148" src="22" tgt="33" wght="-4.5930107799358666" />
        <Con id="175" src="28" tgt="30" wght="-4.3270600656978786" />
        <Con id="183" src="29" tgt="33" wght="1.9620072050020099" />
        <Con id="195" src="193" tgt="33" wght="5" />
        <Con id="217" src="27" tgt="216" wght="2.6824053400631627" />
        <Con id="218" src="216" tgt="31" wght="5" />
        <Con id="224" src="18" tgt="223" wght="1.5233456785790622" />
        <Con id="225" src="223" tgt="193" wght="4.9917143615690849" />
        <Con id="243" src="0" tgt="216" wght="4.6077243052423" />
        <Con id="260" src="5" tgt="259" wght="1.1022119287318293" />
        <Con id="261" src="259" tgt="34" wght="5" />
        <Con id="284" src="2" tgt="283" wght="0.37978949025273323" />
        <Con id="285" src="283" tgt="31" wght="5" />
      </Connections>
    </Network>
    <Network id="314" birthGen="12" fitness="0.800000011920929">
      <Nodes>
        <Node type="bias" id="0" />
        <Node type="in" id="1" />
        <Node type="in" id="2" />
        <Node type="in" id="3" />
        <Node type="in" id="4" />
        <Node type="in" id="5" />
        <Node type="in" id="6" />
        <Node type="in" id="7" />
        <Node type="in" id="8" />
        <Node type="in" id="9" />
        <Node type="in" id="10" />
        <Node type="in" id="11" />
        <Node type="in" id="12" />
        <Node type="in" id="13" />
        <Node type="in" id="14" />
        <Node type="in" id="15" />
        <Node type="in" id="16" />
        <Node type="in" id="17" />
        <Node type="in" id="18" />
        <Node type="in" id="19" />
        <Node type="in" id="20" />
        <Node type="in" id="21" />
        <Node type="in" id="22" />
        <Node type="in" id="23" />
        <Node type="in" id="24" />
        <Node type="in" id="25" />
        <Node type="in" id="26" />
        <Node type="in" id="27" />
        <Node type="in" id="28" />
        <Node type="in" id="29" />
        <Node type="out" id="30" />
        <Node type="out" id="31" />
        <Node type="out" id="32" />
        <Node type="out" id="33" />
        <Node type="out" id="34" />
        <Node type="hid" id="193" />
        <Node type="hid" id="216" />
        <Node type="hid" id="223" />
        <Node type="hid" id="256" />
      </Nodes>
      <Connections>
        <Con id="36" src="0" tgt="31" wght="1.5138351893983781" />
        <Con id="38" src="0" tgt="33" wght="-2.0137343369424343" />
        <Con id="46" src="2" tgt="31" wght="0.37978949025273323" />
        <Con id="48" src="2" tgt="33" wght="-4.4593468517996371" />
        <Con id="50" src="3" tgt="30" wght="2.8275017167820735" />
        <Con id="56" src="4" tgt="31" wght="0.68976115202531219" />
        <Con id="57" src="4" tgt="32" wght="1.6859008185565472" />
        <Con id="64" src="5" tgt="34" wght="1.0894116433337331" />
        <Con id="65" src="6" tgt="30" wght="0.95232908381149173" />
        <Con id="67" src="6" tgt="32" wght="1.3051425386220217" />
        <Con id="72" src="7" tgt="32" wght="-0.79159005312249064" />
        <Con id="76" src="8" tgt="31" wght="-1.3106582383625209" />
        <Con id="78" src="8" tgt="33" wght="-1.9050406967289746" />
        <Con id="79" src="8" tgt="34" wght="-3.785446509718895" />
        <Con id="92" src="11" tgt="32" wght="-0.012221126817166805" />
        <Con id="99" src="12" tgt="34" wght="-0.74988753302022815" />
        <Con id="101" src="13" tgt="31" wght="-1.4216492907144129" />
        <Con id="108" src="14" tgt="33" wght="-3.1525993533432484" />
        <Con id="115" src="16" tgt="30" wght="4.5891845179721713" />
        <Con id="125" src="18" tgt="30" wght="-2.1775955171324313" />
        <Con id="131" src="19" tgt="31" wght="-3.7667282320253128" />
        <Con id="132" src="19" tgt="32" wght="2.7313391119241714" />
        <Con id="138" src="20" tgt="33" wght="-3.6396213946864009" />
        <Con id="140" src="21" tgt="30" wght="1.8736319965682924" />
        <Con id="148" src="22" tgt="33" wght="-4.5930107799358666" />
        <Con id="175" src="28" tgt="30" wght="-4.3270600656978786" />
        <Con id="183" src="29" tgt="33" wght="1.9620072050020099" />
        <Con id="195" src="193" tgt="33" wght="5" />
        <Con id="217" src="27" tgt="216" wght="2.6777493418194354" />
        <Con id="218" src="216" tgt="31" wght="4.9974550863010689" />
        <Con id="224" src="18" tgt="223" wght="1.5233456785790622" />
        <Con id="225" src="223" tgt="193" wght="5" />
        <Con id="257" src="0" tgt="256" wght="4.6077243052423" />
        <Con id="258" src="256" tgt="216" wght="4.9975624842321009" />
      </Connections>
    </Network>
    <Network id="317" birthGen="12" fitness="3.2000002861022949">
      <Nodes>
        <Node type="bias" id="0" />
        <Node type="in" id="1" />
        <Node type="in" id="2" />
        <Node type="in" id="3" />
        <Node type="in" id="4" />
        <Node type="in" id="5" />
        <Node type="in" id="6" />
        <Node type="in" id="7" />
        <Node type="in" id="8" />
        <Node type="in" id="9" />
        <Node type="in" id="10" />
        <Node type="in" id="11" />
        <Node type="in" id="12" />
        <Node type="in" id="13" />
        <Node type="in" id="14" />
        <Node type="in" id="15" />
        <Node type="in" id="16" />
        <Node type="in" id="17" />
        <Node type="in" id="18" />
        <Node type="in" id="19" />
        <Node type="in" id="20" />
        <Node type="in" id="21" />
        <Node type="in" id="22" />
        <Node type="in" id="23" />
        <Node type="in" id="24" />
        <Node type="in" id="25" />
        <Node type="in" id="26" />
        <Node type="in" id="27" />
        <Node type="in" id="28" />
        <Node type="in" id="29" />
        <Node type="out" id="30" />
        <Node type="out" id="31" />
        <Node type="out" id="32" />
        <Node type="out" id="33" />
        <Node type="out" id="34" />
        <Node type="hid" id="193" />
        <Node type="hid" id="216" />
        <Node type="hid" id="223" />
        <Node type="hid" id="256" />
      </Nodes>
      <Connections>
        <Con id="36" src="0" tgt="31" wght="1.5138351893983781" />
        <Con id="38" src="0" tgt="33" wght="-2.0137343369424343" />
        <Con id="46" src="2" tgt="31" wght="0.37978949025273323" />
        <Con id="48" src="2" tgt="33" wght="-4.4593468517996371" />
        <Con id="50" src="3" tgt="30" wght="2.8466702811419964" />
        <Con id="56" src="4" tgt="31" wght="0.68976115202531219" />
        <Con id="57" src="4" tgt="32" wght="1.6859008185565472" />
        <Con id="64" src="5" tgt="34" wght="1.0894116433337331" />
        <Con id="65" src="6" tgt="30" wght="0.95232908381149173" />
        <Con id="67" src="6" tgt="32" wght="1.3051425386220217" />
        <Con id="72" src="7" tgt="32" wght="-0.79157863954672292" />
        <Con id="76" src="8" tgt="31" wght="-1.3106582383625209" />
        <Con id="78" src="8" tgt="33" wght="-1.9050406967289746" />
        <Con id="79" src="8" tgt="34" wght="-3.785446509718895" />
        <Con id="92" src="11" tgt="32" wght="-0.012221126817166805" />
        <Con id="99" src="12" tgt="34" wght="-0.74988753302022815" />
        <Con id="101" src="13" tgt="31" wght="-1.4287975868676941" />
        <Con id="108" src="14" tgt="33" wght="-3.1525993533432484" />
        <Con id="112" src="15" tgt="32" wght="0.36456666188314557" />
        <Con id="115" src="16" tgt="30" wght="4.5741821313411188" />
        <Con id="125" src="18" tgt="30" wght="-2.1775955171324313" />
        <Con id="131" src="19" tgt="31" wght="-3.7788465223689736" />
        <Con id="132" src="19" tgt="32" wght="2.7313391119241714" />
        <Con id="138" src="20" tgt="33" wght="-3.6396213946864009" />
        <Con id="140" src="21" tgt="30" wght="1.8736319965682924" />
        <Con id="148" src="22" tgt="33" wght="-4.5930107799358666" />
        <Con id="175" src="28" tgt="30" wght="-4.3270600656978786" />
        <Con id="183" src="29" tgt="33" wght="1.9620072050020099" />
        <Con id="195" src="193" tgt="33" wght="5" />
        <Con id="217" src="27" tgt="216" wght="2.6777493418194354" />
        <Con id="218" src="216" tgt="31" wght="5" />
        <Con id="224" src="18" tgt="223" wght="1.5196160272991508" />
        <Con id="225" src="223" tgt="193" wght="5" />
        <Con id="257" src="0" tgt="256" wght="4.6077243052423" />
        <Con id="258" src="256" tgt="216" wght="5" />
      </Connections>
    </Network>
    <Network id="316" birthGen="12" fitness="0.40000000596046448">
      <Nodes>
        <Node type="bias" id="0" />
        <Node type="in" id="1" />
        <Node type="in" id="2" />
        <Node type="in" id="3" />
        <Node type="in" id="4" />
        <Node type="in" id="5" />
        <Node type="in" id="6" />
        <Node type="in" id="7" />
        <Node type="in" id="8" />
        <Node type="in" id="9" />
        <Node type="in" id="10" />
        <Node type="in" id="11" />
        <Node type="in" id="12" />
        <Node type="in" id="13" />
        <Node type="in" id="14" />
        <Node type="in" id="15" />
        <Node type="in" id="16" />
        <Node type="in" id="17" />
        <Node type="in" id="18" />
        <Node type="in" id="19" />
        <Node type="in" id="20" />
        <Node type="in" id="21" />
        <Node type="in" id="22" />
        <Node type="in" id="23" />
        <Node type="in" id="24" />
        <Node type="in" id="25" />
        <Node type="in" id="26" />
        <Node type="in" id="27" />
        <Node type="in" id="28" />
        <Node type="in" id="29" />
        <Node type="out" id="30" />
        <Node type="out" id="31" />
        <Node type="out" id="32" />
        <Node type="out" id="33" />
        <Node type="out" id="34" />
        <Node type="hid" id="188" />
        <Node type="hid" id="193" />
        <Node type="hid" id="216" />
        <Node type="hid" id="223" />
        <Node type="hid" id="256" />
      </Nodes>
      <Connections>
        <Con id="36" src="0" tgt="31" wght="1.5138351893983781" />
        <Con id="46" src="2" tgt="31" wght="0.37978949025273323" />
        <Con id="48" src="2" tgt="33" wght="-4.4593468517996371" />
        <Con id="50" src="3" tgt="30" wght="2.8466702811419964" />
        <Con id="56" src="4" tgt="31" wght="0.68976115202531219" />
        <Con id="57" src="4" tgt="32" wght="1.6859008185565472" />
        <Con id="64" src="5" tgt="34" wght="1.0894116433337331" />
        <Con id="65" src="6" tgt="30" wght="0.95232908381149173" />
        <Con id="67" src="6" tgt="32" wght="1.3051425386220217" />
        <Con id="72" src="7" tgt="32" wght="-0.79157863954672292" />
        <Con id="76" src="8" tgt="31" wght="-1.3106582383625209" />
        <Con id="78" src="8" tgt="33" wght="-1.9050406967289746" />
        <Con id="79" src="8" tgt="34" wght="-3.785446509718895" />
        <Con id="92" src="11" tgt="32" wght="-0.012221126817166805" />
        <Con id="99" src="12" tgt="34" wght="-0.74988753302022815" />
        <Con id="101" src="13" tgt="31" wght="-1.4287975868676941" />
        <Con id="108" src="14" tgt="33" wght="-3.1525993533432484" />
        <Con id="112" src="15" tgt="32" wght="0.36456666188314557" />
        <Con id="115" src="16" tgt="30" wght="4.5741821313411188" />
        <Con id="125" src="18" tgt="30" wght="-2.1775955171324313" />
        <Con id="131" src="19" tgt="31" wght="-3.7667282320253128" />
        <Con id="132" src="19" tgt="32" wght="2.7313391119241714" />
        <Con id="138" src="20" tgt="33" wght="-3.6396213946864009" />
        <Con id="140" src="21" tgt="30" wght="1.8736319965682924" />
        <Con id="148" src="22" tgt="33" wght="-4.5930107799358666" />
        <Con id="175" src="28" tgt="30" wght="-4.3270600656978786" />
        <Con id="183" src="29" tgt="33" wght="1.9620072050020099" />
        <Con id="189" src="0" tgt="188" wght="-2.0137343369424343" />
        <Con id="190" src="188" tgt="33" wght="5" />
        <Con id="195" src="193" tgt="33" wght="5" />
        <Con id="217" src="27" tgt="216" wght="2.6777493418194354" />
        <Con id="218" src="216" tgt="31" wght="5" />
        <Con id="224" src="18" tgt="223" wght="1.5233456785790622" />
        <Con id="225" src="223" tgt="193" wght="5" />
        <Con id="257" src="0" tgt="256" wght="4.6077243052423" />
        <Con id="258" src="256" tgt="216" wght="5" />
      </Connections>
    </Network>
    <Network id="305" birthGen="12" fitness="3.8000001907348633">
      <Nodes>
        <Node type="bias" id="0" />
        <Node type="in" id="1" />
        <Node type="in" id="2" />
        <Node type="in" id="3" />
        <Node type="in" id="4" />
        <Node type="in" id="5" />
        <Node type="in" id="6" />
        <Node type="in" id="7" />
        <Node type="in" id="8" />
        <Node type="in" id="9" />
        <Node type="in" id="10" />
        <Node type="in" id="11" />
        <Node type="in" id="12" />
        <Node type="in" id="13" />
        <Node type="in" id="14" />
        <Node type="in" id="15" />
        <Node type="in" id="16" />
        <Node type="in" id="17" />
        <Node type="in" id="18" />
        <Node type="in" id="19" />
        <Node type="in" id="20" />
        <Node type="in" id="21" />
        <Node type="in" id="22" />
        <Node type="in" id="23" />
        <Node type="in" id="24" />
        <Node type="in" id="25" />
        <Node type="in" id="26" />
        <Node type="in" id="27" />
        <Node type="in" id="28" />
        <Node type="in" id="29" />
        <Node type="out" id="30" />
        <Node type="out" id="31" />
        <Node type="out" id="32" />
        <Node type="out" id="33" />
        <Node type="out" id="34" />
        <Node type="hid" id="193" />
        <Node type="hid" id="250" />
        <Node type="hid" id="269" />
      </Nodes>
      <Connections>
        <Con id="36" src="0" tgt="31" wght="1.5138351893983781" />
        <Con id="38" src="0" tgt="33" wght="-2.0137343369424343" />
        <Con id="46" src="2" tgt="31" wght="0.37978949025273323" />
        <Con id="48" src="2" tgt="33" wght="-4.4593468517996371" />
        <Con id="50" src="3" tgt="30" wght="2.8490521809978877" />
        <Con id="56" src="4" tgt="31" wght="0.68976115202531219" />
        <Con id="57" src="4" tgt="32" wght="1.6859008185565472" />
        <Con id="64" src="5" tgt="34" wght="1.0894116433337331" />
        <Con id="67" src="6" tgt="32" wght="1.2824639470620451" />
        <Con id="76" src="8" tgt="31" wght="-1.3106582383625209" />
        <Con id="78" src="8" tgt="33" wght="-1.9050406967289746" />
        <Con id="79" src="8" tgt="34" wght="-3.785446509718895" />
        <Con id="92" src="11" tgt="32" wght="-0.012221126817166805" />
        <Con id="99" src="12" tgt="34" wght="-0.74988753302022815" />
        <Con id="101" src="13" tgt="31" wght="-1.4216492907144129" />
        <Con id="108" src="14" tgt="33" wght="-3.1525993533432484" />
        <Con id="112" src="15" tgt="32" wght="0.3534914344628442" />
        <Con id="115" src="16" tgt="30" wght="4.5922873279752308" />
        <Con id="125" src="18" tgt="30" wght="-2.1775955171324313" />
        <Con id="131" src="19" tgt="31" wght="-3.7667282320253128" />
        <Con id="138" src="20" tgt="33" wght="-3.6396213946864009" />
        <Con id="140" src="21" tgt="30" wght="1.8736319965682924" />
        <Con id="148" src="22" tgt="33" wght="-4.5962122474226961" />
        <Con id="171" src="27" tgt="31" wght="2.6777493418194354" />
        <Con id="175" src="28" tgt="30" wght="-4.3270600656978786" />
        <Con id="183" src="29" tgt="33" wght="1.978929316493047" />
        <Con id="194" src="18" tgt="193" wght="1.5233456785790622" />
        <Con id="195" src="193" tgt="33" wght="5" />
        <Con id="251" src="19" tgt="250" wght="2.7313391119241714" />
        <Con id="252" src="250" tgt="32" wght="5" />
        <Con id="270" src="6" tgt="269" wght="0.95232908381149173" />
        <Con id="271" src="269" tgt="30" wght="5" />
      </Connections>
    </Network>
    <Network id="321" birthGen="13" fitness="1.7999999523162842">
      <Nodes>
        <Node type="bias" id="0" />
        <Node type="in" id="1" />
        <Node type="in" id="2" />
        <Node type="in" id="3" />
        <Node type="in" id="4" />
        <Node type="in" id="5" />
        <Node type="in" id="6" />
        <Node type="in" id="7" />
        <Node type="in" id="8" />
        <Node type="in" id="9" />
        <Node type="in" id="10" />
        <Node type="in" id="11" />
        <Node type="in" id="12" />
        <Node type="in" id="13" />
        <Node type="in" id="14" />
        <Node type="in" id="15" />
        <Node type="in" id="16" />
        <Node type="in" id="17" />
        <Node type="in" id="18" />
        <Node type="in" id="19" />
        <Node type="in" id="20" />
        <Node type="in" id="21" />
        <Node type="in" id="22" />
        <Node type="in" id="23" />
        <Node type="in" id="24" />
        <Node type="in" id="25" />
        <Node type="in" id="26" />
        <Node type="in" id="27" />
        <Node type="in" id="28" />
        <Node type="in" id="29" />
        <Node type="out" id="30" />
        <Node type="out" id="31" />
        <Node type="out" id="32" />
        <Node type="out" id="33" />
        <Node type="out" id="34" />
        <Node type="hid" id="193" />
        <Node type="hid" id="216" />
        <Node type="hid" id="223" />
        <Node type="hid" id="259" />
        <Node type="hid" id="283" />
      </Nodes>
      <Connections>
        <Con id="36" src="0" tgt="31" wght="1.5138351893983781" />
        <Con id="38" src="0" tgt="33" wght="-2.0137343369424343" />
        <Con id="48" src="2" tgt="33" wght="-4.4593468517996371" />
        <Con id="50" src="3" tgt="30" wght="2.8466702811419964" />
        <Con id="56" src="4" tgt="31" wght="0.68976115202531219" />
        <Con id="57" src="4" tgt="32" wght="1.6859008185565472" />
        <Con id="65" src="6" tgt="30" wght="0.95232908381149173" />
        <Con id="67" src="6" tgt="32" wght="1.3051425386220217" />
        <Con id="72" src="7" tgt="32" wght="-0.79159005312249064" />
        <Con id="76" src="8" tgt="31" wght="-1.3106582383625209" />
        <Con id="78" src="8" tgt="33" wght="-1.9050406967289746" />
        <Con id="79" src="8" tgt="34" wght="-3.785446509718895" />
        <Con id="92" src="11" tgt="32" wght="-0.012221126817166805" />
        <Con id="99" src="12" tgt="34" wght="-0.75962033297034715" />
        <Con id="101" src="13" tgt="31" wght="-1.4216492907144129" />
        <Con id="108" src="14" tgt="33" wght="-3.1525993533432484" />
        <Con id="112" src="15" tgt="32" wght="0.36456666188314557" />
        <Con id="115" src="16" tgt="30" wght="4.5891845179721713" />
        <Con id="125" src="18" tgt="30" wght="-2.1775955171324313" />
        <Con id="131" src="19" tgt="31" wght="-3.7667282320253128" />
        <Con id="132" src="19" tgt="32" wght="2.7313391119241714" />
        <Con id="138" src="20" tgt="33" wght="-3.6396213946864009" />
        <Con id="140" src="21" tgt="30" wght="1.8736319965682924" />
        <Con id="148" src="22" tgt="33" wght="-4.5930107799358666" />
        <Con id="175" src="28" tgt="30" wght="-4.3270600656978786" />
        <Con id="183" src="29" tgt="33" wght="1.9620072050020099" />
        <Con id="195" src="193" tgt="33" wght="5" />
        <Con id="217" src="27" tgt="216" wght="2.6824053400631627" />
        <Con id="218" src="216" tgt="31" wght="5" />
        <Con id="224" src="18" tgt="223" wght="1.5233456785790622" />
        <Con id="225" src="223" tgt="193" wght="4.9917143615690849" />
        <Con id="243" src="0" tgt="216" wght="4.6077243052423" />
        <Con id="260" src="5" tgt="259" wght="1.1022119287318293" />
        <Con id="261" src="259" tgt="34" wght="5" />
        <Con id="284" src="2" tgt="283" wght="0.37978949025273323" />
        <Con id="285" src="283" tgt="31" wght="5" />
        <Con id="307" src="22" tgt="259" wght="-1.9113891641609371" />
      </Connections>
    </Network>
    <Network id="322" birthGen="13" fitness="2.4000000953674316">
      <Nodes>
        <Node type="bias" id="0" />
        <Node type="in" id="1" />
        <Node type="in" id="2" />
        <Node type="in" id="3" />
        <Node type="in" id="4" />
        <Node type="in" id="5" />
        <Node type="in" id="6" />
        <Node type="in" id="7" />
        <Node type="in" id="8" />
        <Node type="in" id="9" />
        <Node type="in" id="10" />
        <Node type="in" id="11" />
        <Node type="in" id="12" />
        <Node type="in" id="13" />
        <Node type="in" id="14" />
        <Node type="in" id="15" />
        <Node type="in" id="16" />
        <Node type="in" id="17" />
        <Node type="in" id="18" />
        <Node type="in" id="19" />
        <Node type="in" id="20" />
        <Node type="in" id="21" />
        <Node type="in" id="22" />
        <Node type="in" id="23" />
        <Node type="in" id="24" />
        <Node type="in" id="25" />
        <Node type="in" id="26" />
        <Node type="in" id="27" />
        <Node type="in" id="28" />
        <Node type="in" id="29" />
        <Node type="out" id="30" />
        <Node type="out" id="31" />
        <Node type="out" id="32" />
        <Node type="out" id="33" />
        <Node type="out" id="34" />
        <Node type="hid" id="193" />
        <Node type="hid" id="216" />
        <Node type="hid" id="223" />
        <Node type="hid" id="259" />
        <Node type="hid" id="283" />
      </Nodes>
      <Connections>
        <Con id="36" src="0" tgt="31" wght="1.5138351893983781" />
        <Con id="38" src="0" tgt="33" wght="-2.0137343369424343" />
        <Con id="48" src="2" tgt="33" wght="-4.4593468517996371" />
        <Con id="50" src="3" tgt="30" wght="2.8466702811419964" />
        <Con id="56" src="4" tgt="31" wght="0.68976115202531219" />
        <Con id="57" src="4" tgt="32" wght="1.6859008185565472" />
        <Con id="65" src="6" tgt="30" wght="0.95232908381149173" />
        <Con id="67" src="6" tgt="32" wght="1.3051425386220217" />
        <Con id="72" src="7" tgt="32" wght="-0.79159005312249064" />
        <Con id="76" src="8" tgt="31" wght="-1.3106582383625209" />
        <Con id="78" src="8" tgt="33" wght="-1.9050406967289746" />
        <Con id="79" src="8" tgt="34" wght="-3.785446509718895" />
        <Con id="92" src="11" tgt="32" wght="-0.012221126817166805" />
        <Con id="99" src="12" tgt="34" wght="-0.75962033297034715" />
        <Con id="101" src="13" tgt="31" wght="-1.4216492907144129" />
        <Con id="108" src="14" tgt="33" wght="-3.1525993533432484" />
        <Con id="112" src="15" tgt="32" wght="0.36456666188314557" />
        <Con id="115" src="16" tgt="30" wght="4.5891845179721713" />
        <Con id="125" src="18" tgt="30" wght="-2.1775955171324313" />
        <Con id="131" src="19" tgt="31" wght="-3.7667282320253128" />
        <Con id="132" src="19" tgt="32" wght="2.7313391119241714" />
        <Con id="138" src="20" tgt="33" wght="-3.6396213946864009" />
        <Con id="140" src="21" tgt="30" wght="1.8736319965682924" />
        <Con id="148" src="22" tgt="33" wght="-4.5930107799358666" />
        <Con id="175" src="28" tgt="30" wght="-4.3270600656978786" />
        <Con id="183" src="29" tgt="33" wght="1.9620072050020099" />
        <Con id="195" src="193" tgt="33" wght="5" />
        <Con id="217" src="27" tgt="216" wght="2.6824053400631627" />
        <Con id="218" src="216" tgt="31" wght="5" />
        <Con id="224" src="18" tgt="223" wght="1.5233456785790622" />
        <Con id="225" src="223" tgt="193" wght="4.9917143615690849" />
        <Con id="243" src="0" tgt="216" wght="4.6077243052423" />
        <Con id="260" src="5" tgt="259" wght="1.1022119287318293" />
        <Con id="261" src="259" tgt="34" wght="5" />
        <Con id="284" src="2" tgt="283" wght="0.37978949025273323" />
        <Con id="285" src="283" tgt="31" wght="5" />
        <Con id="308" src="223" tgt="32" wght="0.046017340430989866" />
      </Connections>
    </Network>
    <Network id="323" birthGen="13" fitness="0.40000000596046448">
      <Nodes>
        <Node type="bias" id="0" />
        <Node type="in" id="1" />
        <Node type="in" id="2" />
        <Node type="in" id="3" />
        <Node type="in" id="4" />
        <Node type="in" id="5" />
        <Node type="in" id="6" />
        <Node type="in" id="7" />
        <Node type="in" id="8" />
        <Node type="in" id="9" />
        <Node type="in" id="10" />
        <Node type="in" id="11" />
        <Node type="in" id="12" />
        <Node type="in" id="13" />
        <Node type="in" id="14" />
        <Node type="in" id="15" />
        <Node type="in" id="16" />
        <Node type="in" id="17" />
        <Node type="in" id="18" />
        <Node type="in" id="19" />
        <Node type="in" id="20" />
        <Node type="in" id="21" />
        <Node type="in" id="22" />
        <Node type="in" id="23" />
        <Node type="in" id="24" />
        <Node type="in" id="25" />
        <Node type="in" id="26" />
        <Node type="in" id="27" />
        <Node type="in" id="28" />
        <Node type="in" id="29" />
        <Node type="out" id="30" />
        <Node type="out" id="31" />
        <Node type="out" id="32" />
        <Node type="out" id="33" />
        <Node type="out" id="34" />
        <Node type="hid" id="193" />
        <Node type="hid" id="216" />
        <Node type="hid" id="223" />
        <Node type="hid" id="259" />
        <Node type="hid" id="283" />
      </Nodes>
      <Connections>
        <Con id="36" src="0" tgt="31" wght="1.5138351893983781" />
        <Con id="38" src="0" tgt="33" wght="-2.0137343369424343" />
        <Con id="48" src="2" tgt="33" wght="-4.4602207297565206" />
        <Con id="50" src="3" tgt="30" wght="2.8466702811419964" />
        <Con id="56" src="4" tgt="31" wght="0.68976115202531219" />
        <Con id="57" src="4" tgt="32" wght="1.6859008185565472" />
        <Con id="65" src="6" tgt="30" wght="0.95232908381149173" />
        <Con id="67" src="6" tgt="32" wght="1.3051425386220217" />
        <Con id="72" src="7" tgt="32" wght="-0.79159005312249064" />
        <Con id="76" src="8" tgt="31" wght="-1.3106582383625209" />
        <Con id="78" src="8" tgt="33" wght="-1.9050406967289746" />
        <Con id="79" src="8" tgt="34" wght="-3.785446509718895" />
        <Con id="92" src="11" tgt="32" wght="-0.012221126817166805" />
        <Con id="99" src="12" tgt="34" wght="-0.75962033297034715" />
        <Con id="101" src="13" tgt="31" wght="-1.4216492907144129" />
        <Con id="108" src="14" tgt="33" wght="-3.1525993533432484" />
        <Con id="112" src="15" tgt="32" wght="0.36456666188314557" />
        <Con id="115" src="16" tgt="30" wght="4.5891845179721713" />
        <Con id="125" src="18" tgt="30" wght="-2.1775955171324313" />
        <Con id="131" src="19" tgt="31" wght="-3.775931317390024" />
        <Con id="132" src="19" tgt="32" wght="2.7313391119241714" />
        <Con id="138" src="20" tgt="33" wght="-3.6396213946864009" />
        <Con id="140" src="21" tgt="30" wght="1.8736319965682924" />
        <Con id="148" src="22" tgt="33" wght="-4.5930107799358666" />
        <Con id="175" src="28" tgt="30" wght="-4.3270600656978786" />
        <Con id="183" src="29" tgt="33" wght="1.9620072050020099" />
        <Con id="195" src="193" tgt="33" wght="5" />
        <Con id="217" src="27" tgt="216" wght="2.6824053400631627" />
        <Con id="218" src="216" tgt="31" wght="5" />
        <Con id="224" src="18" tgt="223" wght="1.5233456785790622" />
        <Con id="225" src="223" tgt="193" wght="4.9917143615690849" />
        <Con id="243" src="0" tgt="216" wght="4.6077243052423" />
        <Con id="260" src="5" tgt="259" wght="1.1022119287318293" />
        <Con id="261" src="259" tgt="34" wght="5" />
        <Con id="284" src="2" tgt="283" wght="0.37978949025273323" />
        <Con id="285" src="283" tgt="31" wght="5" />
      </Connections>
    </Network>
    <Network id="324" birthGen="13" fitness="0">
      <Nodes>
        <Node type="bias" id="0" />
        <Node type="in" id="1" />
        <Node type="in" id="2" />
        <Node type="in" id="3" />
        <Node type="in" id="4" />
        <Node type="in" id="5" />
        <Node type="in" id="6" />
        <Node type="in" id="7" />
        <Node type="in" id="8" />
        <Node type="in" id="9" />
        <Node type="in" id="10" />
        <Node type="in" id="11" />
        <Node type="in" id="12" />
        <Node type="in" id="13" />
        <Node type="in" id="14" />
        <Node type="in" id="15" />
        <Node type="in" id="16" />
        <Node type="in" id="17" />
        <Node type="in" id="18" />
        <Node type="in" id="19" />
        <Node type="in" id="20" />
        <Node type="in" id="21" />
        <Node type="in" id="22" />
        <Node type="in" id="23" />
        <Node type="in" id="24" />
        <Node type="in" id="25" />
        <Node type="in" id="26" />
        <Node type="in" id="27" />
        <Node type="in" id="28" />
        <Node type="in" id="29" />
        <Node type="out" id="30" />
        <Node type="out" id="31" />
        <Node type="out" id="32" />
        <Node type="out" id="33" />
        <Node type="out" id="34" />
        <Node type="hid" id="193" />
        <Node type="hid" id="216" />
        <Node type="hid" id="223" />
        <Node type="hid" id="259" />
        <Node type="hid" id="283" />
      </Nodes>
      <Connections>
        <Con id="36" src="0" tgt="31" wght="1.5138351893983781" />
        <Con id="38" src="0" tgt="33" wght="-2.0137343369424343" />
        <Con id="48" src="2" tgt="33" wght="-4.4593468517996371" />
        <Con id="50" src="3" tgt="30" wght="2.8466702811419964" />
        <Con id="56" src="4" tgt="31" wght="0.68976115202531219" />
        <Con id="57" src="4" tgt="32" wght="1.6859008185565472" />
        <Con id="67" src="6" tgt="32" wght="1.3051425386220217" />
        <Con id="72" src="7" tgt="32" wght="-0.79159005312249064" />
        <Con id="76" src="8" tgt="31" wght="-1.3106582383625209" />
        <Con id="78" src="8" tgt="33" wght="-1.9050406967289746" />
        <Con id="79" src="8" tgt="34" wght="-3.785446509718895" />
        <Con id="92" src="11" tgt="32" wght="-0.012221126817166805" />
        <Con id="99" src="12" tgt="34" wght="-0.75962033297034715" />
        <Con id="101" src="13" tgt="31" wght="-1.4216492907144129" />
        <Con id="108" src="14" tgt="33" wght="-3.1525993533432484" />
        <Con id="112" src="15" tgt="32" wght="0.36456666188314557" />
        <Con id="115" src="16" tgt="30" wght="4.5891845179721713" />
        <Con id="125" src="18" tgt="30" wght="-2.1775955171324313" />
        <Con id="131" src="19" tgt="31" wght="-3.7667282320253128" />
        <Con id="132" src="19" tgt="32" wght="2.7313391119241714" />
        <Con id="138" src="20" tgt="33" wght="-3.6396213946864009" />
        <Con id="140" src="21" tgt="30" wght="1.8736319965682924" />
        <Con id="148" src="22" tgt="33" wght="-4.5930107799358666" />
        <Con id="175" src="28" tgt="30" wght="-4.3270600656978786" />
        <Con id="183" src="29" tgt="33" wght="1.9620072050020099" />
        <Con id="195" src="193" tgt="33" wght="5" />
        <Con id="217" src="27" tgt="216" wght="2.6824053400631627" />
        <Con id="218" src="216" tgt="31" wght="5" />
        <Con id="224" src="18" tgt="223" wght="1.5233456785790622" />
        <Con id="225" src="223" tgt="193" wght="4.9917143615690849" />
        <Con id="243" src="0" tgt="216" wght="4.6077243052423" />
        <Con id="260" src="5" tgt="259" wght="1.1022119287318293" />
        <Con id="261" src="259" tgt="34" wght="5" />
        <Con id="284" src="2" tgt="283" wght="0.37978949025273323" />
        <Con id="285" src="283" tgt="31" wght="5" />
      </Connections>
    </Network>
    <Network id="325" birthGen="13" fitness="0.40000000596046448">
      <Nodes>
        <Node type="bias" id="0" />
        <Node type="in" id="1" />
        <Node type="in" id="2" />
        <Node type="in" id="3" />
        <Node type="in" id="4" />
        <Node type="in" id="5" />
        <Node type="in" id="6" />
        <Node type="in" id="7" />
        <Node type="in" id="8" />
        <Node type="in" id="9" />
        <Node type="in" id="10" />
        <Node type="in" id="11" />
        <Node type="in" id="12" />
        <Node type="in" id="13" />
        <Node type="in" id="14" />
        <Node type="in" id="15" />
        <Node type="in" id="16" />
        <Node type="in" id="17" />
        <Node type="in" id="18" />
        <Node type="in" id="19" />
        <Node type="in" id="20" />
        <Node type="in" id="21" />
        <Node type="in" id="22" />
        <Node type="in" id="23" />
        <Node type="in" id="24" />
        <Node type="in" id="25" />
        <Node type="in" id="26" />
        <Node type="in" id="27" />
        <Node type="in" id="28" />
        <Node type="in" id="29" />
        <Node type="out" id="30" />
        <Node type="out" id="31" />
        <Node type="out" id="32" />
        <Node type="out" id="33" />
        <Node type="out" id="34" />
        <Node type="hid" id="193" />
        <Node type="hid" id="216" />
        <Node type="hid" id="223" />
        <Node type="hid" id="259" />
        <Node type="hid" id="283" />
      </Nodes>
      <Connections>
        <Con id="36" src="0" tgt="31" wght="1.5138351893983781" />
        <Con id="38" src="0" tgt="33" wght="-2.0137343369424343" />
        <Con id="48" src="2" tgt="33" wght="-4.4664203698707743" />
        <Con id="50" src="3" tgt="30" wght="2.8466702811419964" />
        <Con id="56" src="4" tgt="31" wght="0.68976115202531219" />
        <Con id="57" src="4" tgt="32" wght="1.6859008185565472" />
        <Con id="65" src="6" tgt="30" wght="0.95232908381149173" />
        <Con id="67" src="6" tgt="32" wght="1.3051425386220217" />
        <Con id="72" src="7" tgt="32" wght="-0.79159005312249064" />
        <Con id="76" src="8" tgt="31" wght="-1.3106582383625209" />
        <Con id="78" src="8" tgt="33" wght="-1.9050406967289746" />
        <Con id="79" src="8" tgt="34" wght="-3.785446509718895" />
        <Con id="92" src="11" tgt="32" wght="-0.012221126817166805" />
        <Con id="99" src="12" tgt="34" wght="-0.75962033297034715" />
        <Con id="101" src="13" tgt="31" wght="-1.4216492907144129" />
        <Con id="108" src="14" tgt="33" wght="-3.1525993533432484" />
        <Con id="112" src="15" tgt="32" wght="0.36456666188314557" />
        <Con id="115" src="16" tgt="30" wght="4.5891845179721713" />
        <Con id="125" src="18" tgt="30" wght="-2.1775955171324313" />
        <Con id="131" src="19" tgt="31" wght="-3.7667282320253128" />
        <Con id="132" src="19" tgt="32" wght="2.7313391119241714" />
        <Con id="138" src="20" tgt="33" wght="-3.6396213946864009" />
        <Con id="140" src="21" tgt="30" wght="1.8736319965682924" />
        <Con id="148" src="22" tgt="33" wght="-4.5930107799358666" />
        <Con id="175" src="28" tgt="30" wght="-4.3270600656978786" />
        <Con id="183" src="29" tgt="33" wght="1.9620072050020099" />
        <Con id="195" src="193" tgt="33" wght="5" />
        <Con id="217" src="27" tgt="216" wght="2.6824053400631627" />
        <Con id="218" src="216" tgt="31" wght="5" />
        <Con id="224" src="18" tgt="223" wght="1.5233456785790622" />
        <Con id="225" src="223" tgt="193" wght="4.9917143615690849" />
        <Con id="243" src="0" tgt="216" wght="4.6077243052423" />
        <Con id="260" src="5" tgt="259" wght="1.1022119287318293" />
        <Con id="261" src="259" tgt="34" wght="5" />
        <Con id="284" src="2" tgt="283" wght="0.37978949025273323" />
        <Con id="285" src="283" tgt="31" wght="5" />
      </Connections>
    </Network>
    <Network id="326" birthGen="13" fitness="0">
      <Nodes>
        <Node type="bias" id="0" />
        <Node type="in" id="1" />
        <Node type="in" id="2" />
        <Node type="in" id="3" />
        <Node type="in" id="4" />
        <Node type="in" id="5" />
        <Node type="in" id="6" />
        <Node type="in" id="7" />
        <Node type="in" id="8" />
        <Node type="in" id="9" />
        <Node type="in" id="10" />
        <Node type="in" id="11" />
        <Node type="in" id="12" />
        <Node type="in" id="13" />
        <Node type="in" id="14" />
        <Node type="in" id="15" />
        <Node type="in" id="16" />
        <Node type="in" id="17" />
        <Node type="in" id="18" />
        <Node type="in" id="19" />
        <Node type="in" id="20" />
        <Node type="in" id="21" />
        <Node type="in" id="22" />
        <Node type="in" id="23" />
        <Node type="in" id="24" />
        <Node type="in" id="25" />
        <Node type="in" id="26" />
        <Node type="in" id="27" />
        <Node type="in" id="28" />
        <Node type="in" id="29" />
        <Node type="out" id="30" />
        <Node type="out" id="31" />
        <Node type="out" id="32" />
        <Node type="out" id="33" />
        <Node type="out" id="34" />
        <Node type="hid" id="193" />
        <Node type="hid" id="216" />
        <Node type="hid" id="223" />
        <Node type="hid" id="256" />
      </Nodes>
      <Connections>
        <Con id="38" src="0" tgt="33" wght="-2.0137343369424343" />
        <Con id="46" src="2" tgt="31" wght="0.37978949025273323" />
        <Con id="48" src="2" tgt="33" wght="-4.4593468517996371" />
        <Con id="50" src="3" tgt="30" wght="2.8466702811419964" />
        <Con id="56" src="4" tgt="31" wght="0.68976115202531219" />
        <Con id="57" src="4" tgt="32" wght="1.6859008185565472" />
        <Con id="64" src="5" tgt="34" wght="1.0894116433337331" />
        <Con id="65" src="6" tgt="30" wght="0.95232908381149173" />
        <Con id="67" src="6" tgt="32" wght="1.3051425386220217" />
        <Con id="72" src="7" tgt="32" wght="-0.79159005312249064" />
        <Con id="76" src="8" tgt="31" wght="-1.3106582383625209" />
        <Con id="78" src="8" tgt="33" wght="-1.9050406967289746" />
        <Con id="79" src="8" tgt="34" wght="-3.785446509718895" />
        <Con id="92" src="11" tgt="32" wght="-0.012221126817166805" />
        <Con id="99" src="12" tgt="34" wght="-0.74988753302022815" />
        <Con id="101" src="13" tgt="31" wght="-1.4216492907144129" />
        <Con id="115" src="16" tgt="30" wght="4.5891845179721713" />
        <Con id="125" src="18" tgt="30" wght="-2.1775955171324313" />
        <Con id="131" src="19" tgt="31" wght="-3.7667282320253128" />
        <Con id="132" src="19" tgt="32" wght="2.7313391119241714" />
        <Con id="138" src="20" tgt="33" wght="-3.6396213946864009" />
        <Con id="140" src="21" tgt="30" wght="1.8736319965682924" />
        <Con id="148" src="22" tgt="33" wght="-4.5930107799358666" />
        <Con id="175" src="28" tgt="30" wght="-4.3270600656978786" />
        <Con id="183" src="29" tgt="33" wght="1.9620072050020099" />
        <Con id="195" src="193" tgt="33" wght="5" />
        <Con id="217" src="27" tgt="216" wght="2.6777493418194354" />
        <Con id="218" src="216" tgt="31" wght="5" />
        <Con id="224" src="18" tgt="223" wght="1.5233456785790622" />
        <Con id="225" src="223" tgt="193" wght="5" />
        <Con id="257" src="0" tgt="256" wght="4.6077243052423" />
        <Con id="258" src="256" tgt="216" wght="5" />
      </Connections>
    </Network>
    <Network id="327" birthGen="13" fitness="0">
      <Nodes>
        <Node type="bias" id="0" />
        <Node type="in" id="1" />
        <Node type="in" id="2" />
        <Node type="in" id="3" />
        <Node type="in" id="4" />
        <Node type="in" id="5" />
        <Node type="in" id="6" />
        <Node type="in" id="7" />
        <Node type="in" id="8" />
        <Node type="in" id="9" />
        <Node type="in" id="10" />
        <Node type="in" id="11" />
        <Node type="in" id="12" />
        <Node type="in" id="13" />
        <Node type="in" id="14" />
        <Node type="in" id="15" />
        <Node type="in" id="16" />
        <Node type="in" id="17" />
        <Node type="in" id="18" />
        <Node type="in" id="19" />
        <Node type="in" id="20" />
        <Node type="in" id="21" />
        <Node type="in" id="22" />
        <Node type="in" id="23" />
        <Node type="in" id="24" />
        <Node type="in" id="25" />
        <Node type="in" id="26" />
        <Node type="in" id="27" />
        <Node type="in" id="28" />
        <Node type="in" id="29" />
        <Node type="out" id="30" />
        <Node type="out" id="31" />
        <Node type="out" id="32" />
        <Node type="out" id="33" />
        <Node type="out" id="34" />
        <Node type="hid" id="193" />
        <Node type="hid" id="216" />
        <Node type="hid" id="223" />
        <Node type="hid" id="256" />
      </Nodes>
      <Connections>
        <Con id="38" src="0" tgt="33" wght="-2.0137343369424343" />
        <Con id="46" src="2" tgt="31" wght="0.38116381299725022" />
        <Con id="48" src="2" tgt="33" wght="-4.4593468517996371" />
        <Con id="50" src="3" tgt="30" wght="2.8466702811419964" />
        <Con id="56" src="4" tgt="31" wght="0.68976115202531219" />
        <Con id="57" src="4" tgt="32" wght="1.6859008185565472" />
        <Con id="64" src="5" tgt="34" wght="1.0894116433337331" />
        <Con id="65" src="6" tgt="30" wght="0.95232908381149173" />
        <Con id="67" src="6" tgt="32" wght="1.3051425386220217" />
        <Con id="72" src="7" tgt="32" wght="-0.79159005312249064" />
        <Con id="76" src="8" tgt="31" wght="-1.3106582383625209" />
        <Con id="78" src="8" tgt="33" wght="-1.9050406967289746" />
        <Con id="79" src="8" tgt="34" wght="-3.785446509718895" />
        <Con id="92" src="11" tgt="32" wght="-0.012221126817166805" />
        <Con id="99" src="12" tgt="34" wght="-0.74988753302022815" />
        <Con id="101" src="13" tgt="31" wght="-1.4216492907144129" />
        <Con id="108" src="14" tgt="33" wght="-3.1525993533432484" />
        <Con id="115" src="16" tgt="30" wght="4.5891845179721713" />
        <Con id="125" src="18" tgt="30" wght="-2.1775955171324313" />
        <Con id="131" src="19" tgt="31" wght="-3.7638415132038925" />
        <Con id="132" src="19" tgt="32" wght="2.7313391119241714" />
        <Con id="138" src="20" tgt="33" wght="-3.6396213946864009" />
        <Con id="140" src="21" tgt="30" wght="1.8829316862752354" />
        <Con id="148" src="22" tgt="33" wght="-4.5930107799358666" />
        <Con id="175" src="28" tgt="30" wght="-4.3270600656978786" />
        <Con id="183" src="29" tgt="33" wght="1.9620072050020099" />
        <Con id="195" src="193" tgt="33" wght="5" />
        <Con id="217" src="27" tgt="216" wght="2.6777493418194354" />
        <Con id="218" src="216" tgt="31" wght="5" />
        <Con id="224" src="18" tgt="223" wght="1.5233456785790622" />
        <Con id="225" src="223" tgt="193" wght="5" />
        <Con id="257" src="0" tgt="256" wght="4.6077243052423" />
        <Con id="258" src="256" tgt="216" wght="5" />
      </Connections>
    </Network>
    <Network id="328" birthGen="13" fitness="0.40000000596046448">
      <Nodes>
        <Node type="bias" id="0" />
        <Node type="in" id="1" />
        <Node type="in" id="2" />
        <Node type="in" id="3" />
        <Node type="in" id="4" />
        <Node type="in" id="5" />
        <Node type="in" id="6" />
        <Node type="in" id="7" />
        <Node type="in" id="8" />
        <Node type="in" id="9" />
        <Node type="in" id="10" />
        <Node type="in" id="11" />
        <Node type="in" id="12" />
        <Node type="in" id="13" />
        <Node type="in" id="14" />
        <Node type="in" id="15" />
        <Node type="in" id="16" />
        <Node type="in" id="17" />
        <Node type="in" id="18" />
        <Node type="in" id="19" />
        <Node type="in" id="20" />
        <Node type="in" id="21" />
        <Node type="in" id="22" />
        <Node type="in" id="23" />
        <Node type="in" id="24" />
        <Node type="in" id="25" />
        <Node type="in" id="26" />
        <Node type="in" id="27" />
        <Node type="in" id="28" />
        <Node type="in" id="29" />
        <Node type="out" id="30" />
        <Node type="out" id="31" />
        <Node type="out" id="32" />
        <Node type="out" id="33" />
        <Node type="out" id="34" />
        <Node type="hid" id="193" />
        <Node type="hid" id="216" />
        <Node type="hid" id="223" />
        <Node type="hid" id="256" />
      </Nodes>
      <Connections>
        <Con id="36" src="0" tgt="31" wght="1.5138351893983781" />
        <Con id="38" src="0" tgt="33" wght="-2.0137343369424343" />
        <Con id="46" src="2" tgt="31" wght="0.37978949025273323" />
        <Con id="48" src="2" tgt="33" wght="-4.4593468517996371" />
        <Con id="50" src="3" tgt="30" wght="2.8275017167820735" />
        <Con id="56" src="4" tgt="31" wght="0.68976115202531219" />
        <Con id="57" src="4" tgt="32" wght="1.6859008185565472" />
        <Con id="64" src="5" tgt="34" wght="1.0894116433337331" />
        <Con id="65" src="6" tgt="30" wght="0.95232908381149173" />
        <Con id="67" src="6" tgt="32" wght="1.3051425386220217" />
        <Con id="72" src="7" tgt="32" wght="-0.79159005312249064" />
        <Con id="76" src="8" tgt="31" wght="-1.3106582383625209" />
        <Con id="78" src="8" tgt="33" wght="-1.9050406967289746" />
        <Con id="79" src="8" tgt="34" wght="-3.785446509718895" />
        <Con id="92" src="11" tgt="32" wght="-0.012221126817166805" />
        <Con id="99" src="12" tgt="34" wght="-0.74988753302022815" />
        <Con id="101" src="13" tgt="31" wght="-1.4216492907144129" />
        <Con id="108" src="14" tgt="33" wght="-3.1525993533432484" />
        <Con id="125" src="18" tgt="30" wght="-2.1775955171324313" />
        <Con id="131" src="19" tgt="31" wght="-3.7667282320253128" />
        <Con id="132" src="19" tgt="32" wght="2.7313391119241714" />
        <Con id="138" src="20" tgt="33" wght="-3.6396213946864009" />
        <Con id="140" src="21" tgt="30" wght="1.8736319965682924" />
        <Con id="148" src="22" tgt="33" wght="-4.5930107799358666" />
        <Con id="175" src="28" tgt="30" wght="-4.3270600656978786" />
        <Con id="183" src="29" tgt="33" wght="1.9620072050020099" />
        <Con id="195" src="193" tgt="33" wght="5" />
        <Con id="217" src="27" tgt="216" wght="2.6777493418194354" />
        <Con id="218" src="216" tgt="31" wght="4.9974550863010689" />
        <Con id="224" src="18" tgt="223" wght="1.5233456785790622" />
        <Con id="225" src="223" tgt="193" wght="5" />
        <Con id="257" src="0" tgt="256" wght="4.6077243052423" />
        <Con id="258" src="256" tgt="216" wght="4.9975624842321009" />
      </Connections>
    </Network>
    <Network id="329" birthGen="13" fitness="2.4000000953674316">
      <Nodes>
        <Node type="bias" id="0" />
        <Node type="in" id="1" />
        <Node type="in" id="2" />
        <Node type="in" id="3" />
        <Node type="in" id="4" />
        <Node type="in" id="5" />
        <Node type="in" id="6" />
        <Node type="in" id="7" />
        <Node type="in" id="8" />
        <Node type="in" id="9" />
        <Node type="in" id="10" />
        <Node type="in" id="11" />
        <Node type="in" id="12" />
        <Node type="in" id="13" />
        <Node type="in" id="14" />
        <Node type="in" id="15" />
        <Node type="in" id="16" />
        <Node type="in" id="17" />
        <Node type="in" id="18" />
        <Node type="in" id="19" />
        <Node type="in" id="20" />
        <Node type="in" id="21" />
        <Node type="in" id="22" />
        <Node type="in" id="23" />
        <Node type="in" id="24" />
        <Node type="in" id="25" />
        <Node type="in" id="26" />
        <Node type="in" id="27" />
        <Node type="in" id="28" />
        <Node type="in" id="29" />
        <Node type="out" id="30" />
        <Node type="out" id="31" />
        <Node type="out" id="32" />
        <Node type="out" id="33" />
        <Node type="out" id="34" />
        <Node type="hid" id="193" />
        <Node type="hid" id="216" />
        <Node type="hid" id="223" />
        <Node type="hid" id="256" />
      </Nodes>
      <Connections>
        <Con id="36" src="0" tgt="31" wght="1.5138351893983781" />
        <Con id="38" src="0" tgt="33" wght="-2.0137343369424343" />
        <Con id="46" src="2" tgt="31" wght="0.37978949025273323" />
        <Con id="48" src="2" tgt="33" wght="-4.4593468517996371" />
        <Con id="50" src="3" tgt="30" wght="2.8466702811419964" />
        <Con id="56" src="4" tgt="31" wght="0.68976115202531219" />
        <Con id="57" src="4" tgt="32" wght="1.6859008185565472" />
        <Con id="64" src="5" tgt="34" wght="1.0894116433337331" />
        <Con id="65" src="6" tgt="30" wght="0.95232908381149173" />
        <Con id="67" src="6" tgt="32" wght="1.3051425386220217" />
        <Con id="72" src="7" tgt="32" wght="-0.79157863954672292" />
        <Con id="76" src="8" tgt="31" wght="-1.3106582383625209" />
        <Con id="78" src="8" tgt="33" wght="-1.9050406967289746" />
        <Con id="79" src="8" tgt="34" wght="-3.785446509718895" />
        <Con id="92" src="11" tgt="32" wght="-0.012221126817166805" />
        <Con id="99" src="12" tgt="34" wght="-0.74988753302022815" />
        <Con id="101" src="13" tgt="31" wght="-1.4287975868676941" />
        <Con id="108" src="14" tgt="33" wght="-3.1453330549802621" />
        <Con id="112" src="15" tgt="32" wght="0.36456666188314557" />
        <Con id="115" src="16" tgt="30" wght="4.5741821313411188" />
        <Con id="125" src="18" tgt="30" wght="-2.1775955171324313" />
        <Con id="131" src="19" tgt="31" wght="-3.7788465223689736" />
        <Con id="132" src="19" tgt="32" wght="2.7313391119241714" />
        <Con id="138" src="20" tgt="33" wght="-3.6396213946864009" />
        <Con id="140" src="21" tgt="30" wght="1.8736319965682924" />
        <Con id="148" src="22" tgt="33" wght="-4.5930107799358666" />
        <Con id="175" src="28" tgt="30" wght="-4.3270600656978786" />
        <Con id="183" src="29" tgt="33" wght="1.9620072050020099" />
        <Con id="195" src="193" tgt="33" wght="5" />
        <Con id="217" src="27" tgt="216" wght="2.6777493418194354" />
        <Con id="218" src="216" tgt="31" wght="5" />
        <Con id="224" src="18" tgt="223" wght="1.5196160272991508" />
        <Con id="225" src="223" tgt="193" wght="5" />
        <Con id="257" src="0" tgt="256" wght="4.6077243052423" />
        <Con id="258" src="256" tgt="216" wght="5" />
      </Connections>
    </Network>
    <Network id="330" birthGen="13" fitness="0.40000000596046448">
      <Nodes>
        <Node type="bias" id="0" />
        <Node type="in" id="1" />
        <Node type="in" id="2" />
        <Node type="in" id="3" />
        <Node type="in" id="4" />
        <Node type="in" id="5" />
        <Node type="in" id="6" />
        <Node type="in" id="7" />
        <Node type="in" id="8" />
        <Node type="in" id="9" />
        <Node type="in" id="10" />
        <Node type="in" id="11" />
        <Node type="in" id="12" />
        <Node type="in" id="13" />
        <Node type="in" id="14" />
        <Node type="in" id="15" />
        <Node type="in" id="16" />
        <Node type="in" id="17" />
        <Node type="in" id="18" />
        <Node type="in" id="19" />
        <Node type="in" id="20" />
        <Node type="in" id="21" />
        <Node type="in" id="22" />
        <Node type="in" id="23" />
        <Node type="in" id="24" />
        <Node type="in" id="25" />
        <Node type="in" id="26" />
        <Node type="in" id="27" />
        <Node type="in" id="28" />
        <Node type="in" id="29" />
        <Node type="out" id="30" />
        <Node type="out" id="31" />
        <Node type="out" id="32" />
        <Node type="out" id="33" />
        <Node type="out" id="34" />
        <Node type="hid" id="193" />
        <Node type="hid" id="216" />
        <Node type="hid" id="223" />
        <Node type="hid" id="256" />
      </Nodes>
      <Connections>
        <Con id="36" src="0" tgt="31" wght="1.5138351893983781" />
        <Con id="38" src="0" tgt="33" wght="-2.0137343369424343" />
        <Con id="46" src="2" tgt="31" wght="0.37978949025273323" />
        <Con id="48" src="2" tgt="33" wght="-4.4593468517996371" />
        <Con id="50" src="3" tgt="30" wght="2.8466702811419964" />
        <Con id="56" src="4" tgt="31" wght="0.68976115202531219" />
        <Con id="57" src="4" tgt="32" wght="1.6859008185565472" />
        <Con id="64" src="5" tgt="34" wght="1.0894116433337331" />
        <Con id="65" src="6" tgt="30" wght="0.95232908381149173" />
        <Con id="67" src="6" tgt="32" wght="1.3051425386220217" />
        <Con id="72" src="7" tgt="32" wght="-0.79157863954672292" />
        <Con id="76" src="8" tgt="31" wght="-1.3106582383625209" />
        <Con id="78" src="8" tgt="33" wght="-1.9050406967289746" />
        <Con id="79" src="8" tgt="34" wght="-3.785446509718895" />
        <Con id="92" src="11" tgt="32" wght="-0.012221126817166805" />
        <Con id="99" src="12" tgt="34" wght="-0.74988753302022815" />
        <Con id="101" src="13" tgt="31" wght="-1.4216492907144129" />
        <Con id="108" src="14" tgt="33" wght="-3.1525993533432484" />
        <Con id="115" src="16" tgt="30" wght="4.5891845179721713" />
        <Con id="125" src="18" tgt="30" wght="-2.1775955171324313" />
        <Con id="131" src="19" tgt="31" wght="-3.7788465223689736" />
        <Con id="132" src="19" tgt="32" wght="2.7313391119241714" />
        <Con id="138" src="20" tgt="33" wght="-3.6396213946864009" />
        <Con id="140" src="21" tgt="30" wght="1.8736319965682924" />
        <Con id="148" src="22" tgt="33" wght="-4.5930107799358666" />
        <Con id="175" src="28" tgt="30" wght="-4.3270600656978786" />
        <Con id="183" src="29" tgt="33" wght="1.9620072050020099" />
        <Con id="195" src="193" tgt="33" wght="5" />
        <Con id="217" src="27" tgt="216" wght="2.6777493418194354" />
        <Con id="218" src="216" tgt="31" wght="5" />
        <Con id="224" src="18" tgt="223" wght="1.5196160272991508" />
        <Con id="225" src="223" tgt="193" wght="5" />
        <Con id="257" src="0" tgt="256" wght="4.6077243052423" />
        <Con id="258" src="256" tgt="216" wght="5" />
      </Connections>
    </Network>
    <Network id="331" birthGen="13" fitness="2">
      <Nodes>
        <Node type="bias" id="0" />
        <Node type="in" id="1" />
        <Node type="in" id="2" />
        <Node type="in" id="3" />
        <Node type="in" id="4" />
        <Node type="in" id="5" />
        <Node type="in" id="6" />
        <Node type="in" id="7" />
        <Node type="in" id="8" />
        <Node type="in" id="9" />
        <Node type="in" id="10" />
        <Node type="in" id="11" />
        <Node type="in" id="12" />
        <Node type="in" id="13" />
        <Node type="in" id="14" />
        <Node type="in" id="15" />
        <Node type="in" id="16" />
        <Node type="in" id="17" />
        <Node type="in" id="18" />
        <Node type="in" id="19" />
        <Node type="in" id="20" />
        <Node type="in" id="21" />
        <Node type="in" id="22" />
        <Node type="in" id="23" />
        <Node type="in" id="24" />
        <Node type="in" id="25" />
        <Node type="in" id="26" />
        <Node type="in" id="27" />
        <Node type="in" id="28" />
        <Node type="in" id="29" />
        <Node type="out" id="30" />
        <Node type="out" id="31" />
        <Node type="out" id="32" />
        <Node type="out" id="33" />
        <Node type="out" id="34" />
        <Node type="hid" id="193" />
        <Node type="hid" id="216" />
        <Node type="hid" id="223" />
        <Node type="hid" id="256" />
      </Nodes>
      <Connections>
        <Con id="36" src="0" tgt="31" wght="1.5138351893983781" />
        <Con id="38" src="0" tgt="33" wght="-2.0137343369424343" />
        <Con id="46" src="2" tgt="31" wght="0.37978949025273323" />
        <Con id="48" src="2" tgt="33" wght="-4.4593468517996371" />
        <Con id="50" src="3" tgt="30" wght="2.8466702811419964" />
        <Con id="56" src="4" tgt="31" wght="0.68976115202531219" />
        <Con id="57" src="4" tgt="32" wght="1.6859008185565472" />
        <Con id="64" src="5" tgt="34" wght="1.0894116433337331" />
        <Con id="65" src="6" tgt="30" wght="0.95232908381149173" />
        <Con id="67" src="6" tgt="32" wght="1.3051425386220217" />
        <Con id="72" src="7" tgt="32" wght="-0.79157863954672292" />
        <Con id="76" src="8" tgt="31" wght="-1.3106582383625209" />
        <Con id="78" src="8" tgt="33" wght="-1.9050406967289746" />
        <Con id="79" src="8" tgt="34" wght="-3.785446509718895" />
        <Con id="92" src="11" tgt="32" wght="-0.012221126817166805" />
        <Con id="99" src="12" tgt="34" wght="-0.74988753302022815" />
        <Con id="101" src="13" tgt="31" wght="-1.4287975868676941" />
        <Con id="108" src="14" tgt="33" wght="-3.1525993533432484" />
        <Con id="115" src="16" tgt="30" wght="4.5891845179721713" />
        <Con id="125" src="18" tgt="30" wght="-2.1775955171324313" />
        <Con id="131" src="19" tgt="31" wght="-3.7788465223689736" />
        <Con id="132" src="19" tgt="32" wght="2.7313391119241714" />
        <Con id="138" src="20" tgt="33" wght="-3.6396213946864009" />
        <Con id="140" src="21" tgt="30" wght="1.8736319965682924" />
        <Con id="148" src="22" tgt="33" wght="-4.5930107799358666" />
        <Con id="175" src="28" tgt="30" wght="-4.3270600656978786" />
        <Con id="183" src="29" tgt="33" wght="1.9620072050020099" />
        <Con id="195" src="193" tgt="33" wght="5" />
        <Con id="217" src="27" tgt="216" wght="2.6777493418194354" />
        <Con id="218" src="216" tgt="31" wght="4.9974550863010689" />
        <Con id="224" src="18" tgt="223" wght="1.5233456785790622" />
        <Con id="225" src="223" tgt="193" wght="5" />
        <Con id="257" src="0" tgt="256" wght="4.6077243052423" />
        <Con id="258" src="256" tgt="216" wght="4.9975624842321009" />
      </Connections>
    </Network>
    <Network id="332" birthGen="13" fitness="4.1999998092651367">
      <Nodes>
        <Node type="bias" id="0" />
        <Node type="in" id="1" />
        <Node type="in" id="2" />
        <Node type="in" id="3" />
        <Node type="in" id="4" />
        <Node type="in" id="5" />
        <Node type="in" id="6" />
        <Node type="in" id="7" />
        <Node type="in" id="8" />
        <Node type="in" id="9" />
        <Node type="in" id="10" />
        <Node type="in" id="11" />
        <Node type="in" id="12" />
        <Node type="in" id="13" />
        <Node type="in" id="14" />
        <Node type="in" id="15" />
        <Node type="in" id="16" />
        <Node type="in" id="17" />
        <Node type="in" id="18" />
        <Node type="in" id="19" />
        <Node type="in" id="20" />
        <Node type="in" id="21" />
        <Node type="in" id="22" />
        <Node type="in" id="23" />
        <Node type="in" id="24" />
        <Node type="in" id="25" />
        <Node type="in" id="26" />
        <Node type="in" id="27" />
        <Node type="in" id="28" />
        <Node type="in" id="29" />
        <Node type="out" id="30" />
        <Node type="out" id="31" />
        <Node type="out" id="32" />
        <Node type="out" id="33" />
        <Node type="out" id="34" />
        <Node type="hid" id="193" />
        <Node type="hid" id="250" />
        <Node type="hid" id="269" />
      </Nodes>
      <Connections>
        <Con id="36" src="0" tgt="31" wght="1.5138351893983781" />
        <Con id="38" src="0" tgt="33" wght="-2.0137343369424343" />
        <Con id="46" src="2" tgt="31" wght="0.37978949025273323" />
        <Con id="48" src="2" tgt="33" wght="-4.4593468517996371" />
        <Con id="50" src="3" tgt="30" wght="2.8490521809978877" />
        <Con id="56" src="4" tgt="31" wght="0.68976115202531219" />
        <Con id="57" src="4" tgt="32" wght="1.6859008185565472" />
        <Con id="64" src="5" tgt="34" wght="1.0894116433337331" />
        <Con id="67" src="6" tgt="32" wght="1.2824639470620451" />
        <Con id="76" src="8" tgt="31" wght="-1.3062518335506541" />
        <Con id="78" src="8" tgt="33" wght="-1.9050406967289746" />
        <Con id="79" src="8" tgt="34" wght="-3.785446509718895" />
        <Con id="92" src="11" tgt="32" wght="-0.012221126817166805" />
        <Con id="99" src="12" tgt="34" wght="-0.74988753302022815" />
        <Con id="101" src="13" tgt="31" wght="-1.4216492907144129" />
        <Con id="108" src="14" tgt="33" wght="-3.1525993533432484" />
        <Con id="112" src="15" tgt="32" wght="0.3534914344628442" />
        <Con id="115" src="16" tgt="30" wght="4.5922873279752308" />
        <Con id="125" src="18" tgt="30" wght="-2.1775955171324313" />
        <Con id="131" src="19" tgt="31" wght="-3.7667282320253128" />
        <Con id="138" src="20" tgt="33" wght="-3.6396213946864009" />
        <Con id="140" src="21" tgt="30" wght="1.8736319965682924" />
        <Con id="148" src="22" tgt="33" wght="-4.5962122474226961" />
        <Con id="171" src="27" tgt="31" wght="2.6777493418194354" />
        <Con id="175" src="28" tgt="30" wght="-4.3270600656978786" />
        <Con id="183" src="29" tgt="33" wght="1.978929316493047" />
        <Con id="194" src="18" tgt="193" wght="1.5233456785790622" />
        <Con id="195" src="193" tgt="33" wght="5" />
        <Con id="251" src="19" tgt="250" wght="2.7313391119241714" />
        <Con id="252" src="250" tgt="32" wght="5" />
        <Con id="270" src="6" tgt="269" wght="0.95232908381149173" />
        <Con id="271" src="269" tgt="30" wght="5" />
      </Connections>
    </Network>
    <Network id="333" birthGen="13" fitness="0">
      <Nodes>
        <Node type="bias" id="0" />
        <Node type="in" id="1" />
        <Node type="in" id="2" />
        <Node type="in" id="3" />
        <Node type="in" id="4" />
        <Node type="in" id="5" />
        <Node type="in" id="6" />
        <Node type="in" id="7" />
        <Node type="in" id="8" />
        <Node type="in" id="9" />
        <Node type="in" id="10" />
        <Node type="in" id="11" />
        <Node type="in" id="12" />
        <Node type="in" id="13" />
        <Node type="in" id="14" />
        <Node type="in" id="15" />
        <Node type="in" id="16" />
        <Node type="in" id="17" />
        <Node type="in" id="18" />
        <Node type="in" id="19" />
        <Node type="in" id="20" />
        <Node type="in" id="21" />
        <Node type="in" id="22" />
        <Node type="in" id="23" />
        <Node type="in" id="24" />
        <Node type="in" id="25" />
        <Node type="in" id="26" />
        <Node type="in" id="27" />
        <Node type="in" id="28" />
        <Node type="in" id="29" />
        <Node type="out" id="30" />
        <Node type="out" id="31" />
        <Node type="out" id="32" />
        <Node type="out" id="33" />
        <Node type="out" id="34" />
        <Node type="hid" id="193" />
        <Node type="hid" id="250" />
        <Node type="hid" id="269" />
      </Nodes>
      <Connections>
        <Con id="36" src="0" tgt="31" wght="1.5138351893983781" />
        <Con id="38" src="0" tgt="33" wght="-2.0137343369424343" />
        <Con id="46" src="2" tgt="31" wght="0.37978949025273323" />
        <Con id="48" src="2" tgt="33" wght="-4.4593468517996371" />
        <Con id="50" src="3" tgt="30" wght="2.8490521809978877" />
        <Con id="56" src="4" tgt="31" wght="0.68976115202531219" />
        <Con id="57" src="4" tgt="32" wght="1.6859008185565472" />
        <Con id="64" src="5" tgt="34" wght="1.0894116433337331" />
        <Con id="67" src="6" tgt="32" wght="1.2824639470620451" />
        <Con id="76" src="8" tgt="31" wght="-1.3106582383625209" />
        <Con id="79" src="8" tgt="34" wght="-3.785446509718895" />
        <Con id="92" src="11" tgt="32" wght="-0.012221126817166805" />
        <Con id="99" src="12" tgt="34" wght="-0.74988753302022815" />
        <Con id="101" src="13" tgt="31" wght="-1.4216492907144129" />
        <Con id="108" src="14" tgt="33" wght="-3.1525993533432484" />
        <Con id="112" src="15" tgt="32" wght="0.3534914344628442" />
        <Con id="115" src="16" tgt="30" wght="4.5922873279752308" />
        <Con id="125" src="18" tgt="30" wght="-2.1775955171324313" />
        <Con id="131" src="19" tgt="31" wght="-3.7667282320253128" />
        <Con id="138" src="20" tgt="33" wght="-3.6396213946864009" />
        <Con id="140" src="21" tgt="30" wght="1.8736319965682924" />
        <Con id="148" src="22" tgt="33" wght="-4.5962122474226961" />
        <Con id="171" src="27" tgt="31" wght="2.6777493418194354" />
        <Con id="175" src="28" tgt="30" wght="-4.3270600656978786" />
        <Con id="183" src="29" tgt="33" wght="1.978929316493047" />
        <Con id="194" src="18" tgt="193" wght="1.5233456785790622" />
        <Con id="195" src="193" tgt="33" wght="5" />
        <Con id="251" src="19" tgt="250" wght="2.7313391119241714" />
        <Con id="252" src="250" tgt="32" wght="5" />
        <Con id="270" src="6" tgt="269" wght="0.95232908381149173" />
        <Con id="271" src="269" tgt="30" wght="5" />
      </Connections>
    </Network>
    <Network id="334" birthGen="13" fitness="1">
      <Nodes>
        <Node type="bias" id="0" />
        <Node type="in" id="1" />
        <Node type="in" id="2" />
        <Node type="in" id="3" />
        <Node type="in" id="4" />
        <Node type="in" id="5" />
        <Node type="in" id="6" />
        <Node type="in" id="7" />
        <Node type="in" id="8" />
        <Node type="in" id="9" />
        <Node type="in" id="10" />
        <Node type="in" id="11" />
        <Node type="in" id="12" />
        <Node type="in" id="13" />
        <Node type="in" id="14" />
        <Node type="in" id="15" />
        <Node type="in" id="16" />
        <Node type="in" id="17" />
        <Node type="in" id="18" />
        <Node type="in" id="19" />
        <Node type="in" id="20" />
        <Node type="in" id="21" />
        <Node type="in" id="22" />
        <Node type="in" id="23" />
        <Node type="in" id="24" />
        <Node type="in" id="25" />
        <Node type="in" id="26" />
        <Node type="in" id="27" />
        <Node type="in" id="28" />
        <Node type="in" id="29" />
        <Node type="out" id="30" />
        <Node type="out" id="31" />
        <Node type="out" id="32" />
        <Node type="out" id="33" />
        <Node type="out" id="34" />
        <Node type="hid" id="193" />
        <Node type="hid" id="250" />
        <Node type="hid" id="269" />
      </Nodes>
      <Connections>
        <Con id="36" src="0" tgt="31" wght="1.5138351893983781" />
        <Con id="38" src="0" tgt="33" wght="-2.0137343369424343" />
        <Con id="46" src="2" tgt="31" wght="0.37978949025273323" />
        <Con id="48" src="2" tgt="33" wght="-4.4593468517996371" />
        <Con id="50" src="3" tgt="30" wght="2.8490521809978877" />
        <Con id="56" src="4" tgt="31" wght="0.68976115202531219" />
        <Con id="57" src="4" tgt="32" wght="1.6859008185565472" />
        <Con id="64" src="5" tgt="34" wght="1.0894116433337331" />
        <Con id="67" src="6" tgt="32" wght="1.2824639470620451" />
        <Con id="76" src="8" tgt="31" wght="-1.3106582383625209" />
        <Con id="78" src="8" tgt="33" wght="-1.9050406967289746" />
        <Con id="79" src="8" tgt="34" wght="-3.785446509718895" />
        <Con id="92" src="11" tgt="32" wght="-0.012221126817166805" />
        <Con id="99" src="12" tgt="34" wght="-0.74988753302022815" />
        <Con id="101" src="13" tgt="31" wght="-1.4216492907144129" />
        <Con id="108" src="14" tgt="33" wght="-3.1525993533432484" />
        <Con id="112" src="15" tgt="32" wght="0.3534914344628442" />
        <Con id="115" src="16" tgt="30" wght="4.5922873279752308" />
        <Con id="125" src="18" tgt="30" wght="-2.1775955171324313" />
        <Con id="131" src="19" tgt="31" wght="-3.7667282320253128" />
        <Con id="138" src="20" tgt="33" wght="-3.6396213946864009" />
        <Con id="140" src="21" tgt="30" wght="1.8736319965682924" />
        <Con id="148" src="22" tgt="33" wght="-4.5962122474226961" />
        <Con id="171" src="27" tgt="31" wght="2.6777493418194354" />
        <Con id="175" src="28" tgt="30" wght="-4.3270600656978786" />
        <Con id="183" src="29" tgt="33" wght="1.978929316493047" />
        <Con id="194" src="18" tgt="193" wght="1.5233456785790622" />
        <Con id="195" src="193" tgt="33" wght="5" />
        <Con id="251" src="19" tgt="250" wght="2.7313391119241714" />
        <Con id="252" src="250" tgt="32" wght="5" />
        <Con id="270" src="6" tgt="269" wght="0.95232908381149173" />
        <Con id="271" src="269" tgt="30" wght="5" />
      </Connections>
    </Network>
    <Network id="335" birthGen="13" fitness="1">
      <Nodes>
        <Node type="bias" id="0" />
        <Node type="in" id="1" />
        <Node type="in" id="2" />
        <Node type="in" id="3" />
        <Node type="in" id="4" />
        <Node type="in" id="5" />
        <Node type="in" id="6" />
        <Node type="in" id="7" />
        <Node type="in" id="8" />
        <Node type="in" id="9" />
        <Node type="in" id="10" />
        <Node type="in" id="11" />
        <Node type="in" id="12" />
        <Node type="in" id="13" />
        <Node type="in" id="14" />
        <Node type="in" id="15" />
        <Node type="in" id="16" />
        <Node type="in" id="17" />
        <Node type="in" id="18" />
        <Node type="in" id="19" />
        <Node type="in" id="20" />
        <Node type="in" id="21" />
        <Node type="in" id="22" />
        <Node type="in" id="23" />
        <Node type="in" id="24" />
        <Node type="in" id="25" />
        <Node type="in" id="26" />
        <Node type="in" id="27" />
        <Node type="in" id="28" />
        <Node type="in" id="29" />
        <Node type="out" id="30" />
        <Node type="out" id="31" />
        <Node type="out" id="32" />
        <Node type="out" id="33" />
        <Node type="out" id="34" />
        <Node type="hid" id="193" />
        <Node type="hid" id="250" />
        <Node type="hid" id="269" />
      </Nodes>
      <Connections>
        <Con id="36" src="0" tgt="31" wght="1.5138351893983781" />
        <Con id="38" src="0" tgt="33" wght="-2.0137343369424343" />
        <Con id="46" src="2" tgt="31" wght="0.37978949025273323" />
        <Con id="48" src="2" tgt="33" wght="-4.4593468517996371" />
        <Con id="50" src="3" tgt="30" wght="2.8490521809978877" />
        <Con id="56" src="4" tgt="31" wght="0.68976115202531219" />
        <Con id="57" src="4" tgt="32" wght="1.6859008185565472" />
        <Con id="64" src="5" tgt="34" wght="1.0894116433337331" />
        <Con id="67" src="6" tgt="32" wght="1.2824639470620451" />
        <Con id="76" src="8" tgt="31" wght="-1.3106582383625209" />
        <Con id="78" src="8" tgt="33" wght="-1.9050406967289746" />
        <Con id="79" src="8" tgt="34" wght="-3.785446509718895" />
        <Con id="92" src="11" tgt="32" wght="-0.012221126817166805" />
        <Con id="99" src="12" tgt="34" wght="-0.74988753302022815" />
        <Con id="101" src="13" tgt="31" wght="-1.4216492907144129" />
        <Con id="108" src="14" tgt="33" wght="-3.1525993533432484" />
        <Con id="112" src="15" tgt="32" wght="0.3534914344628442" />
        <Con id="115" src="16" tgt="30" wght="4.5922873279752308" />
        <Con id="125" src="18" tgt="30" wght="-2.1775955171324313" />
        <Con id="131" src="19" tgt="31" wght="-3.7667282320253128" />
        <Con id="138" src="20" tgt="33" wght="-3.6396213946864009" />
        <Con id="140" src="21" tgt="30" wght="1.8736319965682924" />
        <Con id="148" src="22" tgt="33" wght="-4.5962122474226961" />
        <Con id="171" src="27" tgt="31" wght="2.6777493418194354" />
        <Con id="175" src="28" tgt="30" wght="-4.3270600656978786" />
        <Con id="183" src="29" tgt="33" wght="1.978929316493047" />
        <Con id="194" src="18" tgt="193" wght="1.5233456785790622" />
        <Con id="195" src="193" tgt="33" wght="5" />
        <Con id="251" src="19" tgt="250" wght="2.7313391119241714" />
        <Con id="252" src="250" tgt="32" wght="5" />
        <Con id="270" src="6" tgt="269" wght="0.95232908381149173" />
        <Con id="271" src="269" tgt="30" wght="5" />
      </Connections>
    </Network>
    <Network id="336" birthGen="13" fitness="1.3999999761581421">
      <Nodes>
        <Node type="bias" id="0" />
        <Node type="in" id="1" />
        <Node type="in" id="2" />
        <Node type="in" id="3" />
        <Node type="in" id="4" />
        <Node type="in" id="5" />
        <Node type="in" id="6" />
        <Node type="in" id="7" />
        <Node type="in" id="8" />
        <Node type="in" id="9" />
        <Node type="in" id="10" />
        <Node type="in" id="11" />
        <Node type="in" id="12" />
        <Node type="in" id="13" />
        <Node type="in" id="14" />
        <Node type="in" id="15" />
        <Node type="in" id="16" />
        <Node type="in" id="17" />
        <Node type="in" id="18" />
        <Node type="in" id="19" />
        <Node type="in" id="20" />
        <Node type="in" id="21" />
        <Node type="in" id="22" />
        <Node type="in" id="23" />
        <Node type="in" id="24" />
        <Node type="in" id="25" />
        <Node type="in" id="26" />
        <Node type="in" id="27" />
        <Node type="in" id="28" />
        <Node type="in" id="29" />
        <Node type="out" id="30" />
        <Node type="out" id="31" />
        <Node type="out" id="32" />
        <Node type="out" id="33" />
        <Node type="out" id="34" />
        <Node type="hid" id="193" />
        <Node type="hid" id="250" />
        <Node type="hid" id="309" />
      </Nodes>
      <Connections>
        <Con id="36" src="0" tgt="31" wght="1.5138351893983781" />
        <Con id="38" src="0" tgt="33" wght="-2.0137343369424343" />
        <Con id="46" src="2" tgt="31" wght="0.37978949025273323" />
        <Con id="48" src="2" tgt="33" wght="-4.4593468517996371" />
        <Con id="50" src="3" tgt="30" wght="2.8490521809978877" />
        <Con id="57" src="4" tgt="32" wght="1.6859008185565472" />
        <Con id="64" src="5" tgt="34" wght="1.0894116433337331" />
        <Con id="65" src="6" tgt="30" wght="0.95232908381149173" />
        <Con id="67" src="6" tgt="32" wght="1.2824639470620451" />
        <Con id="76" src="8" tgt="31" wght="-1.3106582383625209" />
        <Con id="78" src="8" tgt="33" wght="-1.9050406967289746" />
        <Con id="79" src="8" tgt="34" wght="-3.785446509718895" />
        <Con id="92" src="11" tgt="32" wght="-0.012221126817166805" />
        <Con id="99" src="12" tgt="34" wght="-0.74988753302022815" />
        <Con id="101" src="13" tgt="31" wght="-1.4216492907144129" />
        <Con id="108" src="14" tgt="33" wght="-3.1525993533432484" />
        <Con id="112" src="15" tgt="32" wght="0.3534914344628442" />
        <Con id="115" src="16" tgt="30" wght="4.5922873279752308" />
        <Con id="125" src="18" tgt="30" wght="-2.1775955171324313" />
        <Con id="131" src="19" tgt="31" wght="-3.7667282320253128" />
        <Con id="138" src="20" tgt="33" wght="-3.6396213946864009" />
        <Con id="140" src="21" tgt="30" wght="1.8736319965682924" />
        <Con id="148" src="22" tgt="33" wght="-4.5962122474226961" />
        <Con id="171" src="27" tgt="31" wght="2.6777493418194354" />
        <Con id="175" src="28" tgt="30" wght="-4.3270600656978786" />
        <Con id="183" src="29" tgt="33" wght="1.978929316493047" />
        <Con id="194" src="18" tgt="193" wght="1.5233456785790622" />
        <Con id="195" src="193" tgt="33" wght="5" />
        <Con id="251" src="19" tgt="250" wght="2.7313391119241714" />
        <Con id="252" src="250" tgt="32" wght="5" />
        <Con id="310" src="4" tgt="309" wght="0.68976115202531219" />
        <Con id="311" src="309" tgt="31" wght="5" />
      </Connections>
    </Network>
    <Network id="337" birthGen="13" fitness="0.40000000596046448">
      <Nodes>
        <Node type="bias" id="0" />
        <Node type="in" id="1" />
        <Node type="in" id="2" />
        <Node type="in" id="3" />
        <Node type="in" id="4" />
        <Node type="in" id="5" />
        <Node type="in" id="6" />
        <Node type="in" id="7" />
        <Node type="in" id="8" />
        <Node type="in" id="9" />
        <Node type="in" id="10" />
        <Node type="in" id="11" />
        <Node type="in" id="12" />
        <Node type="in" id="13" />
        <Node type="in" id="14" />
        <Node type="in" id="15" />
        <Node type="in" id="16" />
        <Node type="in" id="17" />
        <Node type="in" id="18" />
        <Node type="in" id="19" />
        <Node type="in" id="20" />
        <Node type="in" id="21" />
        <Node type="in" id="22" />
        <Node type="in" id="23" />
        <Node type="in" id="24" />
        <Node type="in" id="25" />
        <Node type="in" id="26" />
        <Node type="in" id="27" />
        <Node type="in" id="28" />
        <Node type="in" id="29" />
        <Node type="out" id="30" />
        <Node type="out" id="31" />
        <Node type="out" id="32" />
        <Node type="out" id="33" />
        <Node type="out" id="34" />
        <Node type="hid" id="193" />
        <Node type="hid" id="250" />
        <Node type="hid" id="312" />
      </Nodes>
      <Connections>
        <Con id="36" src="0" tgt="31" wght="1.5138351893983781" />
        <Con id="38" src="0" tgt="33" wght="-2.0137343369424343" />
        <Con id="46" src="2" tgt="31" wght="0.37978949025273323" />
        <Con id="50" src="3" tgt="30" wght="2.8490521809978877" />
        <Con id="56" src="4" tgt="31" wght="0.68976115202531219" />
        <Con id="57" src="4" tgt="32" wght="1.6859008185565472" />
        <Con id="64" src="5" tgt="34" wght="1.0894116433337331" />
        <Con id="65" src="6" tgt="30" wght="0.95232908381149173" />
        <Con id="67" src="6" tgt="32" wght="1.2824639470620451" />
        <Con id="76" src="8" tgt="31" wght="-1.3106582383625209" />
        <Con id="78" src="8" tgt="33" wght="-1.9050406967289746" />
        <Con id="79" src="8" tgt="34" wght="-3.785446509718895" />
        <Con id="92" src="11" tgt="32" wght="-0.012221126817166805" />
        <Con id="99" src="12" tgt="34" wght="-0.74988753302022815" />
        <Con id="101" src="13" tgt="31" wght="-1.4216492907144129" />
        <Con id="108" src="14" tgt="33" wght="-3.1525993533432484" />
        <Con id="112" src="15" tgt="32" wght="0.3534914344628442" />
        <Con id="115" src="16" tgt="30" wght="4.5922873279752308" />
        <Con id="125" src="18" tgt="30" wght="-2.1775955171324313" />
        <Con id="131" src="19" tgt="31" wght="-3.7667282320253128" />
        <Con id="138" src="20" tgt="33" wght="-3.6396213946864009" />
        <Con id="140" src="21" tgt="30" wght="1.8736319965682924" />
        <Con id="148" src="22" tgt="33" wght="-4.5962122474226961" />
        <Con id="171" src="27" tgt="31" wght="2.6777493418194354" />
        <Con id="175" src="28" tgt="30" wght="-4.3270600656978786" />
        <Con id="183" src="29" tgt="33" wght="1.978929316493047" />
        <Con id="194" src="18" tgt="193" wght="1.5233456785790622" />
        <Con id="195" src="193" tgt="33" wght="5" />
        <Con id="251" src="19" tgt="250" wght="2.7313391119241714" />
        <Con id="252" src="250" tgt="32" wght="5" />
        <Con id="313" src="2" tgt="312" wght="-4.4593468517996371" />
        <Con id="314" src="312" tgt="33" wght="5" />
      </Connections>
    </Network>
    <Network id="338" birthGen="13" fitness="0">
      <Nodes>
        <Node type="bias" id="0" />
        <Node type="in" id="1" />
        <Node type="in" id="2" />
        <Node type="in" id="3" />
        <Node type="in" id="4" />
        <Node type="in" id="5" />
        <Node type="in" id="6" />
        <Node type="in" id="7" />
        <Node type="in" id="8" />
        <Node type="in" id="9" />
        <Node type="in" id="10" />
        <Node type="in" id="11" />
        <Node type="in" id="12" />
        <Node type="in" id="13" />
        <Node type="in" id="14" />
        <Node type="in" id="15" />
        <Node type="in" id="16" />
        <Node type="in" id="17" />
        <Node type="in" id="18" />
        <Node type="in" id="19" />
        <Node type="in" id="20" />
        <Node type="in" id="21" />
        <Node type="in" id="22" />
        <Node type="in" id="23" />
        <Node type="in" id="24" />
        <Node type="in" id="25" />
        <Node type="in" id="26" />
        <Node type="in" id="27" />
        <Node type="in" id="28" />
        <Node type="in" id="29" />
        <Node type="out" id="30" />
        <Node type="out" id="31" />
        <Node type="out" id="32" />
        <Node type="out" id="33" />
        <Node type="out" id="34" />
        <Node type="hid" id="193" />
        <Node type="hid" id="219" />
        <Node type="hid" id="250" />
      </Nodes>
      <Connections>
        <Con id="36" src="0" tgt="31" wght="1.5138351893983781" />
        <Con id="38" src="0" tgt="33" wght="-2.0137343369424343" />
        <Con id="46" src="2" tgt="31" wght="0.37978949025273323" />
        <Con id="48" src="2" tgt="33" wght="-4.4593468517996371" />
        <Con id="50" src="3" tgt="30" wght="2.8490521809978877" />
        <Con id="56" src="4" tgt="31" wght="0.68976115202531219" />
        <Con id="64" src="5" tgt="34" wght="1.0894116433337331" />
        <Con id="65" src="6" tgt="30" wght="0.95232908381149173" />
        <Con id="67" src="6" tgt="32" wght="1.2824639470620451" />
        <Con id="76" src="8" tgt="31" wght="-1.3106582383625209" />
        <Con id="78" src="8" tgt="33" wght="-1.9050406967289746" />
        <Con id="79" src="8" tgt="34" wght="-3.785446509718895" />
        <Con id="92" src="11" tgt="32" wght="-0.012221126817166805" />
        <Con id="99" src="12" tgt="34" wght="-0.74988753302022815" />
        <Con id="101" src="13" tgt="31" wght="-1.4216492907144129" />
        <Con id="108" src="14" tgt="33" wght="-3.1525993533432484" />
        <Con id="112" src="15" tgt="32" wght="0.3534914344628442" />
        <Con id="115" src="16" tgt="30" wght="4.5922873279752308" />
        <Con id="125" src="18" tgt="30" wght="-2.1775955171324313" />
        <Con id="131" src="19" tgt="31" wght="-3.7667282320253128" />
        <Con id="138" src="20" tgt="33" wght="-3.6396213946864009" />
        <Con id="140" src="21" tgt="30" wght="1.8736319965682924" />
        <Con id="148" src="22" tgt="33" wght="-4.5962122474226961" />
        <Con id="171" src="27" tgt="31" wght="2.6777493418194354" />
        <Con id="175" src="28" tgt="30" wght="-4.3270600656978786" />
        <Con id="183" src="29" tgt="33" wght="1.978929316493047" />
        <Con id="194" src="18" tgt="193" wght="1.5233456785790622" />
        <Con id="195" src="193" tgt="33" wght="5" />
        <Con id="220" src="4" tgt="219" wght="1.6859008185565472" />
        <Con id="221" src="219" tgt="32" wght="5" />
        <Con id="251" src="19" tgt="250" wght="2.7313391119241714" />
        <Con id="252" src="250" tgt="32" wght="5" />
      </Connections>
    </Network>
    <Network id="339" birthGen="13" fitness="2">
      <Nodes>
        <Node type="bias" id="0" />
        <Node type="in" id="1" />
        <Node type="in" id="2" />
        <Node type="in" id="3" />
        <Node type="in" id="4" />
        <Node type="in" id="5" />
        <Node type="in" id="6" />
        <Node type="in" id="7" />
        <Node type="in" id="8" />
        <Node type="in" id="9" />
        <Node type="in" id="10" />
        <Node type="in" id="11" />
        <Node type="in" id="12" />
        <Node type="in" id="13" />
        <Node type="in" id="14" />
        <Node type="in" id="15" />
        <Node type="in" id="16" />
        <Node type="in" id="17" />
        <Node type="in" id="18" />
        <Node type="in" id="19" />
        <Node type="in" id="20" />
        <Node type="in" id="21" />
        <Node type="in" id="22" />
        <Node type="in" id="23" />
        <Node type="in" id="24" />
        <Node type="in" id="25" />
        <Node type="in" id="26" />
        <Node type="in" id="27" />
        <Node type="in" id="28" />
        <Node type="in" id="29" />
        <Node type="out" id="30" />
        <Node type="out" id="31" />
        <Node type="out" id="32" />
        <Node type="out" id="33" />
        <Node type="out" id="34" />
        <Node type="hid" id="193" />
        <Node type="hid" id="250" />
      </Nodes>
      <Connections>
        <Con id="36" src="0" tgt="31" wght="1.5138351893983781" />
        <Con id="38" src="0" tgt="33" wght="-2.0137343369424343" />
        <Con id="46" src="2" tgt="31" wght="0.37978949025273323" />
        <Con id="48" src="2" tgt="33" wght="-4.4593468517996371" />
        <Con id="50" src="3" tgt="30" wght="2.8490521809978877" />
        <Con id="56" src="4" tgt="31" wght="0.68976115202531219" />
        <Con id="57" src="4" tgt="32" wght="1.6859008185565472" />
        <Con id="64" src="5" tgt="34" wght="1.0894116433337331" />
        <Con id="65" src="6" tgt="30" wght="0.95232908381149173" />
        <Con id="67" src="6" tgt="32" wght="1.2824639470620451" />
        <Con id="76" src="8" tgt="31" wght="-1.3106582383625209" />
        <Con id="78" src="8" tgt="33" wght="-1.9050406967289746" />
        <Con id="79" src="8" tgt="34" wght="-3.785446509718895" />
        <Con id="92" src="11" tgt="32" wght="-0.012221126817166805" />
        <Con id="99" src="12" tgt="34" wght="-0.74988753302022815" />
        <Con id="101" src="13" tgt="31" wght="-1.4216492907144129" />
        <Con id="108" src="14" tgt="33" wght="-3.1525993533432484" />
        <Con id="112" src="15" tgt="32" wght="0.3534914344628442" />
        <Con id="115" src="16" tgt="30" wght="4.5922873279752308" />
        <Con id="125" src="18" tgt="30" wght="-2.1775955171324313" />
        <Con id="131" src="19" tgt="31" wght="-3.7667282320253128" />
        <Con id="138" src="20" tgt="33" wght="-3.6396213946864009" />
        <Con id="140" src="21" tgt="30" wght="1.8736319965682924" />
        <Con id="148" src="22" tgt="33" wght="-4.5962122474226961" />
        <Con id="171" src="27" tgt="31" wght="2.6777493418194354" />
        <Con id="175" src="28" tgt="30" wght="-4.3270600656978786" />
        <Con id="183" src="29" tgt="33" wght="1.978929316493047" />
        <Con id="194" src="18" tgt="193" wght="1.5233456785790622" />
        <Con id="195" src="193" tgt="33" wght="5" />
        <Con id="251" src="19" tgt="250" wght="2.7313391119241714" />
        <Con id="252" src="250" tgt="32" wght="5" />
        <Con id="267" src="17" tgt="30" wght="-1.3527540466748178" />
      </Connections>
    </Network>
    <Network id="340" birthGen="13" fitness="2">
      <Nodes>
        <Node type="bias" id="0" />
        <Node type="in" id="1" />
        <Node type="in" id="2" />
        <Node type="in" id="3" />
        <Node type="in" id="4" />
        <Node type="in" id="5" />
        <Node type="in" id="6" />
        <Node type="in" id="7" />
        <Node type="in" id="8" />
        <Node type="in" id="9" />
        <Node type="in" id="10" />
        <Node type="in" id="11" />
        <Node type="in" id="12" />
        <Node type="in" id="13" />
        <Node type="in" id="14" />
        <Node type="in" id="15" />
        <Node type="in" id="16" />
        <Node type="in" id="17" />
        <Node type="in" id="18" />
        <Node type="in" id="19" />
        <Node type="in" id="20" />
        <Node type="in" id="21" />
        <Node type="in" id="22" />
        <Node type="in" id="23" />
        <Node type="in" id="24" />
        <Node type="in" id="25" />
        <Node type="in" id="26" />
        <Node type="in" id="27" />
        <Node type="in" id="28" />
        <Node type="in" id="29" />
        <Node type="out" id="30" />
        <Node type="out" id="31" />
        <Node type="out" id="32" />
        <Node type="out" id="33" />
        <Node type="out" id="34" />
        <Node type="hid" id="193" />
        <Node type="hid" id="250" />
      </Nodes>
      <Connections>
        <Con id="36" src="0" tgt="31" wght="1.5138351893983781" />
        <Con id="38" src="0" tgt="33" wght="-2.0137343369424343" />
        <Con id="46" src="2" tgt="31" wght="0.39610922018476891" />
        <Con id="48" src="2" tgt="33" wght="-4.4593468517996371" />
        <Con id="50" src="3" tgt="30" wght="2.8490521809978877" />
        <Con id="56" src="4" tgt="31" wght="0.68976115202531219" />
        <Con id="57" src="4" tgt="32" wght="1.6859008185565472" />
        <Con id="64" src="5" tgt="34" wght="1.0894116433337331" />
        <Con id="65" src="6" tgt="30" wght="0.95232908381149173" />
        <Con id="67" src="6" tgt="32" wght="1.2824639470620451" />
        <Con id="76" src="8" tgt="31" wght="-1.3106582383625209" />
        <Con id="78" src="8" tgt="33" wght="-1.9050406967289746" />
        <Con id="79" src="8" tgt="34" wght="-3.785446509718895" />
        <Con id="92" src="11" tgt="32" wght="-0.012221126817166805" />
        <Con id="99" src="12" tgt="34" wght="-0.74988753302022815" />
        <Con id="101" src="13" tgt="31" wght="-1.4216492907144129" />
        <Con id="108" src="14" tgt="33" wght="-3.1525993533432484" />
        <Con id="112" src="15" tgt="32" wght="0.3534914344628442" />
        <Con id="115" src="16" tgt="30" wght="4.5922873279752308" />
        <Con id="125" src="18" tgt="30" wght="-2.1775955171324313" />
        <Con id="131" src="19" tgt="31" wght="-3.7667282320253128" />
        <Con id="138" src="20" tgt="33" wght="-3.6396213946864009" />
        <Con id="140" src="21" tgt="30" wght="1.8736319965682924" />
        <Con id="148" src="22" tgt="33" wght="-4.5962122474226961" />
        <Con id="171" src="27" tgt="31" wght="2.6777493418194354" />
        <Con id="175" src="28" tgt="30" wght="-4.3270600656978786" />
        <Con id="183" src="29" tgt="33" wght="1.978929316493047" />
        <Con id="194" src="18" tgt="193" wght="1.5233456785790622" />
        <Con id="195" src="193" tgt="33" wght="5" />
        <Con id="251" src="19" tgt="250" wght="2.7313391119241714" />
        <Con id="252" src="250" tgt="32" wght="5" />
      </Connections>
    </Network>
    <Network id="341" birthGen="13" fitness="0.800000011920929">
      <Nodes>
        <Node type="bias" id="0" />
        <Node type="in" id="1" />
        <Node type="in" id="2" />
        <Node type="in" id="3" />
        <Node type="in" id="4" />
        <Node type="in" id="5" />
        <Node type="in" id="6" />
        <Node type="in" id="7" />
        <Node type="in" id="8" />
        <Node type="in" id="9" />
        <Node type="in" id="10" />
        <Node type="in" id="11" />
        <Node type="in" id="12" />
        <Node type="in" id="13" />
        <Node type="in" id="14" />
        <Node type="in" id="15" />
        <Node type="in" id="16" />
        <Node type="in" id="17" />
        <Node type="in" id="18" />
        <Node type="in" id="19" />
        <Node type="in" id="20" />
        <Node type="in" id="21" />
        <Node type="in" id="22" />
        <Node type="in" id="23" />
        <Node type="in" id="24" />
        <Node type="in" id="25" />
        <Node type="in" id="26" />
        <Node type="in" id="27" />
        <Node type="in" id="28" />
        <Node type="in" id="29" />
        <Node type="out" id="30" />
        <Node type="out" id="31" />
        <Node type="out" id="32" />
        <Node type="out" id="33" />
        <Node type="out" id="34" />
        <Node type="hid" id="193" />
        <Node type="hid" id="250" />
      </Nodes>
      <Connections>
        <Con id="36" src="0" tgt="31" wght="1.5138351893983781" />
        <Con id="38" src="0" tgt="33" wght="-2.0137343369424343" />
        <Con id="46" src="2" tgt="31" wght="0.37978949025273323" />
        <Con id="48" src="2" tgt="33" wght="-4.4593468517996371" />
        <Con id="50" src="3" tgt="30" wght="2.8490521809978877" />
        <Con id="56" src="4" tgt="31" wght="0.68976115202531219" />
        <Con id="57" src="4" tgt="32" wght="1.6859008185565472" />
        <Con id="64" src="5" tgt="34" wght="1.0894116433337331" />
        <Con id="65" src="6" tgt="30" wght="0.95232908381149173" />
        <Con id="67" src="6" tgt="32" wght="1.2824639470620451" />
        <Con id="76" src="8" tgt="31" wght="-1.3106582383625209" />
        <Con id="78" src="8" tgt="33" wght="-1.9050406967289746" />
        <Con id="79" src="8" tgt="34" wght="-3.785446509718895" />
        <Con id="92" src="11" tgt="32" wght="-0.012221126817166805" />
        <Con id="99" src="12" tgt="34" wght="-0.74988753302022815" />
        <Con id="101" src="13" tgt="31" wght="-1.4216492907144129" />
        <Con id="108" src="14" tgt="33" wght="-3.1525993533432484" />
        <Con id="112" src="15" tgt="32" wght="0.3534914344628442" />
        <Con id="115" src="16" tgt="30" wght="4.5922873279752308" />
        <Con id="125" src="18" tgt="30" wght="-2.1775955171324313" />
        <Con id="131" src="19" tgt="31" wght="-3.7667282320253128" />
        <Con id="138" src="20" tgt="33" wght="-3.6396213946864009" />
        <Con id="140" src="21" tgt="30" wght="1.8736319965682924" />
        <Con id="148" src="22" tgt="33" wght="-4.5962122474226961" />
        <Con id="171" src="27" tgt="31" wght="2.6777493418194354" />
        <Con id="175" src="28" tgt="30" wght="-4.3270600656978786" />
        <Con id="183" src="29" tgt="33" wght="1.978929316493047" />
        <Con id="194" src="18" tgt="193" wght="1.5233456785790622" />
        <Con id="195" src="193" tgt="33" wght="5" />
        <Con id="251" src="19" tgt="250" wght="2.7313391119241714" />
        <Con id="252" src="250" tgt="32" wght="5" />
        <Con id="315" src="9" tgt="30" wght="0.0295922729652375" />
      </Connections>
    </Network>
    <Network id="342" birthGen="13" fitness="0">
      <Nodes>
        <Node type="bias" id="0" />
        <Node type="in" id="1" />
        <Node type="in" id="2" />
        <Node type="in" id="3" />
        <Node type="in" id="4" />
        <Node type="in" id="5" />
        <Node type="in" id="6" />
        <Node type="in" id="7" />
        <Node type="in" id="8" />
        <Node type="in" id="9" />
        <Node type="in" id="10" />
        <Node type="in" id="11" />
        <Node type="in" id="12" />
        <Node type="in" id="13" />
        <Node type="in" id="14" />
        <Node type="in" id="15" />
        <Node type="in" id="16" />
        <Node type="in" id="17" />
        <Node type="in" id="18" />
        <Node type="in" id="19" />
        <Node type="in" id="20" />
        <Node type="in" id="21" />
        <Node type="in" id="22" />
        <Node type="in" id="23" />
        <Node type="in" id="24" />
        <Node type="in" id="25" />
        <Node type="in" id="26" />
        <Node type="in" id="27" />
        <Node type="in" id="28" />
        <Node type="in" id="29" />
        <Node type="out" id="30" />
        <Node type="out" id="31" />
        <Node type="out" id="32" />
        <Node type="out" id="33" />
        <Node type="out" id="34" />
        <Node type="hid" id="193" />
        <Node type="hid" id="250" />
      </Nodes>
      <Connections>
        <Con id="36" src="0" tgt="31" wght="1.5138351893983781" />
        <Con id="38" src="0" tgt="33" wght="-2.0137343369424343" />
        <Con id="46" src="2" tgt="31" wght="0.37978949025273323" />
        <Con id="48" src="2" tgt="33" wght="-4.4593468517996371" />
        <Con id="50" src="3" tgt="30" wght="2.8490521809978877" />
        <Con id="56" src="4" tgt="31" wght="0.68976115202531219" />
        <Con id="57" src="4" tgt="32" wght="1.6859008185565472" />
        <Con id="64" src="5" tgt="34" wght="1.0894116433337331" />
